{"learner":{"attributes":{"best_iteration":"9","best_score":"0.02317048091168694","scikit_learn":"{\"_estimator_type\": \"classifier\"}"},"feature_names":["Price_gas","Imbalance netting import","Imbalance netting export","Energy_positive_secondary","Energy_negative_secondary","Energy_positive_tertiary","Energy_negative_tertiary","CH_dayahead_price","CH_intraday_price","renewable_energy","Cross_border_physical_flows_IT_CH","Cross_border_physical_flows_CH_IT","Cross_border_physical_flows_FR_CH","Cross_border_physical_flows_CH_FR","Cross_border_physical_flows_AT_CH","Cross_border_physical_flows_CH_AT","Cross_border_physical_flows_DE_CH","Cross_border_physical_flows_CH_DE","Forecast_transfer_capacities_dayahead_IT_CH","Forecast_transfer_capacities_dayahead_CH_IT","Forecast_transfer_capacities_dayahead_FR_CH","Forecast_transfer_capacities_dayahead_CH_FR","Forecast_transfer_capacities_dayahead_DE_CH","Forecast_transfer_capacities_dayahead_CH_DE","Forecast_transfer_capacities_dayahead_AT_CH","Forecast_transfer_capacities_dayahead_CH_AT","aFRR p","aFRR n","mFRR p","mFRR n","FRCE p","FRCE n","RR p","RR n","Total System Imbalance","Exchange_CH_AT","Exchange_AT_CH","Exchange_CH_DE","Exchange_DE_CH","Exchange_CH_FR","Exchange_FR_CH","Exchange_CH_IT","Exchange_IT_CH","day_type","hour","weekday","Price_positive_secondary_lag_1","Price_positive_secondary_lag_24","Price_positive_secondary_lag_168","Price_positive_secondary_mean_24","Price_positive_secondary_std_24","Price_positive_secondary_max_24","Price_positive_secondary_mean_168","Price_positive_secondary_std_168","Price_positive_secondary_max_168","Price_negative_secondary_lag_1","Price_negative_secondary_lag_24","Price_negative_secondary_lag_168","Price_negative_secondary_mean_24","Price_negative_secondary_std_24","Price_negative_secondary_max_24","Price_negative_secondary_mean_168","Price_negative_secondary_std_168","Price_negative_secondary_max_168","Price_positive_tertiary_lag_1","Price_positive_tertiary_lag_24","Price_positive_tertiary_lag_168","Price_positive_tertiary_mean_24","Price_positive_tertiary_std_24","Price_positive_tertiary_max_24","Price_positive_tertiary_mean_168","Price_positive_tertiary_std_168","Price_positive_tertiary_max_168","Price_negative_tertiary_lag_1","Price_negative_tertiary_lag_24","Price_negative_tertiary_lag_168","Price_negative_tertiary_mean_24","Price_negative_tertiary_std_24","Price_negative_tertiary_max_24","Price_negative_tertiary_mean_168","Price_negative_tertiary_std_168","Price_negative_tertiary_max_168"],"feature_types":["float","float","float","float","float","float","float","float","float","float","int","int","int","int","float","float","int","int","int","int","int","int","int","int","int","int","float","float","int","int","float","float","float","float","float","float","float","float","float","float","float","float","float","int","int","int","float","float","float","float","float","float","float","float","float","float","float","float","float","float","float","float","float","float","float","float","float","float","float","float","float","float","float","float","float","float","float","float","float","float","float","float"],"gradient_booster":{"model":{"gbtree_model_param":{"num_parallel_tree":"1","num_trees":"40"},"iteration_indptr":[0,1,2,3,4,5,6,7,8,9,10,11,12,13,14,15,16,17,18,19,20,21,22,23,24,25,26,27,28,29,30,31,32,33,34,35,36,37,38,39,40],"tree_info":[0,0,0,0,0,0,0,0,0,0,0,0,0,0,0,0,0,0,0,0,0,0,0,0,0,0,0,0,0,0,0,0,0,0,0,0,0,0,0,0],"trees":[{"base_weights":[-0E0,-6.417121E-1,3.7978153E0,-7.8751093E-1,2.3771303E0,7.2387176E0,-2.3683426E-1,5.41377E-1,-8.49253E-1,-7.9510584E-2,3.915034E0,3.787315E0,4.98367E0,-9.0036035E-1,6.0429955E-1,2.6173986E-2,1.6097777E0,1.3119715E0,2.3616443E0,-9.321834E-1,9.8282605E-2,-5.986059E-2,4.7295862E-1,3.1049728E0,-3.3153495E-1,-2.8582305E-1,-0E0,-0E0,1.4328501E0,-0E0,-1.2897253E-1],"categories":[],"categories_nodes":[],"categories_segments":[],"categories_sizes":[],"default_left":[1,1,0,0,0,0,0,0,0,0,0,0,0,1,0,0,0,0,0,0,0,0,0,0,0,0,0,0,0,0,0],"id":0,"left_children":[1,3,5,7,9,11,-1,-1,13,-1,15,17,-1,19,21,-1,-1,23,-1,25,-1,-1,-1,27,29,-1,-1,-1,-1,-1,-1],"loss_changes":[2.772807E2,4.3455536E1,2.7038965E2,1.5797375E1,2.2137678E1,2.3134668E2,0E0,0E0,7.6598434E0,0E0,1.2365543E1,6.703864E1,0E0,4.3162003E0,3.9185424E0,0E0,0E0,2.2466026E1,0E0,1.156723E0,0E0,0E0,0E0,1.4875347E1,1.18243515E-1,0E0,0E0,0E0,0E0,0E0,0E0],"parents":[2147483647,0,0,1,1,2,2,3,3,4,4,5,5,8,8,10,10,11,11,13,13,14,14,17,17,19,19,23,23,24,24],"right_children":[2,4,6,8,10,12,-1,-1,14,-1,16,18,-1,20,22,-1,-1,24,-1,26,-1,-1,-1,28,30,-1,-1,-1,-1,-1,-1],"split_conditions":[7.1610176E1,1.7318408E2,-9.25E-1,-1.6366E1,1.58E2,1.6474E2,-2.3683426E-1,5.41377E-1,1.84E2,-7.9510584E-2,-1.4039565E2,1.272E3,4.98367E0,1.9316E2,1.65E1,2.6173986E-2,1.6097777E0,-4.1063333E0,2.3616443E0,6.76E1,9.8282605E-2,-5.986059E-2,4.7295862E-1,-4.4E1,3.7E-2,-2.8582305E-1,-0E0,-0E0,1.4328501E0,-0E0,-1.2897253E-1],"split_indices":[77,67,6,73,78,7,0,0,8,0,34,9,0,78,35,0,0,2,0,0,0,0,0,29,3,0,0,0,0,0,0],"split_type":[0,0,0,0,0,0,0,0,0,0,0,0,0,0,0,0,0,0,0,0,0,0,0,0,0,0,0,0,0,0,0],"sum_hessian":[1.1177467E2,9.6329094E1,1.5445576E1,9.284571E1,3.4833887E0,8.593635E0,6.8519406E0,1.2057884E0,9.1639915E1,1.3971834E0,2.0862052E0,7.3687067E0,1.2249279E0,8.941974E1,2.220182E0,1.0143934E0,1.0718119E0,5.531315E0,1.8373919E0,8.802255E1,1.3971834E0,1.2057884E0,1.0143934E0,2.4498558E0,3.0814593E0,8.549614E1,2.526414E0,1.3397648E0,1.110091E0,1.0143934E0,2.0670657E0],"tree_param":{"num_deleted":"0","num_feature":"82","num_nodes":"31","size_leaf_vector":"1"}},{"base_weights":[-3.8021955E-1,2.2370622E0,-5.1490885E-1,3.1189575E0,-1.3513009E-1,-6.593655E-1,1.0941019E0,1.1460234E0,-0E0,-7.943138E-1,1.8443373E-1,2.7062907E0,-2.06823E-1,-8.4095824E-1,2.4393742E-1,-5.887131E-1,9.9031657E-1,2.4993178E-1,1.426093E0,-7.1274495E-1,-1.6303177E0,-1.0189996E0,1.3413045E-1,2.0930126E0,-1.7061317E-1,-2.5705782E-1,-0E0,-8.757992E-2,-6.6601807E-1,-0E0,-3.5596004E-1,1.0155369E0,8.445625E-2],"categories":[],"categories_nodes":[],"categories_segments":[],"categories_sizes":[],"default_left":[0,0,1,0,0,1,0,0,0,1,0,0,0,1,0,0,0,0,0,1,0,0,0,0,0,0,0,0,0,0,0,0,0],"id":1,"left_children":[1,3,5,7,-1,9,11,-1,-1,13,15,17,-1,19,-1,21,23,-1,-1,25,27,29,-1,31,-1,-1,-1,-1,-1,-1,-1,-1,-1],"loss_changes":[4.2582443E1,1.7355978E1,2.7466599E1,7.4616623E0,0E0,1.292786E1,3.085178E1,0E0,0E0,7.7626266E0,1.0182529E1,1.2488461E1,0E0,6.3426437E0,0E0,4.352647E0,1.6434944E1,0E0,0E0,8.12484E0,6.2703724E0,3.0406284E-1,0E0,8.543432E0,0E0,0E0,0E0,0E0,0E0,0E0,0E0,0E0,0E0],"parents":[2147483647,0,0,1,1,2,2,3,3,5,5,6,6,9,9,10,10,11,11,13,13,15,15,16,16,19,19,20,20,21,21,23,23],"right_children":[2,4,6,8,-1,10,12,-1,-1,14,16,18,-1,20,-1,22,24,-1,-1,26,28,30,-1,32,-1,-1,-1,-1,-1,-1,-1,-1,-1],"split_conditions":[-4.7897E1,2.167625E1,2.360997E2,1.7E1,-1.3513009E-1,2.1E2,-9.25E-1,1.1460234E0,-0E0,1.7E2,-2E1,1.14949234E2,-2.06823E-1,1.58E2,2.4393742E-1,1.8E2,-2.25E0,2.4993178E-1,1.426093E0,6.816171E1,5.542704E1,-3.246326E1,1.3413045E-1,1.4908E2,-1.7061317E-1,-2.5705782E-1,-0E0,-8.757992E-2,-6.6601807E-1,-0E0,-3.5596004E-1,1.0155369E0,8.445625E-2],"split_indices":[73,58,52,44,0,78,6,0,0,73,29,53,0,63,0,66,6,0,0,77,76,2,0,7,0,0,0,0,0,0,0,0,0],"split_type":[0,0,0,0,0,0,0,0,0,0,0,0,0,0,0,0,0,0,0,0,0,0,0,0,0,0,0,0,0,0,0,0,0],"sum_hessian":[1.20384605E2,4.841069E0,1.1554353E2,3.7453318E0,1.0957377E0,1.0701659E2,8.526948E0,2.6746235E0,1.0707082E0,9.311867E1,1.38979225E1,4.4393773E0,4.0875707E0,9.143355E1,1.6851213E0,6.7304654E0,7.1674566E0,3.2544239E0,1.1849532E0,8.115509E1,1.0278455E1,5.305222E0,1.4252437E0,4.294187E0,2.8732698E0,6.6909996E1,1.4245091E1,4.0106163E0,6.267839E0,1.4388683E0,3.8663538E0,1.7449372E0,2.5492496E0],"tree_param":{"num_deleted":"0","num_feature":"82","num_nodes":"33","size_leaf_vector":"1"}},{"base_weights":[-3.2134613E-1,6.5726265E-2,-2.924356E-1,-1.4813335E-1,1.5713576E0,2.7073273E-1,-9.007789E-1,3.1808236E-1,2.6431646E0,-4.5220265E-1,8.2598287E-1,-1.0869797E0,1.0262212E-1,-2.0886604E-1,3.6199862E-1,9.4382626E-1,3.788366E-2,-6.236942E-1,1.6720363E-1,6.2910765E-2,1.5898291E0,-1.195583E0,3.9918697E-3,-8.4245674E-2,2.2008248E-1,-0E0,-1.4070918E-1,7.6236925E-3,-2.49492E-1,-1.1998207E-1,3.1919837E-1,5.8043456E-1,-0E0,-3.7863642E-1,-0E0],"categories":[],"categories_nodes":[],"categories_segments":[],"categories_sizes":[],"default_left":[0,0,0,1,0,1,0,0,0,0,0,0,0,0,0,0,0,0,0,0,0,0,0,0,0,0,0,0,0,0,0,0,0,0,0],"id":2,"left_children":[1,3,-1,5,7,9,11,13,15,17,19,21,23,25,-1,-1,-1,27,-1,29,31,33,-1,-1,-1,-1,-1,-1,-1,-1,-1,-1,-1,-1,-1],"loss_changes":[2.8500656E1,2.357454E1,0E0,1.9932304E1,9.081312E0,1.6405382E1,5.1244144E0,3.7013588E0,2.643114E0,3.3533523E0,1.2085363E1,3.3240814E0,1.4825559E0,4.076841E-1,0E0,0E0,0E0,2.7799473E0,0E0,7.036836E0,5.7643394E0,1.4347649E0,0E0,0E0,0E0,0E0,0E0,0E0,0E0,0E0,0E0,0E0,0E0,0E0,0E0],"parents":[2147483647,0,0,1,1,3,3,4,4,5,5,6,6,7,7,8,8,9,9,10,10,11,11,12,12,13,13,17,17,19,19,20,20,21,21],"right_children":[2,4,-1,6,8,10,12,14,16,18,20,22,24,26,-1,-1,-1,28,-1,30,32,34,-1,-1,-1,-1,-1,-1,-1,-1,-1,-1,-1,-1,-1],"split_conditions":[-9.25E-1,3.2E1,-2.924356E-1,4.3833847E1,2.712E3,4.30385E1,2.31826E2,1.9E2,6.0459698E1,3.6084E2,4E0,1.3654602E2,9.866E1,-6.676509E0,3.6199862E-1,9.4382626E-1,3.788366E-2,3.03089E2,1.6720363E-1,2.19E2,5.94E2,3.219E3,3.9918697E-3,-8.4245674E-2,2.2008248E-1,-0E0,-1.4070918E-1,7.6236925E-3,-2.49492E-1,-1.1998207E-1,3.1919837E-1,5.8043456E-1,-0E0,-3.7863642E-1,-0E0],"split_indices":[6,28,0,79,11,59,37,64,80,36,45,53,60,2,0,0,0,41,0,48,13,16,0,0,0,0,0,0,0,0,0,0,0,0,0],"split_type":[0,0,0,0,0,0,0,0,0,0,0,0,0,0,0,0,0,0,0,0,0,0,0,0,0,0,0,0,0,0,0,0,0,0,0],"sum_hessian":[1.0859132E2,6.8001045E1,4.0590275E1,5.987373E1,8.127313E0,3.8203587E1,2.1670141E1,4.6839037E0,3.4434087E0,1.6058651E1,2.2144938E1,1.8871798E1,2.7983446E0,2.862588E0,1.8213159E0,2.4000869E0,1.0433218E0,1.4722195E1,1.3364555E0,1.2136698E1,1.000824E1,1.775079E1,1.1210072E0,1.3073605E0,1.4909842E0,1.2434213E0,1.6191666E0,2.8636417E0,1.1858553E1,8.170673E0,3.9660244E0,7.9727163E0,2.0355241E0,1.6726542E1,1.0242479E0],"tree_param":{"num_deleted":"0","num_feature":"82","num_nodes":"35","size_leaf_vector":"1"}},{"base_weights":[-2.6658902E-1,4.857795E-2,-2.8698957E-1,-1.6808857E-1,9.857557E-1,2.7789706E-1,-6.2949854E-1,1.8929868E0,-0E0,1.2706015E0,-5.5868242E-2,-8.3519244E-1,-0E0,-4.133755E-2,2.4163067E0,-2.7092066E-1,5.708093E-1,1.8065164E0,-0E0,-6.7719E-1,9.091437E-1,-9.498301E-1,6.580141E-2,2.688664E-1,-3.2964563E-1,8.1679267E-1,6.781254E-2,2.6258504E-1,-0E0,6.626773E-1,-0E0,-0E0,-8.185883E-3,-2.6096958E-1,1.6006472E-2,6.6898614E-1,-0E0,-0E0,-3.1078655E-1,2.0550929E-2,-2.3215558E-1],"categories":[],"categories_nodes":[],"categories_segments":[],"categories_sizes":[],"default_left":[0,1,0,0,0,0,1,0,0,0,0,0,0,0,0,0,0,0,0,0,1,0,0,0,0,0,0,0,0,0,0,0,0,0,0,0,0,0,0,0,0],"id":3,"left_children":[1,3,-1,5,7,9,11,13,15,17,19,21,23,-1,25,-1,27,29,31,33,35,37,-1,-1,39,-1,-1,-1,-1,-1,-1,-1,-1,-1,-1,-1,-1,-1,-1,-1,-1],"loss_changes":[2.2085007E1,1.45108595E1,0E0,1.1764023E1,1.1380993E1,1.023281E1,3.9767103E0,9.397705E0,4.3439417E0,5.366479E0,1.31128435E1,3.4105597E0,2.72535E0,0E0,9.4690704E-1,0E0,1.6388932E0,2.3474598E0,1.6413517E-3,2.6531758E0,1.0043995E1,9.8420906E-1,0E0,0E0,1.6496197E0,0E0,0E0,0E0,0E0,0E0,0E0,0E0,0E0,0E0,0E0,0E0,0E0,0E0,0E0,0E0,0E0],"parents":[2147483647,0,0,1,1,3,3,4,4,5,5,6,6,7,7,8,8,9,9,10,10,11,11,12,12,14,14,16,16,17,17,18,18,19,19,20,20,21,21,24,24],"right_children":[2,4,-1,6,8,10,12,14,16,18,20,22,24,-1,26,-1,28,30,32,34,36,38,-1,-1,40,-1,-1,-1,-1,-1,-1,-1,-1,-1,-1,-1,-1,-1,-1,-1,-1],"split_conditions":[-9.25E-1,1.9878542E2,-2.8698957E-1,1.2649E2,7.490331E1,-1.6366E1,2.12811E2,1.537E2,9.315262E1,8.5E2,0E0,4.6359497E2,-2.8009863E1,-4.133755E-2,6.895716E1,-2.7092066E-1,1.55E2,-4.9E1,5.1E-1,9.608E1,2.6799E2,6E2,6.580141E-2,2.688664E-1,8.17922E1,8.1679267E-1,6.781254E-2,2.6258504E-1,-0E0,6.626773E-1,-0E0,-0E0,-8.185883E-3,-2.6096958E-1,1.6006472E-2,6.6898614E-1,-0E0,-0E0,-3.1078655E-1,2.0550929E-2,-2.3215558E-1],"split_indices":[6,49,0,47,77,73,78,78,70,24,29,34,27,0,77,0,12,6,3,64,54,25,0,0,77,0,0,0,0,0,0,0,0,0,0,0,0,0,0,0,0],"split_type":[0,0,0,0,0,0,0,0,0,0,0,0,0,0,0,0,0,0,0,0,0,0,0,0,0,0,0,0,0,0,0,0,0,0,0,0,0,0,0,0,0],"sum_hessian":[9.703939E1,6.646686E1,3.057253E1,5.3968018E1,1.249884E1,2.6774685E1,2.719333E1,5.836529E0,6.662312E0,6.626074E0,2.0148611E1,2.0717318E1,6.4760127E0,1.0376414E0,4.7988873E0,2.10706E0,4.555252E0,4.416951E0,2.2091231E0,1.2936203E1,7.2124085E0,1.9450928E1,1.266391E0,1.597802E0,4.8782105E0,3.680523E0,1.1183643E0,3.5017993E0,1.0534527E0,3.1041734E0,1.3127776E0,1.0046078E0,1.2045152E0,1.0940426E1,1.9957774E0,2.3848648E0,4.8275437E0,2.3419816E0,1.7108946E1,2.0810382E0,2.7971725E0],"tree_param":{"num_deleted":"0","num_feature":"82","num_nodes":"41","size_leaf_vector":"1"}},{"base_weights":[-2.2088443E-1,3.8004525E-2,-2.8071058E-1,-2.2602944E-1,6.020117E-1,7.6971614E-1,-4.6350977E-1,-4.2969638E-1,1.0597898E0,-7.3498785E-2,1.0776925E0,3.0915686E-1,-6.022092E-1,-0E0,-2.6842985E-1,-0E0,1.4704115E0,1.5961071E0,-0E0,-7.4939096E-1,3.9660525E-1,-8.966194E-2,1.968836E-1,-1.6762829E-1,2.400632E-1,1.7376027E0,-0E0,-0E0,6.16786E-1,-8.8800475E-2,9.8469876E-2,-2.5733182E-1,1.2330854E-1,-2.4375828E-2,2.9449314E-1,-0E0,2.0089027E-1,6.052281E-1,-0E0],"categories":[],"categories_nodes":[],"categories_segments":[],"categories_sizes":[],"default_left":[0,0,0,0,0,0,0,0,0,0,0,0,0,0,0,0,0,0,0,0,0,0,0,0,0,0,0,0,0,0,0,0,0,0,0,0,0,0,0],"id":4,"left_children":[1,3,-1,5,7,9,11,13,15,-1,17,-1,19,21,-1,23,25,27,29,31,33,-1,-1,-1,35,37,-1,-1,-1,-1,-1,-1,-1,-1,-1,-1,-1,-1,-1],"loss_changes":[1.692694E1,1.00151005E1,0E0,1.0425359E1,1.1222574E1,3.4628115E0,7.8396297E0,1.7683606E0,7.951332E0,0E0,3.8535814E0,0E0,5.645521E0,1.1533452E0,0E0,1.024134E0,5.4557896E0,2.4700851E0,4.1987202E-1,4.6157684E0,2.0191681E0,0E0,0E0,0E0,7.1696746E-1,5.284189E0,0E0,0E0,0E0,0E0,0E0,0E0,0E0,0E0,0E0,0E0,0E0,0E0,0E0],"parents":[2147483647,0,0,1,1,3,3,4,4,5,5,6,6,7,7,8,8,10,10,12,12,13,13,15,15,16,16,17,17,18,18,19,19,20,20,24,24,25,25],"right_children":[2,4,-1,6,8,10,12,14,16,-1,18,-1,20,22,-1,24,26,28,30,32,34,-1,-1,-1,36,38,-1,-1,-1,-1,-1,-1,-1,-1,-1,-1,-1,-1,-1],"split_conditions":[-9.25E-1,1.25E0,-2.8071058E-1,-8.375E1,-2.625E1,1.6958E2,1.9375E2,1.94672E2,8.8E1,-7.3498785E-2,2.526E1,3.0915686E-1,2.301556E2,4.35163E2,-2.6842985E-1,-4.1E1,1.3437E2,5.405521E1,1.968E3,-5E0,2.039E2,-8.966194E-2,1.968836E-1,-1.6762829E-1,2.54E2,4.6E2,-0E0,-0E0,6.16786E-1,-8.8800475E-2,9.8469876E-2,-2.5733182E-1,1.2330854E-1,-2.4375828E-2,2.9449314E-1,-0E0,2.0089027E-1,6.052281E-1,-0E0],"split_indices":[6,5,0,6,6,51,54,36,64,0,56,0,52,38,0,29,75,59,9,6,46,0,0,0,13,9,0,0,0,0,0,0,0,0,0,0,0,0,0],"split_type":[0,0,0,0,0,0,0,0,0,0,0,0,0,0,0,0,0,0,0,0,0,0,0,0,0,0,0,0,0,0,0,0,0,0,0,0,0,0,0],"sum_hessian":[8.644541E1,6.3345413E1,2.3099993E1,4.2601246E1,2.074417E1,7.131751E0,3.5469494E1,5.864201E0,1.4879969E1,1.1111681E0,6.0205827E0,1.9832487E0,3.3486244E1,3.0723753E0,2.7918258E0,3.9531994E0,1.0926769E1,3.713312E0,2.307271E0,3.0092274E1,3.3939714E0,2.0211084E0,1.051267E0,1.6751508E0,2.2780488E0,9.3478155E0,1.5789536E0,1.2882552E0,2.4250567E0,1.1958239E0,1.1114471E0,2.8382671E1,1.7096021E0,1.599147E0,1.7948245E0,1.2578384E0,1.0202104E0,7.974659E0,1.3731565E0],"tree_param":{"num_deleted":"0","num_feature":"82","num_nodes":"39","size_leaf_vector":"1"}},{"base_weights":[-1.8287724E-1,3.1067813E-2,-2.7327082E-1,4.6324006E-1,-2.3291412E-1,-4.6439412E-1,8.786304E-1,-4.1081032E-1,6.116438E-1,-2.2266167E-1,7.0354775E-2,1.2999748E0,1.6077083E-1,1.6580388E-1,-5.026457E-1,1.1695005E0,-1.279467E-1,-0E0,1.5454704E0,-1.6504379E-1,7.2498125E-1,-5.986161E-1,1.1406265E-1,-0E0,4.5507437E-1,5.2979594E-1,-0E0,3.5578117E-1,-2.7293563E-2,-7.747533E-2,-2.950387E-1],"categories":[],"categories_nodes":[],"categories_segments":[],"categories_sizes":[],"default_left":[0,0,0,0,0,0,0,0,0,0,0,0,0,0,1,0,0,0,0,0,0,1,0,0,0,0,0,0,0,0,0],"id":5,"left_children":[1,3,-1,5,7,9,11,13,15,-1,-1,17,19,-1,21,23,-1,-1,25,-1,27,29,-1,-1,-1,-1,-1,-1,-1,-1,-1],"loss_changes":[1.2835618E1,7.1613455E0,0E0,1.0102041E1,5.6401114E0,2.04767E0,3.9984007E0,3.0581613E0,4.591361E0,0E0,0E0,3.337923E0,3.9020507E0,0E0,2.9730773E0,1.8592687E0,0E0,0E0,2.8357105E0,0E0,3.127031E0,2.5098648E0,0E0,0E0,0E0,0E0,0E0,0E0,0E0,0E0,0E0],"parents":[2147483647,0,0,1,1,3,3,4,4,5,5,6,6,7,7,8,8,11,11,12,12,14,14,15,15,18,18,20,20,21,21],"right_children":[2,4,-1,6,8,10,12,14,16,-1,-1,18,20,-1,22,24,-1,-1,26,-1,28,30,-1,-1,-1,-1,-1,-1,-1,-1,-1],"split_conditions":[-9.25E-1,2.6241232E1,-2.7327082E-1,5.100387E1,2.02514E2,1.4941942E2,1.1911E2,-9.277E0,1.066E3,-2.2266167E-1,7.0354775E-2,2.0539648E1,-3.1E1,1.6580388E-1,1.278195E3,1.0099691E2,-1.279467E-1,-0E0,1.519E3,-1.6504379E-1,4.6E2,1.0076256E2,1.1406265E-1,-0E0,4.5507437E-1,5.2979594E-1,-0E0,3.5578117E-1,-2.7293563E-2,-7.747533E-2,-2.950387E-1],"split_indices":[6,79,0,77,64,67,46,74,14,0,0,70,6,0,69,68,0,0,22,0,9,71,0,0,0,0,0,0,0,0,0],"split_type":[0,0,0,0,0,0,0,0,0,0,0,0,0,0,0,0,0,0,0,0,0,0,0,0,0,0,0,0,0,0,0],"sum_hessian":[7.676544E1,5.9231674E1,1.7533766E1,2.3308767E1,3.592291E1,6.584817E0,1.672395E1,3.0869244E1,5.0536637E0,5.476035E0,1.1087818E0,9.334299E0,7.389651E0,1.5013206E0,2.9367922E1,3.6996913E0,1.3539726E0,1.6249013E0,7.709398E0,2.6614761E0,4.7281747E0,2.758563E1,1.7822924E0,1.0981799E0,2.6015112E0,6.579396E0,1.1300018E0,3.3500137E0,1.378161E0,1.6614449E1,1.0971183E1],"tree_param":{"num_deleted":"0","num_feature":"82","num_nodes":"31","size_leaf_vector":"1"}},{"base_weights":[-1.5073988E-1,2.1339888E-2,-2.6437482E-1,-4.389191E-1,2.0165998E-1,5.900308E-1,-7.503589E-1,8.6244524E-1,-1.6734783E-2,-0E0,3.4412053E-1,-2.5795594E-1,-0E0,1.4251925E0,3.2515164E-2,3.9530855E-1,-3.6716336E-1,-0E0,1.8482945E0,-1.1469654E-1,6.920933E-1,1.9055277E-2,1.0670621E0,-8.1119657E-1,8.534767E-2,6.3404374E-2,6.672699E-1,3.0238256E-1,-0E0,8.278322E-2,-1.2306359E-1,4.898376E-1,-0E0,-2.8947964E-1,-0E0,-9.062044E-2,2.1200497E-1],"categories":[],"categories_nodes":[],"categories_segments":[],"categories_sizes":[],"default_left":[0,1,0,0,0,1,1,0,0,0,0,0,0,0,0,0,0,0,0,0,0,0,0,0,0,0,0,0,0,0,0,0,0,0,0,0,0],"id":6,"left_children":[1,3,-1,5,7,9,11,13,15,-1,-1,-1,-1,17,19,21,23,-1,25,-1,27,29,31,33,35,-1,-1,-1,-1,-1,-1,-1,-1,-1,-1,-1,-1],"loss_changes":[9.594127E0,4.6633153E0,0E0,5.4512186E0,6.908661E0,1.8468566E0,1.3991809E0,4.236515E0,4.817175E0,0E0,0E0,0E0,0E0,2.8147898E0,2.2307408E0,2.758457E0,4.4847865E0,0E0,4.3459988E-1,0E0,6.777675E-1,1.219505E0,1.385294E0,1.9420762E0,2.818589E0,0E0,0E0,0E0,0E0,0E0,0E0,0E0,0E0,0E0,0E0,0E0,0E0],"parents":[2147483647,0,0,1,1,3,3,4,4,5,5,6,6,7,7,8,8,13,13,14,14,15,15,16,16,18,18,20,20,21,21,22,22,23,23,24,24],"right_children":[2,4,-1,6,8,10,12,14,16,-1,-1,-1,-1,18,20,22,24,-1,26,-1,28,30,32,34,36,-1,-1,-1,-1,-1,-1,-1,-1,-1,-1,-1,-1],"split_conditions":[-9.25E-1,5.100387E1,-2.6437482E-1,9.063666E0,7.2885826E1,8.035E1,4.60815E2,4.814E1,2.6241232E1,-0E0,3.4412053E-1,-2.5795594E-1,-0E0,4.6267E1,1.8864917E2,6.26071E2,2.0481E2,-0E0,1.9316E2,-1.1469654E-1,2.3676394E1,9.374669E0,4.2E2,4.6359497E2,1.0208E2,6.3404374E-2,6.672699E-1,3.0238256E-1,-0E0,8.278322E-2,-1.2306359E-1,4.898376E-1,-0E0,-2.8947964E-1,-0E0,-9.062044E-2,2.1200497E-1],"split_indices":[6,77,0,76,77,56,69,56,79,0,0,0,0,37,49,72,78,0,81,0,79,1,9,34,55,0,0,0,0,0,0,0,0,0,0,0,0],"split_type":[0,0,0,0,0,0,0,0,0,0,0,0,0,0,0,0,0,0,0,0,0,0,0,0,0,0,0,0,0,0,0,0,0,0,0,0,0],"sum_hessian":[6.9770615E1,5.6379578E1,1.3391034E1,1.4234167E1,4.2145412E1,2.5103393E0,1.1723828E1,1.06348505E1,3.1510561E1,1.1779081E0,1.3324311E0,1.0582086E1,1.1417422E0,5.3431315E0,5.291719E0,1.3387587E1,1.8122974E1,1.7477256E0,3.595406E0,2.7716446E0,2.5200746E0,9.993856E0,3.3937302E0,9.627882E0,8.495092E0,1.3555663E0,2.2398398E0,1.326755E0,1.1933197E0,7.626575E0,2.3672817E0,1.3961248E0,1.9976053E0,8.596933E0,1.0309486E0,4.7661977E0,3.7288947E0],"tree_param":{"num_deleted":"0","num_feature":"82","num_nodes":"37","size_leaf_vector":"1"}},{"base_weights":[-1.01982914E-1,4.0272072E-2,-2.537925E-1,-5.552502E-2,6.3885653E-1,3.3654386E-1,-3.357601E-1,-9.71203E-2,3.3428007E-1,5.958805E-1,-1.4921953E-1,4.229409E-1,-4.5172384E-1,4.6130256E-3,-1.431731E-1,9.169392E-1,-0E0,-0E0,2.231206E-1,-0E0,-6.680182E-1,3.6334002E-1,-0E0,-1.5839905E-1,1.2449356E-1,-9.657268E-2,1.3656545E-1,-0E0,-2.50357E-1],"categories":[],"categories_nodes":[],"categories_segments":[],"categories_sizes":[],"default_left":[0,0,0,0,0,0,0,0,0,0,0,0,0,0,0,0,1,0,0,0,0,0,0,0,0,0,0,0,0],"id":7,"left_children":[1,3,-1,5,7,9,11,13,-1,15,-1,17,19,-1,-1,21,23,-1,-1,25,27,-1,-1,-1,-1,-1,-1,-1,-1],"loss_changes":[7.5093274E0,3.6103904E0,0E0,5.2324166E0,3.9589052E0,4.429069E0,2.7521544E0,5.2968657E-1,0E0,3.3535318E0,0E0,6.997213E-1,2.7448726E0,0E0,0E0,2.6246567E0,1.5718656E0,0E0,0E0,1.5251096E0,1.8361244E0,0E0,0E0,0E0,0E0,0E0,0E0,0E0,0E0],"parents":[2147483647,0,0,1,1,3,3,4,4,5,5,6,6,7,7,9,9,11,11,12,12,15,15,16,16,19,19,20,20],"right_children":[2,4,-1,6,8,10,12,14,-1,16,-1,18,20,-1,-1,22,24,-1,-1,26,28,-1,-1,-1,-1,-1,-1,-1,-1],"split_conditions":[-9.25E-1,1.798E2,-2.537925E-1,1.9968374E1,5.57E1,2.473E0,1.3E2,1.9702E1,3.3428007E-1,1.9589375E2,-1.4921953E-1,1.1138E2,2.2E-2,4.6130256E-3,-1.431731E-1,-2.325E1,1.052E2,-0E0,2.231206E-1,7.946234E1,8E2,3.6334002E-1,-0E0,-1.5839905E-1,1.2449356E-1,-9.657268E-2,1.3656545E-1,-0E0,-2.50357E-1],"split_indices":[6,8,0,76,0,3,9,3,0,62,0,57,3,0,0,6,47,0,0,80,25,0,0,0,0,0,0,0,0],"split_type":[0,0,0,0,0,0,0,0,0,0,0,0,0,0,0,0,0,0,0,0,0,0,0,0,0,0,0,0,0],"sum_hessian":[6.3618732E1,5.3310066E1,1.0308665E1,4.5600254E1,7.7098126E0,1.7749144E1,2.785111E1,2.6861374E0,5.023675E0,1.4478909E1,3.270236E0,2.438741E0,2.541237E1,1.2101573E0,1.47598E0,9.525596E0,4.953313E0,1.0617031E0,1.3770379E0,8.183881E0,1.7228489E1,6.822468E0,2.7031274E0,2.5135877E0,2.4397252E0,4.6490397E0,3.5348408E0,3.911802E0,1.3316688E1],"tree_param":{"num_deleted":"0","num_feature":"82","num_nodes":"29","size_leaf_vector":"1"}},{"base_weights":[-8.4102534E-2,2.7396793E-2,-2.4140342E-1,-3.7629884E-1,1.7124406E-1,-6.737916E-1,4.3608415E-1,6.815424E-1,-8.625921E-3,-0E0,-2.4503042E-1,2.0760135E-1,-0E0,2.1643487E-1,4.3690097E-1,2.418651E-1,-2.6770976E-1,-2.269937E-1,6.0455483E-1,5.6084335E-1,-3.69188E-2,-5.782507E-1,1.2492021E-1,-0E0,-1.595299E-1,-5.3800534E-2,2.958701E-1,2.370785E-1,-0E0,1.372765E-1,-9.828725E-2,-2.3697734E-1,2.0217167E-2,-7.478367E-2,1.3803488E-1],"categories":[],"categories_nodes":[],"categories_segments":[],"categories_sizes":[],"default_left":[0,1,0,1,0,0,0,0,0,0,0,0,0,0,0,0,0,1,0,0,0,0,0,0,0,0,0,0,0,0,0,0,0,0,0],"id":8,"left_children":[1,3,-1,5,7,9,11,13,15,-1,-1,-1,-1,17,-1,19,21,23,25,27,29,31,33,-1,-1,-1,-1,-1,-1,-1,-1,-1,-1,-1,-1],"loss_changes":[5.4519567E0,2.9180849E0,0E0,3.5056949E0,4.24696E0,1.5069852E0,4.559893E-1,2.5764585E0,2.01435E0,0E0,0E0,0E0,0E0,2.0043106E0,0E0,1.6873577E0,2.458709E0,6.47838E-1,2.6343088E0,8.012104E-1,1.0730867E0,2.071103E0,1.1650529E0,0E0,0E0,0E0,0E0,0E0,0E0,0E0,0E0,0E0,0E0,0E0,0E0],"parents":[2147483647,0,0,1,1,3,3,4,4,5,5,6,6,7,7,8,8,13,13,15,15,16,16,17,17,18,18,19,19,20,20,21,21,22,22],"right_children":[2,4,-1,6,8,10,12,14,16,-1,-1,-1,-1,18,-1,20,22,24,26,28,30,32,34,-1,-1,-1,-1,-1,-1,-1,-1,-1,-1,-1,-1],"split_conditions":[-9.25E-1,5.100387E1,-2.4140342E-1,1.6E2,7.2885826E1,6.541292E1,1.43282175E1,3.59E1,2.6241232E1,-0E0,-2.4503042E-1,2.0760135E-1,-0E0,5.2989E1,4.3690097E-1,-1.3812138E1,5.25E0,3.014E1,2.729E3,-6.5132084E0,1.103E3,2.225E3,-2.475E1,-0E0,-1.595299E-1,-5.3800534E-2,2.958701E-1,2.370785E-1,-0E0,1.372765E-1,-9.828725E-2,-2.3697734E-1,2.0217167E-2,-7.478367E-2,1.3803488E-1],"split_indices":[6,77,0,78,77,49,34,35,79,0,0,0,0,39,0,2,5,57,19,76,11,9,6,0,0,0,0,0,0,0,0,0,0,0,0],"split_type":[0,0,0,0,0,0,0,0,0,0,0,0,0,0,0,0,0,0,0,0,0,0,0,0,0,0,0,0,0,0,0,0,0,0,0],"sum_hessian":[5.8943993E1,5.092945E1,8.014543E0,1.151316E1,3.941629E1,9.263513E0,2.2496467E0,1.0689852E1,2.872644E1,1.019805E0,8.243708E0,1.2427218E0,1.006925E0,8.116228E0,2.5736234E0,1.3089565E1,1.5636875E1,3.0323362E0,5.083892E0,6.953874E0,6.135691E0,9.590196E0,6.046679E0,1.0065824E0,2.025754E0,1.1608887E0,3.9230034E0,4.289019E0,2.6648548E0,1.0533879E0,5.082303E0,7.9751377E0,1.6150581E0,1.8650793E0,4.1815996E0],"tree_param":{"num_deleted":"0","num_feature":"82","num_nodes":"35","size_leaf_vector":"1"}},{"base_weights":[-5.791825E-2,3.0822622E-2,-2.2724107E-1,-1.0603023E-2,2.5194088E-1,-4.334126E-1,9.524772E-2,-2.317885E-1,4.3164928E-2,5.083571E-1,-3.6723122E-2,2.1296747E-1,-7.352988E-2,8.4978503E-1,-0E0,-2.4053538E-1,2.1623293E-1,4.2006832E-1,-0E0,8.760085E-2,-7.688004E-2,6.7077905E-2,-1.999056E-1,2.3566137E-1,-3.6865607E-2],"categories":[],"categories_nodes":[],"categories_segments":[],"categories_sizes":[],"default_left":[0,0,0,1,0,1,0,0,0,0,0,0,0,0,1,0,0,0,0,0,0,0,0,0,0],"id":9,"left_children":[1,3,-1,5,-1,7,9,-1,11,13,15,-1,-1,17,19,21,23,-1,-1,-1,-1,-1,-1,-1,-1],"loss_changes":[4.0517106E0,2.317287E0,0E0,2.4116964E0,0E0,2.4012492E0,2.4035876E0,0E0,1.4228013E0,1.9589553E0,1.4869441E0,0E0,0E0,3.503058E0,4.4288605E-1,3.9393625E0,2.753292E0,0E0,0E0,0E0,0E0,0E0,0E0,0E0,0E0],"parents":[2147483647,0,0,1,1,3,3,5,5,6,6,8,8,9,9,10,10,13,13,14,14,15,15,16,16],"right_children":[2,4,-1,6,-1,8,10,-1,12,14,16,-1,-1,18,20,22,24,-1,-1,-1,-1,-1,-1,-1,-1],"split_conditions":[-9.25E-1,-3.5E0,-2.2724107E-1,5.2781006E1,2.5194088E-1,7.579E1,7.2885826E1,-2.317885E-1,1.30945835E1,2.19049E0,8.8E1,2.1296747E-1,-7.352988E-2,8.459E1,2.6654953E1,-4.925E1,1.5304167E2,4.2006832E-1,-0E0,8.760085E-2,-7.688004E-2,6.7077905E-2,-1.999056E-1,2.3566137E-1,-3.6865607E-2],"split_indices":[6,6,0,77,0,56,77,0,76,30,64,0,0,55,79,6,52,0,0,0,0,0,0,0,0],"split_type":[0,0,0,0,0,0,0,0,0,0,0,0,0,0,0,0,0,0,0,0,0,0,0,0,0],"sum_hessian":[5.4647903E1,4.8342587E1,6.305316E0,4.5997932E1,2.3446536E0,1.0084009E1,3.5913925E1,6.4960375E0,3.5879712E0,9.453409E0,2.6460514E1,1.4684112E0,2.11956E0,5.453642E0,3.9997678E0,1.6409698E1,1.00508175E1,3.163674E0,2.2899675E0,1.4940245E0,2.5057433E0,7.1915493E0,9.218148E0,4.129857E0,5.92096E0],"tree_param":{"num_deleted":"0","num_feature":"82","num_nodes":"25","size_leaf_vector":"1"}},{"base_weights":[-4.3085605E-2,2.4612578E-2,-2.1152014E-1,-4.7512468E-2,5.1280713E-1,-2.6533952E-1,2.1633556E-1,7.624947E-1,-0E0,1.615004E-1,-4.6510237E-1,-2.4198686E-1,5.1093674E-1,1.0055518E0,-0E0,-1.4755245E-1,6.85454E-1,-6.864733E-1,-0E0,7.065777E-2,-2.2047265E-1,-1.5490876E-2,7.026168E-1,-0E0,1.2698336E0,2.7737576E-1,-0E0,-2.5660303E-1,-0E0,1.3094136E-1,-7.866032E-2,-0E0,1.0410437E-1,-0E0,2.650971E-1,-0E0,4.5577767E-1],"categories":[],"categories_nodes":[],"categories_segments":[],"categories_sizes":[],"default_left":[0,0,0,0,0,0,0,0,0,0,0,0,1,0,0,0,0,0,0,1,0,0,0,0,0,0,0,0,0,0,0,0,0,0,0,0,0],"id":10,"left_children":[1,3,-1,5,7,9,11,13,-1,15,17,19,21,23,-1,-1,25,27,29,31,-1,-1,33,-1,35,-1,-1,-1,-1,-1,-1,-1,-1,-1,-1,-1,-1],"loss_changes":[2.9280567E0,2.0794573E0,0E0,2.467808E0,1.4826038E0,2.4203548E0,2.7088008E0,1.1376452E0,0E0,3.0075383E0,2.0416696E0,1.5790668E0,1.8516169E0,1.0810175E0,0E0,0E0,1.0831616E0,1.7745333E0,9.0737295E-1,3.2278445E-1,0E0,0E0,1.719697E0,0E0,1.5297079E-1,0E0,0E0,0E0,0E0,0E0,0E0,0E0,0E0,0E0,0E0,0E0,0E0],"parents":[2147483647,0,0,1,1,3,3,4,4,5,5,6,6,7,7,9,9,10,10,11,11,12,12,13,13,16,16,17,17,18,18,19,19,22,22,24,24],"right_children":[2,4,-1,6,8,10,12,14,-1,16,18,20,22,24,-1,-1,26,28,30,32,-1,-1,34,-1,36,-1,-1,-1,-1,-1,-1,-1,-1,-1,-1,-1,-1],"split_conditions":[-9.25E-1,6.8694E1,-2.1152014E-1,1.25E0,4.589E1,-6.9E1,-2.475E1,5.45E1,-0E0,2.93668E2,1.07906E2,1.94672E2,8.310081E1,1.06E1,-0E0,-1.4755245E-1,1.9391E2,5.55E1,1.55367E2,5.416649E1,-2.2047265E-1,-1.5490876E-2,6.81E0,-0E0,4.9103665E-1,2.7737576E-1,-0E0,-2.5660303E-1,-0E0,1.3094136E-1,-7.866032E-2,-0E0,1.0410437E-1,-0E0,2.650971E-1,-0E0,4.5577767E-1],"split_indices":[6,42,0,5,57,6,6,46,0,38,39,36,71,48,0,0,47,35,39,61,0,0,57,0,30,0,0,0,0,0,0,0,0,0,0,0,0],"split_type":[0,0,0,0,0,0,0,0,0,0,0,0,0,0,0,0,0,0,0,0,0,0,0,0,0,0,0,0,0,0,0,0,0,0,0,0,0],"sum_hessian":[5.195944E1,4.6930035E1,5.0294023E0,4.026632E1,6.6637163E0,2.3693066E1,1.6573254E1,5.016428E0,1.6472883E0,6.3542566E0,1.733881E1,5.5058074E0,1.1067447E1,3.584539E0,1.431889E0,2.1844864E0,4.1697702E0,1.175073E1,5.58808E0,2.9129007E0,2.5929065E0,1.9513227E0,9.116124E0,1.0393094E0,2.5452294E0,3.1084716E0,1.0612987E0,9.6385E0,2.1122296E0,2.1677427E0,3.4203372E0,1.0701647E0,1.842736E0,1.5181457E0,7.597978E0,1.0022491E0,1.5429804E0],"tree_param":{"num_deleted":"0","num_feature":"82","num_nodes":"37","size_leaf_vector":"1"}},{"base_weights":[-4.1144866E-2,1.0128347E-2,-1.9462973E-1,-1.2946667E-1,2.251615E-1,2.010767E-1,-3.5819826E-1,5.1056886E-1,-1.2950906E-1,4.6976614E-1,-2.043219E-1,-6.035148E-1,1.2889346E-1,-0E0,7.323381E-1,-4.4291848E-1,2.0230938E-1,7.8254825E-1,-0E0,-0E0,-9.552192E-2,-0E0,-7.189194E-1,6.220947E-1,-1.270051E-1,-2.3007621E-1,1.0489387E-1,9.321339E-1,-0E0,-0E0,-2.0567359E-1,-0E0,1.2335312E-1,-0E0,3.042366E-1,-9.516712E-2,8.9388415E-2,-2.4488153E-1,-0E0,2.5698426E-1,-0E0,-8.501992E-2,-0E0,-8.537193E-2,-0E0,3.3964553E-1,-0E0],"categories":[],"categories_nodes":[],"categories_segments":[],"categories_sizes":[],"default_left":[0,0,0,0,0,0,1,1,1,0,0,0,0,0,1,0,0,0,0,0,0,0,0,0,0,1,0,0,0,0,0,0,0,0,0,0,0,0,0,0,0,0,0,0,0,0,0],"id":11,"left_children":[1,3,-1,5,7,9,11,13,15,17,19,21,23,25,27,29,31,33,35,-1,-1,-1,37,39,41,43,-1,45,-1,-1,-1,-1,-1,-1,-1,-1,-1,-1,-1,-1,-1,-1,-1,-1,-1,-1,-1],"loss_changes":[2.056351E0,1.4714878E0,0E0,2.1631546E0,2.4436812E0,1.3805945E0,2.5016525E0,1.313401E0,1.1855623E0,9.617088E-1,1.0489179E-1,1.2389407E0,1.1627977E0,5.1549983E-1,1.2604837E0,1.0758201E0,3.0340087E-1,6.9913507E-1,4.8546404E-1,0E0,0E0,0E0,1.0080681E0,2.685001E-1,1.3569397E-1,1.3712823E-2,0E0,1.1931553E0,0E0,0E0,0E0,0E0,0E0,0E0,0E0,0E0,0E0,0E0,0E0,0E0,0E0,0E0,0E0,0E0,0E0,0E0,0E0],"parents":[2147483647,0,0,1,1,3,3,4,4,5,5,6,6,7,7,8,8,9,9,10,10,11,11,12,12,13,13,14,14,15,15,16,16,17,17,18,18,22,22,23,23,24,24,25,25,27,27],"right_children":[2,4,-1,6,8,10,12,14,16,18,20,22,24,26,28,30,32,34,36,-1,-1,-1,38,40,42,44,-1,46,-1,-1,-1,-1,-1,-1,-1,-1,-1,-1,-1,-1,-1,-1,-1,-1,-1,-1,-1],"split_conditions":[-9.25E-1,0E0,-1.9462973E-1,7.8E1,-1.0244944E0,-3.3E1,7.7325836E1,1.5398E2,1.9179834E2,2.6654953E1,6.74E2,3.99E2,1.25E3,1.25E0,2.5453E2,3.0412407E1,9.289E1,1.36E2,2.225E3,-0E0,-9.552192E-2,-0E0,6.5312355E1,-2.297321E1,2.0328554E2,2.6612738E1,1.0489387E-1,4.2E2,-0E0,-0E0,-2.0567359E-1,-0E0,1.2335312E-1,-0E0,3.042366E-1,-9.516712E-2,8.9388415E-2,-2.4488153E-1,-0E0,2.5698426E-1,-0E0,-8.501992E-2,-0E0,-8.537193E-2,-0E0,3.3964553E-1,-0E0],"split_indices":[6,29,0,8,2,6,58,78,49,79,14,24,22,5,48,59,56,16,9,0,0,0,26,2,67,61,0,9,0,0,0,0,0,0,0,0,0,0,0,0,0,0,0,0,0,0,0],"split_type":[0,0,0,0,0,0,0,0,0,0,0,0,0,0,0,0,0,0,0,0,0,0,0,0,0,0,0,0,0,0,0,0,0,0,0,0,0,0,0,0,0,0,0,0,0,0,0],"sum_hessian":[4.8606434E1,4.453237E1,4.0740657E0,2.5017303E1,1.9515066E1,8.869055E0,1.6148249E1,1.1803536E1,7.71153E0,6.4098406E0,2.4592144E0,1.1658684E1,4.489564E0,4.1313972E0,7.672139E0,5.0174365E0,2.6940937E0,3.2406785E0,3.1691623E0,1.0001621E0,1.4590523E0,1.3407564E0,1.0317927E1,2.0989711E0,2.3905928E0,2.3769107E0,1.7544868E0,5.8036556E0,1.8684835E0,1.2169791E0,3.8004575E0,1.0052313E0,1.6888623E0,1.0357871E0,2.2048912E0,1.2397386E0,1.9294237E0,9.292192E0,1.025735E0,1.000316E0,1.098655E0,1.3704698E0,1.0201231E0,1.3767037E0,1.000207E0,4.5428724E0,1.2607834E0],"tree_param":{"num_deleted":"0","num_feature":"82","num_nodes":"47","size_leaf_vector":"1"}},{"base_weights":[-2.2192793E-2,-3.9103255E-1,6.479971E-2,-6.457229E-1,1.7431441E-1,-3.0076045E-1,1.8311441E-1,-0E0,-2.3060702E-1,1.1541023E-1,-0E0,-5.140133E-1,4.3654047E-2,-0E0,3.5083592E-1,-0E0,-1.9915238E-1,-3.0635592E-1,3.3956587E-1,5.08193E-1,-6.511088E-2,-5.505498E-1,-0E0,7.701459E-1,-6.322977E-2,1.0872073E0,1.4767778E-1,-1.54455E-1,7.0492946E-2,-1.9755653E-1,-0E0,-4.9671218E-2,7.299536E-2,3.1477523E-1,-0E0,4.23594E-1,-0E0,-3.9906286E-2,1.340396E-1],"categories":[],"categories_nodes":[],"categories_segments":[],"categories_sizes":[],"default_left":[1,1,0,0,0,1,0,0,0,0,0,0,0,0,1,0,0,0,0,1,0,0,0,0,0,0,0,0,0,0,0,0,0,0,0,0,0,0,0],"id":12,"left_children":[1,3,5,7,9,11,13,-1,-1,-1,-1,15,-1,17,19,-1,-1,21,23,25,27,29,31,33,-1,35,37,-1,-1,-1,-1,-1,-1,-1,-1,-1,-1,-1,-1],"loss_changes":[1.764507E0,2.0235472E0,1.5403011E0,8.9213514E-1,2.1511304E-1,1.0955656E0,1.1157883E0,0E0,0E0,0E0,0E0,7.239214E-1,0E0,1.503089E0,1.5079968E0,0E0,0E0,8.5512394E-1,2.039288E0,1.7787023E0,9.124404E-1,2.5425255E-1,2.3555432E-1,5.080857E-1,0E0,1.2560077E0,1.1973828E0,0E0,0E0,0E0,0E0,0E0,0E0,0E0,0E0,0E0,0E0,0E0,0E0],"parents":[2147483647,0,0,1,1,2,2,3,3,4,4,5,5,6,6,11,11,13,13,14,14,17,17,18,18,19,19,20,20,21,21,22,22,23,23,25,25,26,26],"right_children":[2,4,6,8,10,12,14,-1,-1,-1,-1,16,-1,18,20,-1,-1,22,24,26,28,30,32,34,-1,36,38,-1,-1,-1,-1,-1,-1,-1,-1,-1,-1,-1,-1],"split_conditions":[5.100387E1,1.6E2,2.44E1,-6.932E1,4.689E1,1.4236789E2,6.13E1,-0E0,-2.3060702E-1,1.1541023E-1,-0E0,1.33E2,4.3654047E-2,8.52E2,5.572319E1,-0E0,-1.9915238E-1,3.284E3,2.15E-1,1.21E1,2.25205E2,2.1134895E2,9.9333E1,-5.9E1,-6.322977E-2,2.3725E2,6.697414E1,-1.54455E-1,7.0492946E-2,-1.9755653E-1,-0E0,-4.9671218E-2,7.299536E-2,3.1477523E-1,-0E0,4.23594E-1,-0E0,-3.9906286E-2,1.340396E-1],"split_indices":[77,78,37,55,57,53,66,0,0,0,0,9,0,12,79,0,0,19,3,57,37,59,39,29,0,69,68,0,0,0,0,0,0,0,0,0,0,0,0],"split_type":[0,0,0,0,0,0,0,0,0,0,0,0,0,0,0,0,0,0,0,0,0,0,0,0,0,0,0,0,0,0,0,0,0,0,0,0,0,0,0],"sum_hessian":[4.5174065E1,9.686517E0,3.5487545E1,7.542984E0,2.1435325E0,6.6682343E0,2.8819313E1,1.0047884E0,6.5381956E0,1.098933E0,1.0445995E0,5.60672E0,1.0615143E0,1.2630849E1,1.6188463E1,1.0029902E0,4.6037297E0,7.5739813E0,5.0568676E0,1.2961634E1,3.2268302E0,4.4760747E0,3.0979068E0,3.418047E0,1.6388204E0,3.3596737E0,9.60196E0,2.0581164E0,1.1687137E0,3.4138703E0,1.0622042E0,1.0843083E0,2.0135984E0,1.8417306E0,1.5763165E0,2.214761E0,1.1449126E0,3.8780763E0,5.7238836E0],"tree_param":{"num_deleted":"0","num_feature":"82","num_nodes":"39","size_leaf_vector":"1"}},{"base_weights":[-8.001115E-3,2.5178114E-2,-1.6439953E-1,1.4587338E-1,-2.3129638E-1,9.8751495E-3,1.8557756E-1,5.5734508E-2,-4.3328655E-1,1.6166551E-1,-3.1876E-1,-1.9687738E-2,1.3816468E-1,-2.1639627E-1,-0E0,3.5023043E-1,-3.765845E-1,-1.88599E-1,-0E0,-7.1291566E-2,1.7240073E-1,1.7107677E-1,-0E0,-1.7343462E-1,-0E0,-1.7219376E-2,7.399959E-2,1.2019024E-1,-0E0],"categories":[],"categories_nodes":[],"categories_segments":[],"categories_sizes":[],"default_left":[0,0,0,0,0,0,0,0,0,0,0,0,0,0,1,0,0,0,0,0,0,0,0,0,0,0,0,0,0],"id":13,"left_children":[1,3,-1,5,7,9,-1,11,13,15,17,-1,-1,-1,19,21,23,-1,25,-1,27,-1,-1,-1,-1,-1,-1,-1,-1],"loss_changes":[1.2091055E0,1.2268537E0,0E0,1.4518648E0,9.788435E-1,1.2204642E0,0E0,5.360762E-1,1.0487367E0,2.1448119E0,9.874123E-1,0E0,0E0,0E0,2.1837457E-1,1.5393076E0,5.409622E-1,0E0,1.5792415E-1,0E0,2.2923277E-1,0E0,0E0,0E0,0E0,0E0,0E0,0E0,0E0],"parents":[2147483647,0,0,1,1,3,3,4,4,5,5,7,7,8,8,9,9,10,10,14,14,15,15,16,16,18,18,20,20],"right_children":[2,4,-1,6,8,10,-1,12,14,16,18,-1,-1,-1,20,22,24,-1,26,-1,28,-1,-1,-1,-1,-1,-1,-1,-1],"split_conditions":[-9.25E-1,1.653626E2,-1.6439953E-1,1.798E2,-9.175E1,3.0138E2,1.8557756E-1,2.93114E2,0E0,5.94E2,6.25E0,-1.9687738E-2,1.3816468E-1,-2.1639627E-1,3.21E1,7.74755E1,1.72961E2,-1.88599E-1,2.3E0,-7.1291566E-2,1.5457E2,1.7107677E-1,-0E0,-1.7343462E-1,-0E0,-1.7219376E-2,7.399959E-2,1.2019024E-1,-0E0],"split_indices":[6,62,0,8,6,40,0,40,29,13,5,0,0,0,56,67,64,0,35,0,47,0,0,0,0,0,0,0,0],"split_type":[0,0,0,0,0,0,0,0,0,0,0,0,0,0,0,0,0,0,0,0,0,0,0,0,0,0,0,0,0],"sum_hessian":[4.267193E1,3.972229E1,2.9496398E0,2.939795E1,1.0324341E1,2.4919983E1,4.477967E0,2.9487667E0,7.375574E0,1.9037735E1,5.8822474E0,1.4125154E0,1.5362513E0,4.037719E0,3.3378556E0,1.5443743E1,3.593992E0,3.2677839E0,2.6144636E0,1.2326211E0,2.1052344E0,9.936068E0,5.507675E0,2.5679278E0,1.0260643E0,1.1344707E0,1.4799929E0,1.0031848E0,1.1020496E0],"tree_param":{"num_deleted":"0","num_feature":"82","num_nodes":"29","size_leaf_vector":"1"}},{"base_weights":[-2.359496E-2,-3.2235497E-1,3.4026496E-2,-5.7502854E-1,8.205005E-2,1.9500344E-1,-7.664245E-2,-0E0,-2.1099237E-1,8.1952326E-2,-0E0,-0E0,4.8323306E-1,-2.4614906E-1,2.7833602E-1,2.7823147E-1,-2.3689696E-1,-2.7700825E-2,7.4944556E-1,-4.278851E-1,-0E0,1.770644E-1,-0E0,-0E0,1.6052778E-1,-4.1527796E-1,-0E0,9.2252934E-1,-0E0,-6.8434733E-1,-0E0,2.9838282E-1,-7.8841105E-2,-0E0,-1.8424325E-1,3.2820812E-1,-0E0,-0E0,-2.2977048E-1,-1.0975267E-2,6.46617E-2,1.2349021E-1,-0E0,-7.618906E-2,-0E0],"categories":[],"categories_nodes":[],"categories_segments":[],"categories_sizes":[],"default_left":[1,1,0,0,0,0,0,0,0,0,0,0,0,0,0,0,0,0,0,0,0,0,0,0,0,0,0,0,0,1,0,0,0,0,0,0,0,0,0,0,0,0,0,0,0],"id":14,"left_children":[1,3,5,7,9,11,13,-1,-1,-1,-1,15,17,19,21,23,25,-1,27,29,31,-1,-1,-1,-1,33,-1,35,-1,37,39,41,43,-1,-1,-1,-1,-1,-1,-1,-1,-1,-1,-1,-1],"loss_changes":[9.6062803E-1,1.365524E0,7.113957E-1,6.403575E-1,1.3643737E-1,1.044554E0,1.1182606E0,0E0,0E0,0E0,0E0,7.6610756E-1,1.6971291E0,9.191161E-1,7.1633357E-1,6.6338766E-1,5.7452303E-1,0E0,6.985431E-1,1.3826998E0,2.9862097E-1,0E0,0E0,0E0,0E0,5.643319E-1,0E0,3.383484E-1,0E0,1.4299822E-1,1.2239016E-1,7.8606695E-2,1.2105592E-1,0E0,0E0,0E0,0E0,0E0,0E0,0E0,0E0,0E0,0E0,0E0,0E0],"parents":[2147483647,0,0,1,1,2,2,3,3,4,4,5,5,6,6,11,11,12,12,13,13,14,14,15,15,16,16,18,18,19,19,20,20,25,25,27,27,29,29,30,30,31,31,32,32],"right_children":[2,4,6,8,10,12,14,-1,-1,-1,-1,16,18,20,22,24,26,-1,28,30,32,-1,-1,-1,-1,34,-1,36,-1,38,40,42,44,-1,-1,-1,-1,-1,-1,-1,-1,-1,-1,-1,-1],"split_conditions":[5.100387E1,1.6E2,1.80517E2,1.8863E2,4.689E1,2.0481E2,5.4529E1,-0E0,-2.1099237E-1,8.1952326E-2,-0E0,8.81E1,9.1973E1,-1.275E1,-5.404E0,-1.5041156E1,1.3422913E2,-2.7700825E-2,5.572319E1,1.272E3,1.69E2,1.770644E-1,-0E0,-0E0,1.6052778E-1,7.58E1,-0E0,9.308702E1,-0E0,3.4047E2,5.1689743E1,6.405945E1,1.9E2,-0E0,-1.8424325E-1,3.2820812E-1,-0E0,-0E0,-2.2977048E-1,-1.0975267E-2,6.46617E-2,1.2349021E-1,-0E0,-7.618906E-2,-0E0],"split_indices":[77,78,40,41,57,81,35,0,0,0,0,37,66,6,4,27,67,0,79,9,9,0,0,0,0,78,0,77,0,54,70,80,78,0,0,0,0,0,0,0,0,0,0,0,0],"split_type":[0,0,0,0,0,0,0,0,0,0,0,0,0,0,0,0,0,0,0,0,0,0,0,0,0,0,0,0,0,0,0,0,0,0,0,0,0,0,0,0,0,0,0,0,0],"sum_hessian":[4.093889E1,8.092134E0,3.2846752E1,5.9224854E0,2.1696491E0,1.5978313E1,1.686844E1,1.0003606E0,4.9221244E0,1.1142738E0,1.0553752E0,9.740308E0,6.2380056E0,1.3129876E1,3.7385633E0,4.0364704E0,5.7038374E0,1.2412357E0,4.99677E0,8.696206E0,4.4336705E0,2.1101594E0,1.628404E0,1.3578603E0,2.6786098E0,4.5129695E0,1.1908678E0,3.77844E0,1.2183299E0,5.742954E0,2.9532523E0,2.1229298E0,2.3107405E0,1.4960455E0,3.0169241E0,2.6804297E0,1.0980102E0,1.1157719E0,4.627182E0,1.3875571E0,1.5656952E0,1.1048335E0,1.0180963E0,1.195981E0,1.1147594E0],"tree_param":{"num_deleted":"0","num_feature":"82","num_nodes":"45","size_leaf_vector":"1"}},{"base_weights":[-1.0216927E-2,-9.3144104E-2,2.5851345E-1,8.4891364E-2,-3.023013E-1,4.6289173E-1,-0E0,2.4953294E-1,-2.1497558E-1,-4.8700494E-1,1.0683482E-1,1.8799642E-1,-0E0,-4.3643314E-2,-0E0,-0E0,4.7369662E-1,-1.3214761E-1,-0E0,-6.2008274E-1,1.52874E-2,-0E0,2.651321E-1,1.4600609E-1,-2.9266787E-1,6.73618E-1,-0E0,-7.0799327E-1,-0E0,-0E0,1.063531E-1,-0E0,6.201603E-2,-1.12616956E-1,-0E0,2.668651E-1,-0E0,-0E0,-2.34801E-1],"categories":[],"categories_nodes":[],"categories_segments":[],"categories_sizes":[],"default_left":[0,0,0,1,1,0,0,1,0,0,0,0,0,0,0,0,0,0,0,0,0,0,1,0,0,0,0,0,0,0,0,0,0,0,0,0,0,0,0],"id":15,"left_children":[1,3,5,7,9,11,13,15,17,19,21,-1,-1,-1,-1,23,25,-1,-1,27,-1,-1,29,31,33,35,-1,37,-1,-1,-1,-1,-1,-1,-1,-1,-1,-1,-1],"loss_changes":[7.755424E-1,1.4346387E0,6.434114E-1,9.0494066E-1,1.6774836E0,4.281621E-1,4.3395486E-2,9.6930975E-1,4.2094055E-1,1.454082E0,1.9564816E-1,0E0,0E0,0E0,0E0,3.7634847E-1,1.0221063E0,0E0,0E0,8.270607E-1,0E0,0E0,5.8372647E-2,3.108865E-2,5.360326E-2,1.0854065E0,0E0,5.7061625E-1,0E0,0E0,0E0,0E0,0E0,0E0,0E0,0E0,0E0,0E0,0E0],"parents":[2147483647,0,0,1,1,2,2,3,3,4,4,5,5,6,6,7,7,8,8,9,9,10,10,15,15,16,16,19,19,22,22,23,23,24,24,25,25,27,27],"right_children":[2,4,6,8,10,12,14,16,18,20,22,-1,-1,-1,-1,24,26,-1,-1,28,-1,-1,30,32,34,36,-1,38,-1,-1,-1,-1,-1,-1,-1,-1,-1,-1,-1],"split_conditions":[6.8694E1,-1.3812138E1,5.45E1,1.653626E2,2.0313208E2,3.19E1,1.445E3,7.843257E1,-5.1303434E0,2.397E3,1.1694848E2,1.8799642E-1,-0E0,-4.3643314E-2,-0E0,7.663E1,3.974E3,-1.3214761E-1,-0E0,8.302122E1,1.52874E-2,-0E0,5.073732E1,2.896E3,6E0,1.4304E1,-0E0,1.5071E2,-0E0,-0E0,1.063531E-1,-0E0,6.201603E-2,-1.12616956E-1,-0E0,2.668651E-1,-0E0,-0E0,-2.34801E-1],"split_indices":[42,2,46,62,49,0,11,50,27,9,50,0,0,0,0,60,19,0,0,26,0,0,61,19,35,42,0,51,0,0,0,0,0,0,0,0,0,0,0],"split_type":[0,0,0,0,0,0,0,0,0,0,0,0,0,0,0,0,0,0,0,0,0,0,0,0,0,0,0,0,0,0,0,0,0,0,0,0,0,0,0],"sum_hessian":[3.858031E1,3.2227234E1,6.3530793E0,1.569028E1,1.6536953E1,4.2962065E0,2.0568726E0,1.1937332E1,3.7529483E0,1.2592047E1,3.9449062E0,2.9801104E0,1.3160962E0,1.0504614E0,1.0064111E0,5.027503E0,6.909829E0,2.3014736E0,1.4514745E0,1.1149243E1,1.4428031E0,1.3587676E0,2.5861387E0,2.506375E0,2.521128E0,5.1639934E0,1.7458357E0,9.969431E0,1.1798126E0,1.1158459E0,1.4702928E0,1.0296874E0,1.4766877E0,1.5206486E0,1.0004792E0,3.906342E0,1.2576513E0,1.0618771E0,8.907554E0],"tree_param":{"num_deleted":"0","num_feature":"82","num_nodes":"39","size_leaf_vector":"1"}},{"base_weights":[-0E0,2.1286868E-2,-1.3345198E-1,-1.0174744E-2,3.1956398E-1,3.9250083E-2,-1.449539E-1,-0E0,1.5284385E-1,2.2817262E-1,-1.450568E-1,-3.474908E-2,4.4773516E-1,-2.9413316E-1,9.603106E-2,-1.2027167E-1,1.2409942E-2,2.2289641E-1,-0E0,-1.3303016E-1,-0E0],"categories":[],"categories_nodes":[],"categories_segments":[],"categories_sizes":[],"default_left":[0,0,0,0,0,1,0,0,0,1,0,0,0,0,0,0,0,0,0,0,0],"id":16,"left_children":[1,3,-1,5,7,9,-1,-1,-1,11,13,15,17,19,-1,-1,-1,-1,-1,-1,-1],"loss_changes":[6.5283036E-1,5.815267E-1,0E0,1.0887777E0,4.915778E-1,1.0482275E0,0E0,0E0,0E0,1.2636048E0,9.26489E-1,4.832949E-1,1.5614555E0,8.293952E-1,0E0,0E0,0E0,0E0,0E0,0E0,0E0],"parents":[2147483647,0,0,1,1,3,3,4,4,5,5,9,9,10,10,11,11,12,12,13,13],"right_children":[2,4,-1,6,8,10,-1,-1,-1,12,14,16,18,20,-1,-1,-1,-1,-1,-1,-1],"split_conditions":[-9.25E-1,1.81E2,-1.3345198E-1,7.503E0,5.57E1,4.721E1,-1.449539E-1,-0E0,1.5284385E-1,1.06E1,6.1E1,2.942E3,1.78298E2,2.1481E2,9.603106E-2,-1.2027167E-1,1.2409942E-2,2.2289641E-1,-0E0,-1.3303016E-1,-0E0],"split_indices":[6,8,0,3,0,57,0,0,0,48,5,20,40,48,0,0,0,0,0,0,0],"split_type":[0,0,0,0,0,0,0,0,0,0,0,0,0,0,0,0,0,0,0,0,0],"sum_hessian":[3.6805008E1,3.458742E1,2.2175882E0,2.9766224E1,4.8211975E0,2.6268915E1,3.4973073E0,1.63717E0,3.1840274E0,1.4970251E1,1.1298664E1,5.5588512E0,9.4114E0,1.0120495E1,1.1781691E0,2.0077846E0,3.5510666E0,5.6094017E0,3.8019986E0,8.110739E0,2.009756E0],"tree_param":{"num_deleted":"0","num_feature":"82","num_nodes":"21","size_leaf_vector":"1"}},{"base_weights":[-0E0,-2.535298E-1,4.560814E-2,-1.7372559E-1,-0E0,2.3637027E-1,-7.3682293E-3,-4.7061026E-2,8.7896965E-2,4.4478577E-1,-4.0081196E-2,-1.4213446E-1,2.3068036E-1,-0E0,-6.129202E-2,6.1499125E-1,-0E0,-0E0,-5.669489E-2,5.54598E-2,-4.395288E-1,-0E0,4.87113E-1,2.3597844E-1,-0E0,-9.643651E-2,2.783117E-1,-0E0,-5.6059754E-1,2.2951876E-1,-0E0,1.4174893E-1,-1.5010002E-2,-2.0854758E-1,-0E0],"categories":[],"categories_nodes":[],"categories_segments":[],"categories_sizes":[],"default_left":[1,1,0,0,0,0,0,0,0,0,0,1,0,0,0,0,0,0,0,0,0,0,0,0,0,0,0,0,0,0,0,0,0,0,0],"id":17,"left_children":[1,3,5,-1,7,9,11,13,-1,15,17,19,21,-1,-1,23,-1,-1,-1,25,27,-1,29,-1,-1,-1,31,-1,33,-1,-1,-1,-1,-1,-1],"loss_changes":[5.472667E-1,9.072418E-1,4.8500133E-1,0E0,1.9516844E-1,9.005736E-1,6.414204E-1,8.475366E-2,0E0,6.884141E-1,8.266728E-2,1.2821167E0,7.280247E-1,0E0,0E0,4.6925426E-1,0E0,0E0,0E0,8.1566364E-1,4.8762703E-1,0E0,4.8055887E-1,0E0,0E0,0E0,8.380348E-1,0E0,4.4652462E-1,0E0,0E0,0E0,0E0,0E0,0E0],"parents":[2147483647,0,0,1,1,2,2,4,4,5,5,6,6,7,7,9,9,10,10,11,11,12,12,15,15,19,19,20,20,22,22,26,26,28,28],"right_children":[2,4,6,-1,8,10,12,14,-1,16,18,20,22,-1,-1,24,-1,-1,-1,26,28,-1,30,-1,-1,-1,32,-1,34,-1,-1,-1,-1,-1,-1],"split_conditions":[5.100387E1,5.97E1,1.10964E2,-1.7372559E-1,6.5737E1,5.562E1,2.05E2,1.8263666E1,8.7896965E-2,1.4030077E2,-1.681904E1,2.6654953E1,1.5E2,-0E0,-6.129202E-2,1E0,-0E0,-0E0,-5.669489E-2,6.15E2,1.64E2,-0E0,1.9391E2,2.3597844E-1,-0E0,-9.643651E-2,4.45E1,-0E0,2.3145782E1,2.2951876E-1,-0E0,1.4174893E-1,-1.5010002E-2,-2.0854758E-1,-0E0],"split_indices":[77,56,36,0,42,55,78,76,0,34,2,79,46,0,0,43,0,0,0,14,9,0,47,0,0,0,5,0,1,0,0,0,0,0,0],"split_type":[0,0,0,0,0,0,0,0,0,0,0,0,0,0,0,0,0,0,0,0,0,0,0,0,0,0,0,0,0,0,0,0,0,0,0],"sum_hessian":[3.547139E1,6.5457096E0,2.892568E1,3.1517894E0,3.39392E0,8.774344E0,2.0151337E1,2.2030082E0,1.1909119E0,6.2842145E0,2.4901302E0,1.5242348E1,4.9089885E0,1.0026062E0,1.2004019E0,4.6303596E0,1.6538548E0,1.018472E0,1.4716581E0,8.051217E0,7.191131E0,1.5155871E0,3.3934011E0,3.200105E0,1.4302548E0,1.510527E0,6.54069E0,1.6043175E0,5.586814E0,1.6020287E0,1.7913724E0,5.3453674E0,1.1953223E0,4.2076235E0,1.3791903E0],"tree_param":{"num_deleted":"0","num_feature":"82","num_nodes":"35","size_leaf_vector":"1"}},{"base_weights":[-3.0903309E-3,-1.479793E-1,7.307618E-2,6.944675E-2,-3.7653953E-1,2.7176598E-1,-3.6593582E-2,3.0132574E-1,-6.2209755E-2,-0E0,-4.8774722E-1,-0E0,6.300394E-1,-3.4480822E-1,1.5944417E-1,1.413313E-1,-0E0,-6.835956E-2,-0E0,-6.288901E-1,-0E0,6.852535E-2,-1.5519302E-1,8.202263E-1,-0E0,-0E0,-1.5912876E-1,3.6828208E-1,-0E0,-0E0,-2.1311323E-1,-0E0,3.9985936E-2,-0E0,-7.619145E-2,3.0235997E-1,-0E0,1.3929845E-1,-0E0],"categories":[],"categories_nodes":[],"categories_segments":[],"categories_sizes":[],"default_left":[1,0,1,0,0,0,0,0,0,0,1,0,0,0,0,0,0,0,0,0,0,0,0,0,0,0,0,0,0,0,0,0,0,0,0,0,0,0,0],"id":18,"left_children":[1,3,5,7,9,11,13,15,17,-1,19,21,23,25,27,-1,-1,-1,-1,29,-1,31,33,35,-1,-1,-1,37,-1,-1,-1,-1,-1,-1,-1,-1,-1,-1,-1],"loss_changes":[4.5539904E-1,1.0606375E0,6.312263E-1,4.2862603E-1,6.5162694E-1,1.1989453E0,8.781092E-1,3.464875E-1,1.0535468E-1,0E0,6.037557E-1,1.0769767E-1,4.7783732E-1,5.809724E-1,4.7910014E-1,0E0,0E0,0E0,0E0,2.2084928E-1,0E0,2.2006897E-2,7.420892E-2,1.9336295E-1,0E0,0E0,0E0,1.5558708E-1,0E0,0E0,0E0,0E0,0E0,0E0,0E0,0E0,0E0,0E0,0E0],"parents":[2147483647,0,0,1,1,2,2,3,3,4,4,5,5,6,6,7,7,8,8,10,10,11,11,12,12,13,13,14,14,19,19,21,21,22,22,23,23,27,27],"right_children":[2,4,6,8,10,12,14,16,18,-1,20,22,24,26,28,-1,-1,-1,-1,30,-1,32,34,36,-1,-1,-1,38,-1,-1,-1,-1,-1,-1,-1,-1,-1,-1,-1],"split_conditions":[1.47129E2,1.21E1,9.702325E1,2.3809126E1,-1.4025E2,1.0170282E2,-1.65E1,1.01145E2,6E0,-0E0,1.3396439E2,3.7416E1,2E0,3.707825E1,6.9143E1,1.413313E-1,-0E0,-6.835956E-2,-0E0,-1.2490045E2,-0E0,2.3842E-1,7.82E0,1.22783E2,-0E0,-0E0,-1.5912876E-1,2.6509386E1,-0E0,-0E0,-2.1311323E-1,-0E0,3.9985936E-2,-0E0,-7.619145E-2,3.0235997E-1,-0E0,1.3929845E-1,-0E0],"split_indices":[78,57,71,67,6,53,6,52,45,0,68,37,45,76,74,0,0,0,0,34,0,26,57,73,0,0,0,34,0,0,0,0,0,0,0,0,0,0,0],"split_type":[0,0,0,0,0,0,0,0,0,0,0,0,0,0,0,0,0,0,0,0,0,0,0,0,0,0,0,0,0,0,0,0,0,0,0,0,0,0,0],"sum_hessian":[3.3926426E1,1.4937004E1,1.8989422E1,6.241126E0,8.695878E0,8.788867E0,1.0200555E1,3.9657135E0,2.2754123E0,1.1782207E0,7.5176573E0,4.9471464E0,3.8417206E0,5.2366343E0,4.9639206E0,2.5926964E0,1.373017E0,1.2732071E0,1.0022053E0,5.6499753E0,1.867682E0,2.0750937E0,2.8720524E0,2.5669725E0,1.2747478E0,1.5363017E0,3.7003324E0,3.6502228E0,1.3136976E0,1.0004919E0,4.6494837E0,1.0235249E0,1.0515689E0,1.2757291E0,1.5963235E0,1.5527983E0,1.0141743E0,2.6470423E0,1.0031806E0],"tree_param":{"num_deleted":"0","num_feature":"82","num_nodes":"39","size_leaf_vector":"1"}},{"base_weights":[-0E0,1.640856E-2,-1.0798637E-1,-4.3705277E-2,2.0038235E-1,1.8971073E-2,-3.5456973E-1,-1.3727957E-1,3.8192156E-1,1.8595706E-1,-1.403361E-1,-0E0,-1.3675834E-1,-5.369964E-2,-0E0,5.736644E-1,-0E0,-0E0,2.8875268E-1,1.1909536E-1,-4.545513E-1,6.3832134E-1,-0E0,1.2955047E-1,-0E0,-0E0,1.2694359E-1,-1.6799219E-1,-0E0,-0E0,2.2257014E-1],"categories":[],"categories_nodes":[],"categories_segments":[],"categories_sizes":[],"default_left":[0,0,0,0,1,0,0,0,0,1,0,0,0,0,0,0,0,0,0,0,0,0,0,0,0,0,0,0,0,0,0],"id":19,"left_children":[1,3,-1,5,7,9,11,13,15,17,19,-1,-1,-1,-1,21,-1,-1,23,25,27,29,-1,-1,-1,-1,-1,-1,-1,-1,-1],"loss_changes":[3.7027255E-1,4.832123E-1,0E0,6.9042414E-1,9.336721E-1,5.068702E-1,2.5397778E-1,9.346981E-3,1.0812931E0,4.3215033E-1,8.6567193E-1,0E0,0E0,0E0,0E0,1.1519599E-1,0E0,0E0,5.7214296E-1,3.262363E-1,1.4479095E-1,3.6004305E-2,0E0,0E0,0E0,0E0,0E0,0E0,0E0,0E0,0E0],"parents":[2147483647,0,0,1,1,3,3,4,4,5,5,6,6,7,7,8,8,9,9,10,10,15,15,18,18,19,19,20,20,21,21],"right_children":[2,4,-1,6,8,10,12,14,16,18,20,-1,-1,-1,-1,22,-1,-1,24,26,28,30,-1,-1,-1,-1,-1,-1,-1,-1,-1],"split_conditions":[-9.25E-1,-1.625E1,-1.0798637E-1,2.564E0,1.8E2,1.1E3,-7.375202E0,2.924E3,1.17079E2,1.012E2,-6.275E1,-0E0,-1.3675834E-1,-5.369964E-2,-0E0,1.8E1,-0E0,-0E0,1.6403E2,3.47628E2,1.82937E2,1.0811E2,-0E0,1.2955047E-1,-0E0,-0E0,1.2694359E-1,-1.6799219E-1,-0E0,-0E0,2.2257014E-1],"split_indices":[6,6,0,3,81,22,31,19,74,69,6,0,0,0,0,44,0,0,47,38,39,48,0,0,0,0,0,0,0,0,0],"split_type":[0,0,0,0,0,0,0,0,0,0,0,0,0,0,0,0,0,0,0,0,0,0,0,0,0,0,0,0,0,0,0],"sum_hessian":[3.2505478E1,3.0713617E1,1.7918624E0,2.0488983E1,1.0224634E1,1.5718571E1,4.770411E0,2.1393826E0,8.085252E0,1.00127535E1,5.705817E0,1.0572828E0,3.7131283E0,1.1382514E0,1.0011312E0,6.312585E0,1.7726668E0,1.2623312E0,8.7504225E0,2.0889385E0,3.616879E0,5.18892E0,1.1236652E0,6.427631E0,2.3227916E0,1.0222261E0,1.0667124E0,2.503885E0,1.1129941E0,1.5420635E0,3.6468563E0],"tree_param":{"num_deleted":"0","num_feature":"82","num_nodes":"31","size_leaf_vector":"1"}},{"base_weights":[-1.0482953E-2,-7.460856E-2,1.8351844E-1,1.8565981E-1,-1.5808254E-1,-0E0,9.577661E-2,3.728281E-1,-0E0,2.2811744E-2,-3.0819502E-1,-0E0,1.4219622E-1,2.220389E-1,-1.79112E-1,-0E0,-4.2039946E-1,4.5172548E-1,-0E0,-7.106707E-2,-0E0,-0E0,3.888006E-2,-5.212983E-1,-0E0,-0E0,1.9773789E-1,-4.929494E-2,-0E0,-0E0,-1.788326E-1],"categories":[],"categories_nodes":[],"categories_segments":[],"categories_sizes":[],"default_left":[0,0,1,0,0,0,0,0,0,0,0,0,0,0,0,0,0,0,1,0,0,0,0,0,0,0,0,0,0,0,0],"id":20,"left_children":[1,3,5,7,9,-1,-1,11,-1,13,15,-1,-1,17,19,21,23,25,27,-1,-1,-1,-1,29,-1,-1,-1,-1,-1,-1,-1],"loss_changes":[3.3187097E-1,6.199797E-1,2.2852379E-1,3.6386654E-1,8.8899255E-1,0E0,0E0,9.946054E-2,0E0,4.562953E-1,7.125075E-1,0E0,0E0,5.6376684E-1,2.180259E-2,4.9819615E-2,9.03636E-1,5.34026E-1,6.511131E-2,0E0,0E0,0E0,0E0,3.9835262E-1,0E0,0E0,0E0,0E0,0E0,0E0,0E0],"parents":[2147483647,0,0,1,1,2,2,3,3,4,4,7,7,9,9,10,10,13,13,14,14,15,15,16,16,17,17,18,18,23,23],"right_children":[2,4,6,8,10,-1,-1,12,-1,14,16,-1,-1,18,20,22,24,26,28,-1,-1,-1,-1,30,-1,-1,-1,-1,-1,-1,-1],"split_conditions":[1.81E2,-2.16E2,1.8887328E2,4.589E1,8E0,-0E0,9.577661E-2,2.43088E2,-0E0,3.0138E2,1.25E2,-0E0,1.4219622E-1,6.4781525E1,1.2E3,1.012E2,6.76E1,6.4375E1,1.994247E2,-7.106707E-2,-0E0,-0E0,3.888006E-2,3.99E2,-0E0,-0E0,1.9773789E-1,-4.929494E-2,-0E0,-0E0,-1.788326E-1],"split_indices":[8,29,52,57,44,0,0,38,0,40,69,0,0,80,22,69,0,73,77,0,0,0,0,24,0,0,0,0,0,0,0],"split_type":[0,0,0,0,0,0,0,0,0,0,0,0,0,0,0,0,0,0,0,0,0,0,0,0,0,0,0,0,0,0,0],"sum_hessian":[3.1489237E1,2.7188208E1,4.3010283E0,4.007828E0,2.318038E1,1.3072945E0,2.9937336E0,2.8595762E0,1.1482518E0,8.511315E0,1.46690645E1,1.0289284E0,1.830648E0,6.2026124E0,2.3087032E0,3.216455E0,1.145261E1,3.5030046E0,2.6996078E0,1.2800485E0,1.0286547E0,1.2503328E0,1.9661222E0,1.0423863E1,1.0287462E0,1.1587782E0,2.3442264E0,1.4115388E0,1.288069E0,1.5663906E0,8.857472E0],"tree_param":{"num_deleted":"0","num_feature":"82","num_nodes":"31","size_leaf_vector":"1"}},{"base_weights":[-0E0,9.610133E-2,-8.683923E-2,-1.9178158E-2,5.091131E-1,-2.557343E-1,7.1001835E-2,9.6035354E-2,-2.3847945E-1,-0E0,2.304986E-1,-3.6692002E-1,-0E0,3.168972E-1,-0E0,-0E0,7.2739296E-2,-0E0,-3.8518137E-1,-5.5493987E-1,-0E0,1.0567514E-2,-0E0,1.3828659E-1,-0E0,-6.899174E-2,-0E0,-1.5755603E-1,-0E0,-0E0,-1.8695788E-1,4.0717395E-3,-1.09497614E-1,3.407605E-2,-0E0,-8.1113026E-2,-0E0],"categories":[],"categories_nodes":[],"categories_segments":[],"categories_sizes":[],"default_left":[0,0,1,0,0,0,0,0,0,0,0,1,0,0,0,0,0,0,0,0,0,0,0,0,0,0,0,0,0,0,0,0,0,0,0,0,0],"id":21,"left_children":[1,3,5,7,9,11,13,15,17,-1,-1,19,21,23,25,-1,-1,-1,27,29,31,-1,-1,-1,-1,-1,33,-1,-1,-1,-1,-1,35,-1,-1,-1,-1],"loss_changes":[2.6367557E-1,9.783884E-1,6.972462E-1,3.6331856E-1,7.732096E-1,5.8016235E-1,3.929125E-1,1.5263951E-1,3.448764E-1,0E0,0E0,4.647082E-1,2.4883747E-3,2.6673263E-1,1.5979789E-1,0E0,0E0,0E0,3.0151403E-1,9.2154026E-2,5.1624283E-2,0E0,0E0,0E0,0E0,0E0,2.9707637E-2,0E0,0E0,0E0,0E0,0E0,1.6574945E-1,0E0,0E0,0E0,0E0],"parents":[2147483647,0,0,1,1,2,2,3,3,4,4,5,5,6,6,7,7,8,8,11,11,12,12,13,13,14,14,18,18,19,19,20,20,26,26,32,32],"right_children":[2,4,6,8,10,12,14,16,18,-1,-1,20,22,24,26,-1,-1,-1,28,30,32,-1,-1,-1,-1,-1,34,-1,-1,-1,-1,-1,36,-1,-1,-1,-1],"split_conditions":[-3.246326E1,-4.4633198E1,2.595E2,-1.05265335E2,2.083E3,2.29E3,6.1313995E1,4.8071E1,-2.1816E1,-0E0,2.304986E-1,1.10435E2,-3.008E1,5.9809616E1,-1.65E1,-0E0,7.2739296E-2,-0E0,1.07899E2,2.2569E1,2.3E2,1.0567514E-2,-0E0,1.3828659E-1,-0E0,-6.899174E-2,6.2379166E1,-1.5755603E-1,-0E0,-0E0,-1.8695788E-1,4.0717395E-3,6.539933E1,3.407605E-2,-0E0,-8.1113026E-2,-0E0],"split_indices":[2,2,69,2,11,9,80,39,4,0,0,66,73,59,6,0,0,0,68,37,72,0,0,0,0,0,58,0,0,0,0,0,76,0,0,0,0],"split_type":[0,0,0,0,0,0,0,0,0,0,0,0,0,0,0,0,0,0,0,0,0,0,0,0,0,0,0,0,0,0,0,0,0,0,0,0,0],"sum_hessian":[3.0219973E1,1.1218442E1,1.9001532E1,8.021181E0,3.1972601E0,1.1296549E1,7.7049823E0,3.2664008E0,4.754781E0,1.0445714E0,2.152689E0,9.282657E0,2.0138927E0,3.3495305E0,4.355452E0,1.000691E0,2.2657096E0,1.2242895E0,3.530491E0,5.0042715E0,4.2783847E0,1.0054537E0,1.008439E0,2.3110409E0,1.0384895E0,2.0214777E0,2.3339741E0,2.5301101E0,1.000381E0,1.0058887E0,3.998383E0,1.0034561E0,3.2749283E0,1.3025663E0,1.0314078E0,1.9684548E0,1.3064736E0],"tree_param":{"num_deleted":"0","num_feature":"82","num_nodes":"37","size_leaf_vector":"1"}},{"base_weights":[-0E0,-1.7839019E-1,3.2735523E-2,-0E0,-3.260784E-1,-0E0,3.0826807E-1,-1.3318494E-1,-0E0,-1.6996768E-1,5.949617E-2,-0E0,1.4342888E-1,-0E0,-4.2240942E-1,-3.251072E-2,2.257021E-1,-0E0,4.907786E-2,-1.4949293E-1,-0E0,3.0444117E-2,-2.1409963E-1,-0E0,4.4943643E-1,7.725113E-2,-0E0,-1.23752266E-1,-0E0,-5.669691E-2,-0E0,-0E0,1.8342446E-1],"categories":[],"categories_nodes":[],"categories_segments":[],"categories_sizes":[],"default_left":[0,0,0,0,1,1,0,0,0,0,0,0,0,1,1,0,0,0,0,0,0,0,0,0,0,0,0,0,0,0,0,0,0],"id":22,"left_children":[1,3,5,-1,7,9,11,-1,-1,13,15,-1,-1,17,19,21,23,-1,-1,-1,-1,25,27,29,31,-1,-1,-1,-1,-1,-1,-1,-1],"loss_changes":[2.1739696E-1,3.2143116E-1,3.6093166E-1,0E0,2.2262222E-1,2.8077552E-1,2.690279E-1,0E0,0E0,5.8647764E-1,3.9113012E-1,0E0,0E0,7.816739E-2,4.162115E-2,2.3784518E-1,7.117745E-1,0E0,0E0,0E0,0E0,1.4347878E-1,4.4668007E-1,7.3964484E-2,5.2876997E-1,0E0,0E0,0E0,0E0,0E0,0E0,0E0,0E0],"parents":[2147483647,0,0,1,1,2,2,4,4,5,5,6,6,9,9,10,10,13,13,14,14,15,15,16,16,21,21,22,22,23,23,24,24],"right_children":[2,4,6,-1,8,10,12,-1,-1,14,16,-1,-1,18,20,22,24,-1,-1,-1,-1,26,28,30,32,-1,-1,-1,-1,-1,-1,-1,-1],"split_conditions":[2.71E1,4.840551E1,8.59194E2,-0E0,1.3300398E2,6.730659E1,1.891E3,-1.3318494E-1,-0E0,2.2E-2,1.9985E1,-0E0,1.4342888E-1,1.0913774E2,5.709361E1,2.785E1,3.43E2,-0E0,4.907786E-2,-1.4949293E-1,-0E0,-4.7897E1,2.3697E2,1.6004E2,1.8514584E1,7.725113E-2,-0E0,-1.23752266E-1,-0E0,-5.669691E-2,-0E0,-0E0,1.8342446E-1],"split_indices":[37,62,41,0,50,62,16,0,0,3,73,0,0,71,59,8,9,0,0,0,0,73,46,8,67,0,0,0,0,0,0,0,0],"split_type":[0,0,0,0,0,0,0,0,0,0,0,0,0,0,0,0,0,0,0,0,0,0,0,0,0,0,0,0,0,0,0,0,0],"sum_hessian":[2.9055672E1,4.9872713E0,2.40684E1,1.1722764E0,3.8149946E0,2.0987598E1,3.080802E0,2.727137E0,1.0878575E0,6.8662844E0,1.4121314E1,1.2072585E0,1.8735435E0,3.3057952E0,3.5604892E0,6.549169E0,7.572145E0,1.3850281E0,1.9207671E0,2.4446418E0,1.1158475E0,2.2521093E0,4.2970595E0,2.8865452E0,4.6856E0,1.2092746E0,1.0428348E0,3.0519521E0,1.2451073E0,1.0708419E0,1.8157033E0,1.1989878E0,3.486612E0],"tree_param":{"num_deleted":"0","num_feature":"82","num_nodes":"33","size_leaf_vector":"1"}},{"base_weights":[-0E0,-1.5755562E-1,3.7468337E-2,-3.759594E-1,-0E0,1.0991683E-1,-9.334141E-2,-0E0,-1.5222953E-1,-0E0,1.8193688E-2,1.9858529E-1,-0E0,-0E0,-2.947897E-1,-1.4865923E-2,3.097079E-1,9.922188E-2,-8.7388575E-2,-1.1007896E-1,-0E0,-7.515498E-2,-0E0,-0E0,4.0972054E-1,-0E0,3.7204903E-2,1.5073994E-1,-0E0],"categories":[],"categories_nodes":[],"categories_segments":[],"categories_sizes":[],"default_left":[1,1,0,0,0,0,0,0,0,0,0,0,1,0,0,0,0,0,0,0,0,0,0,0,0,0,0,0,0],"id":23,"left_children":[1,3,5,7,9,11,13,-1,-1,-1,-1,15,17,-1,19,21,23,25,-1,-1,-1,-1,-1,-1,27,-1,-1,-1,-1],"loss_changes":[2.066626E-1,4.785632E-1,2.4256831E-1,2.7191645E-1,8.105757E-3,3.3853266E-1,2.7272618E-1,0E0,0E0,0E0,0E0,5.807893E-1,3.413897E-1,0E0,3.8371712E-2,1.4211442E-1,6.0160923E-1,5.522296E-4,0E0,0E0,0E0,0E0,0E0,0E0,5.837625E-1,0E0,0E0,0E0,0E0],"parents":[2147483647,0,0,1,1,2,2,3,3,4,4,5,5,6,6,11,11,12,12,14,14,15,15,16,16,17,17,24,24],"right_children":[2,4,6,8,10,12,14,-1,-1,-1,-1,16,18,-1,20,22,24,26,-1,-1,-1,-1,-1,-1,28,-1,-1,-1,-1],"split_conditions":[5.390087E1,1.6E2,7.503E0,9.637887E1,3.6328056E0,8.59785E0,-3.1589327E1,-0E0,-1.5222953E-1,-0E0,1.8193688E-2,5.707969E1,2.4045553E1,-0E0,1.6E2,2.25205E2,1.972E3,1.4319138E1,-8.7388575E-2,-1.1007896E-1,-0E0,-7.515498E-2,-0E0,-0E0,5.94E1,-0E0,3.7204903E-2,1.5073994E-1,-0E0],"split_indices":[77,78,3,52,30,30,27,0,0,0,0,50,79,0,63,37,19,30,0,0,0,0,0,0,0,0,0,0,0],"split_type":[0,0,0,0,0,0,0,0,0,0,0,0,0,0,0,0,0,0,0,0,0,0,0,0,0,0,0,0,0],"sum_hessian":[2.8148817E1,6.016998E0,2.2131819E1,3.6181283E0,2.3988693E0,1.8231056E1,3.9007626E0,1.0270033E0,2.591125E0,1.1949556E0,1.2039138E0,1.3475988E1,4.755069E0,1.2710606E0,2.629702E0,2.477347E0,1.0998641E1,2.0903072E0,2.6647613E0,1.6277695E0,1.0019325E0,1.2767074E0,1.2006395E0,1.5590311E0,9.4396105E0,1.076254E0,1.0140532E0,8.253559E0,1.1860512E0],"tree_param":{"num_deleted":"0","num_feature":"82","num_nodes":"29","size_leaf_vector":"1"}},{"base_weights":[-0E0,-7.454674E-2,1.0292155E-1,3.0299526E-2,-2.3347706E-1,-3.114521E-2,2.9081446E-1,-0E0,2.0003368E-1,1.2780409E-2,-3.438544E-1,-0E0,-6.503357E-2,1.532718E-1,-0E0,-8.482247E-2,4.4950424E-3,-0E0,3.2828358E-1,-0E0,-4.557228E-1,4.0093545E-2,-0E0,-0E0,1.1637786E-1,-0E0,-5.502036E-1,-0E0,-1.9426817E-1],"categories":[],"categories_nodes":[],"categories_segments":[],"categories_sizes":[],"default_left":[1,0,0,0,0,0,0,0,0,0,0,0,0,0,0,0,0,0,0,0,0,0,0,0,0,0,0,0,0],"id":24,"left_children":[1,3,5,7,9,11,13,15,17,-1,19,-1,-1,-1,-1,-1,21,-1,23,-1,25,-1,-1,-1,-1,-1,27,-1,-1],"loss_changes":[2.0624702E-1,5.159744E-1,4.2821646E-1,2.1103033E-1,6.005543E-1,9.514054E-2,5.328315E-1,2.2735845E-1,2.5515303E-1,0E0,5.6562877E-1,0E0,0E0,0E0,0E0,0E0,4.8938666E-2,0E0,2.6649237E-3,0E0,5.107554E-1,0E0,0E0,0E0,0E0,0E0,4.4126987E-1,0E0,0E0],"parents":[2147483647,0,0,1,1,2,2,3,3,4,4,5,5,6,6,7,7,8,8,10,10,16,16,18,18,20,20,26,26],"right_children":[2,4,6,8,10,12,14,16,18,-1,20,-1,-1,-1,-1,-1,22,-1,24,-1,26,-1,-1,-1,-1,-1,28,-1,-1],"split_conditions":[2.1927E2,2.6241232E1,4.12E1,3.0435E1,-9.277E0,1.85428E2,7.84E2,2.93E1,1.518E2,1.2780409E-2,-2.5E2,-0E0,-6.503357E-2,1.532718E-1,-0E0,-8.482247E-2,-1.5290906E1,-0E0,7.028E1,-0E0,1.04E-1,4.0093545E-2,-0E0,-0E0,1.1637786E-1,-0E0,6.1508152E1,-0E0,-1.9426817E-1],"split_indices":[46,79,37,42,74,66,13,56,38,0,29,0,0,0,0,0,2,0,7,0,42,0,0,0,0,0,53,0,0],"split_type":[0,0,0,0,0,0,0,0,0,0,0,0,0,0,0,0,0,0,0,0,0,0,0,0,0,0,0,0,0],"sum_hessian":[2.7411465E1,1.9911802E1,7.4996614E0,9.491207E0,1.0420596E1,2.41092E0,5.088742E0,4.9765162E0,4.5146904E0,1.1083078E0,9.312288E0,1.3159413E0,1.0949786E0,3.0140803E0,2.0746613E0,1.8429699E0,3.1335464E0,1.0995984E0,3.415092E0,1.717899E0,7.59439E0,1.7446455E0,1.388901E0,1.2355435E0,2.1795485E0,1.0110255E0,6.583364E0,1.05651E0,5.526854E0],"tree_param":{"num_deleted":"0","num_feature":"82","num_nodes":"29","size_leaf_vector":"1"}},{"base_weights":[-0E0,6.660201E-2,-9.611648E-2,2.3614904E-1,-0E0,-2.2677496E-1,4.2501703E-2,-0E0,3.5621852E-1,4.5486316E-2,-8.4615394E-2,-0E0,-4.9981213E-1,-0E0,4.7189135E-2,-0E0,1.35188E-1,2.7836236E-1,-8.124432E-2,1.1418871E-1,-3.626719E-2,-1.720696E-1,-0E0,-0E0,1.4410335E-1,-3.8549617E-2,-0E0,6.555609E-2,-0E0,-6.7669675E-2,-0E0],"categories":[],"categories_nodes":[],"categories_segments":[],"categories_sizes":[],"default_left":[0,0,1,0,0,0,0,0,1,1,0,0,1,0,0,0,0,0,0,0,0,0,0,0,0,0,0,0,0,0,0],"id":25,"left_children":[1,3,5,7,9,11,13,-1,15,17,-1,19,21,-1,-1,-1,-1,23,25,27,29,-1,-1,-1,-1,-1,-1,-1,-1,-1,-1],"loss_changes":[1.887151E-1,3.0638137E-1,3.9367217E-1,2.6628312E-1,2.6960588E-1,7.3415875E-1,7.370463E-2,0E0,1.10717E-1,3.9129555E-1,0E0,4.7754087E-2,4.6979308E-2,0E0,0E0,0E0,0E0,2.805318E-1,1.2734685E-2,6.3586324E-2,1.1682253E-1,0E0,0E0,0E0,0E0,0E0,0E0,0E0,0E0,0E0,0E0],"parents":[2147483647,0,0,1,1,2,2,3,3,4,4,5,5,6,6,8,8,9,9,11,11,12,12,17,17,18,18,19,19,20,20],"right_children":[2,4,6,8,10,12,14,-1,16,18,-1,20,22,-1,-1,-1,-1,24,26,28,30,-1,-1,-1,-1,-1,-1,-1,-1,-1,-1],"split_conditions":[-9.764099E0,1.1E1,2.0313208E2,-1.875E1,2.68685E2,1.1911E2,4.74E2,-0E0,1.9985E1,3.946E1,-8.4615394E-2,4.6336716E1,6.999131E1,-0E0,4.7189135E-2,-0E0,1.35188E-1,3.4564734E0,-5.416394E1,-3.25E1,1.4E1,-1.720696E-1,-0E0,-0E0,1.4410335E-1,-3.8549617E-2,-0E0,6.555609E-2,-0E0,-6.7669675E-2,-0E0],"split_indices":[2,44,49,6,36,46,14,0,73,57,0,59,61,0,0,0,0,30,2,6,44,0,0,0,0,0,0,0,0,0,0],"split_type":[0,0,0,0,0,0,0,0,0,0,0,0,0,0,0,0,0,0,0,0,0,0,0,0,0,0,0,0,0,0,0],"sum_hessian":[2.6285173E1,1.4115726E1,1.2169447E1,5.6963677E0,8.419359E0,8.869732E0,3.299715E0,1.6549383E0,4.0414295E0,6.2180734E0,2.2012856E0,4.8990836E0,3.9706483E0,1.0069189E0,2.292796E0,1.345891E0,2.6955388E0,3.9655843E0,2.252489E0,2.2992558E0,2.5998275E0,2.9173157E0,1.0533324E0,2.0821671E0,1.883417E0,1.0714245E0,1.1810647E0,1.2325245E0,1.0667315E0,1.3891081E0,1.2107195E0],"tree_param":{"num_deleted":"0","num_feature":"82","num_nodes":"31","size_leaf_vector":"1"}},{"base_weights":[-0E0,-5.0819784E-2,1.06862165E-1,-1.5591586E-1,1.2854855E-1,-0E0,3.4407675E-1,-2.833409E-1,1.6622962E-2,-0E0,6.36812E-2,-2.0476121E-2,-0E0,1.3890569E-1,-0E0,-4.0755597E-1,-0E0,-0E0,1.9249347E-1,-0E0,-5.221106E-1,7.8251936E-2,-3.390559E-2,9.352444E-2,-0E0,-1.77828E-1,-0E0,-0E0,5.636044E-2],"categories":[],"categories_nodes":[],"categories_segments":[],"categories_sizes":[],"default_left":[1,0,0,0,0,0,0,0,0,0,0,0,0,0,0,0,0,0,0,0,0,0,0,0,0,0,0,0,0],"id":26,"left_children":[1,3,5,7,9,11,13,15,17,-1,-1,-1,-1,-1,-1,19,21,-1,23,-1,25,27,-1,-1,-1,-1,-1,-1,-1],"loss_changes":[1.3259794E-1,4.2899567E-1,3.9748493E-1,5.7114744E-1,1.01030365E-1,1.19078085E-2,1.4350942E-1,4.1453505E-1,1.186615E-1,0E0,0E0,0E0,0E0,0E0,0E0,5.231755E-1,5.1092543E-2,0E0,8.212847E-2,0E0,6.1463475E-2,5.9810363E-2,0E0,0E0,0E0,0E0,0E0,0E0,0E0],"parents":[2147483647,0,0,1,1,2,2,3,3,4,4,5,5,6,6,7,7,8,8,15,15,16,16,18,18,20,20,21,21],"right_children":[2,4,6,8,10,12,14,16,18,-1,-1,-1,-1,-1,-1,20,22,-1,24,-1,26,28,-1,-1,-1,-1,-1,-1,-1],"split_conditions":[2.05E2,6.5737E1,2.1E2,8.26233E2,-3.4233803E1,7.946234E1,-1.5290906E1,3.85E2,1.244E3,-0E0,6.36812E-2,-2.0476121E-2,-0E0,1.3890569E-1,-0E0,-1.6366E1,1.001E3,-0E0,6.317747E1,-0E0,4.51066E2,-1.7E1,-3.390559E-2,9.352444E-2,-0E0,-1.77828E-1,-0E0,-0E0,5.636044E-2],"split_indices":[78,42,48,41,27,80,2,13,12,0,0,0,0,0,0,73,13,0,62,0,40,6,0,0,0,0,0,0,0],"split_type":[0,0,0,0,0,0,0,0,0,0,0,0,0,0,0,0,0,0,0,0,0,0,0,0,0,0,0,0,0],"sum_hessian":[2.5512093E1,1.9547655E1,5.9644365E0,1.5184131E1,4.3635244E0,2.9352083E0,3.029228E0,1.099703E1,4.1871E0,1.1543356E0,3.209189E0,1.556107E0,1.3791014E0,1.8944209E0,1.1348072E0,7.2941966E0,3.7028337E0,1.9460016E0,2.2410984E0,1.3211199E0,5.973077E0,2.270897E0,1.4319367E0,1.0807673E0,1.1603312E0,4.584859E0,1.388218E0,1.0088047E0,1.2620924E0],"tree_param":{"num_deleted":"0","num_feature":"82","num_nodes":"29","size_leaf_vector":"1"}},{"base_weights":[-0E0,1.5240118E-2,-6.1716642E-2,-0E0,1.7485644E-1,7.6422624E-2,-1.1317043E-1,1.0087649E-1,-0E0,-7.65921E-2,2.934462E-1,-0E0,-2.5153494E-1,-0E0,-5.9013557E-2,1.2839447E-1,-0E0,1.4700657E-1,-0E0,-3.6634222E-1,-0E0,-0E0,6.798696E-2,-0E0,-1.4587112E-1],"categories":[],"categories_nodes":[],"categories_segments":[],"categories_sizes":[],"default_left":[0,0,0,0,0,0,0,0,0,0,0,0,1,0,0,0,0,1,0,0,0,0,0,0,0],"id":27,"left_children":[1,3,-1,5,7,9,11,-1,-1,13,15,17,19,-1,-1,-1,-1,21,-1,23,-1,-1,-1,-1,-1],"loss_changes":[1.0091799E-1,1.8041696E-1,0E0,2.0181154E-1,3.4207088E-1,4.769737E-1,3.487494E-1,0E0,0E0,8.134346E-2,3.8090205E-1,7.457527E-2,3.1221795E-1,0E0,0E0,0E0,0E0,4.4822395E-2,0E0,2.762372E-1,0E0,0E0,0E0,0E0,0E0],"parents":[2147483647,0,0,1,1,3,3,4,4,5,5,6,6,9,9,10,10,11,11,12,12,17,17,19,19],"right_children":[2,4,-1,6,8,10,12,-1,-1,14,16,18,20,-1,-1,-1,-1,22,-1,24,-1,-1,-1,-1,-1],"split_conditions":[-9.25E-1,-1.175E1,-6.1716642E-2,-4.9E1,6.9143E1,2.93668E2,5.27E2,1.0087649E-1,-0E0,-6.747625E1,5.17617E2,4.3761665E1,9.7725E1,-0E0,-5.9013557E-2,1.2839447E-1,-0E0,9.1973E1,-0E0,3E0,-0E0,-0E0,6.798696E-2,-0E0,-1.4587112E-1],"split_indices":[6,6,0,6,74,38,16,0,0,58,38,76,74,0,0,0,0,66,0,44,0,0,0,0,0],"split_type":[0,0,0,0,0,0,0,0,0,0,0,0,0,0,0,0,0,0,0,0,0,0,0,0,0],"sum_hessian":[2.4734362E1,2.348418E1,1.2501813E0,1.8397343E1,5.0868382E0,7.529822E0,1.0867521E1,3.6713247E0,1.4155134E0,2.661666E0,4.868156E0,3.9531124E0,6.9144087E0,1.0044078E0,1.6572582E0,3.838246E0,1.0299097E0,2.4508126E0,1.5022998E0,5.0575337E0,1.8568748E0,1.1260042E0,1.3248084E0,1.450612E0,3.606922E0],"tree_param":{"num_deleted":"0","num_feature":"82","num_nodes":"25","size_leaf_vector":"1"}},{"base_weights":[-0E0,-1.21097475E-1,1.7489102E-2,-2.9051086E-1,-0E0,8.340723E-2,-5.918941E-2,-0E0,-1.0329109E-1,-0E0,1.6456087E-1,-0E0,-6.826862E-2,-0E0,-1.1261708E-1,2.6421842E-1,-0E0,-7.2744526E-2,-0E0,-0E0,3.841971E-1,-0E0,-2.6529802E-2,1.4465107E-1,-0E0],"categories":[],"categories_nodes":[],"categories_segments":[],"categories_sizes":[],"default_left":[1,1,0,1,0,0,0,0,0,0,0,0,0,0,0,0,1,0,0,0,0,0,0,0,0],"id":28,"left_children":[1,3,5,7,-1,9,11,-1,-1,13,15,-1,-1,-1,17,19,21,-1,-1,-1,23,-1,-1,-1,-1],"loss_changes":[9.334885E-2,2.7829084E-1,1.260358E-1,2.8960377E-2,0E0,2.0904583E-1,1.5198386E-1,0E0,0E0,5.340485E-2,2.843485E-1,0E0,0E0,0E0,1.2276146E-1,4.116134E-1,2.063082E-2,0E0,0E0,0E0,3.3439147E-1,0E0,0E0,0E0,0E0],"parents":[2147483647,0,0,1,1,2,2,3,3,5,5,6,6,9,9,10,10,14,14,15,15,16,16,20,20],"right_children":[2,4,6,8,-1,10,12,-1,-1,14,16,-1,-1,-1,18,20,22,-1,-1,-1,24,-1,-1,-1,-1],"split_conditions":[5.390087E1,1.0099691E2,7.503E0,2.4252E2,-0E0,-1.5041156E1,-3.1589327E1,-0E0,-1.0329109E-1,-4.7897E1,7.8170834E0,-0E0,-6.826862E-2,-0E0,9E0,2.39E3,2.4045553E1,-7.2744526E-2,-0E0,-0E0,1.371E3,-0E0,-2.6529802E-2,1.4465107E-1,-0E0],"split_indices":[77,68,3,54,0,27,27,0,0,73,30,0,0,0,5,19,79,0,0,0,12,0,0,0,0],"split_type":[0,0,0,0,0,0,0,0,0,0,0,0,0,0,0,0,0,0,0,0,0,0,0,0,0],"sum_hessian":[2.4119879E1,4.9447875E0,1.917509E1,3.3303754E0,1.6144122E0,1.580157E1,3.373522E0,1.0031219E0,2.3272536E0,4.7658587E0,1.1035711E1,1.1427091E0,2.230813E0,1.5549855E0,3.210873E0,7.741827E0,3.2938843E0,1.9961585E0,1.2147145E0,1.8187848E0,5.923042E0,1.6557858E0,1.6380985E0,4.833777E0,1.0892649E0],"tree_param":{"num_deleted":"0","num_feature":"82","num_nodes":"25","size_leaf_vector":"1"}},{"base_weights":[-0E0,3.8940784E-2,-8.754397E-2,1.2632759E-1,-4.37777E-2,-2.0945066E-1,1.6937325E-3,2.2281337E-1,-0E0,-0E0,-4.7326602E-2,-0E0,-1.2810121E-1,-0E0,3.2431133E-2,-0E0,3.6807874E-1,4.8987888E-2,-4.4536494E-2,-1.8439017E-2,1.6059373E-2,4.5163575E-1,-0E0,2.01319E-2,-0E0,-0E0,-3.693489E-2,-0E0,1.6130187E-1],"categories":[],"categories_nodes":[],"categories_segments":[],"categories_sizes":[],"default_left":[0,1,1,1,0,0,0,0,0,0,0,0,0,0,0,1,1,0,0,0,0,0,0,0,0,0,0,0,0],"id":29,"left_children":[1,3,5,7,9,11,13,15,-1,-1,-1,17,-1,-1,-1,19,21,23,25,-1,-1,27,-1,-1,-1,-1,-1,-1,-1],"loss_changes":[1.1143187E-1,1.7070317E-1,2.9281247E-1,2.881663E-1,4.7524437E-2,3.9599743E-1,2.7890535E-2,2.936936E-1,0E0,0E0,0E0,1.4077759E-2,0E0,0E0,0E0,1.9011667E-2,1.5013039E-1,1.7882618E-3,2.9294966E-2,0E0,0E0,4.2587698E-2,0E0,0E0,0E0,0E0,0E0,0E0,0E0],"parents":[2147483647,0,0,1,1,2,2,3,3,4,4,5,5,6,6,7,7,11,11,15,15,16,16,17,17,18,18,21,21],"right_children":[2,4,6,8,10,12,14,16,-1,-1,-1,18,-1,-1,-1,20,22,24,26,-1,-1,28,-1,-1,-1,-1,-1,-1,-1],"split_conditions":[-9.764099E0,1.9619443E2,2.0313208E2,1.72961E2,2.2E-2,1.1911E2,2.05E2,-1.6744759E1,-0E0,-0E0,-4.7326602E-2,8.184234E1,-1.2810121E-1,-0E0,3.2431133E-2,5.4697357E1,7.186E1,7.86E1,2.5607815E1,-1.8439017E-2,1.6059373E-2,5.358798E1,-0E0,2.01319E-2,-0E0,-0E0,-3.693489E-2,-0E0,1.6130187E-1],"split_indices":[2,62,49,66,3,46,65,27,0,0,0,71,0,0,0,59,57,37,79,0,0,62,0,0,0,0,0,0,0],"split_type":[0,0,0,0,0,0,0,0,0,0,0,0,0,0,0,0,0,0,0,0,0,0,0,0,0,0,0,0,0],"sum_hessian":[2.3635141E1,1.28322315E1,1.0802911E1,1.0625863E1,2.2063675E0,7.736298E0,3.066613E0,8.541583E0,2.0842803E0,1.0498217E0,1.1565458E0,4.462483E0,3.273815E0,1.6790396E0,1.3875734E0,3.8774114E0,4.6641717E0,2.025192E0,2.4372911E0,1.3783205E0,2.499091E0,3.4982188E0,1.165953E0,1.0092461E0,1.015946E0,1.0548047E0,1.3824863E0,1.1770936E0,2.3211253E0],"tree_param":{"num_deleted":"0","num_feature":"82","num_nodes":"29","size_leaf_vector":"1"}},{"base_weights":[-0E0,-4.8054013E-2,6.955603E-2,-1.3547073E-1,5.485902E-2,-0E0,2.6997277E-1,-2.4828434E-1,-0E0,-0E0,1.3834417E-1,-9.304769E-3,-0E0,1.0764622E-1,-0E0,-0E0,-3.6582273E-1,-0E0,1.0626466E-1,6.818785E-2,-0E0,1.4732831E-2,-5.652774E-2,-0E0,-4.4313937E-1,5.112158E-2,-0E0,-0E0,-4.68718E-2,-1.6091213E-1,-0E0],"categories":[],"categories_nodes":[],"categories_segments":[],"categories_sizes":[],"default_left":[1,0,0,0,0,0,0,0,0,0,0,0,0,0,0,0,0,0,1,0,0,0,0,0,0,0,0,0,0,0,0],"id":30,"left_children":[1,3,5,7,9,11,13,15,17,-1,19,-1,-1,-1,-1,21,23,-1,25,-1,-1,-1,27,-1,29,-1,-1,-1,-1,-1,-1],"loss_changes":[7.457878E-2,2.386676E-1,2.4858901E-1,3.9441583E-1,6.100843E-2,2.3184735E-3,8.2663506E-2,2.8803706E-1,4.1041262E-2,0E0,7.644632E-2,0E0,0E0,0E0,0E0,1.6126418E-2,2.279315E-1,0E0,3.0738927E-2,0E0,0E0,0E0,3.9689578E-2,0E0,2.576617E-1,0E0,0E0,0E0,0E0,0E0,0E0],"parents":[2147483647,0,0,1,1,2,2,3,3,4,4,5,5,6,6,7,7,8,8,10,10,15,15,16,16,18,18,22,22,24,24],"right_children":[2,4,6,8,10,12,14,16,18,-1,20,-1,-1,-1,-1,22,24,-1,26,-1,-1,-1,28,-1,30,-1,-1,-1,-1,-1,-1],"split_conditions":[2.05E2,6.5737E1,2.1E2,8.26233E2,5.350958E1,7.946234E1,-1.5290906E1,-4.347787E1,2.5126E1,-0E0,1.1956E2,-9.304769E-3,-0E0,1.0764622E-1,-0E0,2.398E3,2.6296E2,-0E0,6.317747E1,6.818785E-2,-0E0,1.4732831E-2,1.6408139E2,-0E0,1.93648E2,5.112158E-2,-0E0,-0E0,-4.68718E-2,-1.6091213E-1,-0E0],"split_indices":[78,42,48,41,59,80,2,2,37,0,48,0,0,0,0,19,54,0,62,0,0,0,34,0,65,0,0,0,0,0,0],"split_type":[0,0,0,0,0,0,0,0,0,0,0,0,0,0,0,0,0,0,0,0,0,0,0,0,0,0,0,0,0,0,0],"sum_hessian":[2.3151756E1,1.7627596E1,5.524161E0,1.3509256E1,4.1183386E0,2.6804068E0,2.843754E0,9.71771E0,3.7915475E0,1.1258782E0,2.9924605E0,1.4100913E0,1.2703154E0,1.8179433E0,1.0258106E0,3.6284332E0,6.0892763E0,1.1570616E0,2.634486E0,1.9588171E0,1.0336434E0,1.3717189E0,2.2567143E0,1.0972818E0,4.9919944E0,1.4719437E0,1.1625423E0,1.2045003E0,1.0522139E0,3.9855428E0,1.0064516E0],"tree_param":{"num_deleted":"0","num_feature":"82","num_nodes":"31","size_leaf_vector":"1"}},{"base_weights":[-0E0,-1.0902986E-1,1.3059634E-2,-5.5824306E-2,-0E0,-0E0,1.5684894E-1,1.295866E-1,-1.4477773E-1,-0E0,3.0129844E-1,2.616067E-1,-0E0,-3.4263045E-1,-0E0,1.2803957E-1,-0E0,-0E0,1.08917914E-1,-1.2188202E-1,-0E0,7.663637E-2,-5.982318E-2,-0E0,-6.167191E-2],"categories":[],"categories_nodes":[],"categories_segments":[],"categories_sizes":[],"default_left":[0,1,0,0,0,0,0,0,0,0,0,1,0,0,0,0,0,0,0,0,0,0,0,0,0],"id":31,"left_children":[1,3,5,-1,-1,7,9,11,13,-1,15,17,-1,19,21,-1,-1,-1,-1,-1,-1,-1,23,-1,-1],"loss_changes":[5.3731643E-2,5.6373596E-2,1.4333896E-1,0E0,0E0,3.1627405E-1,2.5320745E-1,2.3940378E-1,3.919918E-1,0E0,1.6387123E-1,1.7052129E-1,0E0,6.5524936E-2,1.6475892E-1,0E0,0E0,0E0,0E0,0E0,0E0,0E0,1.3977478E-1,0E0,0E0],"parents":[2147483647,0,0,1,1,2,2,5,5,6,6,7,7,8,8,10,10,11,11,13,13,14,14,22,22],"right_children":[2,4,6,-1,-1,8,10,12,14,-1,16,18,-1,20,22,-1,-1,-1,-1,-1,-1,-1,24,-1,-1],"split_conditions":[2.44E1,2.3342E2,1.735E3,-5.5824306E-2,-0E0,3E-3,-8.589E0,8.68E2,1.05567E2,-0E0,1.242E2,6.187476E1,-0E0,8.58E2,7.99E-1,1.2803957E-1,-0E0,-0E0,1.08917914E-1,-1.2188202E-1,-0E0,7.663637E-2,1.25E2,-0E0,-6.167191E-2],"split_indices":[37,78,16,0,0,3,4,16,39,0,60,77,0,14,42,0,0,0,0,0,0,0,69,0,0],"split_type":[0,0,0,0,0,0,0,0,0,0,0,0,0,0,0,0,0,0,0,0,0,0,0,0,0],"sum_hessian":[2.2510513E1,3.2290235E0,1.928149E1,2.0799317E0,1.1490916E0,1.4314474E1,4.967015E0,5.163051E0,9.151423E0,1.5607334E0,3.4062815E0,4.0103397E0,1.1527114E0,4.151569E0,4.9998546E0,2.0955539E0,1.3107276E0,1.1152623E0,2.8950775E0,3.0609746E0,1.0905943E0,1.265107E0,3.7347474E0,1.0263096E0,2.708438E0],"tree_param":{"num_deleted":"0","num_feature":"82","num_nodes":"25","size_leaf_vector":"1"}},{"base_weights":[-0E0,-2.9944874E-2,8.252231E-2,1.5157345E-2,-1.6538484E-1,-0E0,5.1818747E-2,1.3110644E-1,-3.413169E-2,-2.8796914E-1,-0E0,-0E0,2.2849707E-1,-3.7469292E-1,-0E0,-0E0,1.0761411E-2,-0E0,3.6119667E-1,-0E0,-4.9193943E-1,-0E0,1.3662516E-1,-1.6846183E-1,-0E0],"categories":[],"categories_nodes":[],"categories_segments":[],"categories_sizes":[],"default_left":[0,0,0,0,1,0,0,0,0,0,0,0,0,0,0,0,0,0,0,0,0,0,0,0,0],"id":32,"left_children":[1,3,5,7,9,-1,-1,11,-1,13,15,-1,17,19,-1,-1,-1,-1,21,-1,23,-1,-1,-1,-1],"loss_changes":[4.6982482E-2,2.407068E-1,6.520123E-2,1.9643071E-1,3.2023004E-1,0E0,0E0,2.4804036E-1,0E0,2.585612E-1,3.0117428E-3,0E0,3.6266345E-1,3.5972577E-1,0E0,0E0,0E0,0E0,2.3641884E-1,0E0,3.218937E-2,0E0,0E0,0E0,0E0],"parents":[2147483647,0,0,1,1,2,2,3,3,4,4,7,7,9,9,10,10,12,12,13,13,18,18,20,20],"right_children":[2,4,6,8,10,-1,-1,12,-1,14,16,-1,18,20,-1,-1,-1,-1,22,-1,24,-1,-1,-1,-1],"split_conditions":[1.798E2,4.721E1,1.77E2,6.1091583E1,1.0208E2,-0E0,5.1818747E-2,-4.7419557E-1,-3.413169E-2,2.651E3,1.0016601E2,-0E0,1.06E1,-8.625E1,-0E0,-0E0,1.0761411E-2,-0E0,5.707969E1,-0E0,-6.25E0,-0E0,1.3662516E-1,-1.6846183E-1,-0E0],"split_indices":[8,57,78,76,55,0,0,31,0,16,68,0,48,6,0,0,0,0,50,0,6,0,0,0,0],"split_type":[0,0,0,0,0,0,0,0,0,0,0,0,0,0,0,0,0,0,0,0,0,0,0,0,0],"sum_hessian":[2.1895784E1,1.8574083E1,3.321701E0,1.0226385E1,8.347698E0,1.1499033E0,2.1717978E0,8.60005E0,1.6263351E0,5.944844E0,2.4028542E0,1.688779E0,6.9112706E0,4.9437456E0,1.0010979E0,1.0622826E0,1.3405716E0,1.9653858E0,4.9458847E0,1.0091387E0,3.934607E0,1.0658773E0,3.8800075E0,2.8892574E0,1.0453495E0],"tree_param":{"num_deleted":"0","num_feature":"82","num_nodes":"25","size_leaf_vector":"1"}},{"base_weights":[-0E0,-0E0,-4.317153E-2,-6.117668E-3,1.4731228E-1,-0E0,-1.3503866E-1,2.4544221E-1,-0E0,2.0374368E-1,-1.4938358E-2,-2.6407033E-1,-0E0,-0E0,9.266566E-2,-0E0,9.395477E-2,-1.9663526E-1,7.533596E-2,-0E0,-1.20422766E-1,-0E0,-1.2724815E-1,8.856555E-2,-0E0],"categories":[],"categories_nodes":[],"categories_segments":[],"categories_sizes":[],"default_left":[0,0,0,0,0,0,0,0,0,0,0,0,0,0,0,0,0,0,0,0,0,0,0,0,0],"id":33,"left_children":[1,3,-1,5,7,9,11,13,-1,15,17,19,-1,-1,-1,-1,-1,21,23,-1,-1,-1,-1,-1,-1],"loss_changes":[4.3239016E-2,1.2094332E-1,0E0,1.12676255E-1,1.4177537E-1,1.7709517E-1,2.415497E-1,3.9064378E-2,0E0,1.02868944E-1,2.4588428E-1,2.9094842E-1,0E0,0E0,0E0,0E0,0E0,3.8486424E-1,1.616943E-1,0E0,0E0,0E0,0E0,0E0,0E0],"parents":[2147483647,0,0,1,1,3,3,4,4,5,5,6,6,7,7,9,9,10,10,11,11,17,17,18,18],"right_children":[2,4,-1,6,8,10,12,14,-1,16,18,20,-1,-1,-1,-1,-1,22,24,-1,-1,-1,-1,-1,-1],"split_conditions":[-9.25E-1,1.7157E2,-4.317153E-2,-1.0244944E0,1.17079E2,5.7645245E1,2.397E3,-2.25E1,-0E0,9.27E2,2.59E2,3.0262962E1,-0E0,-0E0,9.266566E-2,-0E0,9.395477E-2,6.39E0,4.7E2,-0E0,-1.20422766E-1,-0E0,-1.2724815E-1,8.856555E-2,-0E0],"split_indices":[6,64,0,2,74,34,9,6,0,12,13,59,0,0,0,0,0,55,13,0,0,0,0,0,0],"split_type":[0,0,0,0,0,0,0,0,0,0,0,0,0,0,0,0,0,0,0,0,0,0,0,0,0],"sum_hessian":[2.1315237E1,2.022727E1,1.0879664E0,1.5682851E1,4.54442E0,1.046964E1,5.2132115E0,3.3507E0,1.1937197E0,3.2218351E0,7.247804E0,4.08869E0,1.1245216E0,1.1942397E0,2.15646E0,1.3862503E0,1.8355849E0,4.9181366E0,2.3296678E0,1.0807372E0,3.0079525E0,2.5070739E0,2.4110625E0,1.0721015E0,1.2575665E0],"tree_param":{"num_deleted":"0","num_feature":"82","num_nodes":"25","size_leaf_vector":"1"}},{"base_weights":[-0E0,5.1139724E-3,-3.7386008E-2,-0E0,1.15583666E-1,6.261728E-2,-1.3728376E-1,-0E0,2.5999826E-1,-0E0,1.6115858E-1,-0E0,-2.576876E-1,1.1202441E-1,-0E0,-0E0,-2.4824166E-3,7.360048E-2,-0E0,-0E0,1.2064048E-2,-3.3987063E-1,-0E0,-1.2238963E-1,-0E0],"categories":[],"categories_nodes":[],"categories_segments":[],"categories_sizes":[],"default_left":[0,0,0,0,0,0,0,0,0,0,0,0,0,0,0,0,0,0,0,0,0,0,0,0,0],"id":34,"left_children":[1,3,-1,5,7,9,11,-1,13,15,17,19,21,-1,-1,-1,-1,-1,-1,-1,-1,23,-1,-1,-1],"loss_changes":[3.2253183E-2,8.595772E-2,0E0,1.8638518E-1,2.3704721E-1,1.1645788E-1,1.8988243E-1,0E0,1.3589737E-1,1.4472124E-4,9.253079E-2,3.7167002E-3,1.0586071E-1,0E0,0E0,0E0,0E0,0E0,0E0,0E0,0E0,3.2342613E-2,0E0,0E0,0E0],"parents":[2147483647,0,0,1,1,3,3,4,4,5,5,6,6,8,8,9,9,10,10,11,11,12,12,21,21],"right_children":[2,4,-1,6,8,10,12,-1,14,16,18,20,22,-1,-1,-1,-1,-1,-1,-1,-1,24,-1,-1,-1],"split_conditions":[-9.25E-1,2.1927E2,-3.7386008E-2,2.6241232E1,4.12E1,1.21532E2,3.4868E2,-0E0,7.84E2,2.1963E2,1.358E3,8.006E1,6.75E0,1.1202441E-1,-0E0,-0E0,-2.4824166E-3,7.360048E-2,-0E0,-0E0,1.2064048E-2,2.6193008E2,-0E0,-1.2238963E-1,-0E0],"split_indices":[6,46,0,79,37,40,54,0,13,54,12,73,5,0,0,0,0,0,0,0,0,59,0,0,0],"split_type":[0,0,0,0,0,0,0,0,0,0,0,0,0,0,0,0,0,0,0,0,0,0,0,0,0],"sum_hessian":[2.0612291E1,1.957012E1,1.0421709E0,1.409569E1,5.4744296E0,6.8365455E0,7.259145E0,1.6882286E0,3.786201E0,2.169523E0,4.667022E0,3.055439E0,4.203706E0,2.2949305E0,1.4912707E0,1.05591E0,1.1136129E0,2.9826927E0,1.6843296E0,1.7571007E0,1.2983382E0,2.9078333E0,1.2958724E0,1.9064932E0,1.0013402E0],"tree_param":{"num_deleted":"0","num_feature":"82","num_nodes":"25","size_leaf_vector":"1"}},{"base_weights":[-0E0,-3.811169E-2,4.250614E-2,-1.13865145E-1,4.9377447E-3,1.661893E-1,-0E0,-2.0216277E-1,-0E0,-0E0,2.7427265E-2,-0E0,7.465506E-2,-0E0,-2.6697254E-1,-0E0,1.3890411E-2,-0E0,-3.2969323E-1,-1.1929617E-1,-0E0],"categories":[],"categories_nodes":[],"categories_segments":[],"categories_sizes":[],"default_left":[1,0,0,0,0,0,0,0,0,0,0,0,0,0,0,0,0,0,0,0,0],"id":35,"left_children":[1,3,5,7,9,11,-1,13,15,-1,-1,-1,-1,-1,17,-1,-1,-1,19,-1,-1],"loss_changes":[3.438549E-2,1.3994497E-1,1.2272206E-1,2.1511939E-1,3.0590782E-2,1.0085191E-1,0E0,1.8836188E-1,6.0109883E-3,0E0,0E0,0E0,0E0,0E0,1.5073907E-1,0E0,0E0,0E0,1.62175E-1,0E0,0E0],"parents":[2147483647,0,0,1,1,2,2,3,3,4,4,5,5,7,7,8,8,14,14,18,18],"right_children":[2,4,6,8,10,12,-1,14,16,-1,-1,-1,-1,-1,18,-1,-1,-1,20,-1,-1],"split_conditions":[2.05E2,6.5737E1,1.3746E1,8.26233E2,5.350958E1,1.8061E2,-0E0,2.114E3,1.244E3,-0E0,2.7427265E-2,-0E0,7.465506E-2,-0E0,2.6296E2,-0E0,1.3890411E-2,-0E0,1.8292E2,-1.1929617E-1,-0E0],"split_indices":[78,42,35,41,59,48,0,19,12,0,0,0,0,0,54,0,0,0,8,0,0],"split_type":[0,0,0,0,0,0,0,0,0,0,0,0,0,0,0,0,0,0,0,0,0],"sum_hessian":[2.024019E1,1.5364485E1,4.875706E0,1.1618225E1,3.7462606E0,3.8277876E0,1.0479186E0,8.266457E0,3.3517685E0,1.0725251E0,2.6737354E0,1.0460409E0,2.7817466E0,1.3101567E0,6.9563E0,1.547896E0,1.8038723E0,1.3524837E0,5.603816E0,4.565053E0,1.0387628E0],"tree_param":{"num_deleted":"0","num_feature":"82","num_nodes":"21","size_leaf_vector":"1"}},{"base_weights":[-0E0,2.1108218E-2,-4.0889185E-2,-0E0,7.419154E-2,1.4820635E-2,-2.2577742E-1,-1.0617329E-1,4.545785E-2,4.967648E-2,-0E0,-1.1175747E-1,-0E0,-2.3964813E-1,-0E0,-0E0,3.0766385E-2,-0E0,-3.29405E-1,-1.1549841E-1,-0E0],"categories":[],"categories_nodes":[],"categories_segments":[],"categories_sizes":[],"default_left":[0,1,0,0,0,0,0,0,0,0,0,0,0,0,0,0,0,0,0,0,0],"id":36,"left_children":[1,3,5,7,-1,9,11,13,15,-1,-1,-1,-1,17,-1,-1,-1,-1,19,-1,-1],"loss_changes":[2.1890042E-2,2.0523994E-1,2.7195418E-1,8.713295E-2,0E0,9.8621756E-2,2.660208E-1,2.2701395E-1,1.7259177E-2,0E0,0E0,0E0,0E0,1.0775566E-1,0E0,0E0,0E0,0E0,3.4597516E-3,0E0,0E0],"parents":[2147483647,0,0,1,1,2,2,3,3,5,5,6,6,7,7,8,8,13,13,18,18],"right_children":[2,4,6,8,-1,10,12,14,16,-1,-1,-1,-1,18,-1,-1,-1,-1,20,-1,-1],"split_conditions":[9.702325E1,2.2144E2,-5.404E0,5.2563E1,7.419154E-2,-4.1063333E0,1.84E2,8.45752E2,1.1597682E2,4.967648E-2,-0E0,-1.1175747E-1,-0E0,8.682917E1,-0E0,-0E0,3.0766385E-2,-0E0,2.60073E2,-1.1549841E-1,-0E0],"split_indices":[71,48,4,42,0,2,8,41,77,0,0,0,0,49,0,0,0,0,40,0,0],"split_type":[0,0,0,0,0,0,0,0,0,0,0,0,0,0,0,0,0,0,0,0,0],"sum_hessian":[1.9866419E1,1.0961314E1,8.905104E0,8.518378E0,2.4429362E0,4.2679257E0,4.6371784E0,6.103532E0,2.414846E0,2.6389782E0,1.6289475E0,2.9876008E0,1.6495775E0,4.347098E0,1.756434E0,1.1029098E0,1.3119363E0,1.523902E0,2.8231957E0,1.8221782E0,1.0010175E0],"tree_param":{"num_deleted":"0","num_feature":"82","num_nodes":"21","size_leaf_vector":"1"}},{"base_weights":[-0E0,2.4259122E-2,-4.1731622E-2,-0E0,1.0491434E-1,-0E0,-1.1222252E-1,-1.1274649E-1,-0E0,1.8224871E-1,-0E0,-2.1961543E-1,-0E0,-0E0,-7.37064E-2,2.3675288E-1,-0E0,-8.4650576E-2,-0E0,9.026261E-2,-0E0],"categories":[],"categories_nodes":[],"categories_segments":[],"categories_sizes":[],"default_left":[0,0,0,1,0,0,1,0,0,0,0,1,0,0,0,0,0,0,0,0,0],"id":37,"left_children":[1,3,5,7,9,-1,11,13,-1,15,-1,17,-1,-1,-1,19,-1,-1,-1,-1,-1],"loss_changes":[2.1347841E-2,9.9611975E-2,6.63764E-2,4.3047074E-2,1.7934379E-1,0E0,1.4963394E-1,9.8730385E-2,0E0,1.3279659E-1,0E0,1.6758606E-2,0E0,0E0,0E0,1.3231611E-1,0E0,0E0,0E0,0E0,0E0],"parents":[2147483647,0,0,1,1,2,2,3,3,4,4,6,6,7,7,9,9,11,11,15,15],"right_children":[2,4,6,8,10,-1,12,14,-1,16,-1,18,-1,-1,-1,20,-1,-1,-1,-1,-1],"split_conditions":[3.7344E1,6.187476E1,3.0262962E1,1.741813E2,1.9360567E1,-0E0,1.0208E2,2.5E1,-0E0,1.298E3,-0E0,7.5509514E1,-0E0,-0E0,-7.37064E-2,-1.0244944E0,-0E0,-8.4650576E-2,-0E0,9.026261E-2,-0E0],"split_indices":[74,77,59,52,26,0,55,0,0,14,0,59,0,0,0,2,0,0,0,0,0],"split_type":[0,0,0,0,0,0,0,0,0,0,0,0,0,0,0,0,0,0,0,0,0],"sum_hessian":[1.9383411E1,1.2782875E1,6.600537E0,3.9960942E0,8.78678E0,1.2789856E0,5.3215513E0,2.3863945E0,1.6096997E0,7.642799E0,1.1439815E0,3.7531095E0,1.568442E0,1.037631E0,1.3487635E0,6.4906197E0,1.1521794E0,2.0897796E0,1.6633298E0,5.099684E0,1.3909359E0],"tree_param":{"num_deleted":"0","num_feature":"82","num_nodes":"21","size_leaf_vector":"1"}},{"base_weights":[-0E0,4.1633216E-3,-2.4797969E-2,-0E0,1.0867384E-1,-0E0,-9.779976E-2,2.1451809E-1,-0E0,-0E0,6.460303E-2,-7.005036E-2,-0E0,2.9549283E-1,-0E0,1.4874597E-1,-0E0,1.0072538E-1,-0E0,-0E0,6.36047E-2],"categories":[],"categories_nodes":[],"categories_segments":[],"categories_sizes":[],"default_left":[0,1,0,0,0,0,0,0,0,0,0,0,0,0,0,0,0,0,0,0,0],"id":38,"left_children":[1,3,-1,5,7,9,11,13,-1,-1,15,-1,-1,17,-1,19,-1,-1,-1,-1,-1],"loss_changes":[2.078628E-2,8.6385116E-2,0E0,4.989207E-2,1.9112241E-1,2.6877787E-2,1.4788698E-1,1.5734437E-1,0E0,0E0,8.950855E-2,0E0,0E0,7.75218E-3,0E0,7.3838964E-2,0E0,0E0,0E0,0E0,0E0],"parents":[2147483647,0,0,1,1,3,3,4,4,5,5,6,6,7,7,10,10,13,13,15,15],"right_children":[2,4,-1,6,8,10,12,14,-1,-1,16,-1,-1,18,-1,20,-1,-1,-1,-1,-1],"split_conditions":[1.9702E1,1.0170282E2,-2.4797969E-2,2.3803E2,1.371E3,4.49744E1,7.47697E2,8.348583E1,-0E0,-0E0,1.4135962E2,-7.005036E-2,-0E0,5.9589233E0,-0E0,4.9114475E1,-0E0,1.0072538E-1,-0E0,-0E0,6.36047E-2],"split_indices":[3,53,0,51,12,77,41,58,0,0,80,0,0,30,0,62,0,0,0,0,0],"split_type":[0,0,0,0,0,0,0,0,0,0,0,0,0,0,0,0,0,0,0,0,0],"sum_hessian":[1.908693E1,1.7090626E1,1.9963028E0,1.0749503E1,6.341123E0,6.5332823E0,4.216221E0,5.0372257E0,1.3038975E0,1.0932549E0,5.440027E0,2.6274552E0,1.5887656E0,3.9837992E0,1.0534264E0,4.2603135E0,1.1797138E0,2.9290507E0,1.0547485E0,1.0284415E0,3.2318718E0],"tree_param":{"num_deleted":"0","num_feature":"82","num_nodes":"21","size_leaf_vector":"1"}},{"base_weights":[-0E0,-0E0,-4.3787535E-2,-1.4017781E-2,1.333247E-1,-0E0,-2.0223577E-1,-1.1599775E-1,-0E0,-0E0,8.216336E-2,1.07294455E-1,-0E0,-9.78999E-2,-0E0,-7.406312E-2,-0E0,4.3637104E-2,-0E0],"categories":[],"categories_nodes":[],"categories_segments":[],"categories_sizes":[],"default_left":[0,0,0,0,0,0,0,0,0,0,0,0,0,0,0,0,0,0,0],"id":39,"left_children":[1,3,5,7,9,11,13,15,-1,-1,-1,17,-1,-1,-1,-1,-1,-1,-1],"loss_changes":[1.8169956E-2,1.14535324E-1,2.0044896E-1,6.581531E-2,2.0221159E-1,4.068776E-2,1.8196483E-1,1.6692612E-1,0E0,0E0,0E0,9.38772E-3,0E0,0E0,0E0,0E0,0E0,0E0,0E0],"parents":[2147483647,0,0,1,1,2,2,3,3,4,4,5,5,6,6,7,7,11,11],"right_children":[2,4,6,8,10,12,14,16,-1,-1,-1,18,-1,-1,-1,-1,-1,-1,-1],"split_conditions":[9.702325E1,-3.214E0,-5.404E0,5.115617E1,3.91575E2,-4.1063333E0,1.84E2,1.940824E2,-0E0,-0E0,8.216336E-2,2.437E1,-0E0,-9.78999E-2,-0E0,-7.406312E-2,-0E0,4.3637104E-2,-0E0],"split_indices":[71,4,4,1,38,2,8,59,0,0,0,55,0,0,0,0,0,0,0],"split_type":[0,0,0,0,0,0,0,0,0,0,0,0,0,0,0,0,0,0,0],"sum_hessian":[1.8853197E1,1.0376589E1,8.476607E0,4.999463E0,5.3771257E0,4.1313114E0,4.3452964E0,3.9789534E0,1.0205096E0,2.1700613E0,3.2070646E0,2.534347E0,1.5969644E0,2.7615898E0,1.5837066E0,2.8380127E0,1.1409404E0,1.3667687E0,1.1675783E0],"tree_param":{"num_deleted":"0","num_feature":"82","num_nodes":"19","size_leaf_vector":"1"}}]},"name":"gbtree"},"learner_model_param":{"base_score":"1.9520547E-2","boost_from_average":"1","num_class":"0","num_feature":"82","num_target":"1"},"objective":{"name":"binary:logistic","reg_loss_param":{"scale_pos_weight":"1"}}},"version":[3,0,0]}