{"learner":{"attributes":{"best_iteration":"16","best_score":"0.03359312988043849","scikit_learn":"{\"_estimator_type\": \"classifier\"}"},"feature_names":["Price_gas","Imbalance netting import","Imbalance netting export","Energy_positive_secondary","Energy_negative_secondary","Energy_positive_tertiary","Energy_negative_tertiary","CH_dayahead_price","CH_intraday_price","renewable_energy","Cross_border_physical_flows_IT_CH","Cross_border_physical_flows_CH_IT","Cross_border_physical_flows_FR_CH","Cross_border_physical_flows_CH_FR","Cross_border_physical_flows_AT_CH","Cross_border_physical_flows_CH_AT","Cross_border_physical_flows_DE_CH","Cross_border_physical_flows_CH_DE","Forecast_transfer_capacities_dayahead_IT_CH","Forecast_transfer_capacities_dayahead_CH_IT","Forecast_transfer_capacities_dayahead_FR_CH","Forecast_transfer_capacities_dayahead_CH_FR","Forecast_transfer_capacities_dayahead_DE_CH","Forecast_transfer_capacities_dayahead_CH_DE","Forecast_transfer_capacities_dayahead_AT_CH","Forecast_transfer_capacities_dayahead_CH_AT","aFRR p","aFRR n","mFRR p","mFRR n","FRCE p","FRCE n","RR p","RR n","Total System Imbalance","Exchange_CH_AT","Exchange_AT_CH","Exchange_CH_DE","Exchange_DE_CH","Exchange_CH_FR","Exchange_FR_CH","Exchange_CH_IT","Exchange_IT_CH","day_type","hour","weekday","Price_positive_secondary_lag_1","Price_positive_secondary_lag_24","Price_positive_secondary_lag_168","Price_positive_secondary_mean_24","Price_positive_secondary_std_24","Price_positive_secondary_max_24","Price_positive_secondary_mean_168","Price_positive_secondary_std_168","Price_positive_secondary_max_168","Price_negative_secondary_lag_1","Price_negative_secondary_lag_24","Price_negative_secondary_lag_168","Price_negative_secondary_mean_24","Price_negative_secondary_std_24","Price_negative_secondary_max_24","Price_negative_secondary_mean_168","Price_negative_secondary_std_168","Price_negative_secondary_max_168"],"feature_types":["float","float","float","float","float","float","float","float","float","float","int","int","int","int","float","float","int","int","int","int","int","int","int","int","int","int","float","float","int","int","float","float","float","float","float","float","float","float","float","float","float","float","float","int","int","int","float","float","float","float","float","float","float","float","float","float","float","float","float","float","float","float","float","float"],"gradient_booster":{"model":{"gbtree_model_param":{"num_parallel_tree":"1","num_trees":"47"},"iteration_indptr":[0,1,2,3,4,5,6,7,8,9,10,11,12,13,14,15,16,17,18,19,20,21,22,23,24,25,26,27,28,29,30,31,32,33,34,35,36,37,38,39,40,41,42,43,44,45,46,47],"tree_info":[0,0,0,0,0,0,0,0,0,0,0,0,0,0,0,0,0,0,0,0,0,0,0,0,0,0,0,0,0,0,0,0,0,0,0,0,0,0,0,0,0,0,0,0,0,0,0],"trees":[{"base_weights":[-0E0,2.2702134E0,-7.099502E-1,3.865041E-1,-9.0949124E-1,-0E0,-2.850391E-1],"categories":[],"categories_nodes":[],"categories_segments":[],"categories_sizes":[],"default_left":[0,0,1,0,0,0,0],"id":0,"left_children":[1,-1,3,-1,5,-1,-1],"loss_changes":[1.4275662E2,0E0,1.0687104E1,0E0,7.870617E-1,0E0,0E0],"parents":[2147483647,0,0,2,2,4,4],"right_children":[2,-1,4,-1,6,-1,-1],"split_conditions":[-3.2498E1,2.2702134E0,1.5820416E1,3.865041E-1,1.24E2,-0E0,-2.850391E-1],"split_indices":[4,0,58,0,8,0,0],"split_type":[0,0,0,0,0,0,0],"sum_hessian":[2.4571913E1,1.2790859E0,2.3292828E1,1.4137264E0,2.18791E1,1.0434648E0,2.0835636E1],"tree_param":{"num_deleted":"0","num_feature":"64","num_nodes":"7","size_leaf_vector":"1"}},{"base_weights":[-1.6009697E-1,2.0436537E0,-5.64341E-1,-0E0,9.313669E-1,-8.527864E-1,1.22505E0,-2.93003E-1,-0E0,-9.460541E-2,6.282565E-1,2.2069456E-1,-1.3796505E-1],"categories":[],"categories_nodes":[],"categories_segments":[],"categories_sizes":[],"default_left":[0,0,0,0,0,0,0,0,0,0,0,0,0],"id":1,"left_children":[1,3,5,-1,-1,7,9,-1,11,-1,-1,-1,-1],"loss_changes":[2.6567719E1,9.548582E0,1.41399E1,0E0,0E0,2.674549E0,6.498572E0,0E0,1.6427917E0,0E0,0E0,0E0,0E0],"parents":[2147483647,0,0,1,1,2,2,5,5,6,6,8,8],"right_children":[2,4,6,-1,-1,8,10,-1,12,-1,-1,-1,-1],"split_conditions":[-4.2014E1,5.7603508E1,1.900788E2,-0E0,9.313669E-1,2.595E3,2.096E3,-2.93003E-1,-9.249841E0,-9.460541E-2,6.282565E-1,2.2069456E-1,-1.3796505E-1],"split_indices":[4,59,50,0,0,12,16,0,27,0,0,0,0],"split_type":[0,0,0,0,0,0,0,0,0,0,0,0,0],"sum_hessian":[2.827861E1,3.5813427E0,2.4697268E1,1.6054294E0,1.9759132E0,2.193705E1,2.7602186E0,1.9290863E1,2.6461856E0,1.0379044E0,1.7223142E0,1.0023808E0,1.6438047E0],"tree_param":{"num_deleted":"0","num_feature":"64","num_nodes":"13","size_leaf_vector":"1"}},{"base_weights":[-1.3171194E-1,1.0719906E0,-6.2026197E-1,1.9303173E0,-1.5259948E-1,-2.8297025E-1,6.917145E-2,7.1681045E-2,7.5245714E-1,-1.5920353E-1,7.8192815E-2,4.1499615E-1,-4.811109E-1,-2.3275125E-1,5.2949708E-2],"categories":[],"categories_nodes":[],"categories_segments":[],"categories_sizes":[],"default_left":[1,0,0,0,1,0,0,0,0,0,0,0,0,0,0],"id":2,"left_children":[1,3,5,7,9,-1,11,-1,-1,-1,-1,-1,13,-1,-1],"loss_changes":[1.646748E1,9.46216E0,4.971848E0,3.0155811E0,8.8357556E-1,0E0,6.0984616E0,0E0,0E0,0E0,0E0,0E0,1.4539257E0,0E0,0E0],"parents":[2147483647,0,0,1,1,2,2,3,3,4,4,6,6,12,12],"right_children":[2,4,6,8,10,-1,12,-1,-1,-1,-1,-1,14,-1,-1],"split_conditions":[4.6659584E1,-1.8681E1,6.1799107E1,3.26709E2,6.942E1,-2.8297025E-1,-5.803837E1,7.1681045E-2,7.5245714E-1,-1.5920353E-1,7.8192815E-2,4.1499615E-1,3.06E1,-2.3275125E-1,5.2949708E-2],"split_indices":[58,4,59,40,56,0,2,0,0,0,0,0,35,0,0],"split_type":[0,0,0,0,0,0,0,0,0,0,0,0,0,0,0],"sum_hessian":[2.621911E1,6.957578E0,1.9261532E1,3.9686563E0,2.9889216E0,1.3312522E1,5.949011E0,1.5697306E0,2.3989258E0,1.9835681E0,1.0053536E0,1.5514246E0,4.3975863E0,3.3870337E0,1.0105528E0],"tree_param":{"num_deleted":"0","num_feature":"64","num_nodes":"15","size_leaf_vector":"1"}},{"base_weights":[-9.835663E-2,-5.548245E-1,7.9673296E-1,4.766663E-1,-7.697849E-1,1.3085443E0,-3.2381174E-1,-0E0,2.8622478E-1,-8.739653E-1,3.7950326E-2,-0E0,1.8458235E0,-1.1783054E-1,-0E0,-2.811619E-1,-0E0,7.099825E-2,7.118057E-1],"categories":[],"categories_nodes":[],"categories_segments":[],"categories_sizes":[],"default_left":[0,0,0,0,0,0,0,0,0,0,0,0,0,0,0,0,0,0,0],"id":3,"left_children":[1,3,5,7,9,11,13,-1,-1,15,-1,-1,17,-1,-1,-1,-1,-1,-1],"loss_changes":[1.0544369E1,4.374322E0,5.7533965E0,1.1621616E0,1.8683205E0,4.9055147E0,3.432721E-3,0E0,0E0,7.274685E-1,0E0,0E0,2.1735706E0,0E0,0E0,0E0,0E0,0E0,0E0],"parents":[2147483647,0,0,1,1,2,2,3,3,4,4,5,5,6,6,9,9,12,12],"right_children":[2,4,6,8,10,12,14,-1,-1,16,-1,-1,18,-1,-1,-1,-1,-1,-1],"split_conditions":[7.634047E1,1.286E3,1.725E2,1.1352513E1,2.2404781E1,2.35E2,1.8624E2,-0E0,2.8622478E-1,7.7E1,3.7950326E-2,-0E0,-7.75E0,-1.1783054E-1,-0E0,-2.811619E-1,-0E0,7.099825E-2,7.118057E-1],"split_indices":[59,11,8,30,30,9,7,0,0,35,0,0,6,0,0,0,0,0,0],"split_type":[0,0,0,0,0,0,0,0,0,0,0,0,0,0,0,0,0,0,0],"sum_hessian":[2.3993038E1,1.647589E1,7.5171485E0,2.268867E0,1.4207023E1,5.3218956E0,2.1952527E0,1.1762179E0,1.0926492E0,1.3201646E1,1.0053768E0,1.7048942E0,3.6170013E0,1.1940387E0,1.0012139E0,1.2177926E1,1.02372E0,1.4611773E0,2.1558242E0],"tree_param":{"num_deleted":"0","num_feature":"64","num_nodes":"19","size_leaf_vector":"1"}},{"base_weights":[-6.858725E-2,8.53563E-1,-4.376867E-1,1.1930048E0,-2.7698386E-2,5.8110625E-1,-6.8469524E-1,-0E0,4.354288E-1,3.6899003E-1,-9.2582166E-2,-0E0,-2.7255148E-1,-1.6669016E-1,1.9750646E-1],"categories":[],"categories_nodes":[],"categories_segments":[],"categories_sizes":[],"default_left":[0,0,0,0,0,0,0,0,0,0,0,0,0,0,0],"id":4,"left_children":[1,3,5,7,-1,9,11,-1,-1,-1,-1,13,-1,-1,-1],"loss_changes":[8.034425E0,2.720426E0,4.8433743E0,1.0276155E0,0E0,2.8712435E0,2.3637915E0,0E0,0E0,0E0,0E0,2.0455785E0,0E0,0E0,0E0],"parents":[2147483647,0,0,1,1,2,2,3,3,5,5,6,6,11,11],"right_children":[2,4,6,8,-1,10,12,-1,-1,-1,-1,14,-1,-1,-1],"split_conditions":[-4.0136E1,8.42836E2,4.6654465E1,5.7603508E1,-2.7698386E-2,1.657E2,1E-1,-0E0,4.354288E-1,3.6899003E-1,-9.2582166E-2,-1.875E0,-2.7255148E-1,-1.6669016E-1,1.9750646E-1],"split_indices":[4,41,61,59,0,8,39,0,0,0,0,6,0,0,0],"split_type":[0,0,0,0,0,0,0,0,0,0,0,0,0,0,0],"sum_hessian":[2.2059874E1,5.58056E0,1.6479313E1,4.266144E0,1.3144162E0,2.5948036E0,1.388451E1,1.2205157E0,3.045628E0,1.5730835E0,1.02172E0,3.5663903E0,1.0318119E1,1.943558E0,1.6228324E0],"tree_param":{"num_deleted":"0","num_feature":"64","num_nodes":"15","size_leaf_vector":"1"}},{"base_weights":[-4.741996E-2,-4.2406037E-1,6.735054E-1,3.7089518E-1,-7.49521E-1,-4.8095312E-2,1.0734296E0,2.8954956E-1,-0E0,-2.6566732E-1,-0E0,-1.1729933E-1,3.354212E-2,4.1180807E-1,-0E0,1.2743872E-1,-1.3933223E-1],"categories":[],"categories_nodes":[],"categories_segments":[],"categories_sizes":[],"default_left":[0,1,0,0,0,0,0,0,1,0,0,0,0,0,0,0,0],"id":5,"left_children":[1,3,5,7,9,11,13,-1,15,-1,-1,-1,-1,-1,-1,-1,-1],"loss_changes":[5.8698835E0,4.2799845E0,2.5854607E0,1.2864459E0,1.2346387E0,3.40552E-1,1.3670444E0,0E0,9.015469E-1,0E0,0E0,0E0,0E0,0E0,0E0,0E0,0E0],"parents":[2147483647,0,0,1,1,2,2,3,3,4,4,5,5,6,6,8,8],"right_children":[2,4,6,8,10,12,14,-1,16,-1,-1,-1,-1,-1,-1,-1,-1],"split_conditions":[1.639296E1,1.5820416E1,6.416286E1,8.5E0,2.0711896E2,5.09E-1,1.6803E2,2.8954956E-1,-4.05E1,-2.6566732E-1,-0E0,-1.1729933E-1,3.354212E-2,4.1180807E-1,-0E0,1.2743872E-1,-1.3933223E-1],"split_indices":[30,58,59,35,62,42,7,0,55,0,0,0,0,0,0,0,0],"split_type":[0,0,0,0,0,0,0,0,0,0,0,0,0,0,0,0,0],"sum_hessian":[1.9981163E1,1.3806661E1,6.1745014E0,3.5666776E0,1.0239984E1,2.1125116E0,4.06199E0,1.0553547E0,2.5113227E0,8.62629E0,1.6136934E0,1.1110219E0,1.0014899E0,2.8209283E0,1.2410612E0,1.0301056E0,1.4812171E0],"tree_param":{"num_deleted":"0","num_feature":"64","num_nodes":"17","size_leaf_vector":"1"}},{"base_weights":[-1.5661994E-2,-5.699969E-1,3.655764E-1,1.2833326E-1,-2.51219E-1,1.0311024E0,-5.062016E-2,3.99082E-1,2.1812342E-2,-1.7631121E-1,3.8169572E-1,2.5084063E-1,-3.5014782E-2],"categories":[],"categories_nodes":[],"categories_segments":[],"categories_sizes":[],"default_left":[0,0,0,0,0,0,0,0,0,0,1,0,0],"id":6,"left_children":[1,3,5,-1,-1,7,9,-1,-1,-1,11,-1,-1],"loss_changes":[4.312332E0,2.840225E0,3.645584E0,0E0,0E0,6.571183E-1,2.0664637E0,0E0,0E0,0E0,1.3997183E0,0E0,0E0],"parents":[2147483647,0,0,1,1,2,2,5,5,6,6,10,10],"right_children":[2,4,6,-1,-1,8,10,-1,-1,-1,12,-1,-1],"split_conditions":[6.1799107E1,-1.187E1,-5.803837E1,1.2833326E-1,-2.51219E-1,3.939E3,3.71105E2,3.99082E-1,2.1812342E-2,-1.7631121E-1,1.9864166E1,2.5084063E-1,-3.5014782E-2],"split_indices":[59,55,2,0,0,19,40,0,0,0,58,0,0],"split_type":[0,0,0,0,0,0,0,0,0,0,0,0,0],"sum_hessian":[1.7982164E1,7.608875E0,1.037329E1,1.1241983E0,6.484677E0,3.8404937E0,6.5327964E0,2.2717726E0,1.5687212E0,3.2192812E0,3.3135152E0,1.8530673E0,1.4604479E0],"tree_param":{"num_deleted":"0","num_feature":"64","num_nodes":"13","size_leaf_vector":"1"}},{"base_weights":[-0E0,3.4487695E-1,-4.8356125E-1,-0E0,8.62473E-1,-6.9804096E-1,8.625746E-2,-4.5259514E-1,4.698233E-1,-0E0,3.195765E-1,-0E0,-2.3556033E-1,-0E0,-1.7428026E-1,-0E0,2.9219314E-1],"categories":[],"categories_nodes":[],"categories_segments":[],"categories_sizes":[],"default_left":[1,0,0,0,0,0,0,0,0,0,0,0,0,0,0,0,0],"id":7,"left_children":[1,3,5,7,9,11,-1,13,15,-1,-1,-1,-1,-1,-1,-1,-1],"loss_changes":[3.120923E0,2.0766544E0,1.7176222E0,1.6874094E0,4.0702248E-1,2.7430367E-1,0E0,2.217105E-1,1.0992603E0,0E0,0E0,0E0,0E0,0E0,0E0,0E0,0E0],"parents":[2147483647,0,0,1,1,2,2,3,3,4,4,5,5,7,7,8,8],"right_children":[2,4,6,8,10,12,-1,14,16,-1,-1,-1,-1,-1,-1,-1,-1],"split_conditions":[6.768E1,1.639296E1,3.91924E2,2.4223172E2,6.405803E1,-4.2014E1,8.625746E-2,-3.2846E1,-8E0,-0E0,3.195765E-1,-0E0,-2.3556033E-1,-0E0,-1.7428026E-1,-0E0,2.9219314E-1],"split_indices":[55,30,36,52,59,4,0,4,6,0,0,0,0,0,0,0,0],"split_type":[0,0,0,0,0,0,0,0,0,0,0,0,0,0,0,0,0],"sum_hessian":[1.6463081E1,9.412675E0,7.0504055E0,5.9560027E0,3.4566724E0,6.048751E0,1.0016549E0,3.3262184E0,2.6297843E0,1.1765642E0,2.2801082E0,1.0331124E0,5.0156384E0,1.0433905E0,2.2828279E0,1.6263964E0,1.0033879E0],"tree_param":{"num_deleted":"0","num_feature":"64","num_nodes":"17","size_leaf_vector":"1"}},{"base_weights":[-0E0,3.0159393E-1,-4.1805142E-1,-1.3520993E-1,6.0551643E-1,-2.2597614E-1,5.5461116E-2,1.2495163E-1,-1.7621744E-1,8.6025536E-1,-5.7134982E-2,1.0677857E0,-0E0,1.670303E-2,3.7051514E-1],"categories":[],"categories_nodes":[],"categories_segments":[],"categories_sizes":[],"default_left":[0,0,1,0,0,0,0,0,0,1,0,0,0,0,0],"id":8,"left_children":[1,3,5,7,9,-1,-1,-1,-1,11,-1,13,-1,-1,-1],"loss_changes":[2.1728387E0,1.6240766E0,1.8552699E0,1.3988458E0,1.8248556E0,0E0,0E0,0E0,0E0,7.3004055E-1,0E0,8.112097E-2,0E0,0E0,0E0],"parents":[2147483647,0,0,1,1,2,2,3,3,4,4,9,9,11,11],"right_children":[2,4,6,8,10,-1,-1,-1,-1,12,-1,14,-1,-1,-1],"split_conditions":[-4.511321E0,6.1799107E1,1.371513E2,-1.187E1,-2.102181E1,-2.2597614E-1,5.5461116E-2,1.2495163E-1,-1.7621744E-1,7.946E1,-5.7134982E-2,3.16E0,-0E0,1.670303E-2,3.7051514E-1],"split_indices":[27,59,53,55,2,0,0,0,0,56,0,55,0,0,0],"split_type":[0,0,0,0,0,0,0,0,0,0,0,0,0,0,0],"sum_hessian":[1.5235836E1,9.015935E0,6.2199006E0,3.3169212E0,5.6990137E0,4.3189473E0,1.9009534E0,1.0793934E0,2.2375278E0,4.6862435E0,1.01277E0,3.331021E0,1.3552223E0,1.0446483E0,2.286373E0],"tree_param":{"num_deleted":"0","num_feature":"64","num_nodes":"15","size_leaf_vector":"1"}},{"base_weights":[-0E0,2.958461E-1,-4.1167384E-1,5.8871275E-1,-1.8913734E-1,-6.364816E-1,5.6592803E-2,-3.2752898E-2,8.5034305E-1,2.5657171E-2,-1.5341744E-1,-0E0,-2.1264495E-1,3.2013667E-1,-0E0],"categories":[],"categories_nodes":[],"categories_segments":[],"categories_sizes":[],"default_left":[1,0,0,0,0,0,0,0,0,0,0,0,0,0,0],"id":9,"left_children":[1,3,5,7,9,11,-1,-1,13,-1,-1,-1,-1,-1,-1],"loss_changes":[1.9559653E0,1.6683547E0,1.2046036E0,1.6814911E0,5.747055E-1,3.1424522E-2,0E0,0E0,1.0363774E0,0E0,0E0,0E0,0E0,0E0,0E0],"parents":[2147483647,0,0,1,1,2,2,3,3,4,4,5,5,8,8],"right_children":[2,4,6,8,10,12,-1,-1,14,-1,-1,-1,-1,-1,-1],"split_conditions":[6.768E1,9.69E2,3.91924E2,4.820738E1,-6.0666313E1,-4.4240097E1,5.6592803E-2,-3.2752898E-2,1.8124065E1,2.5657171E-2,-1.5341744E-1,-0E0,-2.1264495E-1,3.2013667E-1,-0E0],"split_indices":[55,14,36,59,2,27,0,0,26,0,0,0,0,0,0],"split_type":[0,0,0,0,0,0,0,0,0,0,0,0,0,0,0],"sum_hessian":[1.4227286E1,8.690735E0,5.5365515E0,5.866246E0,2.8244889E0,4.531978E0,1.0045732E0,1.2874308E0,4.5788155E0,1.1643301E0,1.6601589E0,1.0089219E0,3.5230563E0,3.4525375E0,1.126278E0],"tree_param":{"num_deleted":"0","num_feature":"64","num_nodes":"15","size_leaf_vector":"1"}},{"base_weights":[-0E0,-2.507165E-1,3.9724463E-1,7.093852E-2,-2.1354619E-1,5.908106E-1,-9.848894E-5,1.9751802E-1,-1.3393985E-1,2.2726424E-1,-0E0,3.4829676E-2,-1.39102E-1,1.1687522E-1,-3.7828263E-2],"categories":[],"categories_nodes":[],"categories_segments":[],"categories_sizes":[],"default_left":[0,1,0,0,0,0,0,0,1,0,0,0,0,0,0],"id":10,"left_children":[1,3,5,7,-1,9,-1,-1,11,-1,-1,13,-1,-1,-1],"loss_changes":[1.5421617E0,1.7825251E0,7.2100097E-1,1.0546654E0,0E0,4.6480584E-1,0E0,0E0,4.7452447E-1,0E0,0E0,3.4907275E-1,0E0,0E0,0E0],"parents":[2147483647,0,0,1,1,2,2,3,3,5,5,8,8,11,11],"right_children":[2,4,6,8,-1,10,-1,-1,12,-1,-1,14,-1,-1,-1],"split_conditions":[1.639296E1,4.889006E1,6.4503334E1,-6.0666313E1,-2.1354619E-1,1.6803E2,-9.848894E-5,1.9751802E-1,3.16E0,2.2726424E-1,-0E0,1E-1,-1.39102E-1,1.1687522E-1,-3.7828263E-2],"split_indices":[30,61,58,2,0,7,0,0,55,0,0,39,0,0,0],"split_type":[0,0,0,0,0,0,0,0,0,0,0,0,0,0,0],"sum_hessian":[1.3623945E1,8.725136E0,4.8988094E0,5.06086E0,3.6642756E0,3.7323265E0,1.1664828E0,1.3066127E0,3.7542472E0,2.6883407E0,1.0439856E0,2.1682472E0,1.586E0,1.1095865E0,1.0586609E0],"tree_param":{"num_deleted":"0","num_feature":"64","num_nodes":"15","size_leaf_vector":"1"}},{"base_weights":[-0E0,-3.567925E-1,2.1648048E-1,4.290755E-2,-2.0325425E-1,-6.42902E-2,7.195044E-1,-3.0558887E-1,8.9259565E-2,2.9632822E-1,-0E0,4.222098E-2,-1.7375612E-1],"categories":[],"categories_nodes":[],"categories_segments":[],"categories_sizes":[],"default_left":[0,0,0,0,0,0,0,1,0,0,0,0,0],"id":11,"left_children":[1,3,5,-1,-1,7,9,11,-1,-1,-1,-1,-1],"loss_changes":[1.1595352E0,1.2707038E0,1.6057346E0,0E0,0E0,6.2558645E-1,7.256998E-1,8.7697625E-1,0E0,0E0,0E0,0E0,0E0],"parents":[2147483647,0,0,1,1,2,2,5,5,6,6,7,7],"right_children":[2,4,6,-1,-1,8,10,12,-1,-1,-1,-1,-1],"split_conditions":[6.2789803E1,1.165E3,1.85E1,4.290755E-2,-2.0325425E-1,2.654795E2,1.657E2,-2.1201E2,8.9259565E-2,2.9632822E-1,-0E0,4.222098E-2,-1.7375612E-1],"split_indices":[59,11,5,0,0,34,8,55,0,0,0,0,0],"split_type":[0,0,0,0,0,0,0,0,0,0,0,0,0],"sum_hessian":[1.2760779E1,4.815587E0,7.9451923E0,1.548046E0,3.2675412E0,5.0822353E0,2.862957E0,3.891468E0,1.1907673E0,1.7934628E0,1.0694942E0,1.0357114E0,2.8557565E0],"tree_param":{"num_deleted":"0","num_feature":"64","num_nodes":"13","size_leaf_vector":"1"}},{"base_weights":[-0E0,3.7252247E-1,-1.660821E-1,2.0557882E-1,-0E0,-4.404433E-1,3.5558727E-1,-6.382744E-2,7.2588615E-2,1.8091878E-2,-2.2087666E-1,1.9186111E-1,-0E0],"categories":[],"categories_nodes":[],"categories_segments":[],"categories_sizes":[],"default_left":[0,1,0,0,0,1,0,0,0,0,0,0,0],"id":12,"left_children":[1,3,5,-1,7,9,11,-1,-1,-1,-1,-1,-1],"loss_changes":[8.934717E-1,5.073659E-1,1.519562E0,0E0,2.1533021E-1,1.3985419E0,4.7995582E-1,0E0,0E0,0E0,0E0,0E0,0E0],"parents":[2147483647,0,0,1,1,2,2,4,4,5,5,6,6],"right_children":[2,4,6,-1,8,10,12,-1,-1,-1,-1,-1,-1],"split_conditions":[-4.0136E1,4.2675E1,6E1,2.0557882E-1,2.025E1,-2.783E1,8.8E1,-6.382744E-2,7.2588615E-2,1.8091878E-2,-2.2087666E-1,1.9186111E-1,-0E0],"split_indices":[4,58,28,0,5,55,28,0,0,0,0,0,0],"split_type":[0,0,0,0,0,0,0,0,0,0,0,0,0],"sum_hessian":[1.1853614E1,3.5988405E0,8.254774E0,1.4395177E0,2.1593227E0,6.0794344E0,2.1753395E0,1.1220462E0,1.0372765E0,1.9859728E0,4.0934615E0,1.1551023E0,1.0202371E0],"tree_param":{"num_deleted":"0","num_feature":"64","num_nodes":"13","size_leaf_vector":"1"}},{"base_weights":[-0E0,1.8983513E-1,-3.3946463E-1,-6.810333E-2,3.6264095E-1,-1.5140882E-1,-0E0,5.142609E-1,-0E0,1.1791316E-2,2.2954638E-1,1.0600254E-1,-4.3963302E-2],"categories":[],"categories_nodes":[],"categories_segments":[],"categories_sizes":[],"default_left":[1,0,0,0,0,0,0,0,0,0,0,0,0],"id":13,"left_children":[1,3,5,-1,7,-1,-1,9,-1,11,-1,-1,-1],"loss_changes":[7.692001E-1,8.0249274E-1,2.7717212E-1,0E0,4.9327683E-1,0E0,0E0,3.525282E-1,0E0,3.3441943E-1,0E0,0E0,0E0],"parents":[2147483647,0,0,1,1,2,2,4,4,7,7,9,9],"right_children":[2,4,6,-1,8,-1,-1,10,-1,12,-1,-1,-1],"split_conditions":[9.06E1,4.820738E1,1.77314E1,-6.810333E-2,8.733E1,-1.5140882E-1,-0E0,1.85E1,-0E0,-1.187E1,2.2954638E-1,1.0600254E-1,-4.3963302E-2],"split_indices":[57,59,30,0,56,0,0,5,0,55,0,0,0],"split_type":[0,0,0,0,0,0,0,0,0,0,0,0,0],"sum_hessian":[1.0961331E1,8.146785E0,2.8145466E0,1.5291722E0,6.6176124E0,1.8138794E0,1.0006671E0,4.653155E0,1.9644579E0,2.4982095E0,2.1549451E0,1.3052502E0,1.1929594E0],"tree_param":{"num_deleted":"0","num_feature":"64","num_nodes":"13","size_leaf_vector":"1"}},{"base_weights":[-0E0,1.24163084E-1,-9.955638E-2,8.7691955E-2,-1.459225E-1,-1.4178444E-1,3.856674E-1,-1.1008792E-1,-0E0,-0E0,1.518265E-1],"categories":[],"categories_nodes":[],"categories_segments":[],"categories_sizes":[],"default_left":[0,0,0,0,0,0,0,0,0,0,0],"id":14,"left_children":[1,-1,3,5,-1,7,9,-1,-1,-1,-1],"loss_changes":[5.8834624E-1,0E0,9.308837E-1,6.1937636E-1,0E0,2.7995634E-1,1.6303807E-1,0E0,0E0,0E0,0E0],"parents":[2147483647,0,0,2,2,3,3,5,5,6,6],"right_children":[2,-1,4,6,-1,8,10,-1,-1,-1,-1],"split_conditions":[-1.02069244E2,1.24163084E-1,-1.8681E1,3E1,-1.459225E-1,2.0296202E1,4.20257E2,-1.1008792E-1,-0E0,-0E0,1.518265E-1],"split_indices":[2,0,4,35,0,30,38,0,0,0,0],"split_type":[0,0,0,0,0,0,0,0,0,0,0],"sum_hessian":[1.0643635E1,1.8691388E0,8.774496E0,5.6465116E0,3.1279845E0,2.6292179E0,3.0172935E0,1.6207886E0,1.0084294E0,1.04778E0,1.9695134E0],"tree_param":{"num_deleted":"0","num_feature":"64","num_nodes":"11","size_leaf_vector":"1"}},{"base_weights":[-0E0,-2.4367301E-1,1.8432036E-1,-1.6303128E-1,3.5940204E-2,1.8481617E-1,-0E0,-1.5662071E-1,8.029248E-2,-1.3014089E-1,2.723165E-2],"categories":[],"categories_nodes":[],"categories_segments":[],"categories_sizes":[],"default_left":[0,0,0,0,0,0,0,0,0,0,0],"id":15,"left_children":[1,3,5,-1,-1,-1,7,9,-1,-1,-1],"loss_changes":[5.2708495E-1,7.523453E-1,6.50941E-1,0E0,0E0,0E0,2.916731E-1,5.1745903E-1,0E0,0E0,0E0],"parents":[2147483647,0,0,1,1,2,2,6,6,7,7],"right_children":[2,4,6,-1,-1,-1,8,10,-1,-1,-1],"split_conditions":[6.2789803E1,1.403E2,-1.02069244E2,-1.6303128E-1,3.5940204E-2,1.8481617E-1,4.6875E1,5.15E1,8.029248E-2,-1.3014089E-1,2.723165E-2],"split_indices":[59,37,2,0,0,0,5,35,0,0,0],"split_type":[0,0,0,0,0,0,0,0,0,0,0],"sum_hessian":[1.0112059E1,3.550329E0,6.56173E0,2.3557358E0,1.1945932E0,1.3920677E0,5.1696625E0,3.7111454E0,1.4585168E0,2.2563553E0,1.4547901E0],"tree_param":{"num_deleted":"0","num_feature":"64","num_nodes":"11","size_leaf_vector":"1"}},{"base_weights":[1.9295259E-3,2.9904908E-1,-9.664989E-2,1.6248626E-1,-0E0,-1.5992698E-1,7.03444E-2,3.6563343E-1,-1.0525978E-1,1.6963935E-1,-0E0],"categories":[],"categories_nodes":[],"categories_segments":[],"categories_sizes":[],"default_left":[0,1,0,0,0,0,0,0,0,0,0],"id":16,"left_children":[1,3,5,-1,-1,-1,7,9,-1,-1,-1],"loss_changes":[4.3055502E-1,2.9185712E-1,7.9802036E-1,0E0,0E0,0E0,8.322665E-1,3.848493E-1,0E0,0E0,0E0],"parents":[2147483647,0,0,1,1,2,2,6,6,7,7],"right_children":[2,4,6,-1,-1,-1,8,10,-1,-1,-1],"split_conditions":[-4.0136E1,4.2675E1,0E0,1.6248626E-1,-0E0,-1.5992698E-1,1.657E2,1.8916478E0,-1.0525978E-1,1.6963935E-1,-0E0],"split_indices":[4,58,6,0,0,0,8,26,0,0,0],"split_type":[0,0,0,0,0,0,0,0,0,0,0],"sum_hessian":[9.590086E0,3.0246286E0,6.565458E0,1.2218312E0,1.8027976E0,1.9591614E0,4.606296E0,3.4162254E0,1.1900707E0,2.0500221E0,1.3662033E0],"tree_param":{"num_deleted":"0","num_feature":"64","num_nodes":"11","size_leaf_vector":"1"}},{"base_weights":[-0E0,1.3809913E-1,-2.5001663E-1,-4.1356254E-2,2.742881E-1,-0E0,-9.51946E-2,4.1401145E-1,-0E0,1.6643248E-1,-0E0],"categories":[],"categories_nodes":[],"categories_segments":[],"categories_sizes":[],"default_left":[1,0,0,0,1,0,0,0,0,0,0],"id":17,"left_children":[1,3,5,-1,7,-1,-1,9,-1,-1,-1],"loss_changes":[3.470527E-1,4.024294E-1,1.6496196E-2,0E0,3.6965114E-1,0E0,0E0,3.3089507E-1,0E0,0E0,0E0],"parents":[2147483647,0,0,1,1,2,2,4,4,7,7],"right_children":[2,4,6,-1,8,-1,-1,10,-1,-1,-1],"split_conditions":[9.06E1,4.820738E1,-7.223608E1,-4.1356254E-2,6.768E1,-0E0,-9.51946E-2,2.1632632E2,-0E0,1.6643248E-1,-0E0],"split_indices":[57,59,2,0,55,0,0,50,0,0,0],"split_type":[0,0,0,0,0,0,0,0,0,0,0],"sum_hessian":[9.153915E0,7.061335E0,2.09258E0,1.2327874E0,5.8285475E0,1.0088556E0,1.0837246E0,4.153801E0,1.6747466E0,2.9453628E0,1.2084382E0],"tree_param":{"num_deleted":"0","num_feature":"64","num_nodes":"11","size_leaf_vector":"1"}},{"base_weights":[-0E0,2.3556039E-1,-1.2532547E-1,-0E0,1.15167156E-1,-3.3245903E-1,3.955958E-2,-0E0,-1.8219627E-1],"categories":[],"categories_nodes":[],"categories_segments":[],"categories_sizes":[],"default_left":[0,0,0,0,0,1,0,0,0],"id":18,"left_children":[1,3,5,-1,-1,7,-1,-1,-1],"loss_changes":[3.2519788E-1,1.9331849E-1,5.1746774E-1,0E0,0E0,7.373691E-1,0E0,0E0,0E0],"parents":[2147483647,0,0,1,1,2,2,5,5],"right_children":[2,4,6,-1,-1,8,-1,-1,-1],"split_conditions":[-4.0136E1,5.7603508E1,6E1,-0E0,1.15167156E-1,-2.783E1,3.955958E-2,-0E0,-1.8219627E-1],"split_indices":[4,59,28,0,0,55,0,0,0],"split_type":[0,0,0,0,0,0,0,0,0],"sum_hessian":[9.014661E0,2.8257394E0,6.1889215E0,1.0734935E0,1.7522458E0,4.239261E0,1.9496603E0,1.6700596E0,2.5692015E0],"tree_param":{"num_deleted":"0","num_feature":"64","num_nodes":"9","size_leaf_vector":"1"}},{"base_weights":[-0E0,1.3603717E-1,-1.9106144E-1,3.0231187E-1,-1.11161135E-2,-1.2757853E-1,-0E0,-0E0,1.3598414E-1],"categories":[],"categories_nodes":[],"categories_segments":[],"categories_sizes":[],"default_left":[0,1,1,0,0,0,0,0,0],"id":19,"left_children":[1,3,5,7,-1,-1,-1,-1,-1],"loss_changes":[2.6536867E-1,3.21883E-1,3.0719495E-1,3.1735417E-1,0E0,0E0,0E0,0E0,0E0],"parents":[2147483647,0,0,1,1,2,2,3,3],"right_children":[2,4,6,8,-1,-1,-1,-1,-1],"split_conditions":[-4.511321E0,7.417E1,1.371513E2,4.25934E2,-1.11161135E-2,-1.2757853E-1,-0E0,-0E0,1.3598414E-1],"split_indices":[27,57,53,38,0,0,0,0,0],"split_type":[0,0,0,0,0,0,0,0,0],"sum_hessian":[8.538174E0,5.6295924E0,2.908581E0,3.822241E0,1.8073515E0,1.487596E0,1.420985E0,1.1326706E0,2.6895704E0],"tree_param":{"num_deleted":"0","num_feature":"64","num_nodes":"9","size_leaf_vector":"1"}},{"base_weights":[-0E0,-8.547466E-2,8.150791E-2,5.479711E-2,-3.2590124E-1,-1.3282909E-2,2.1789645E-1,-0E0,-1.5141708E-1,1.2432311E-1,-0E0],"categories":[],"categories_nodes":[],"categories_segments":[],"categories_sizes":[],"default_left":[0,1,0,0,0,0,0,0,0,0,0],"id":20,"left_children":[1,3,-1,5,7,-1,9,-1,-1,-1,-1],"loss_changes":[2.3810282E-1,4.0666842E-1,0E0,1.6333966E-1,3.3307853E-1,0E0,2.426767E-1,0E0,0E0,0E0,0E0],"parents":[2147483647,0,0,1,1,3,3,4,4,6,6],"right_children":[2,4,-1,6,8,-1,10,-1,-1,-1,-1],"split_conditions":[2.2404781E1,4.6654465E1,8.150791E-2,3.3E2,-4.6101E1,-1.3282909E-2,2.11991E2,-0E0,-1.5141708E-1,1.2432311E-1,-0E0],"split_indices":[30,61,0,14,4,0,36,0,0,0,0],"split_type":[0,0,0,0,0,0,0,0,0,0,0],"sum_hessian":[8.340022E0,6.89593E0,1.4440926E0,3.6555645E0,3.2403655E0,1.0035983E0,2.651966E0,1.1649294E0,2.075436E0,1.422719E0,1.2292471E0],"tree_param":{"num_deleted":"0","num_feature":"64","num_nodes":"11","size_leaf_vector":"1"}},{"base_weights":[-0E0,1.7076606E-1,-9.571243E-2,-0E0,9.129879E-2,-1.2670743E-1,-0E0,2.1930929E-1,-4.855081E-2,1.2117346E-1,-0E0],"categories":[],"categories_nodes":[],"categories_segments":[],"categories_sizes":[],"default_left":[0,0,0,0,0,0,1,0,0,0,0],"id":21,"left_children":[1,3,5,-1,-1,-1,7,9,-1,-1,-1],"loss_changes":[1.6423208E-1,1.2974685E-1,3.749413E-1,0E0,0E0,0E0,2.3619716E-1,1.5255795E-1,0E0,0E0,0E0],"parents":[2147483647,0,0,1,1,2,2,6,6,7,7],"right_children":[2,4,6,-1,-1,-1,8,10,-1,-1,-1],"split_conditions":[-4.0136E1,5.7603508E1,0E0,-0E0,9.129879E-2,-1.2670743E-1,6.683E1,-1.1139597E1,-4.855081E-2,1.2117346E-1,-0E0],"split_indices":[4,59,6,0,0,0,55,27,0,0,0],"split_type":[0,0,0,0,0,0,0,0,0,0,0],"sum_hessian":[8.033809E0,2.6156511E0,5.4181576E0,1.0763246E0,1.5393265E0,1.4314482E0,3.9867094E0,2.624627E0,1.3620821E0,1.003684E0,1.6209431E0],"tree_param":{"num_deleted":"0","num_feature":"64","num_nodes":"11","size_leaf_vector":"1"}},{"base_weights":[-0E0,-6.532327E-2,6.679749E-2,1.0577027E-1,-2.5955778E-2,-2.5688618E-1,3.8143896E-2,-1.2809354E-1,-0E0],"categories":[],"categories_nodes":[],"categories_segments":[],"categories_sizes":[],"default_left":[0,0,0,0,0,0,0,0,0],"id":22,"left_children":[1,-1,3,-1,5,7,-1,-1,-1],"loss_changes":[1.445022E-1,0E0,3.525488E-1,0E0,2.7918288E-1,2.1027607E-1,0E0,0E0,0E0],"parents":[2147483647,0,0,2,2,4,4,5,5],"right_children":[2,-1,4,-1,6,8,-1,-1,-1],"split_conditions":[4.820738E1,-6.532327E-2,-4.0136E1,1.0577027E-1,6E1,5.92E1,3.8143896E-2,-1.2809354E-1,-0E0],"split_indices":[59,0,4,0,28,35,0,0,0],"split_type":[0,0,0,0,0,0,0,0,0],"sum_hessian":[7.739325E0,1.3526133E0,6.3867116E0,2.07253E0,4.3141813E0,2.6264784E0,1.687703E0,1.4660622E0,1.1604162E0],"tree_param":{"num_deleted":"0","num_feature":"64","num_nodes":"9","size_leaf_vector":"1"}},{"base_weights":[-0E0,1.2179701E-1,-1.19077265E-1,-0E0,9.269787E-2,-2.8861058E-1,1.3941362E-2,1.2392782E-2,-3.684145E-2,-0E0,-1.3873357E-1],"categories":[],"categories_nodes":[],"categories_segments":[],"categories_sizes":[],"default_left":[1,0,0,0,0,0,0,0,0,0,0],"id":23,"left_children":[1,3,5,7,-1,9,-1,-1,-1,-1,-1],"loss_changes":[1.3712196E-1,1.5934445E-1,2.6127586E-1,3.5877388E-2,0E0,2.8555092E-1,0E0,0E0,0E0,0E0,0E0],"parents":[2147483647,0,0,1,1,2,2,3,3,5,5],"right_children":[2,4,6,8,-1,10,-1,-1,-1,-1,-1],"split_conditions":[3.849375E1,1.0457079E1,2.1934422E1,1.05E1,9.269787E-2,-6.385603E1,1.3941362E-2,1.2392782E-2,-3.684145E-2,-0E0,-1.3873357E-1],"split_indices":[58,30,30,35,0,2,0,0,0,0,0],"split_type":[0,0,0,0,0,0,0,0,0,0,0],"sum_hessian":[7.4612694E0,3.528804E0,3.9324653E0,2.156212E0,1.3725921E0,2.9242961E0,1.008169E0,1.0039935E0,1.1522185E0,1.0605437E0,1.8637526E0],"tree_param":{"num_deleted":"0","num_feature":"64","num_nodes":"11","size_leaf_vector":"1"}},{"base_weights":[-0E0,8.391816E-2,-5.4546356E-2,-0E0,1.832744E-1,1.06376044E-1,-0E0],"categories":[],"categories_nodes":[],"categories_segments":[],"categories_sizes":[],"default_left":[1,0,0,0,0,0,0],"id":24,"left_children":[1,3,-1,-1,5,-1,-1],"loss_changes":[1.3069186E-1,1.3461877E-1,0E0,0E0,2.6277545E-1,0E0,0E0],"parents":[2147483647,0,0,1,1,4,4],"right_children":[2,4,-1,-1,6,-1,-1],"split_conditions":[9.06E1,4.25934E2,-5.4546356E-2,-0E0,-2.0342733E1,1.06376044E-1,-0E0],"split_indices":[57,38,0,0,2,0,0],"split_type":[0,0,0,0,0,0,0],"sum_hessian":[7.2040567E0,5.672046E0,1.5320106E0,1.265445E0,4.406601E0,2.5343525E0,1.8722485E0],"tree_param":{"num_deleted":"0","num_feature":"64","num_nodes":"7","size_leaf_vector":"1"}},{"base_weights":[-0E0,4.2056587E-2,-8.2473226E-2,-1.15201294E-1,7.112772E-3,-7.4719735E-3,6.0356136E-2],"categories":[],"categories_nodes":[],"categories_segments":[],"categories_sizes":[],"default_left":[0,0,1,0,0,0,0],"id":25,"left_children":[1,-1,3,-1,5,-1,-1],"loss_changes":[1.0065232E-1,0E0,3.3897492E-1,0E0,1.1302304E-1,0E0,0E0],"parents":[2147483647,0,0,2,2,4,4],"right_children":[2,-1,4,-1,6,-1,-1],"split_conditions":[1.1889E2,4.2056587E-2,6.416286E1,-1.15201294E-1,1.639296E1,-7.4719735E-3,6.0356136E-2],"split_indices":[8,0,59,0,30,0,0],"split_type":[0,0,0,0,0,0,0],"sum_hessian":[7.137833E0,1.9957402E0,5.1420927E0,1.5805194E0,3.5615733E0,1.8065555E0,1.7550178E0],"tree_param":{"num_deleted":"0","num_feature":"64","num_nodes":"7","size_leaf_vector":"1"}},{"base_weights":[-0E0,-9.629555E-2,7.768409E-2,-7.9173E-2,-0E0,2.7744195E-1,-9.490129E-3,-0E0,1.23937964E-1],"categories":[],"categories_nodes":[],"categories_segments":[],"categories_sizes":[],"default_left":[0,0,0,0,0,0,0,0,0],"id":26,"left_children":[1,3,5,-1,-1,7,-1,-1,-1],"loss_changes":[6.864632E-2,1.7581001E-1,2.1694943E-1,0E0,0E0,1.1753449E-1,0E0,0E0,0E0],"parents":[2147483647,0,0,1,1,2,2,5,5],"right_children":[2,4,6,-1,-1,8,-1,-1,-1],"split_conditions":[6.49E1,5.05E1,6.71702E1,-7.9173E-2,-0E0,2.5673971E1,-9.490129E-3,-0E0,1.23937964E-1],"split_indices":[0,5,34,0,0,34,0,0,0],"split_type":[0,0,0,0,0,0,0,0,0],"sum_hessian":[6.9554305E0,3.5095305E0,3.4458997E0,2.1246355E0,1.384895E0,2.1370208E0,1.308879E0,1.0335685E0,1.1034522E0],"tree_param":{"num_deleted":"0","num_feature":"64","num_nodes":"9","size_leaf_vector":"1"}},{"base_weights":[-0E0,-1.1372636E-1,5.7274345E-2,-0E0,-1.01128615E-1,7.887285E-2,-0E0,-5.447492E-2,3.9128272E-4],"categories":[],"categories_nodes":[],"categories_segments":[],"categories_sizes":[],"default_left":[0,0,0,0,0,0,0,0,0],"id":27,"left_children":[1,3,5,-1,-1,-1,7,-1,-1],"loss_changes":[6.0092013E-2,2.0387633E-1,1.7084083E-1,0E0,0E0,0E0,7.308146E-2,0E0,0E0],"parents":[2147483647,0,0,1,1,2,2,6,6],"right_children":[2,4,6,-1,-1,-1,8,-1,-1],"split_conditions":[6.2789803E1,1.165E3,-5.803837E1,-0E0,-1.01128615E-1,7.887285E-2,3.955E3,-5.447492E-2,3.9128272E-4],"split_indices":[59,11,2,0,0,0,19,0,0],"split_type":[0,0,0,0,0,0,0,0,0],"sum_hessian":[6.8250175E0,2.226125E0,4.598892E0,1.064769E0,1.1613561E0,1.7373161E0,2.8615758E0,1.2163066E0,1.6452693E0],"tree_param":{"num_deleted":"0","num_feature":"64","num_nodes":"9","size_leaf_vector":"1"}},{"base_weights":[-0E0,5.57103E-2,-1.06416546E-1,-1.5264006E-2,2.0237313E-1,-5.0503973E-2,-0E0,1.0171962E-1,-0E0],"categories":[],"categories_nodes":[],"categories_segments":[],"categories_sizes":[],"default_left":[1,0,1,0,0,0,0,0,0],"id":28,"left_children":[1,3,5,-1,7,-1,-1,-1,-1],"loss_changes":[5.15467E-2,1.6690391E-1,2.275281E-2,0E0,1.3387385E-1,0E0,0E0,0E0,0E0],"parents":[2147483647,0,0,1,1,2,2,4,4],"right_children":[2,4,6,-1,8,-1,-1,-1,-1],"split_conditions":[6.768E1,-5.149E1,1.0189589E2,-1.5264006E-2,-2.9492E1,-5.0503973E-2,-0E0,1.0171962E-1,-0E0],"split_indices":[55,55,62,0,4,0,0,0,0],"split_type":[0,0,0,0,0,0,0,0,0],"sum_hessian":[6.644869E0,4.6383457E0,2.0065234E0,1.2798607E0,3.3584847E0,1.0041986E0,1.0023247E0,1.7171241E0,1.6413608E0],"tree_param":{"num_deleted":"0","num_feature":"64","num_nodes":"9","size_leaf_vector":"1"}},{"base_weights":[-0E0,8.4294304E-2,-7.864184E-2,-0E0,7.651989E-2,-7.543756E-2,-0E0,2.5645997E-3,-0E0],"categories":[],"categories_nodes":[],"categories_segments":[],"categories_sizes":[],"default_left":[1,0,0,0,0,0,0,0,0],"id":29,"left_children":[1,3,5,-1,-1,-1,7,-1,-1],"loss_changes":[5.599256E-2,1.06857836E-1,1.541657E-1,0E0,0E0,0E0,1.5256832E-4,0E0,0E0],"parents":[2147483647,0,0,1,1,2,2,6,6],"right_children":[2,4,6,-1,-1,-1,8,-1,-1],"split_conditions":[1.5820416E1,2.563E3,1.6617567E1,-0E0,7.651989E-2,-7.543756E-2,6.71702E1,2.5645997E-3,-0E0],"split_indices":[58,11,30,0,0,0,34,0,0],"split_type":[0,0,0,0,0,0,0,0,0],"sum_hessian":[6.5385823E0,2.4586248E0,4.0799575E0,1.4384037E0,1.0202211E0,1.9349805E0,2.1449769E0,1.0876981E0,1.0572789E0],"tree_param":{"num_deleted":"0","num_feature":"64","num_nodes":"9","size_leaf_vector":"1"}},{"base_weights":[-0E0,-3.824035E-2,3.3536866E-2,7.6635316E-2,-3.3216623E-3,-2.0246673E-1,2.219634E-2,-1.0426397E-1,-0E0],"categories":[],"categories_nodes":[],"categories_segments":[],"categories_sizes":[],"default_left":[0,0,0,0,0,0,0,0,0],"id":30,"left_children":[1,-1,3,-1,5,7,-1,-1,-1],"loss_changes":[4.0298272E-2,0E0,1.6693638E-1,0E0,1.4552195E-1,1.3078457E-1,0E0,0E0,0E0],"parents":[2147483647,0,0,2,2,4,4,5,5],"right_children":[2,-1,4,-1,6,8,-1,-1,-1],"split_conditions":[4.820738E1,-3.824035E-2,-4.0136E1,7.6635316E-2,6E1,5.92E1,2.219634E-2,-1.0426397E-1,-0E0],"split_indices":[59,0,4,0,28,35,0,0,0],"split_type":[0,0,0,0,0,0,0,0,0],"sum_hessian":[6.41389E0,1.0389028E0,5.374987E0,1.6672875E0,3.7076998E0,2.2188456E0,1.488854E0,1.1751555E0,1.0436902E0],"tree_param":{"num_deleted":"0","num_feature":"64","num_nodes":"9","size_leaf_vector":"1"}},{"base_weights":[-0E0,4.8359934E-2,-3.0777557E-2,-0E0,1.6769698E-1,8.128914E-2,-0E0],"categories":[],"categories_nodes":[],"categories_segments":[],"categories_sizes":[],"default_left":[1,0,0,0,0,0,0],"id":31,"left_children":[1,3,-1,-1,5,-1,-1],"loss_changes":[4.3540575E-2,9.9908285E-2,0E0,0E0,7.381698E-2,0E0,0E0],"parents":[2147483647,0,0,1,1,4,4],"right_children":[2,4,-1,-1,6,-1,-1],"split_conditions":[7.417E1,2.28E2,-3.0777557E-2,-0E0,-2.9492E1,8.128914E-2,-0E0],"split_indices":[57,9,0,0,4,0,0],"split_type":[0,0,0,0,0,0,0],"sum_hessian":[6.2380013E0,4.2727804E0,1.9652209E0,1.2816513E0,2.9911294E0,1.5340936E0,1.4570357E0],"tree_param":{"num_deleted":"0","num_feature":"64","num_nodes":"7","size_leaf_vector":"1"}},{"base_weights":[-0E0,-2.9640002E-2,3.5000216E-2,-0E0,6.4838335E-2,-0E0,-2.9665826E-2],"categories":[],"categories_nodes":[],"categories_segments":[],"categories_sizes":[],"default_left":[0,0,0,0,0,0,0],"id":32,"left_children":[1,-1,3,5,-1,-1,-1],"loss_changes":[3.5370912E-2,0E0,1.270472E-1,2.232211E-2,0E0,0E0,0E0],"parents":[2147483647,0,0,2,2,3,3],"right_children":[2,-1,4,6,-1,-1,-1],"split_conditions":[6.2789803E1,-2.9640002E-2,1.85E1,1.94672E2,6.4838335E-2,-0E0,-2.9665826E-2],"split_indices":[59,0,5,36,0,0,0],"split_type":[0,0,0,0,0,0,0],"sum_hessian":[6.1644373E0,1.9718946E0,4.1925426E0,2.3365228E0,1.8560199E0,1.0537381E0,1.2827847E0],"tree_param":{"num_deleted":"0","num_feature":"64","num_nodes":"7","size_leaf_vector":"1"}},{"base_weights":[-0E0,1.833647E-2,-5.821655E-2,1.2268039E-3,-2.1393418E-1,-0E0,-1.0242379E-1],"categories":[],"categories_nodes":[],"categories_segments":[],"categories_sizes":[],"default_left":[0,0,0,0,0,0,0],"id":33,"left_children":[1,-1,3,-1,5,-1,-1],"loss_changes":[2.8474774E-2,0E0,1.470913E-1,0E0,1.3217703E-1,0E0,0E0],"parents":[2147483647,0,0,2,2,4,4],"right_children":[2,-1,4,-1,6,-1,-1],"split_conditions":[1.1889E2,1.833647E-2,2.6190416E1,1.2268039E-3,-4.2014E1,-0E0,-1.0242379E-1],"split_indices":[8,0,58,0,4,0,0],"split_type":[0,0,0,0,0,0,0],"sum_hessian":[6.113496E0,1.8175526E0,4.2959433E0,1.6908975E0,2.6050458E0,1.0555809E0,1.549465E0],"tree_param":{"num_deleted":"0","num_feature":"64","num_nodes":"7","size_leaf_vector":"1"}},{"base_weights":[-0E0,-5.327525E-2,4.7769323E-2,-5.6867152E-2,-0E0,7.392195E-2,-8.618656E-3],"categories":[],"categories_nodes":[],"categories_segments":[],"categories_sizes":[],"default_left":[0,0,0,0,0,0,0],"id":34,"left_children":[1,3,5,-1,-1,-1,-1],"loss_changes":[2.0434123E-2,8.746917E-2,1.6653086E-1,0E0,0E0,0E0,0E0],"parents":[2147483647,0,0,1,1,2,2],"right_children":[2,4,6,-1,-1,-1,-1],"split_conditions":[6.49E1,5.05E1,6.71702E1,-5.6867152E-2,-0E0,7.392195E-2,-8.618656E-3],"split_indices":[0,5,34,0,0,0,0],"split_type":[0,0,0,0,0,0,0],"sum_hessian":[5.987428E0,2.9679499E0,3.0194786E0,1.7477298E0,1.2202201E0,1.8645486E0,1.1549299E0],"tree_param":{"num_deleted":"0","num_feature":"64","num_nodes":"7","size_leaf_vector":"1"}},{"base_weights":[-0E0,-2.1718951E-2,3.1400766E-2,5.966736E-2,-0E0,-3.8797494E-2,-0E0],"categories":[],"categories_nodes":[],"categories_segments":[],"categories_sizes":[],"default_left":[0,0,0,0,0,0,0],"id":35,"left_children":[1,-1,3,-1,5,-1,-1],"loss_changes":[2.0010393E-2,0E0,9.4668746E-2,0E0,3.4896314E-2,0E0,0E0],"parents":[2147483647,0,0,2,2,4,4],"right_children":[2,-1,4,-1,6,-1,-1],"split_conditions":[6.2789803E1,-2.1718951E-2,-5.803837E1,5.966736E-2,3.955E3,-3.8797494E-2,-0E0],"split_indices":[59,0,2,0,19,0,0],"split_type":[0,0,0,0,0,0,0],"sum_hessian":[5.9220304E0,1.8668637E0,4.0551667E0,1.5191852E0,2.5359814E0,1.0864828E0,1.4494988E0],"tree_param":{"num_deleted":"0","num_feature":"64","num_nodes":"7","size_leaf_vector":"1"}},{"base_weights":[-0E0,2.1725819E-2,-2.614771E-2,-8.909891E-3,1.5441704E-1,-0E0,7.499654E-2],"categories":[],"categories_nodes":[],"categories_segments":[],"categories_sizes":[],"default_left":[0,1,0,0,0,0,0],"id":36,"left_children":[1,3,-1,-1,5,-1,-1],"loss_changes":[1.8598434E-2,1.0030476E-1,0E0,0E0,9.267734E-2,0E0,0E0],"parents":[2147483647,0,0,1,1,4,4],"right_children":[2,4,-1,-1,6,-1,-1],"split_conditions":[1.7018E2,4.820738E1,-2.614771E-2,-8.909891E-3,2.37E2,-0E0,7.499654E-2],"split_indices":[8,59,0,0,9,0,0],"split_type":[0,0,0,0,0,0,0],"sum_hessian":[5.8573365E0,4.767464E0,1.0898721E0,1.5406822E0,3.226782E0,1.1310827E0,2.0956995E0],"tree_param":{"num_deleted":"0","num_feature":"64","num_nodes":"7","size_leaf_vector":"1"}},{"base_weights":[-0E0,-6.312093E-2,3.0800378E-2,-7.707219E-2,6.5388493E-3,5.5953175E-2,-0E0],"categories":[],"categories_nodes":[],"categories_segments":[],"categories_sizes":[],"default_left":[0,0,0,0,0,0,0],"id":37,"left_children":[1,3,5,-1,-1,-1,-1],"loss_changes":[2.0701366E-2,1.8392655E-1,8.098853E-2,0E0,0E0,0E0,0E0],"parents":[2147483647,0,0,1,1,2,2],"right_children":[2,4,6,-1,-1,-1,-1],"split_conditions":[5.33E1,4.6875E1,3.144E3,-7.707219E-2,6.5388493E-3,5.5953175E-2,-0E0],"split_indices":[35,5,12,0,0,0,0],"split_type":[0,0,0,0,0,0,0],"sum_hessian":[5.806701E0,3.3798547E0,2.4268465E0,2.0342202E0,1.3456345E0,1.4216344E0,1.005212E0],"tree_param":{"num_deleted":"0","num_feature":"64","num_nodes":"7","size_leaf_vector":"1"}},{"base_weights":[-0E0,-4.5701154E-2,1.3836405E-2,9.341123E-3,-2.0657696E-1,-0E0,-9.412567E-2],"categories":[],"categories_nodes":[],"categories_segments":[],"categories_sizes":[],"default_left":[0,0,0,0,0,0,0],"id":38,"left_children":[1,3,-1,-1,5,-1,-1],"loss_changes":[1.6207326E-2,1.4779499E-1,0E0,0E0,9.8052025E-2,0E0,0E0],"parents":[2147483647,0,0,1,1,4,4],"right_children":[2,4,-1,-1,6,-1,-1],"split_conditions":[4.212E0,9.5E-2,1.3836405E-2,9.341123E-3,7.611823E1,-0E0,-9.412567E-2],"split_indices":[42,42,0,0,62,0,0],"split_type":[0,0,0,0,0,0,0],"sum_hessian":[5.7102523E0,4.0218205E0,1.6884321E0,1.3664544E0,2.6553662E0,1.0747074E0,1.5806587E0],"tree_param":{"num_deleted":"0","num_feature":"64","num_nodes":"7","size_leaf_vector":"1"}},{"base_weights":[-0E0,-2.1145327E-2,3.0723197E-2,1.6711862E-1,-0E0,-0E0,7.571835E-2],"categories":[],"categories_nodes":[],"categories_segments":[],"categories_sizes":[],"default_left":[0,0,0,0,0,0,0],"id":39,"left_children":[1,-1,3,5,-1,-1,-1],"loss_changes":[1.6385136E-2,0E0,9.243962E-2,5.764018E-2,0E0,0E0,0E0],"parents":[2147483647,0,0,2,2,3,3],"right_children":[2,-1,4,6,-1,-1,-1],"split_conditions":[4.25934E2,-2.1145327E-2,9.69E2,5.81E2,-0E0,-0E0,7.571835E-2],"split_indices":[38,0,14,14,0,0,0],"split_type":[0,0,0,0,0,0,0],"sum_hessian":[5.609406E0,1.2868261E0,4.32258E0,2.4897404E0,1.8328396E0,1.0549427E0,1.4347976E0],"tree_param":{"num_deleted":"0","num_feature":"64","num_nodes":"7","size_leaf_vector":"1"}},{"base_weights":[-0E0,3.6740635E-2,-4.541805E-2,-0E0,4.002378E-2,-6.7841664E-2,-0E0,2.198253E-2,-0E0],"categories":[],"categories_nodes":[],"categories_segments":[],"categories_sizes":[],"default_left":[0,0,0,0,0,0,0,0,0],"id":40,"left_children":[1,3,5,-1,-1,-1,7,-1,-1],"loss_changes":[1.331256E-2,3.4317262E-2,1.0984693E-1,0E0,0E0,0E0,1.0782072E-2,0E0,0E0],"parents":[2147483647,0,0,1,1,2,2,6,6],"right_children":[2,4,6,-1,-1,-1,8,-1,-1],"split_conditions":[-3.4586E1,5.98E1,6.90431E2,-0E0,4.002378E-2,-6.7841664E-2,3.4959583E1,2.198253E-2,-0E0],"split_indices":[4,0,41,0,0,0,58,0,0],"split_type":[0,0,0,0,0,0,0,0,0],"sum_hessian":[5.5711236E0,2.233367E0,3.3377566E0,1.060095E0,1.1732719E0,1.3229892E0,2.0147674E0,1.008119E0,1.0066485E0],"tree_param":{"num_deleted":"0","num_feature":"64","num_nodes":"9","size_leaf_vector":"1"}},{"base_weights":[-0E0,3.480105E-2,-3.8283985E-2,-0E0,3.6854234E-2,-5.254936E-2,-0E0],"categories":[],"categories_nodes":[],"categories_segments":[],"categories_sizes":[],"default_left":[1,0,0,0,0,0,0],"id":41,"left_children":[1,3,5,-1,-1,-1,-1],"loss_changes":[1.0179964E-2,2.710966E-2,7.123114E-2,0E0,0E0,0E0,0E0],"parents":[2147483647,0,0,1,1,2,2],"right_children":[2,4,6,-1,-1,-1,-1],"split_conditions":[1.5820416E1,2.346E3,1.6617567E1,-0E0,3.6854234E-2,-5.254936E-2,-0E0],"split_indices":[58,11,30,0,0,0,0],"split_type":[0,0,0,0,0,0,0],"sum_hessian":[5.4855666E0,2.108845E0,3.3767219E0,1.0630022E0,1.0458428E0,1.5306172E0,1.8461046E0],"tree_param":{"num_deleted":"0","num_feature":"64","num_nodes":"7","size_leaf_vector":"1"}},{"base_weights":[-0E0,2.3423996E-2,-1.4704665E-2,-0E0,1.2925045E-1,6.596313E-2,-0E0],"categories":[],"categories_nodes":[],"categories_segments":[],"categories_sizes":[],"default_left":[1,0,0,0,0,0,0],"id":42,"left_children":[1,3,-1,-1,5,-1,-1],"loss_changes":[9.001916E-3,5.803458E-2,0E0,0E0,5.2497286E-2,0E0,0E0],"parents":[2147483647,0,0,1,1,4,4],"right_children":[2,4,-1,-1,6,-1,-1],"split_conditions":[7.417E1,2.28E2,-1.4704665E-2,-0E0,-2.9492E1,6.596313E-2,-0E0],"split_indices":[57,9,0,0,4,0,0],"split_type":[0,0,0,0,0,0,0],"sum_hessian":[5.4219675E0,3.7628362E0,1.6591314E0,1.1324623E0,2.630374E0,1.3403243E0,1.2900497E0],"tree_param":{"num_deleted":"0","num_feature":"64","num_nodes":"7","size_leaf_vector":"1"}},{"base_weights":[-0E0,9.841743E-3,-3.994154E-2,-6.282464E-2,-0E0,-2.1350826E-3,3.6937248E-2],"categories":[],"categories_nodes":[],"categories_segments":[],"categories_sizes":[],"default_left":[0,0,0,0,0,0,0],"id":43,"left_children":[1,-1,3,-1,5,-1,-1],"loss_changes":[1.0247446E-2,0E0,8.1454016E-2,0E0,3.23222E-2,0E0,0E0],"parents":[2147483647,0,0,2,2,4,4],"right_children":[2,-1,4,-1,6,-1,-1],"split_conditions":[-5.9560497E1,9.841743E-3,2.28E2,-6.282464E-2,1.0457079E1,-2.1350826E-3,3.6937248E-2],"split_indices":[2,0,9,0,30,0,0],"split_type":[0,0,0,0,0,0,0],"sum_hessian":[5.37595E0,1.9273487E0,3.448601E0,1.0191845E0,2.4294167E0,1.3049848E0,1.1244318E0],"tree_param":{"num_deleted":"0","num_feature":"64","num_nodes":"7","size_leaf_vector":"1"}},{"base_weights":[-0E0,-1.6144374E-2,1.4837936E-2,4.8049767E-2,-0E0,-2.45317E-2,-0E0],"categories":[],"categories_nodes":[],"categories_segments":[],"categories_sizes":[],"default_left":[0,0,0,0,0,0,0],"id":44,"left_children":[1,-1,3,-1,5,-1,-1],"loss_changes":[8.824413E-3,0E0,6.0720023E-2,0E0,1.4417797E-2,0E0,0E0],"parents":[2147483647,0,0,2,2,4,4],"right_children":[2,-1,4,-1,6,-1,-1],"split_conditions":[6.2789803E1,-1.6144374E-2,-5.803837E1,4.8049767E-2,2.0955724E2,-2.45317E-2,-0E0],"split_indices":[59,0,2,0,50,0,0],"split_type":[0,0,0,0,0,0,0],"sum_hessian":[5.3226266E0,1.69531E0,3.627317E0,1.4066788E0,2.220638E0,1.1561859E0,1.0644522E0],"tree_param":{"num_deleted":"0","num_feature":"64","num_nodes":"7","size_leaf_vector":"1"}},{"base_weights":[-0E0,1.1887611E-2,-1.5084202E-2,4.9770985E-2,-0E0],"categories":[],"categories_nodes":[],"categories_segments":[],"categories_sizes":[],"default_left":[1,0,0,0,0],"id":45,"left_children":[1,3,-1,-1,-1],"loss_changes":[7.7343695E-3,8.200913E-2,0E0,0E0,0E0],"parents":[2147483647,0,0,1,1],"right_children":[2,4,-1,-1,-1],"split_conditions":[6.277E1,5.849792E1,-1.5084202E-2,4.9770985E-2,-0E0],"split_indices":[55,34,0,0,0],"split_type":[0,0,0,0,0],"sum_hessian":[5.280041E0,3.4706302E0,1.809411E0,2.0025146E0,1.4681154E0],"tree_param":{"num_deleted":"0","num_feature":"64","num_nodes":"5","size_leaf_vector":"1"}},{"base_weights":[-0E0,-4.621186E-2,6.525623E-3,-0E0,-1.8768768E-1,-0E0,-8.0314144E-2],"categories":[],"categories_nodes":[],"categories_segments":[],"categories_sizes":[],"default_left":[0,0,0,0,0,0,0],"id":46,"left_children":[1,3,-1,-1,5,-1,-1],"loss_changes":[1.1225389E-2,1.0957307E-1,0E0,0E0,5.19415E-2,0E0,0E0],"parents":[2147483647,0,0,1,1,4,4],"right_children":[2,4,-1,-1,6,-1,-1],"split_conditions":[4.212E0,9.5E-2,6.525623E-3,-0E0,7.698922E1,-0E0,-8.0314144E-2],"split_indices":[42,42,0,0,62,0,0],"split_type":[0,0,0,0,0,0,0],"sum_hessian":[5.263607E0,3.685197E0,1.5784097E0,1.2906526E0,2.3945446E0,1.0013764E0,1.3931681E0],"tree_param":{"num_deleted":"0","num_feature":"64","num_nodes":"7","size_leaf_vector":"1"}}]},"name":"gbtree"},"learner_model_param":{"base_score":"1.7123288E-2","boost_from_average":"1","num_class":"0","num_feature":"64","num_target":"1"},"objective":{"name":"binary:logistic","reg_loss_param":{"scale_pos_weight":"1"}}},"version":[3,0,0]}