{"learner":{"attributes":{"best_iteration":"54","best_score":"0.01592610947775889","scikit_learn":"{\"_estimator_type\": \"classifier\"}"},"feature_names":["Price_gas","Imbalance netting import","Imbalance netting export","Energy_positive_secondary","Energy_negative_secondary","Energy_positive_tertiary","Energy_negative_tertiary","CH_dayahead_price","CH_intraday_price","renewable_energy","Cross_border_physical_flows_IT_CH","Cross_border_physical_flows_CH_IT","Cross_border_physical_flows_FR_CH","Cross_border_physical_flows_CH_FR","Cross_border_physical_flows_AT_CH","Cross_border_physical_flows_CH_AT","Cross_border_physical_flows_DE_CH","Cross_border_physical_flows_CH_DE","Forecast_transfer_capacities_dayahead_IT_CH","Forecast_transfer_capacities_dayahead_CH_IT","Forecast_transfer_capacities_dayahead_FR_CH","Forecast_transfer_capacities_dayahead_CH_FR","Forecast_transfer_capacities_dayahead_DE_CH","Forecast_transfer_capacities_dayahead_CH_DE","Forecast_transfer_capacities_dayahead_AT_CH","Forecast_transfer_capacities_dayahead_CH_AT","aFRR p","aFRR n","mFRR p","mFRR n","FRCE p","FRCE n","RR p","RR n","Total System Imbalance","Exchange_CH_AT","Exchange_AT_CH","Exchange_CH_DE","Exchange_DE_CH","Exchange_CH_FR","Exchange_FR_CH","Exchange_CH_IT","Exchange_IT_CH","day_type","hour","weekday","Price_positive_secondary_lag_1","Price_positive_secondary_lag_24","Price_positive_secondary_lag_168","Price_positive_secondary_mean_24","Price_positive_secondary_std_24","Price_positive_secondary_max_24","Price_positive_secondary_mean_168","Price_positive_secondary_std_168","Price_positive_secondary_max_168"],"feature_types":["float","float","float","float","float","float","float","float","float","float","int","int","int","int","float","float","int","int","int","int","int","int","int","int","int","int","float","float","int","int","float","float","float","float","float","float","float","float","float","float","float","float","float","int","int","int","float","float","float","float","float","float","float","float","float"],"gradient_booster":{"model":{"gbtree_model_param":{"num_parallel_tree":"1","num_trees":"85"},"iteration_indptr":[0,1,2,3,4,5,6,7,8,9,10,11,12,13,14,15,16,17,18,19,20,21,22,23,24,25,26,27,28,29,30,31,32,33,34,35,36,37,38,39,40,41,42,43,44,45,46,47,48,49,50,51,52,53,54,55,56,57,58,59,60,61,62,63,64,65,66,67,68,69,70,71,72,73,74,75,76,77,78,79,80,81,82,83,84,85],"tree_info":[0,0,0,0,0,0,0,0,0,0,0,0,0,0,0,0,0,0,0,0,0,0,0,0,0,0,0,0,0,0,0,0,0,0,0,0,0,0,0,0,0,0,0,0,0,0,0,0,0,0,0,0,0,0,0,0,0,0,0,0,0,0,0,0,0,0,0,0,0,0,0,0,0,0,0,0,0,0,0,0,0,0,0,0,0],"trees":[{"base_weights":[-0E0,-6.492186E-1,1.1093914E1,-8.8182366E-1,2.5552351E0,-2.2200936E-1,5.542773E0,-9.375288E-1,8.7055904E-1,2.3190472E-1,2.2275524E0,-9.9571663E-1,2.704002E-1,-2.0340598E-1,8.7747926E-1,-5.177119E-1,7.2800004E-1,-3.0399933E-1,5.2890263E-2,-5.553475E-1,4.7684717E-1,-2.4318312E-1,1.3008305E-1,-2.1189375E-1,-0E0],"categories":[],"categories_nodes":[],"categories_segments":[],"categories_sizes":[],"default_left":[0,1,1,0,0,0,0,1,0,0,0,0,0,0,0,0,0,0,0,0,0,0,0,0,0],"id":0,"left_children":[1,3,5,7,9,-1,-1,11,13,15,-1,17,19,-1,-1,21,-1,-1,-1,23,-1,-1,-1,-1,-1],"loss_changes":[9.77017E2,9.762394E1,6.704133E2,1.2560562E1,9.8323395E1,0E0,0E0,8.563431E0,1.5462766E1,1.3063775E1,0E0,2.5657806E0,7.615662E0,0E0,0E0,2.0754857E0,0E0,0E0,0E0,3.4486115E-1,0E0,0E0,0E0,0E0,0E0],"parents":[2147483647,0,0,1,1,2,2,3,3,4,4,7,7,8,8,9,9,11,11,12,12,15,15,19,19],"right_children":[2,4,6,8,10,-1,-1,12,14,16,-1,18,20,-1,-1,22,-1,-1,-1,24,-1,-1,-1,-1,-1],"split_conditions":[3.3076E1,2.6962E2,3.2893E2,1.8243E2,1.7606E1,-2.2200936E-1,5.542773E0,7E2,6.747E0,1.7095898E2,2.2275524E0,7.57554E2,3.6E1,-2.0340598E-1,8.7747926E-1,5.8297573E1,7.2800004E-1,-3.0399933E-1,5.2890263E-2,2.9150034E1,4.7684717E-1,-2.4318312E-1,1.3008305E-1,-2.1189375E-1,-0E0],"split_indices":[3,46,51,7,3,0,0,51,3,50,0,40,28,0,0,26,0,0,0,1,0,0,0,0,0],"split_type":[0,0,0,0,0,0,0,0,0,0,0,0,0,0,0,0,0,0,0,0,0,0,0,0,0],"sum_hessian":[1.3365207E2,1.2715254E2,6.499518E0,1.19249374E2,7.90317E0,2.8378177E0,3.6617002E0,1.160759E2,3.1734736E0,6.0723195E0,1.8308501E0,1.10980034E2,5.095866E0,2.166506E0,1.0069675E0,5.065352E0,1.0069675E0,1.0954587E2,1.434166E0,3.448101E0,1.6477652E0,4.0583844E0,1.0069675E0,2.4411335E0,1.0069675E0],"tree_param":{"num_deleted":"0","num_feature":"55","num_nodes":"25","size_leaf_vector":"1"}},{"base_weights":[-7.002934E-1,-1.0526325E0,1.81675E-1,-8.904409E-1,-2.3955407E0,-8.40889E-1,1.5781037E0,-9.8425335E-1,6.500055E-1,-3.473869E0,-2.5783923E-2,-2.9268855E-1,2.7381256E-1,1.9793811E0,-2.2778384E-1,-1.0088606E0,1.07515685E-1,-3.080512E-1,7.088877E-1,-9.7580105E-1,-1.4574306E0,-2.2980762E-1,1.6079125E-1,2.8881528E0,4.1575912E-1,-3.0577263E-1,-6.2186945E-2,-2.1095817E-1,1.2935568E-1,-4.3780813E-1,1.4471894E-2,1.1256384E0,1.2537972E0,-2.2792058E-1,2.5830778E-1,-7.786533E-2,6.109233E-1],"categories":[],"categories_nodes":[],"categories_segments":[],"categories_sizes":[],"default_left":[0,0,0,0,0,1,0,0,0,0,0,0,0,0,0,0,0,0,0,0,0,0,0,0,0,0,0,0,0,0,0,0,0,0,0,0,0],"id":1,"left_children":[1,3,5,7,9,11,13,15,17,19,21,-1,-1,23,-1,25,-1,27,-1,29,-1,-1,-1,31,33,-1,-1,-1,-1,-1,-1,-1,35,-1,-1,-1,-1],"loss_changes":[3.913439E1,1.7083649E1,5.348568E1,1.2459755E1,2.2600048E1,6.0174007E0,1.643792E1,2.9757767E0,9.496511E0,1.601252E1,2.0318065E0,0E0,0E0,1.8111607E1,0E0,3.131256E-1,0E0,1.5560712E0,0E0,1.9150281E0,0E0,0E0,0E0,6.879959E0,3.9487624E0,0E0,0E0,0E0,0E0,0E0,0E0,0E0,6.000862E0,0E0,0E0,0E0,0E0],"parents":[2147483647,0,0,1,1,2,2,3,3,4,4,5,5,6,6,7,7,8,8,9,9,10,10,13,13,15,15,17,17,19,19,23,23,24,24,32,32],"right_children":[2,4,6,8,10,12,14,16,18,20,22,-1,-1,24,-1,26,-1,28,-1,30,-1,-1,-1,32,34,-1,-1,-1,-1,-1,-1,-1,36,-1,-1,-1,-1],"split_conditions":[5.56E1,3.3076E1,1.2649E1,7E2,4.5398E1,2.6393332E2,2.784E3,1.8673E2,5.5087E1,3.5578E2,2.1481E2,-2.9268855E-1,2.7381256E-1,3.3076E1,-2.2778384E-1,3.1834E2,1.07515685E-1,4.787069E0,7.088877E-1,7.5816E2,-1.4574306E0,-2.2980762E-1,1.6079125E-1,1.3E1,3.8719E1,-3.0577263E-1,-6.2186945E-2,-2.1095817E-1,1.2935568E-1,-4.3780813E-1,1.4471894E-2,1.1256384E0,2.1368124E2,-2.2792058E-1,2.5830778E-1,-7.786533E-2,6.109233E-1],"split_indices":[0,3,3,51,3,49,16,7,42,51,46,0,0,3,0,46,0,30,0,41,0,0,0,44,3,0,0,0,0,0,0,0,49,0,0,0,0],"split_type":[0,0,0,0,0,0,0,0,0,0,0,0,0,0,0,0,0,0,0,0,0,0,0,0,0,0,0,0,0,0,0,0,0,0,0,0,0],"sum_hessian":[1.240668E2,8.858601E1,3.5480793E1,8.0583534E1,8.002473E0,2.0674683E1,1.4806111E1,7.635317E1,4.230368E0,5.153518E0,2.8489547E0,1.9659136E1,1.0155473E0,1.2800268E1,2.0058432E0,7.528896E1,1.064206E0,3.2052643E0,1.0251039E0,2.468571E0,2.6849473E0,1.1414592E0,1.7074955E0,7.523161E0,5.277107E0,7.3947365E1,1.3415987E0,2.1999028E0,1.0053614E0,1.4477514E0,1.0208197E0,4.037783E0,3.485378E0,1.2001888E0,4.076918E0,1.3766494E0,2.1087286E0],"tree_param":{"num_deleted":"0","num_feature":"55","num_nodes":"37","size_leaf_vector":"1"}},{"base_weights":[-5.9472704E-1,-8.202968E-1,3.943966E-1,-9.171424E-1,2.0604752E-1,-4.647215E-1,8.4293604E-1,-1.0533481E0,-3.9545006E-1,1.0379909E0,-2.2667627E-1,2.1760778E-1,-4.502088E-1,-3.5692793E-1,1.293729E0,-1.071585E0,-0E0,-2.786479E-1,5.078567E-1,6.168821E-1,-0E0,-1.81719E-1,8.5104775E-1,1.3001385E-1,-2.174175E-1,1.7677902E0,2.5479546E-1,-1.1167715E0,-5.4052097E-1,5.742023E-1,-2.822248E-1,-1.5095039E-1,1.6903114E-1,-0E0,3.485087E-1,8.534943E-2,2.0118895E0,-1.0270959E-1,2.3881984E-1,-3.009797E-1,-5.415773E-1,-2.3465356E-1,6.2424954E-2,1.5835927E-1,-2.8974494E-1,1.7638926E-1,6.8048084E-1],"categories":[],"categories_nodes":[],"categories_segments":[],"categories_sizes":[],"default_left":[0,1,0,0,0,0,0,0,0,0,0,0,0,0,0,0,0,0,1,0,0,0,1,0,0,0,0,0,0,0,0,0,0,0,0,0,0,0,0,0,0,0,0,0,0,0,0],"id":2,"left_children":[1,3,5,7,9,11,13,15,17,19,-1,21,-1,23,25,27,-1,-1,29,-1,31,-1,33,-1,-1,35,37,39,41,-1,43,-1,-1,-1,-1,-1,45,-1,-1,-1,-1,-1,-1,-1,-1,-1,-1],"loss_changes":[2.462463E1,9.094307E0,8.439184E0,5.247307E0,7.5347037E0,5.8911967E0,8.165351E0,1.24897E0,9.480792E0,5.413134E0,0E0,3.3896563E0,0E0,1.6704965E0,4.54397E0,7.554474E-1,0E0,0E0,9.015655E0,0E0,1.2513688E0,0E0,8.6385536E-1,0E0,0E0,1.7514591E0,1.774713E0,2.377182E0,1.4849291E0,0E0,3.6671214E0,0E0,0E0,0E0,0E0,0E0,5.209923E-1,0E0,0E0,0E0,0E0,0E0,0E0,0E0,0E0,0E0,0E0],"parents":[2147483647,0,0,1,1,2,2,3,3,4,4,5,5,6,6,7,7,8,8,9,9,11,11,13,13,14,14,15,15,18,18,20,20,22,22,25,25,26,26,27,27,28,28,30,30,36,36],"right_children":[2,4,6,8,10,12,14,16,18,20,-1,22,-1,24,26,28,-1,-1,30,-1,32,-1,34,-1,-1,36,38,40,42,-1,44,-1,-1,-1,-1,-1,46,-1,-1,-1,-1,-1,-1,-1,-1,-1,-1],"split_conditions":[1.7894E2,7E2,2.0747583E2,5.47E1,2.4096E1,2.50391E2,1.2649E1,1.9031126E2,1.7206E1,1.01E1,-2.2667627E-1,2.32E2,-4.502088E-1,1.8497E2,1.164E3,7.842258E1,-0E0,-2.786479E-1,1.7543E2,6.168821E-1,3E0,-1.81719E-1,2.6581E2,1.3001385E-1,-2.174175E-1,-1.175E1,5.04968E2,3.3076E1,9.621009E1,5.742023E-1,-3.1548333E0,-1.5095039E-1,1.6903114E-1,-0E0,3.485087E-1,8.534943E-2,1.05616425E2,-1.0270959E-1,2.3881984E-1,-3.009797E-1,-5.415773E-1,-2.3465356E-1,6.2424954E-2,1.5835927E-1,-2.8974494E-1,1.7638926E-1,6.8048084E-1],"split_indices":[7,51,49,0,39,36,3,1,3,35,0,9,0,7,24,26,0,0,48,0,45,0,48,0,0,6,38,3,53,0,31,0,0,0,0,0,53,0,0,0,0,0,0,0,0,0,0],"split_type":[0,0,0,0,0,0,0,0,0,0,0,0,0,0,0,0,0,0,0,0,0,0,0,0,0,0,0,0,0,0,0,0,0,0,0,0,0,0,0,0,0,0,0,0,0,0,0],"sum_hessian":[1.0774483E2,8.794961E1,1.9795216E1,8.0543655E1,7.405959E0,6.7087293E0,1.3086487E1,6.292361E1,1.7620043E1,3.9783628E0,3.427596E0,4.468597E0,2.2401326E0,3.576229E0,9.510258E0,6.1854004E1,1.0696049E0,1.1123412E1,6.4966307E0,1.5487901E0,2.4295728E0,1.900266E0,2.5683305E0,1.0013876E0,2.5748415E0,5.989205E0,3.5210526E0,5.5831104E1,6.0229006E0,1.8663664E0,4.6302643E0,1.4088573E0,1.0207155E0,1.0131321E0,1.5551986E0,1.2044699E0,4.784735E0,1.7697293E0,1.7513232E0,5.015103E1,5.6800723E0,4.6101213E0,1.4127796E0,2.1630495E0,2.467215E0,1.2861271E0,3.498608E0],"tree_param":{"num_deleted":"0","num_feature":"55","num_nodes":"47","size_leaf_vector":"1"}},{"base_weights":[-5.126781E-1,-9.93031E-1,-2.6195625E-2,-4.20654E-3,-1.0251006E0,-9.0928125E-1,2.9701006E-1,-3.122312E-1,-4.380824E-2,2.611094E-1,-3.4984937E-1,6.210999E-1,-4.5414233E-1,1.0411341E0,6.2559225E-2,3.7580875E-1,-8.2415104E-1,1.368566E0,1.8570475E-2,-6.2330645E-1,5.003747E-1,-1.0436242E0,1.5324031E-1,1.6988816E-2,4.5106283E-1,-2.1411465E-1,3.4386837E-1,-0E0,-2.308837E-1,-4.9021203E-2,3.6043555E-1,-3.5737404E-1,-0E0],"categories":[],"categories_nodes":[],"categories_segments":[],"categories_sizes":[],"default_left":[1,0,0,0,0,0,0,0,0,0,0,0,0,1,0,0,0,0,0,0,0,0,0,0,0,0,0,0,0,0,0,0,0],"id":3,"left_children":[1,3,5,-1,7,9,11,-1,-1,-1,-1,13,15,17,19,-1,21,23,25,27,29,31,-1,-1,-1,-1,-1,-1,-1,-1,-1,-1,-1],"loss_changes":[2.1717855E1,1.3644524E0,1.3895283E1,0E0,3.6527252E-1,7.011979E0,8.935587E0,0E0,0E0,0E0,0E0,5.7699776E0,8.060474E0,4.631583E0,3.908272E0,0E0,3.4647675E0,1.6757984E0,4.609669E0,4.3516278E-1,3.9975677E0,1.3024445E0,0E0,0E0,0E0,0E0,0E0,0E0,0E0,0E0,0E0,0E0,0E0],"parents":[2147483647,0,0,1,1,2,2,4,4,5,5,6,6,11,11,12,12,13,13,14,14,16,16,17,17,18,18,19,19,20,20,21,21],"right_children":[2,4,6,-1,8,10,12,-1,-1,-1,-1,14,16,18,20,-1,22,24,26,28,30,32,-1,-1,-1,-1,-1,-1,-1,-1,-1,-1,-1],"split_conditions":[3.5075E2,-9.823416E0,1.9196E2,-4.20654E-3,1.697667E2,8.75E1,2.53933E2,-3.122312E-1,-4.380824E-2,2.611094E-1,-3.4984937E-1,1.4E1,-7.331039E1,1.00693E3,1.3808E1,3.7580875E-1,4.394E1,1.00468994E2,7.38E2,-7.619E0,1.926872E2,1.06742E3,1.5324031E-1,1.6988816E-2,4.5106283E-1,-2.1411465E-1,3.4386837E-1,-0E0,-2.308837E-1,-4.9021203E-2,3.6043555E-1,-3.5737404E-1,-0E0],"split_indices":[51,31,46,0,26,8,36,0,0,0,0,44,2,54,3,0,3,53,14,4,52,54,0,0,0,0,0,0,0,0,0,0,0],"split_type":[0,0,0,0,0,0,0,0,0,0,0,0,0,0,0,0,0,0,0,0,0,0,0,0,0,0,0,0,0,0,0,0,0],"sum_hessian":[9.244113E1,4.589655E1,4.6544582E1,1.590385E0,4.4306164E1,1.2059633E1,3.4484947E1,4.324886E1,1.0573037E0,1.1757283E0,1.0883904E1,2.4295488E1,1.018946E1,1.3281961E1,1.1013528E1,1.346979E0,8.842481E0,9.737525E0,3.5444362E0,4.04596E0,6.967568E0,7.839327E0,1.0031534E0,1.103022E0,8.634503E0,2.3230917E0,1.2213444E0,1.0014539E0,3.0445063E0,3.9069645E0,3.0606034E0,6.7021008E0,1.1372261E0],"tree_param":{"num_deleted":"0","num_feature":"55","num_nodes":"33","size_leaf_vector":"1"}},{"base_weights":[-4.4624108E-1,-3.036205E-1,-4.226793E-2,-8.037174E-1,1.9935694E-1,-1.0450904E0,2.5331825E-1,3.7746105E-1,-6.5714306E-1,-0E0,-3.4728622E-1,-2.0521247E-1,6.0878414E-1,6.0854305E-2,-8.9469093E-1,4.7705004E-1,-6.596681E-1,1.2748865E0,2.97923E-1,-3.4289554E-1,-2.2070985E-2,-2.615101E-1,1.1460886E-1,4.7552E-1,-4.574006E-2,2.0489182E-1,-6.1179433E-2],"categories":[],"categories_nodes":[],"categories_segments":[],"categories_sizes":[],"default_left":[1,0,0,0,0,0,0,0,0,0,0,0,0,0,0,0,0,0,0,0,0,0,0,0,0,0,0],"id":4,"left_children":[1,-1,3,5,7,9,-1,11,13,-1,-1,15,17,-1,19,-1,21,23,25,-1,-1,-1,-1,-1,-1,-1,-1],"loss_changes":[1.8189358E1,0E0,9.030504E0,5.606927E0,5.8801045E0,1.2738008E0,0E0,4.3967013E0,1.6047404E0,0E0,0E0,8.771334E0,4.2113028E0,0E0,9.2505217E-1,0E0,2.2283604E0,3.4147034E0,3.4637318E0,0E0,0E0,0E0,0E0,0E0,0E0,0E0,0E0],"parents":[2147483647,0,0,2,2,3,3,4,4,5,5,7,7,8,8,11,11,12,12,14,14,16,16,17,17,18,18],"right_children":[2,-1,4,6,8,10,-1,12,14,-1,-1,16,18,-1,20,-1,22,24,26,-1,-1,-1,-1,-1,-1,-1,-1],"split_conditions":[3.4047E2,-3.036205E-1,1.9196E2,7.3938E1,2.96667E2,1.2881006E2,2.5331825E-1,9.167E0,-4.98451E1,-0E0,-3.4728622E-1,1.0472E2,3.08E-1,6.0854305E-2,3.825E1,4.7705004E-1,2.057232E2,1.9599E2,1.3E1,-3.4289554E-1,-2.2070985E-2,-2.615101E-1,1.1460886E-1,4.7552E-1,-4.574006E-2,2.0489182E-1,-6.1179433E-2],"split_indices":[51,0,46,42,36,52,0,3,2,0,0,7,42,0,5,0,50,8,44,0,0,0,0,0,0,0,0],"split_type":[0,0,0,0,0,0,0,0,0,0,0,0,0,0,0,0,0,0,0,0,0,0,0,0,0,0,0],"sum_hessian":[7.917823E1,3.2262054E1,4.691618E1,1.0830758E1,3.6085423E1,9.813973E0,1.016785E0,3.0423458E1,5.6619635E0,1.0496904E0,8.764283E0,8.567266E0,2.1856192E1,1.175043E0,4.4869204E0,1.1857309E0,7.381536E0,5.8755345E0,1.5980657E1,3.0599978E0,1.4269227E0,6.3405666E0,1.0409691E0,4.7876964E0,1.0878382E0,8.939949E0,7.040708E0],"tree_param":{"num_deleted":"0","num_feature":"55","num_nodes":"27","size_leaf_vector":"1"}},{"base_weights":[-3.8595343E-1,-2.9648852E-1,-3.4371044E-2,-4.5159462E-1,2.6680338E-1,7.794136E-1,-6.925304E-1,2.7086232E-2,1.0917273E0,-0E0,3.817789E-1,-9.439051E-1,8.380014E-2,5.5692434E-1,-2.1091515E-1,8.182631E-3,4.5170936E-1,-1.0484954E0,-0E0,-1.9950292E-1,2.380636E-1,3.5767205E-2,1.1087233E0,-4.1647488E-1,2.2472842E-1,-0E0,-3.5314706E-1,-1.8069197E-1,1.6871423E-1,4.658804E-2,4.2471963E-1,1.69599E-1,-1.705576E-1],"categories":[],"categories_nodes":[],"categories_segments":[],"categories_sizes":[],"default_left":[1,0,0,0,0,0,0,0,0,0,0,0,0,0,0,0,0,0,0,0,0,0,0,1,0,0,0,0,0,0,0,0,0],"id":5,"left_children":[1,-1,3,5,7,9,11,13,15,-1,-1,17,19,21,23,-1,-1,25,-1,-1,-1,27,29,31,-1,-1,-1,-1,-1,-1,-1,-1,-1],"loss_changes":[1.4551479E1,0E0,5.77836E0,6.2614284E0,5.1251183E0,1.4413185E0,3.42457E0,2.8853252E0,2.4092903E0,0E0,0E0,1.3519478E0,3.1577902E0,1.9044964E0,3.3572652E0,0E0,0E0,1.5004091E0,0E0,0E0,0E0,1.9407332E0,6.165118E-1,2.3452504E0,0E0,0E0,0E0,0E0,0E0,0E0,0E0,0E0,0E0],"parents":[2147483647,0,0,2,2,3,3,4,4,5,5,6,6,7,7,8,8,11,11,12,12,13,13,14,14,17,17,21,21,22,22,23,23],"right_children":[2,-1,4,6,8,10,12,14,16,-1,-1,18,20,22,24,-1,-1,26,-1,-1,-1,28,30,32,-1,-1,-1,-1,-1,-1,-1,-1,-1],"split_conditions":[3.4047E2,-2.9648852E-1,7.5E0,1E0,1.8954266E2,1.7254E2,5.96E1,1.09929E2,3.74211E2,-0E0,3.817789E-1,1.9819E2,1.5524E1,2.5436392E1,4.2207E1,8.182631E-3,4.5170936E-1,8.647336E1,-0E0,-1.9950292E-1,2.380636E-1,1.8017E1,4.13951E2,1.3146428E2,2.2472842E-1,-0E0,-3.5314706E-1,-1.8069197E-1,1.6871423E-1,4.658804E-2,4.2471963E-1,1.69599E-1,-1.705576E-1],"split_indices":[51,0,5,45,50,7,0,36,40,0,0,8,3,1,3,0,0,53,0,0,0,3,41,52,0,0,0,0,0,0,0,0,0],"split_type":[0,0,0,0,0,0,0,0,0,0,0,0,0,0,0,0,0,0,0,0,0,0,0,0,0,0,0,0,0,0,0,0,0],"sum_hessian":[6.83079E1,2.4414011E1,4.3893894E1,1.8317604E1,2.5576288E1,2.5713313E0,1.5746273E1,2.0702314E1,4.873974E0,1.3417246E0,1.2296065E0,1.1819313E1,3.9269598E0,6.118842E0,1.4583472E1,1.7241083E0,3.1498656E0,1.0619126E1,1.2001866E0,1.8798357E0,2.047124E0,3.778318E0,2.3405244E0,1.2555101E1,2.0283709E0,1.3183169E0,9.30081E0,1.5660753E0,2.2122426E0,1.0082967E0,1.3322276E0,1.2397497E0,1.13153515E1],"tree_param":{"num_deleted":"0","num_feature":"55","num_nodes":"33","size_leaf_vector":"1"}},{"base_weights":[-3.099918E-1,-9.55235E-1,-3.6252998E-3,-3.0284584E-1,-3.723337E-1,-6.522473E-1,1.7121238E-1,-1.6483064E-1,-0E0,-3.0952632E-1,1.5688428E-1,-5.329135E-2,5.0610393E-1,-2.3867007E-1,1.5385196E-1,1.1177437E0,1.7890383E-1,6.30246E-1,-2.8476217E-1,4.7587565E-1,-8.9616125E-4,-5.626227E-1,6.0065424E-1,-8.681907E-2,3.023221E-1,3.5572842E-1,-2.015126E-1,-2.1572976E-1,-0E0,2.916877E-1,-4.270891E-2],"categories":[],"categories_nodes":[],"categories_segments":[],"categories_sizes":[],"default_left":[1,0,0,0,1,0,0,0,0,0,0,0,0,0,0,0,0,0,0,0,0,0,0,0,0,0,0,0,0,0,0],"id":6,"left_children":[1,3,5,-1,7,9,11,-1,-1,-1,-1,13,15,-1,17,19,21,23,25,-1,-1,27,29,-1,-1,-1,-1,-1,-1,-1,-1],"loss_changes":[1.2037384E1,1.2118149E-1,4.9967675E0,0E0,2.514753E-1,4.7698336E0,2.64753E0,0E0,0E0,0E0,0E0,3.4530187E0,2.4905121E0,0E0,3.8431792E0,2.5637693E0,3.6016366E0,3.3915632E0,6.2364564E0,0E0,0E0,3.2878578E-1,2.2030556E0,0E0,0E0,0E0,0E0,0E0,0E0,0E0,0E0],"parents":[2147483647,0,0,1,1,2,2,4,4,5,5,6,6,11,11,12,12,14,14,15,15,16,16,17,17,18,18,21,21,22,22],"right_children":[2,4,6,-1,8,10,12,-1,-1,-1,-1,14,16,-1,18,20,22,24,26,-1,-1,28,30,-1,-1,-1,-1,-1,-1,-1,-1],"split_conditions":[3.4047E2,4.81717E2,1.9196E2,-3.0284584E-1,1.7949E2,1.255E3,1.131E3,-1.6483064E-1,-0E0,-3.0952632E-1,1.5688428E-1,1.2649E1,4.21464E2,-2.3867007E-1,3.68248E2,9.69E2,1.3145E1,8.691135E0,-7.331039E1,4.7587565E-1,-8.9616125E-4,2.3699692E1,2.94E2,-8.681907E-2,3.023221E-1,3.5572842E-1,-2.015126E-1,-2.1572976E-1,-0E0,2.916877E-1,-4.270891E-2],"split_indices":[51,40,46,0,48,9,12,0,0,0,0,3,40,0,38,14,3,26,2,0,0,26,9,0,0,0,0,0,0,0,0],"split_type":[0,0,0,0,0,0,0,0,0,0,0,0,0,0,0,0,0,0,0,0,0,0,0,0,0,0,0,0,0,0,0],"sum_hessian":[6.0347237E1,1.865205E1,4.1695187E1,1.6253078E1,2.3989718E0,8.382332E0,3.3312855E1,1.3939465E0,1.0050253E0,6.4863534E0,1.8959783E0,2.0285767E1,1.3027089E1,3.900986E0,1.6384779E1,3.6021996E0,9.42489E0,7.7430964E0,8.641684E0,2.3040004E0,1.2981992E0,3.2185338E0,6.206356E0,2.2519126E0,5.4911838E0,1.321702E0,7.319981E0,2.218192E0,1.0003417E0,4.0121703E0,2.1941857E0],"tree_param":{"num_deleted":"0","num_feature":"55","num_nodes":"31","size_leaf_vector":"1"}},{"base_weights":[-2.6190862E-1,-9.216906E-1,-6.916802E-4,-2.9626113E-1,-3.3023742E-1,-5.492845E-1,1.357649E-1,-1.5142062E-1,-0E0,2.3344184E-1,-8.4762025E-1,7.72078E-1,3.2576244E-2,-2.2912228E-2,-2.887219E-1,-4.3883637E-2,3.595478E-1,2.737422E-1,-4.5702758E-1,5.00441E-1,-3.9166462E-1,-7.119486E-1,1.3374075E-1,2.5972572E-1,5.64141E-3,-2.3088399E-1,1.06593564E-1,-2.7037266E-1,1.9238072E-2],"categories":[],"categories_nodes":[],"categories_segments":[],"categories_sizes":[],"default_left":[1,0,0,0,1,0,0,0,0,0,0,0,0,0,0,0,0,0,0,0,0,0,0,0,0,0,0,0,0],"id":7,"left_children":[1,3,5,-1,7,9,11,-1,-1,-1,13,15,17,-1,-1,-1,-1,19,21,23,25,27,-1,-1,-1,-1,-1,-1,-1],"loss_changes":[9.382088E0,1.5806484E-1,3.1394088E0,0E0,2.097672E-1,3.9867306E0,2.073021E0,0E0,0E0,0E0,4.8639345E-1,2.011532E0,3.6049716E0,0E0,0E0,0E0,0E0,3.311379E0,2.648279E0,2.7009249E0,1.9176276E0,1.3494477E0,0E0,0E0,0E0,0E0,0E0,0E0,0E0],"parents":[2147483647,0,0,1,1,2,2,4,4,5,5,6,6,10,10,11,11,12,12,17,17,18,18,19,19,20,20,21,21],"right_children":[2,4,6,-1,8,10,12,-1,-1,-1,14,16,18,-1,-1,-1,-1,20,22,24,26,28,-1,-1,-1,-1,-1,-1,-1],"split_conditions":[3.4047E2,4.81717E2,1.9196E2,-2.9626113E-1,1.4275172E2,7.98E1,-7.331039E1,-1.5142062E-1,-0E0,2.3344184E-1,1.2919208E2,-7.2E-2,2.28761E2,-2.2912228E-2,-2.887219E-1,-4.3883637E-2,3.595478E-1,-1.499998E1,4.2207E1,5.88E1,5.94E1,6.49E1,1.3374075E-1,2.5972572E-1,5.64141E-3,-2.3088399E-1,1.06593564E-1,-2.7037266E-1,1.9238072E-2],"split_indices":[51,40,46,0,52,8,2,0,0,0,52,4,36,0,0,0,0,34,3,0,0,0,0,0,0,0,0,0,0],"split_type":[0,0,0,0,0,0,0,0,0,0,0,0,0,0,0,0,0,0,0,0,0,0,0,0,0,0,0,0,0],"sum_hessian":[5.3922985E1,1.4478943E1,3.9444042E1,1.2288917E1,2.1900263E0,7.38575E0,3.2058292E1,1.1889849E0,1.0010414E0,1.0048207E0,6.380929E0,3.447092E0,2.8611202E1,1.1440144E0,5.2369146E0,1.2344061E0,2.212686E0,1.958763E1,9.023572E0,1.4895927E1,4.6917024E0,7.2793417E0,1.7442298E0,7.9110804E0,6.984847E0,3.1753109E0,1.5163914E0,5.815583E0,1.4637586E0],"tree_param":{"num_deleted":"0","num_feature":"55","num_nodes":"29","size_leaf_vector":"1"}},{"base_weights":[-2.1894114E-1,-8.8115656E-1,-0E0,-2.877294E-1,-2.9304573E-1,2.9988927E-1,-6.400051E-2,-1.3931626E-1,-0E0,-7.8527135E-1,9.26891E-2,-1.9306237E-2,-2.7060717E-1,-3.5392457E-1,2.4526174E-1,1.8019928E-1,-6.137513E-1,6.1135465E-1,-0E0,-2.496876E-1,5.891627E-2,2.4980958E-1,-1.7580485E-1,-1.201246E-1,1.2592918E-1],"categories":[],"categories_nodes":[],"categories_segments":[],"categories_sizes":[],"default_left":[1,0,0,0,0,0,0,0,0,0,0,0,0,0,0,0,0,0,0,0,0,0,0,0,0],"id":8,"left_children":[1,3,5,-1,7,-1,9,-1,-1,11,13,-1,-1,15,17,-1,19,21,23,-1,-1,-1,-1,-1,-1],"loss_changes":[7.2224374E0,1.7388916E-1,2.512403E0,0E0,1.7631349E-1,0E0,4.337279E0,0E0,0E0,4.3099546E-1,2.2124202E0,0E0,0E0,2.4132726E0,2.109097E0,0E0,1.4679723E0,3.0337024E0,2.7880917E0,0E0,0E0,0E0,0E0,0E0,0E0],"parents":[2147483647,0,0,1,1,2,2,4,4,6,6,9,9,10,10,13,13,14,14,16,16,17,17,18,18],"right_children":[2,4,6,-1,8,-1,10,-1,-1,12,14,-1,-1,16,18,-1,20,22,24,-1,-1,-1,-1,-1,-1],"split_conditions":[3.4047E2,4.81717E2,5.082E1,-2.877294E-1,1.0837E2,2.9988927E-1,1.9196E2,-1.3931626E-1,-0E0,1.2919208E2,9.167E0,-1.9306237E-2,-2.7060717E-1,3.25E1,2.6047E2,1.8019928E-1,2.0955724E2,3.47E2,1.10035E2,-2.496876E-1,5.891627E-2,2.4980958E-1,-1.7580485E-1,-1.201246E-1,1.2592918E-1],"split_indices":[51,40,7,0,7,0,46,0,0,52,3,0,0,0,46,0,50,17,37,0,0,0,0,0,0],"split_type":[0,0,0,0,0,0,0,0,0,0,0,0,0,0,0,0,0,0,0,0,0,0,0,0,0],"sum_hessian":[4.8928226E1,1.1384469E1,3.7543755E1,9.360091E0,2.0243783E0,1.3618468E0,3.618191E1,1.0218997E0,1.0024785E0,5.843976E0,3.0337933E1,1.1382025E0,4.705774E0,7.2387414E0,2.3099192E1,1.1939477E0,6.0447936E0,8.5216055E0,1.4577586E1,4.8265777E0,1.2182158E0,7.5125933E0,1.0090126E0,7.37517E0,7.2024164E0],"tree_param":{"num_deleted":"0","num_feature":"55","num_nodes":"25","size_leaf_vector":"1"}},{"base_weights":[-1.8737257E-1,-8.343597E-1,-3.0352979E-3,-2.6898986E-1,-3.5111595E-2,-3.794958E-1,1.3415658E-1,-2.2756766E-1,-4.8751105E-3,6.1211497E-1,-9.527122E-2,4.9683157E-1,-5.7404315E-1,-6.2090226E-2,8.390733E-1,-3.9070284E-1,3.115863E-1,2.3739594E-1,-3.1915266E-2,-0E0,-2.6115257E-1,2.9272917E-1,-0E0,-2.8619817E-1,3.5604596E-2,-1.3841042E-1,5.374972E-1,1.8236703E-1,-1.2779084E-1,2.2394739E-1,-1.6813584E-2],"categories":[],"categories_nodes":[],"categories_segments":[],"categories_sizes":[],"default_left":[1,0,0,0,0,0,1,0,0,0,0,0,0,0,0,0,0,0,0,0,0,0,0,0,0,0,0,0,0,0,0],"id":9,"left_children":[1,3,5,-1,-1,7,9,-1,11,13,15,17,19,-1,21,23,25,-1,-1,-1,-1,-1,-1,-1,27,-1,29,-1,-1,-1,-1],"loss_changes":[5.4052587E0,2.5418186E-1,1.9784085E0,0E0,0E0,1.3888203E0,3.1316571E0,0E0,2.0915332E0,1.9434919E0,2.4592931E0,8.210815E-1,5.8236694E-1,0E0,7.8219986E-1,2.9512162E0,1.7537923E0,0E0,0E0,0E0,0E0,0E0,0E0,0E0,2.2807748E0,0E0,9.964819E-1,0E0,0E0,0E0,0E0],"parents":[2147483647,0,0,1,1,2,2,5,5,6,6,8,8,9,9,10,10,11,11,12,12,14,14,15,15,16,16,24,24,26,26],"right_children":[2,4,6,-1,-1,8,10,-1,12,14,16,18,20,-1,22,24,26,-1,-1,-1,-1,-1,-1,-1,28,-1,30,-1,-1,-1,-1],"split_conditions":[3.4047E2,4.0467E1,1.07142914E2,-2.6898986E-1,-3.5111595E-2,2.6713E1,1.18733055E2,-2.2756766E-1,2.3303E2,2.11E2,1.7095898E2,1.998E3,-2.730146E1,-6.2090226E-2,2.8432026E1,2.4536E1,2.56E2,2.3739594E-1,-3.1915266E-2,-0E0,-2.6115257E-1,2.9272917E-1,-0E0,-2.8619817E-1,5.98E-1,-1.3841042E-1,3.3351989E0,1.8236703E-1,-1.2779084E-1,2.2394739E-1,-1.6813584E-2],"split_indices":[51,3,53,0,0,3,53,0,40,9,50,13,34,0,34,3,9,0,0,0,0,0,0,0,42,0,30,0,0,0,0],"split_type":[0,0,0,0,0,0,0,0,0,0,0,0,0,0,0,0,0,0,0,0,0,0,0,0,0,0,0,0,0,0,0],"sum_hessian":[4.497524E1,9.082564E0,3.5892673E1,8.011566E0,1.070998E0,9.290158E0,2.6602516E1,3.9888287E0,5.3013296E0,8.214328E0,1.8388187E1,2.8011227E0,2.500207E0,1.7152957E0,6.4990325E0,1.0804039E1,7.584148E0,1.7729785E0,1.0281441E0,1.2096173E0,1.2905896E0,5.3667183E0,1.132314E0,4.2119994E0,6.5920396E0,1.3894292E0,6.194719E0,2.8886235E0,3.703416E0,4.503113E0,1.6916059E0],"tree_param":{"num_deleted":"0","num_feature":"55","num_nodes":"31","size_leaf_vector":"1"}},{"base_weights":[-1.6918837E-1,-7.8663296E-1,-1.5425255E-2,-2.6924077E-1,-4.740095E-2,-2.8517845E-1,1.5979825E-1,1.9516554E-1,-4.5531747E-1,4.51045E-1,-9.42987E-2,1.8855213E-1,-7.11048E-1,-2.3322292E-1,7.8892076E-1,-2.139172E-1,1.4146124E-1,-1.5441322E-1,5.968959E-1,-8.433536E-1,4.5194674E-2,4.9631935E-2,-4.588486E-1,1.8897359E-3,9.539801E-1,-3.104026E-1,5.009213E-1,2.7089855E-1,-3.9805847E-5,-0E0,-2.9437682E-1,-4.630099E-3,-1.8948142E-1,3.5387492E-1,4.3197546E-2,-2.2886309E-1,1.1196586E-1,2.4438013E-1,-0E0],"categories":[],"categories_nodes":[],"categories_segments":[],"categories_sizes":[],"default_left":[1,0,0,0,0,0,0,0,0,0,0,0,0,0,0,0,0,0,0,1,0,0,0,0,0,0,0,0,0,0,0,0,0,0,0,0,0,0,0],"id":10,"left_children":[1,3,5,-1,-1,7,9,-1,11,13,15,17,19,21,23,-1,25,-1,27,29,-1,-1,31,-1,33,35,37,-1,-1,-1,-1,-1,-1,-1,-1,-1,-1,-1,-1],"loss_changes":[3.9024303E0,3.3699274E-1,1.699712E0,0E0,0E0,2.5469751E0,1.6664064E0,0E0,2.2764778E0,2.6291826E0,1.9246075E0,1.5517284E0,1.2631121E0,4.7185814E-1,8.4428215E-1,0E0,1.7199523E0,0E0,6.788914E-1,9.941201E-1,0E0,0E0,1.6430968E-1,0E0,7.867298E-1,1.7819836E0,8.5683274E-1,0E0,0E0,0E0,0E0,0E0,0E0,0E0,0E0,0E0,0E0,0E0,0E0],"parents":[2147483647,0,0,1,1,2,2,5,5,6,6,8,8,9,9,10,10,11,11,12,12,13,13,14,14,16,16,18,18,19,19,22,22,24,24,25,25,26,26],"right_children":[2,4,6,-1,-1,8,10,-1,12,14,16,18,20,22,24,-1,26,-1,28,30,-1,-1,32,-1,34,36,38,-1,-1,-1,-1,-1,-1,-1,-1,-1,-1,-1,-1],"split_conditions":[3.4047E2,4.81717E2,7.5E0,-2.6924077E-1,-4.740095E-2,-1.5895682E2,2.4517E1,1.9516554E-1,-1.7656382E1,9.1572E2,1.223E1,2.5342E1,1.9241E2,7.1E1,1.983E3,-2.139172E-1,1.1069315E2,-1.5441322E-1,3.3076E1,8.647336E1,4.5194674E-2,4.9631935E-2,6.11E2,1.8897359E-3,5.38804E2,-4.965564E1,1.3E1,2.7089855E-1,-3.9805847E-5,-0E0,-2.9437682E-1,-4.630099E-3,-1.8948142E-1,3.5387492E-1,4.3197546E-2,-2.2886309E-1,1.1196586E-1,2.4438013E-1,-0E0],"split_indices":[51,40,5,0,0,34,39,0,27,54,3,3,8,37,11,0,50,0,3,53,0,0,16,0,40,34,44,0,0,0,0,0,0,0,0,0,0,0,0],"split_type":[0,0,0,0,0,0,0,0,0,0,0,0,0,0,0,0,0,0,0,0,0,0,0,0,0,0,0,0,0,0,0,0,0,0,0,0,0,0,0],"sum_hessian":[4.0992496E1,7.235705E0,3.3756794E1,5.6658554E0,1.5698496E0,1.3248022E1,2.050877E1,1.5223862E0,1.1725636E1,9.359786E0,1.1148985E1,3.307858E0,8.417778E0,3.1082375E0,6.2515483E0,2.6227856E0,8.526199E0,1.0384462E0,2.2694118E0,7.4063687E0,1.0114092E0,1.0755475E0,2.03269E0,1.3646649E0,4.8868837E0,3.7270603E0,4.7991385E0,1.2611388E0,1.0082729E0,1.164313E0,6.242056E0,1.0214403E0,1.0112499E0,3.3784475E0,1.508436E0,2.2521665E0,1.4748937E0,2.4841113E0,2.3150272E0],"tree_param":{"num_deleted":"0","num_feature":"55","num_nodes":"39","size_leaf_vector":"1"}},{"base_weights":[-1.3911656E-1,-2.4452418E-1,-1.5800225E-2,4.6620208E-1,-1.2933666E-1,7.1770376E-1,-5.163726E-2,-2.2711377E-1,4.8635647E-1,2.7949613E-1,1.7396686E-5,-4.6813887E-1,1.075033E-1,2.2037184E-1,-2.6530284E-2,-6.052649E-1,1.2511592E-1,4.1848898E-1,-3.0036953E-1,-9.0178415E-2,-3.439187E-1,2.2008868E-1,-5.788083E-2,7.296595E-2,-1.7694598E-1],"categories":[],"categories_nodes":[],"categories_segments":[],"categories_sizes":[],"default_left":[1,0,0,0,0,0,0,0,0,0,0,0,0,0,0,0,0,0,0,0,0,0,0,0,0],"id":11,"left_children":[1,-1,3,5,7,9,-1,11,13,-1,-1,15,17,-1,-1,19,-1,21,23,-1,-1,-1,-1,-1,-1],"loss_changes":[3.1206048E0,0E0,1.8732436E0,1.2141448E0,1.7844886E0,6.7584443E-1,0E0,2.1102896E0,7.0183235E-1,0E0,0E0,2.0848157E0,1.5547833E0,0E0,0E0,1.7419538E0,0E0,1.5174439E0,1.0077379E0,0E0,0E0,0E0,0E0,0E0,0E0],"parents":[2147483647,0,0,2,2,3,3,4,4,5,5,7,7,8,8,11,11,12,12,15,15,17,17,18,18],"right_children":[2,-1,4,6,8,10,-1,12,14,-1,-1,16,18,-1,-1,20,-1,22,24,-1,-1,-1,-1,-1,-1],"split_conditions":[3.2893E2,-2.4452418E-1,-4.2607746E1,2.175E1,4.5398E1,1.10100784E2,-5.163726E-2,1.295E2,1.9548319E1,2.7949613E-1,1.7396686E-5,1.1828105E2,2.2531E2,2.2037184E-1,-2.6530284E-2,7.7229E1,1.2511592E-1,2.911E3,5.6471E1,-9.0178415E-2,-3.439187E-1,2.2008868E-1,-5.788083E-2,7.296595E-2,-1.7694598E-1],"split_indices":[51,0,2,5,3,34,0,37,34,0,0,26,37,0,0,39,0,11,40,0,0,0,0,0,0],"split_type":[0,0,0,0,0,0,0,0,0,0,0,0,0,0,0,0,0,0,0,0,0,0,0,0,0],"sum_hessian":[3.7488354E1,4.805735E0,3.2682617E1,5.487418E0,2.71952E1,3.948424E0,1.538994E0,2.4139072E1,3.0561275E0,2.715265E0,1.233159E0,1.3956337E1,1.0182736E1,2.0496597E0,1.0064679E0,1.2446222E1,1.5101149E0,5.888054E0,4.294682E0,9.064534E0,3.381688E0,3.8507092E0,2.0373445E0,1.439662E0,2.8550203E0],"tree_param":{"num_deleted":"0","num_feature":"55","num_nodes":"25","size_leaf_vector":"1"}},{"base_weights":[-1.12356536E-1,-2.3206554E-1,-7.9910625E-3,3.706009E-1,-1.0090005E-1,6.845936E-1,-1.2468441E-1,-1.8200327E-1,4.242497E-1,2.4240386E-1,4.9355656E-2,-1.3766706E-1,6.228323E-2,-2.815966E-2,-5.558884E-1,-2.8427776E-2,2.0452775E-1,-5.689336E-1,1.5530282E-1,-7.562574E-1,-3.2132037E-2,-2.5122702E-1,1.3525505E-2,-7.854178E-2,1.15764484E-1,-3.761855E-2,-2.6076663E-1,6.2325504E-2,-8.9668185E-2],"categories":[],"categories_nodes":[],"categories_segments":[],"categories_sizes":[],"default_left":[1,0,0,0,0,0,0,0,0,0,0,0,0,0,0,0,0,0,0,0,0,0,0,0,0,0,0,0,0],"id":12,"left_children":[1,-1,3,5,7,9,11,13,15,-1,-1,-1,-1,17,19,-1,-1,21,23,25,27,-1,-1,-1,-1,-1,-1,-1,-1],"loss_changes":[2.402156E0,0E0,1.1440217E0,1.1246085E0,1.1965495E0,4.631734E-2,4.7345886E-1,1.3155112E0,6.16767E-1,0E0,0E0,0E0,0E0,1.9379749E0,6.171987E-1,0E0,0E0,9.278271E-1,1.4876603E0,1.393826E-1,2.653028E-1,0E0,0E0,0E0,0E0,0E0,0E0,0E0,0E0],"parents":[2147483647,0,0,2,2,3,3,4,4,5,5,6,6,7,7,8,8,13,13,14,14,17,17,18,18,19,19,20,20],"right_children":[2,-1,4,6,8,10,12,14,16,-1,-1,-1,-1,18,20,-1,-1,22,24,26,28,-1,-1,-1,-1,-1,-1,-1,-1],"split_conditions":[3.2893E2,-2.3206554E-1,-4.2607746E1,-9.8906887E-1,4.5398E1,-1.7656382E1,6.13E1,2.28761E2,-1.1079923E1,2.4240386E-1,4.9355656E-2,-1.3766706E-1,6.228323E-2,-2.1468122E0,3.1666E2,-2.8427776E-2,2.0452775E-1,1.8374E2,2.99E2,5E-1,3.86681E2,-2.5122702E-1,1.3525505E-2,-7.854178E-2,1.15764484E-1,-3.761855E-2,-2.6076663E-1,6.2325504E-2,-8.9668185E-2],"split_indices":[51,0,2,31,3,27,0,36,31,0,0,0,0,27,40,0,0,7,14,42,40,0,0,0,0,0,0,0,0],"split_type":[0,0,0,0,0,0,0,0,0,0,0,0,0,0,0,0,0,0,0,0,0,0,0,0,0,0,0,0,0],"sum_hessian":[3.4920116E1,3.7687879E0,3.1151329E1,5.3584495E0,2.5792881E1,3.1567464E0,2.2017028E0,2.3056883E1,2.7359982E0,1.9639245E0,1.192822E0,1.0428382E0,1.1588647E0,1.7267776E1,5.789105E0,1.000959E0,1.7350391E0,3.9663162E0,1.3301461E1,3.7418203E0,2.0472846E0,2.608496E0,1.3578203E0,4.548142E0,8.753319E0,1.0097585E0,2.7320619E0,1.0167172E0,1.0305673E0],"tree_param":{"num_deleted":"0","num_feature":"55","num_nodes":"29","size_leaf_vector":"1"}},{"base_weights":[-9.98399E-2,-5.0808245E-1,3.492943E-2,-6.9310087E-1,-0E0,-2.4131344E-1,2.2314692E-1,-2.353069E-1,-3.7715588E-2,-1.0525066E-1,7.627341E-2,-2.337401E-1,2.1694498E-1,7.247836E-1,-1.624675E-2,-7.510604E-2,4.8866284E-1,2.563218E-1,2.4170747E-2,-4.471147E-1,1.8947071E-1,-1.5175092E-2,7.458542E-1,3.5784423E-2,-2.20167E-1,-3.209046E-1,4.8449618E-1,4.3679543E-2,2.830021E-1,4.923794E-2,-1.8155898E-1,2.218921E-1,-2.9104434E-2],"categories":[],"categories_nodes":[],"categories_segments":[],"categories_sizes":[],"default_left":[0,0,0,0,0,0,1,0,0,0,0,0,0,0,0,0,0,0,0,0,0,0,0,0,0,0,0,0,0,0,0,0,0],"id":13,"left_children":[1,3,5,7,9,11,13,-1,-1,-1,-1,-1,15,17,19,-1,21,-1,-1,23,25,-1,27,-1,-1,29,31,-1,-1,-1,-1,-1,-1],"loss_changes":[1.9227461E0,7.494559E-1,1.4154358E0,1.4038777E-1,4.0404838E-1,2.9089136E0,2.0339031E0,0E0,0E0,0E0,0E0,0E0,9.797069E-1,2.988782E-1,1.1623209E0,0E0,7.415452E-1,0E0,0E0,8.386014E-1,1.4670248E0,0E0,1.5662467E-1,0E0,0E0,6.41597E-1,1.0150658E0,0E0,0E0,0E0,0E0,0E0,0E0],"parents":[2147483647,0,0,1,1,2,2,3,3,4,4,5,5,6,6,12,12,13,13,14,14,16,16,19,19,20,20,22,22,25,25,26,26],"right_children":[2,4,6,8,10,12,14,-1,-1,-1,-1,-1,16,18,20,-1,22,-1,-1,24,26,-1,28,-1,-1,30,32,-1,-1,-1,-1,-1,-1],"split_conditions":[9.9615036E1,1.7942583E2,1.3808E1,1.34E3,3.3076E1,3.08E2,1.16160904E2,-2.353069E-1,-3.7715588E-2,-1.0525066E-1,7.627341E-2,-2.337401E-1,4.8E1,2.20383E2,1.2315719E2,-7.510604E-2,3.29827E2,2.563218E-1,2.4170747E-2,2.5064E2,1.13193054E2,-1.5175092E-2,4.0107E1,3.5784423E-2,-2.20167E-1,6.80268E2,-2.3028444E-1,4.3679543E-2,2.830021E-1,4.923794E-2,-1.8155898E-1,2.218921E-1,-2.9104434E-2],"split_indices":[53,49,3,16,3,9,53,0,0,0,0,0,28,36,53,0,40,0,0,46,50,0,42,0,0,41,31,0,0,0,0,0,0],"split_type":[0,0,0,0,0,0,0,0,0,0,0,0,0,0,0,0,0,0,0,0,0,0,0,0,0,0,0,0,0,0,0,0,0],"sum_hessian":[3.2850388E1,7.6314054E0,2.521898E1,5.198384E0,2.433022E0,9.911556E0,1.53074255E1,4.012015E0,1.1863686E0,1.0103664E0,1.4226555E0,4.3281837E0,5.5833726E0,4.4116187E0,1.0895806E1,1.9599488E0,3.6234238E0,3.2846777E0,1.126941E0,3.2832873E0,7.6125193E0,1.3164725E0,2.3069513E0,1.1943988E0,2.0888884E0,2.6446154E0,4.9679036E0,1.1140296E0,1.1929216E0,1.016447E0,1.6281686E0,3.371513E0,1.5963907E0],"tree_param":{"num_deleted":"0","num_feature":"55","num_nodes":"33","size_leaf_vector":"1"}},{"base_weights":[-8.3749965E-2,-5.0320166E-1,3.238782E-2,-6.4743054E-1,1.0626051E-2,-2.3001897E-1,1.7027257E-1,-2.8173363E-2,-2.1776529E-1,-2.42098E-1,8.041662E-2,-5.2660655E-2,5.1696694E-1,2.9245844E-1,-9.706744E-2,4.1668594E-1,-2.1127051E-1,-4.5381196E-2,6.87282E-1,-5.120926E-2,5.8094853E-1,1.5832002E-1,1.6146906E-2,-5.0811046E-1,9.201706E-2,2.3926185E-2,2.5354668E-1,2.0612371E-1,3.549928E-2,2.0390024E-2,-2.0965971E-1,-9.015041E-2,1.2407799E-1],"categories":[],"categories_nodes":[],"categories_segments":[],"categories_sizes":[],"default_left":[1,0,0,0,0,0,0,0,0,0,0,0,0,0,0,0,0,0,0,0,0,0,0,0,0,0,0,0,0,0,0,0,0],"id":14,"left_children":[1,3,5,7,-1,9,11,-1,-1,-1,13,15,17,19,-1,21,23,-1,25,-1,27,-1,-1,29,31,-1,-1,-1,-1,-1,-1,-1,-1],"loss_changes":[1.5861077E0,6.239679E-1,9.501724E-1,1.0671997E-1,0E0,1.72884E0,1.4140608E0,0E0,0E0,0E0,6.580842E-1,9.138157E-1,9.5587337E-1,8.050505E-1,0E0,4.2444825E-2,9.199988E-1,0E0,4.1663098E-1,0E0,1.4679551E-2,0E0,0E0,6.532024E-1,8.0201554E-1,0E0,0E0,0E0,0E0,0E0,0E0,0E0,0E0],"parents":[2147483647,0,0,1,1,2,2,3,3,5,5,6,6,10,10,11,11,12,12,13,13,15,15,16,16,18,18,20,20,23,23,24,24],"right_children":[2,4,6,8,-1,10,12,-1,-1,-1,14,16,18,20,-1,22,24,-1,26,-1,28,-1,-1,30,32,-1,-1,-1,-1,-1,-1,-1,-1],"split_conditions":[1.6396333E2,4.5398E1,1.61846E2,5.98E-1,1.0626051E-2,1.16342E2,2.4613E2,-2.8173363E-2,-2.1776529E-1,-2.42098E-1,8.104E1,8.3637E1,-1.39E-1,1.8017E1,-9.706744E-2,2E0,7.4417E2,-4.5381196E-2,-6.549083E1,-5.120926E-2,7.97E2,1.5832002E-1,1.6146906E-2,-4.480791E0,8.13E2,2.3926185E-2,2.5354668E-1,2.0612371E-1,3.549928E-2,2.0390024E-2,-2.0965971E-1,-9.015041E-2,1.2407799E-1],"split_indices":[49,3,40,42,0,37,48,0,0,0,40,36,4,3,0,45,51,0,34,0,14,0,0,31,14,0,0,0,0,0,0,0,0],"split_type":[0,0,0,0,0,0,0,0,0,0,0,0,0,0,0,0,0,0,0,0,0,0,0,0,0,0,0,0,0,0,0,0,0],"sum_hessian":[3.0354753E1,6.0275683E0,2.4327185E1,4.726954E0,1.3006145E0,7.924677E0,1.6402508E1,1.0020119E0,3.724942E0,2.314124E0,5.610553E0,1.0341245E1,6.061263E0,4.0065002E0,1.6040529E0,2.0576503E0,8.283594E0,1.1464238E0,4.9148393E0,1.5746717E0,2.4318283E0,1.037627E0,1.0200233E0,3.995019E0,4.288575E0,1.4418353E0,3.473004E0,1.4250823E0,1.006746E0,1.0365063E0,2.9585125E0,1.8346957E0,2.4538796E0],"tree_param":{"num_deleted":"0","num_feature":"55","num_nodes":"33","size_leaf_vector":"1"}},{"base_weights":[-6.781698E-2,-3.7566343E-1,6.5318465E-2,-6.7372286E-1,3.1278238E-2,-4.1520908E-1,1.8093602E-1,-2.3552716E-1,-3.74025E-2,1.405646E-1,-2.9895777E-1,-1.0124588E-2,-1.7303993E-1,-1.0038395E-1,3.5700667E-1,3.7683044E-2,-1.8378173E-1,-4.2269456E-1,2.664983E-1,4.7163695E-1,-1.0508523E-1,-2.0551136E-1,4.6877675E-2,-6.1628576E-2,1.7643712E-1,5.6913626E-1,-4.8811045E-2,-2.4045879E-2,2.0324038E-1],"categories":[],"categories_nodes":[],"categories_segments":[],"categories_sizes":[],"default_left":[0,0,0,0,0,0,0,0,0,0,0,0,0,0,0,0,0,0,0,1,0,0,0,0,0,0,0,0,0],"id":15,"left_children":[1,3,5,7,9,11,13,-1,-1,-1,15,-1,-1,17,19,-1,-1,21,23,25,-1,-1,-1,-1,-1,27,-1,-1,-1],"loss_changes":[1.2586688E0,1.1993381E0,1.2314337E0,1.5676308E-1,8.3884275E-1,1.8831307E-1,9.470486E-1,0E0,0E0,0E0,5.4557276E-1,0E0,0E0,1.0118977E0,1.1039898E0,0E0,0E0,8.38471E-1,7.599008E-1,7.7140737E-1,0E0,0E0,0E0,0E0,0E0,7.654464E-1,0E0,0E0,0E0],"parents":[2147483647,0,0,1,1,2,2,3,3,4,4,5,5,6,6,10,10,13,13,14,14,17,17,18,18,19,19,25,25],"right_children":[2,4,6,8,10,12,14,-1,-1,-1,16,-1,-1,18,20,-1,-1,22,24,26,-1,-1,-1,-1,-1,28,-1,-1,-1],"split_conditions":[1.07142914E2,3.5113E1,1.92E2,3.459E3,3.04652E2,-8.6506665E-1,6.25E0,-2.3552716E-1,-3.74025E-2,1.405646E-1,6.36E1,-1.0124588E-2,-1.7303993E-1,2.6205E1,2.713E3,3.7683044E-2,-1.8378173E-1,6.438396E1,5.56E1,3.8119E2,-1.0508523E-1,-2.0551136E-1,4.6877675E-2,-6.1628576E-2,1.7643712E-1,1.2561E2,-4.8811045E-2,-2.4045879E-2,2.0324038E-1],"split_indices":[53,3,9,19,40,2,5,0,0,0,37,0,0,3,12,0,0,1,0,48,0,0,0,0,0,47,0,0,0],"split_type":[0,0,0,0,0,0,0,0,0,0,0,0,0,0,0,0,0,0,0,0,0,0,0,0,0,0,0,0,0],"sum_hessian":[2.8429834E1,8.237352E0,2.0192482E1,4.5040684E0,3.7332838E0,3.2625973E0,1.6929886E1,3.2507927E0,1.2532755E0,1.5434197E0,2.1898642E0,1.4963179E0,1.7662796E0,6.485726E0,1.04441595E1,1.0631739E0,1.1266901E0,3.5022385E0,2.9834874E0,9.383801E0,1.060358E0,2.3910484E0,1.1111901E0,1.2421738E0,1.7413136E0,8.345763E0,1.0380378E0,1.1117127E0,7.2340508E0],"tree_param":{"num_deleted":"0","num_feature":"55","num_nodes":"29","size_leaf_vector":"1"}},{"base_weights":[-7.551559E-2,-2.690123E-1,1.1421868E-1,-6.4035267E-1,3.027874E-2,-1.3264522E-1,3.2526287E-1,-2.3595735E-1,1.156146E-2,1.811836E-1,-1.500988E-1,3.8643997E-2,-1.6709532E-1,5.7250404E-1,-3.768591E-2,-1.9577397E-1,3.990446E-1,-1.9755287E-1,1.546058E-1,2.1725416E-1,-0E0,-1.4037606E-1,2.3483975E-1,-1.5305462E-1,6.637611E-2,5.535137E-1,-1.4178063E-2,6.725055E-2,-4.610348E-1,-1.36611415E-2,1.3370427E-1,-0E0,2.2781746E-1,-1.875284E-1,-4.9044765E-3],"categories":[],"categories_nodes":[],"categories_segments":[],"categories_sizes":[],"default_left":[0,0,0,0,0,0,1,0,0,0,0,0,0,0,0,0,0,0,0,0,0,0,0,0,0,0,0,0,0,0,0,0,0,0,0],"id":16,"left_children":[1,3,5,7,9,11,13,-1,-1,15,-1,17,-1,19,21,23,25,27,-1,-1,-1,-1,29,-1,-1,31,-1,-1,33,-1,-1,-1,-1,-1,-1],"loss_changes":[1.0609227E0,1.6566782E0,8.1298274E-1,7.4599767E-1,7.5888044E-1,5.8938116E-1,8.1210923E-1,0E0,0E0,7.241135E-1,0E0,7.938921E-1,0E0,4.5736897E-1,6.166134E-1,5.7406014E-1,4.3879312E-1,6.2878335E-1,0E0,0E0,0E0,0E0,2.380384E-1,0E0,0E0,4.4457936E-1,0E0,0E0,1.6919261E-1,0E0,0E0,0E0,0E0,0E0,0E0],"parents":[2147483647,0,0,1,1,2,2,3,3,4,4,5,5,6,6,9,9,11,11,13,13,14,14,15,15,16,16,17,17,22,22,25,25,28,28],"right_children":[2,4,6,8,10,12,14,-1,-1,16,-1,18,-1,20,22,24,26,28,-1,-1,-1,-1,30,-1,-1,32,-1,-1,34,-1,-1,-1,-1,-1,-1],"split_conditions":[2.1697E1,8.93E2,5.47E1,8.310019E1,2.713E3,5.4E2,1.00693E3,-2.3595735E-1,1.156146E-2,3.29827E2,-1.500988E-1,4.2207E1,-1.6709532E-1,9.75E2,1.099E3,1.69871E2,1.7E1,9.154907E1,1.546058E-1,2.1725416E-1,-0E0,-1.4037606E-1,3.2131E1,-1.5305462E-1,6.637611E-2,4.7E1,-1.4178063E-2,6.725055E-2,7.4765E1,-1.36611415E-2,1.3370427E-1,-0E0,2.2781746E-1,-1.875284E-1,-4.9044765E-3],"split_indices":[3,54,0,26,12,17,54,0,0,40,0,3,0,14,16,37,44,50,0,0,0,0,3,0,0,28,0,0,39,0,0,0,0,0,0],"split_type":[0,0,0,0,0,0,0,0,0,0,0,0,0,0,0,0,0,0,0,0,0,0,0,0,0,0,0,0,0,0,0,0,0,0,0],"sum_hessian":[2.6681238E1,1.3237707E1,1.3443531E1,5.5334387E0,7.7042685E0,6.1705523E0,7.272979E0,4.5317774E0,1.0016618E0,6.6431665E0,1.061102E0,4.8924294E0,1.278123E0,4.1301827E0,3.1427958E0,2.318928E0,4.324239E0,3.5367754E0,1.3556538E0,3.0783556E0,1.0518272E0,1.0688293E0,2.0739665E0,1.317867E0,1.001061E0,3.1838133E0,1.1404253E0,1.2859796E0,2.2507958E0,1.0434246E0,1.0305419E0,1.1900923E0,1.9937209E0,1.1999382E0,1.0508575E0],"tree_param":{"num_deleted":"0","num_feature":"55","num_nodes":"35","size_leaf_vector":"1"}},{"base_weights":[-6.822229E-2,-3.2981783E-1,6.819149E-2,-2.194802E-1,-1.993454E-2,-1.7658831E-1,2.2771358E-1,-1.6101721E-1,1.9699262E-1,-3.257225E-1,5.9384458E-2,1.8956698E-1,6.15485E-2,-4.577824E-2,4.0974367E-1,-1.7776161E-1,-0E0,-1.5574992E-1,3.2273427E-1,1.6466479E-1,-0E0,1.161702E-1,-1.2652163E-1,-4.0856665E-1,6.496118E-2,1.6854808E-1,-3.77568E-2,5.3211604E-3,-1.8110874E-1],"categories":[],"categories_nodes":[],"categories_segments":[],"categories_sizes":[],"default_left":[0,0,0,0,1,0,1,0,0,0,0,0,0,0,0,0,0,0,0,0,0,0,0,0,0,0,0,0,0],"id":17,"left_children":[1,3,5,-1,7,9,11,-1,13,15,-1,-1,17,-1,19,-1,21,23,25,-1,-1,-1,-1,27,-1,-1,-1,-1,-1],"loss_changes":[9.6100056E-1,1.0613712E0,7.263678E-1,0E0,8.4709096E-1,4.7967267E-1,6.526803E-1,0E0,4.6309188E-1,5.074226E-1,0E0,0E0,5.8868825E-1,0E0,1.6553932E-1,0E0,7.417507E-1,6.2532026E-1,6.142369E-1,0E0,0E0,0E0,0E0,3.777359E-1,0E0,0E0,0E0,0E0,0E0],"parents":[2147483647,0,0,1,1,2,2,4,4,5,5,6,6,8,8,9,9,12,12,14,14,16,16,17,17,18,18,23,23],"right_children":[2,4,6,-1,8,10,12,-1,14,16,-1,-1,18,-1,20,-1,22,24,26,-1,-1,-1,-1,28,-1,-1,-1,-1,-1],"split_conditions":[1.2649E1,3.08E2,5.47E1,-2.194802E-1,1.07142914E2,4.5398E1,5.7332E2,-1.6101721E-1,-1.5478811E0,7.51698E2,5.9384458E-2,1.8956698E-1,2.3132959E2,-4.577824E-2,-1.4661226E2,-1.7776161E-1,3.329E3,9E-1,8.84E-1,1.6466479E-1,-0E0,1.161702E-1,-1.2652163E-1,-3.6558657E0,6.496118E-2,1.6854808E-1,-3.77568E-2,5.3211604E-3,-1.8110874E-1],"split_indices":[3,9,0,0,53,3,54,0,27,41,0,0,49,0,34,0,11,42,42,0,0,0,0,31,0,0,0,0,0],"split_type":[0,0,0,0,0,0,0,0,0,0,0,0,0,0,0,0,0,0,0,0,0,0,0,0,0,0,0,0,0],"sum_hessian":[2.4639597E1,8.185258E0,1.6454338E1,2.8450487E0,5.340209E0,6.2273564E0,1.0226982E1,1.2657093E0,4.0744996E0,4.719032E0,1.5083245E0,2.0051324E0,8.221849E0,1.488391E0,2.5861087E0,2.1733902E0,2.545642E0,4.520178E0,3.701672E0,1.5478982E0,1.0382104E0,1.3914435E0,1.1541984E0,2.7780297E0,1.742148E0,2.3809373E0,1.3207346E0,1.0128753E0,1.7651544E0],"tree_param":{"num_deleted":"0","num_feature":"55","num_nodes":"29","size_leaf_vector":"1"}},{"base_weights":[-5.979965E-2,-2.8285322E-1,6.6493146E-2,-2.0491251E-1,-0E0,-1.06637E-1,1.4850642E-1,-1.4900196E-1,1.9479778E-1,3.5352845E-2,1.8027225E-1,-3.9936513E-2,3.801459E-1,1.8820271E-1,-3.0349997E-1,1.7183907E-1,-0E0,4.2683542E-1,-2.4575377E-1,1.8351072E-2,-1.8334499E-1,-4.2505514E-2,1.745131E-1,1.0462229E-2,-1.4036077E-1],"categories":[],"categories_nodes":[],"categories_segments":[],"categories_sizes":[],"default_left":[0,0,0,0,1,0,0,0,0,1,0,0,0,0,0,0,0,0,0,0,0,0,0,0,0],"id":18,"left_children":[1,3,5,-1,7,-1,9,-1,11,13,-1,-1,15,17,19,-1,-1,21,23,-1,-1,-1,-1,-1,-1],"loss_changes":[7.1465176E-1,1.0203534E0,5.837626E-1,0E0,7.192907E-1,0E0,6.474323E-1,0E0,3.9318383E-1,6.9756716E-1,0E0,0E0,2.3607737E-1,1.1008377E0,5.4753727E-1,0E0,0E0,7.0341325E-1,2.9572153E-1,0E0,0E0,0E0,0E0,0E0,0E0],"parents":[2147483647,0,0,1,1,2,2,4,4,6,6,8,8,9,9,12,12,13,13,14,14,17,17,18,18],"right_children":[2,4,6,-1,8,-1,10,-1,12,14,-1,-1,16,18,20,-1,-1,22,24,-1,-1,-1,-1,-1,-1],"split_conditions":[1.3808E1,3.08E2,-2.9E1,-2.0491251E-1,1.07142914E2,-1.06637E-1,4.5398E1,-1.4900196E-1,-1.5478811E0,3.0765E2,1.8027225E-1,-3.9936513E-2,2E0,2.94E2,3.4032E1,1.7183907E-1,-0E0,1.82E2,1.11659E2,1.8351072E-2,-1.8334499E-1,-4.2505514E-2,1.745131E-1,1.0462229E-2,-1.4036077E-1],"split_indices":[3,9,33,0,53,0,3,0,27,48,0,0,45,9,3,0,0,9,36,0,0,0,0,0,0],"split_type":[0,0,0,0,0,0,0,0,0,0,0,0,0,0,0,0,0,0,0,0,0,0,0,0,0],"sum_hessian":[2.3010054E1,8.127968E0,1.4882085E1,2.752353E0,5.375615E0,1.7006258E0,1.3181459E1,1.1050991E0,4.270516E0,1.1565802E1,1.6156577E0,1.4684856E0,2.8020303E0,8.459964E0,3.1058373E0,1.3941514E0,1.4078789E0,5.60284E0,2.857124E0,1.6539116E0,1.4519259E0,1.0933117E0,4.509528E0,1.455654E0,1.4014701E0],"tree_param":{"num_deleted":"0","num_feature":"55","num_nodes":"25","size_leaf_vector":"1"}},{"base_weights":[-5.9960414E-2,-1.9870582E-1,1.08515E-1,-4.5194462E-1,2.8953066E-2,-2.4536501E-1,2.783614E-1,2.397177E-2,-6.4241946E-1,-1.0475275E-1,1.7047001E-1,5.7333726E-3,-1.3580573E-1,4.417096E-1,-8.7477155E-2,-2.2694021E-1,-1.5077046E-2,3.6432043E-1,-1.0959861E-1,5.6695706E-1,-0E0,3.2420244E-2,-8.3997846E-2,4.9791127E-1,-1.3519006E-2,1.946907E-1,3.5926312E-2,2.0643258E-2,1.7709592E-1],"categories":[],"categories_nodes":[],"categories_segments":[],"categories_sizes":[],"default_left":[0,0,0,0,0,0,0,0,0,0,0,0,0,0,0,0,0,0,0,0,0,0,0,1,0,0,0,0,0],"id":19,"left_children":[1,3,5,7,9,11,13,-1,15,-1,17,-1,-1,19,21,-1,-1,23,-1,25,-1,-1,-1,27,-1,-1,-1,-1,-1],"loss_changes":[5.585664E-1,8.0375576E-1,7.0669734E-1,7.530817E-1,4.5155397E-1,2.55394E-1,5.356845E-1,0E0,2.2484016E-1,0E0,7.972139E-1,0E0,0E0,3.2719743E-1,1.6120473E-1,0E0,0E0,3.5416067E-1,0E0,1.7665148E-2,0E0,0E0,0E0,6.895304E-2,0E0,0E0,0E0,0E0,0E0],"parents":[2147483647,0,0,1,1,2,2,3,3,4,4,5,5,6,6,8,8,10,10,13,13,14,14,17,17,19,19,23,23],"right_children":[2,4,6,8,10,12,14,-1,16,-1,18,-1,-1,20,22,-1,-1,24,-1,26,-1,-1,-1,28,-1,-1,-1,-1,-1],"split_conditions":[2.6205E1,9.1572E2,4.11E2,1.50346E2,1.295E3,3.12E2,1.25768E2,2.397177E-2,4.7E1,-1.0475275E-1,2.713E3,5.7333726E-3,-1.3580573E-1,5.625E1,1.06344E2,-2.2694021E-1,-1.5077046E-2,1.7E1,-1.0959861E-1,6.20628E2,-0E0,3.2420244E-2,-8.3997846E-2,1.123E2,-1.3519006E-2,1.946907E-1,3.5926312E-2,2.0643258E-2,1.7709592E-1],"split_indices":[3,54,16,38,12,9,39,0,35,0,12,0,0,5,40,0,0,44,0,38,0,0,0,48,0,0,0,0,0],"split_type":[0,0,0,0,0,0,0,0,0,0,0,0,0,0,0,0,0,0,0,0,0,0,0,0,0,0,0,0,0],"sum_hessian":[2.1625856E1,1.2053958E1,9.5718975E0,5.42722E0,6.626738E0,2.7880995E0,6.7837977E0,1.4595714E0,3.9676487E0,1.231809E0,5.394929E0,1.4332602E0,1.3548392E0,4.716551E0,2.0672472E0,2.9667587E0,1.00089E0,4.3200307E0,1.0748982E0,3.4877343E0,1.2288164E0,1.0111655E0,1.0560817E0,3.2599227E0,1.0601081E0,2.3958623E0,1.0918721E0,1.0594183E0,2.2005045E0],"tree_param":{"num_deleted":"0","num_feature":"55","num_nodes":"29","size_leaf_vector":"1"}},{"base_weights":[-5.4814942E-2,-3.4831402E-1,2.0022256E-2,-1.754418E-1,3.8932882E-2,3.5233825E-1,-4.0784076E-2,-0E0,1.6989821E-1,-1.6956086E-1,2.6999673E-1,-4.4099778E-1,1.7512307E-2,1.4680888E-1,-1.7199977E-3,-0E0,-5.709549E-1,-1.7049623E-1,3.8577983E-1,-2.1802671E-2,-2.046272E-1,1.1890574E-2,-1.4930008E-1,1.4643157E-1,1.2129294E-2],"categories":[],"categories_nodes":[],"categories_segments":[],"categories_sizes":[],"default_left":[1,0,0,0,0,0,0,0,0,0,0,0,0,0,0,0,0,0,1,0,0,0,0,0,0],"id":20,"left_children":[1,3,5,-1,-1,7,9,-1,-1,11,13,15,17,-1,-1,-1,19,21,23,-1,-1,-1,-1,-1,-1],"loss_changes":[5.082187E-1,6.439649E-1,4.023634E-1,0E0,0E0,2.7671432E-1,6.660708E-1,0E0,0E0,6.519977E-1,3.3594474E-1,3.2663822E-1,6.274357E-1,0E0,0E0,0E0,1.06610894E-1,4.5398152E-1,4.2773187E-2,0E0,0E0,0E0,0E0,0E0,0E0],"parents":[2147483647,0,0,1,1,2,2,5,5,6,6,9,9,10,10,11,11,12,12,16,16,17,17,18,18],"right_children":[2,4,6,-1,-1,8,10,-1,-1,12,14,16,18,-1,-1,-1,20,22,24,-1,-1,-1,-1,-1,-1],"split_conditions":[1.9196E2,1.255E3,-6.421603E1,-1.754418E-1,3.8932882E-2,1.8425E2,6.1517406E1,-0E0,1.6989821E-1,2.0201E1,-2.175928E2,1.024E2,1.014E3,1.4680888E-1,-1.7199977E-3,-0E0,-5.205489E-1,3.653768E1,2.1605E2,-2.1802671E-2,-2.046272E-1,1.1890574E-2,-1.4930008E-1,1.4643157E-1,1.2129294E-2],"split_indices":[46,9,2,0,0,8,26,0,0,3,34,7,12,0,0,0,31,1,48,0,0,0,0,0,0],"split_type":[0,0,0,0,0,0,0,0,0,0,0,0,0,0,0,0,0,0,0,0,0,0,0,0,0],"sum_hessian":[2.0474865E1,3.661972E0,1.6812893E1,2.4266906E0,1.2352813E0,2.0879781E0,1.4724915E1,1.0299548E0,1.0580232E0,1.0937073E1,3.7878423E0,4.1049056E0,6.832167E0,1.8598839E0,1.9279583E0,1.0574275E0,3.047478E0,4.71673E0,2.1154368E0,1.0051068E0,2.0423713E0,3.2396648E0,1.4770653E0,1.1119132E0,1.0035236E0],"tree_param":{"num_deleted":"0","num_feature":"55","num_nodes":"25","size_leaf_vector":"1"}},{"base_weights":[-4.1489646E-2,-1.09984204E-1,2.9983526E-1,-3.468904E-1,2.5226185E-2,1.5043473E-1,-5.1605683E-3,3.4147598E-2,-4.6917045E-1,-3.5461637E-1,1.7171687E-1,-1.9950022E-1,-2.1117923E-3,-1.6628355E-1,-0E0,3.4716016E-1,-9.2487164E-2,4.6283114E-1,-2.0380154E-2,1.780794E-1,-0E0],"categories":[],"categories_nodes":[],"categories_segments":[],"categories_sizes":[],"default_left":[0,1,0,0,0,0,0,0,0,0,0,0,0,0,0,0,0,0,0,0,0],"id":21,"left_children":[1,3,5,7,9,-1,-1,-1,11,13,15,-1,-1,-1,-1,17,-1,19,-1,-1,-1],"loss_changes":[4.9502045E-1,6.1494374E-1,2.7427763E-1,4.717248E-1,7.212097E-1,0E0,0E0,0E0,4.5689297E-1,2.6370695E-1,9.2087257E-1,0E0,0E0,0E0,0E0,4.3452328E-1,0E0,3.6555195E-1,0E0,0E0,0E0],"parents":[2147483647,0,0,1,1,2,2,3,3,4,4,8,8,9,9,10,10,15,15,17,17],"right_children":[2,4,6,8,10,-1,-1,-1,12,14,16,-1,-1,-1,-1,18,-1,20,-1,-1,-1],"split_conditions":[4.2207E1,1.1153029E2,8.8188E1,-5.3154635E0,2.76E2,1.5043473E-1,-5.1605683E-3,3.4147598E-2,1.218E2,5.1969E1,9.91E2,-1.9950022E-1,-2.1117923E-3,-1.6628355E-1,-0E0,3.7887E2,-9.2487164E-2,5.4231E2,-2.0380154E-2,1.780794E-1,-0E0],"split_indices":[3,50,37,31,14,0,0,0,37,39,14,0,0,0,0,46,0,38,0,0,0],"split_type":[0,0,0,0,0,0,0,0,0,0,0,0,0,0,0,0,0,0,0,0,0],"sum_hessian":[1.9494385E1,1.7020403E1,2.4739823E0,5.8575397E0,1.1162863E1,1.3303064E0,1.1436759E0,1.0886573E0,4.7688823E0,2.5404005E0,8.622462E0,2.9043455E0,1.8645369E0,1.3075043E0,1.2328963E0,6.654544E0,1.9679186E0,5.2839894E0,1.3705543E0,3.8577297E0,1.4262599E0],"tree_param":{"num_deleted":"0","num_feature":"55","num_nodes":"21","size_leaf_vector":"1"}},{"base_weights":[-4.002706E-2,-2.439484E-1,6.767976E-2,-1.7482938E-1,-2.495998E-3,-6.783204E-2,2.5396988E-1,-1.03129566E-1,1.503404E-1,2.29694E-1,-3.1699625E-1,-0E0,1.368713E-1,-3.982568E-2,1.1181141E-1,-1.7960904E-2,1.2474622E-1,-3.5076255E-3,-1.3954467E-1,1.089539E-1,-9.7026564E-2],"categories":[],"categories_nodes":[],"categories_segments":[],"categories_sizes":[],"default_left":[0,0,0,0,1,0,0,0,0,0,0,0,0,0,0,0,0,0,0,0,0],"id":22,"left_children":[1,3,5,-1,7,9,11,-1,13,15,17,19,-1,-1,-1,-1,-1,-1,-1,-1,-1],"loss_changes":[4.6309704E-1,5.4173803E-1,3.704048E-1,0E0,3.5140455E-1,6.9034535E-1,3.4484318E-1,0E0,3.3873317E-1,2.8133246E-1,1.8053085E-1,5.3226644E-1,0E0,0E0,0E0,0E0,0E0,0E0,0E0,0E0,0E0],"parents":[2147483647,0,0,1,1,2,2,4,4,5,5,6,6,8,8,9,9,10,10,11,11],"right_children":[2,4,6,-1,8,10,12,-1,14,16,18,20,-1,-1,-1,-1,-1,-1,-1,-1,-1],"split_conditions":[1.3808E1,3.08E2,1.6699255E1,-1.7482938E-1,1.0860568E2,-6.0977488E0,2.87E2,-1.03129566E-1,7.1334E0,1.9058292E2,1.3E1,1.7196085E1,1.368713E-1,-3.982568E-2,1.1181141E-1,-1.7960904E-2,1.2474622E-1,-3.5076255E-3,-1.3954467E-1,1.089539E-1,-9.7026564E-2],"split_indices":[3,9,26,0,53,2,12,0,1,49,44,1,0,0,0,0,0,0,0,0,0],"split_type":[0,0,0,0,0,0,0,0,0,0,0,0,0,0,0,0,0,0,0,0,0],"sum_hessian":[1.8610374E1,6.2839475E0,1.23264265E1,1.871426E0,4.412522E0,7.2240624E0,5.102364E0,1.1606781E0,3.2518435E0,3.1634288E0,4.0606337E0,2.5547297E0,2.5476346E0,1.4297427E0,1.8221009E0,1.3139286E0,1.8495001E0,1.8777326E0,2.1829011E0,1.0453662E0,1.5093635E0],"tree_param":{"num_deleted":"0","num_feature":"55","num_nodes":"21","size_leaf_vector":"1"}},{"base_weights":[-3.8261257E-2,-1.7039493E-1,1.1031102E-1,-3.9316097E-1,1.8148296E-2,-8.4672414E-2,3.0278346E-1,7.5832177E-3,-1.6652429E-1,-6.7511894E-2,1.7892154E-1,5.679223E-2,-2.6669693E-1,1.6564602E-1,-0E0,1.6796474E-1,-8.305489E-2,-1.3958973E-1,1.9581936E-2,9.548708E-2,-1.0115452E-1,7.235073E-2,-1.4539587E-1],"categories":[],"categories_nodes":[],"categories_segments":[],"categories_sizes":[],"default_left":[0,0,0,0,0,0,0,0,0,0,0,0,0,0,0,0,1,0,0,0,0,0,0],"id":23,"left_children":[1,3,5,7,9,11,13,-1,-1,-1,15,-1,17,-1,19,-1,21,-1,-1,-1,-1,-1,-1],"loss_changes":[3.9191115E-1,4.8725984E-1,3.8690323E-1,4.096167E-1,2.8996864E-1,3.103582E-1,4.2413884E-1,0E0,0E0,0E0,5.573739E-1,0E0,3.0765483E-1,0E0,4.4449282E-1,0E0,5.9570056E-1,0E0,0E0,0E0,0E0,0E0,0E0],"parents":[2147483647,0,0,1,1,2,2,3,3,4,4,5,5,6,6,10,10,12,12,14,14,16,16],"right_children":[2,4,6,8,10,12,14,-1,-1,-1,16,-1,18,-1,20,-1,22,-1,-1,-1,-1,-1,-1],"split_conditions":[2.6205E1,9.1572E2,5.47E1,1.50346E2,3.62824E2,9.154907E1,9.0557E1,7.5832177E-3,-1.6652429E-1,-6.7511894E-2,4.21464E2,5.679223E-2,4.2207E1,1.6564602E-1,3.4032E1,1.6796474E-1,1.00693E3,-1.3958973E-1,1.9581936E-2,9.548708E-2,-1.0115452E-1,7.235073E-2,-1.4539587E-1],"split_indices":[3,54,0,38,40,50,39,0,0,0,40,0,3,0,3,0,54,0,0,0,0,0,0],"split_type":[0,0,0,0,0,0,0,0,0,0,0,0,0,0,0,0,0,0,0,0,0,0,0],"sum_hessian":[1.7730463E1,9.627388E0,8.103075E0,4.1345854E0,5.492802E0,4.071138E0,4.0319376E0,1.2338618E0,2.9007237E0,1.8041259E0,3.6886764E0,1.4116786E0,2.6594594E0,1.9043405E0,2.1275969E0,1.1796992E0,2.5089772E0,1.582375E0,1.0770843E0,1.0011477E0,1.1264491E0,1.485208E0,1.0237691E0],"tree_param":{"num_deleted":"0","num_feature":"55","num_nodes":"23","size_leaf_vector":"1"}},{"base_weights":[-2.6943441E-2,-2.9133752E-1,3.6884755E-2,-1.4623435E-1,2.3700235E-2,-9.042451E-2,9.223753E-2,2.1844071E-1,-7.0556894E-2,-0E0,1.377301E-1,-2.3498924E-1,5.7304844E-2,2.7279067E-1,-1.1892189E-1,2.0550728E-2,-1.2731956E-1,-0E0,1.3624735E-1],"categories":[],"categories_nodes":[],"categories_segments":[],"categories_sizes":[],"default_left":[1,0,0,0,0,0,0,0,0,0,0,1,0,0,0,0,0,0,0],"id":24,"left_children":[1,3,5,-1,-1,-1,7,9,11,13,-1,15,-1,17,-1,-1,-1,-1,-1],"loss_changes":[3.3232215E-1,3.5332367E-1,2.8741512E-1,0E0,0E0,0E0,3.1169868E-1,4.225356E-1,3.2665253E-1,6.911042E-1,0E0,3.270142E-1,0E0,2.2767094E-1,0E0,0E0,0E0,0E0,0E0],"parents":[2147483647,0,0,1,1,2,2,6,6,7,7,8,8,9,9,11,11,13,13],"right_children":[2,4,6,-1,-1,-1,8,10,12,14,-1,16,-1,18,-1,-1,-1,-1,-1],"split_conditions":[1.9196E2,1.255E3,2.475E3,-1.4623435E-1,2.3700235E-2,-9.042451E-2,3.302E3,2.622E3,2.6992817E1,2.121E3,1.377301E-1,1.9705202E2,5.7304844E-2,1.6054E1,-1.1892189E-1,2.0550728E-2,-1.2731956E-1,-0E0,1.3624735E-1],"split_indices":[46,9,19,0,0,0,11,11,34,11,0,52,0,3,0,0,0,0,0],"split_type":[0,0,0,0,0,0,0,0,0,0,0,0,0,0,0,0,0,0,0],"sum_hessian":[1.6697962E1,2.828339E0,1.3869623E1,1.8013377E0,1.0270015E0,1.0964683E0,1.2773155E1,7.314194E0,5.4589605E0,4.4272733E0,2.8869214E0,3.6256187E0,1.8333416E0,2.8545947E0,1.5726783E0,1.4558711E0,2.1697476E0,1.3601148E0,1.4944799E0],"tree_param":{"num_deleted":"0","num_feature":"55","num_nodes":"19","size_leaf_vector":"1"}},{"base_weights":[-2.4829822E-2,-1.6899277E-1,9.463777E-2,-4.2162168E-1,3.3273146E-2,-9.6876964E-2,2.426953E-1,-0E0,-1.7773712E-1,-1.7363946E-1,2.495182E-1,8.612796E-2,-1.23085015E-1,3.9451805E-1,-3.6764435E-2,-1.4256395E-1,4.556853E-2,1.2061039E-1,-0E0,8.469414E-2,-3.3335347E-2,-0E0,1.5444365E-1],"categories":[],"categories_nodes":[],"categories_segments":[],"categories_sizes":[],"default_left":[0,0,1,0,0,0,0,0,0,0,0,0,0,0,0,0,0,0,0,0,0,0,0],"id":25,"left_children":[1,3,5,7,9,11,13,-1,-1,15,17,19,-1,21,-1,-1,-1,-1,-1,-1,-1,-1,-1],"loss_changes":[3.159984E-1,4.7913897E-1,3.092003E-1,3.1897742E-1,2.919509E-1,3.30687E-1,4.0397686E-1,0E0,0E0,4.094023E-1,1.5179378E-1,1.8512431E-1,0E0,1.7889911E-1,0E0,0E0,0E0,0E0,0E0,0E0,0E0,0E0,0E0],"parents":[2147483647,0,0,1,1,2,2,3,3,4,4,5,5,6,6,9,9,10,10,11,11,13,13],"right_children":[2,4,6,8,10,12,14,-1,-1,16,18,20,-1,22,-1,-1,-1,-1,-1,-1,-1,-1,-1],"split_conditions":[2.1697E1,9.1572E2,1.0398797E2,1.50346E2,5E1,9.154907E1,9.91E2,-0E0,-1.7773712E-1,9.167E0,2.62E-1,2.5E2,-1.23085015E-1,7.010555E-2,-3.6764435E-2,-1.4256395E-1,4.556853E-2,1.2061039E-1,-0E0,8.469414E-2,-3.3335347E-2,-0E0,1.5444365E-1],"split_indices":[3,54,50,38,28,50,14,0,0,3,3,46,0,26,0,0,0,0,0,0,0,0,0],"split_type":[0,0,0,0,0,0,0,0,0,0,0,0,0,0,0,0,0,0,0,0,0,0,0],"sum_hessian":[1.6030388E1,7.4180284E0,8.612358E0,3.0140836E0,4.403945E0,3.6406763E0,4.971682E0,1.0724181E0,1.9416655E0,2.138457E0,2.265488E0,2.5749962E0,1.0656801E0,3.6293845E0,1.3422977E0,1.0149691E0,1.123488E0,1.1969733E0,1.0685146E0,1.3035849E0,1.2714113E0,1.2356858E0,2.3936987E0],"tree_param":{"num_deleted":"0","num_feature":"55","num_nodes":"23","size_leaf_vector":"1"}},{"base_weights":[-2.488232E-2,-8.356663E-2,7.028166E-2,6.569834E-2,-1.5586874E-1,-2.524295E-2,-1.3050519E-1,-1.12113446E-1,1.01375945E-1,-1.3365452E-1,2.4097683E-1,2.438452E-2,-1.0203334E-1,-3.7096255E-2,1.18525214E-1],"categories":[],"categories_nodes":[],"categories_segments":[],"categories_sizes":[],"default_left":[0,0,0,0,0,0,0,0,0,0,1,0,0,0,0],"id":26,"left_children":[1,3,-1,-1,5,7,-1,-1,9,11,13,-1,-1,-1,-1],"loss_changes":[2.533392E-1,3.408482E-1,0E0,0E0,3.9792904E-1,4.901644E-1,0E0,0E0,2.9477534E-1,1.9628544E-1,3.7857568E-1,0E0,0E0,0E0,0E0],"parents":[2147483647,0,0,1,1,4,4,5,5,8,8,9,9,10,10],"right_children":[2,4,-1,-1,6,8,-1,-1,10,12,14,-1,-1,-1,-1],"split_conditions":[4.2207E1,-5.834983E1,7.028166E-2,6.569834E-2,2.28761E2,-2.1468122E0,-1.3050519E-1,-1.12113446E-1,2.99E2,3.976E3,1.1153029E2,2.438452E-2,-1.0203334E-1,-3.7096255E-2,1.18525214E-1],"split_indices":[3,2,0,0,36,27,0,0,14,19,50,0,0,0,0],"split_type":[0,0,0,0,0,0,0,0,0,0,0,0,0,0,0],"sum_hessian":[1.5262843E1,1.3280489E1,1.9823539E0,1.929991E0,1.1350498E1,8.694783E0,2.6557152E0,1.9867158E0,6.7080674E0,2.2752128E0,4.4328547E0,1.1981103E0,1.0771024E0,1.2020617E0,3.2307928E0],"tree_param":{"num_deleted":"0","num_feature":"55","num_nodes":"15","size_leaf_vector":"1"}},{"base_weights":[-2.357525E-2,-1.5015358E-1,1.1030699E-1,-1.1990941E-1,-2.4438382E-3,-1.5101118E-1,2.4503961E-1,-7.4992165E-2,1.0564033E-1,1.4879431E-2,-9.645172E-2,-0E0,1.2495857E-1,-4.8424367E-2,2.360736E-1,-5.6018528E-2,6.265884E-2,1.20382935E-1,-2.621454E-2],"categories":[],"categories_nodes":[],"categories_segments":[],"categories_sizes":[],"default_left":[0,0,0,0,0,0,0,0,0,0,0,0,0,0,0,0,0,0,0],"id":27,"left_children":[1,3,5,-1,7,9,11,-1,13,-1,-1,15,-1,-1,17,-1,-1,-1,-1],"loss_changes":[2.8727213E-1,2.8982082E-1,3.232997E-1,0E0,2.2147968E-1,1.4562944E-1,2.2471675E-1,0E0,2.2550166E-1,0E0,0E0,1.768373E-1,0E0,0E0,2.8334326E-1,0E0,0E0,0E0,0E0],"parents":[2147483647,0,0,1,1,2,2,4,4,5,5,6,6,8,8,11,11,14,14],"right_children":[2,4,6,-1,8,10,12,-1,14,-1,-1,16,-1,-1,18,-1,-1,-1,-1],"split_conditions":[2.6205E1,7.5E0,4.11E2,-1.1990941E-1,-1.6810394E2,2.92E2,2.27E2,-7.4992165E-2,2.56E2,1.4879431E-2,-9.645172E-2,1.7467358E1,1.2495857E-1,-4.8424367E-2,1.93E1,-5.6018528E-2,6.265884E-2,1.20382935E-1,-2.621454E-2],"split_indices":[3,5,16,0,34,9,9,0,9,0,0,34,0,0,35,0,0,0,0],"split_type":[0,0,0,0,0,0,0,0,0,0,0,0,0,0,0,0,0,0,0],"sum_hessian":[1.4762561E1,7.8714633E0,6.891097E0,2.0658588E0,5.805605E0,2.0758562E0,4.815241E0,1.6187112E0,4.1868935E0,1.0368693E0,1.0389869E0,2.507445E0,2.3077955E0,1.0694569E0,3.1174364E0,1.2605774E0,1.2468677E0,2.0885005E0,1.0289359E0],"tree_param":{"num_deleted":"0","num_feature":"55","num_nodes":"19","size_leaf_vector":"1"}},{"base_weights":[-2.5423335E-2,-2.4882907E-1,4.7304142E-2,4.1218117E-2,-1.410684E-1,-2.1288933E-1,1.431089E-1,1.2005861E-2,-1.1649177E-1,2.4058032E-1,-8.1940845E-2,-0E0,4.3502244E-1,1.9668827E-2,-6.6320136E-2,7.214469E-2,-5.4610945E-2,5.073593E-3,1.6537212E-1],"categories":[],"categories_nodes":[],"categories_segments":[],"categories_sizes":[],"default_left":[1,0,0,0,0,0,1,0,0,0,0,0,0,0,0,0,0,0,0],"id":28,"left_children":[1,3,5,-1,-1,7,9,-1,-1,11,13,15,17,-1,-1,-1,-1,-1,-1],"loss_changes":[2.775305E-1,4.542734E-1,3.2415128E-1,0E0,0E0,1.9718075E-1,2.4558936E-1,0E0,0E0,3.246215E-1,9.7897604E-2,2.3523808E-1,1.3083154E-1,0E0,0E0,0E0,0E0,0E0,0E0],"parents":[2147483647,0,0,1,1,2,2,5,5,6,6,9,9,10,10,11,11,12,12],"right_children":[2,4,6,-1,-1,8,10,-1,-1,12,14,16,18,-1,-1,-1,-1,-1,-1],"split_conditions":[2.0588E2,1.1649E2,9.167E0,4.1218117E-2,-1.410684E-1,2.62E-1,3.0765E2,1.2005861E-2,-1.1649177E-1,2.4613E2,3.4032E1,1.6142E2,3.8362E2,1.9668827E-2,-6.6320136E-2,7.214469E-2,-5.4610945E-2,5.073593E-3,1.6537212E-1],"split_indices":[46,48,3,0,0,3,48,0,0,48,3,7,51,0,0,0,0,0,0],"split_type":[0,0,0,0,0,0,0,0,0,0,0,0,0,0,0,0,0,0,0],"sum_hessian":[1.4240035E1,3.2065725E0,1.1033463E1,1.1584585E0,2.048114E0,2.387487E0,8.645975E0,1.0836838E0,1.3038031E0,6.264012E0,2.3819635E0,3.327018E0,2.9369936E0,1.0987159E0,1.2832475E0,1.3776681E0,1.94935E0,1.0564549E0,1.8805388E0],"tree_param":{"num_deleted":"0","num_feature":"55","num_nodes":"19","size_leaf_vector":"1"}},{"base_weights":[-1.7434742E-2,-1.7645238E-1,7.0131786E-2,-1.2137621E-1,1.5527334E-2,1.5671586E-1,-1.2149645E-1,6.4696305E-2,-6.9571234E-2,2.6007912E-1,-4.859184E-2,1.1078922E-2,-7.386888E-2,3.6477184E-1,-2.2788303E-2,-9.87597E-5,1.5836626E-1],"categories":[],"categories_nodes":[],"categories_segments":[],"categories_sizes":[],"default_left":[0,1,0,0,0,0,0,0,0,1,0,0,0,0,0,0,0],"id":29,"left_children":[1,3,5,-1,7,9,11,-1,-1,13,-1,-1,-1,15,-1,-1,-1],"loss_changes":[2.2704381E-1,2.9884216E-1,1.8562496E-1,0E0,2.4373712E-1,2.9946736E-1,9.324391E-2,0E0,0E0,2.7512637E-1,0E0,0E0,0E0,3.5587627E-1,0E0,0E0,0E0],"parents":[2147483647,0,0,1,1,2,2,4,4,5,5,6,6,9,9,13,13],"right_children":[2,4,6,-1,8,10,12,-1,-1,14,-1,-1,-1,16,-1,-1,-1],"split_conditions":[1.5524E1,7E2,2.53933E2,-1.2137621E-1,1.01E1,6.03E1,2.11E1,6.4696305E-2,-6.9571234E-2,1.00693E3,-4.859184E-2,1.1078922E-2,-7.386888E-2,9.909346E1,-2.2788303E-2,-9.87597E-5,1.5836626E-1],"split_indices":[3,51,36,0,35,35,37,0,0,54,0,0,0,53,0,0,0],"split_type":[0,0,0,0,0,0,0,0,0,0,0,0,0,0,0,0,0],"sum_hessian":[1.3729058E1,4.8800883E0,8.848969E0,1.9382868E0,2.9418013E0,6.544129E0,2.3048408E0,1.8985313E0,1.0432701E0,5.293618E0,1.2505109E0,1.0074222E0,1.2974185E0,4.1752477E0,1.1183704E0,1.4270704E0,2.7481773E0],"tree_param":{"num_deleted":"0","num_feature":"55","num_nodes":"17","size_leaf_vector":"1"}},{"base_weights":[-2.3195982E-2,-8.313221E-2,6.688405E-2,-1.97633E-1,6.1857138E-2,-3.124722E-1,5.509536E-2,-7.183027E-2,1.00094326E-1,1.4981866E-2,-4.3743804E-1,-7.652328E-2,3.0794004E-2,-1.7117892E-1,-1.2593131E-4],"categories":[],"categories_nodes":[],"categories_segments":[],"categories_sizes":[],"default_left":[0,0,0,1,0,1,0,1,0,0,0,0,0,0,0],"id":30,"left_children":[1,3,-1,5,7,9,-1,11,-1,-1,13,-1,-1,-1,-1],"loss_changes":[2.1604733E-1,2.3155464E-1,0E0,3.998254E-1,2.6261833E-1,3.447029E-1,0E0,1.8597412E-1,0E0,0E0,2.4020594E-1,0E0,0E0,0E0,0E0],"parents":[2147483647,0,0,1,1,3,3,4,4,5,5,7,7,10,10],"right_children":[2,4,-1,6,8,10,-1,12,-1,-1,14,-1,-1,-1,-1],"split_conditions":[4.2207E1,1.295E2,6.688405E-2,2.5938626E2,7.71E2,4.6742E2,5.509536E-2,2.1368124E2,1.00094326E-1,1.4981866E-2,4.9474655E1,-7.652328E-2,3.0794004E-2,-1.7117892E-1,-1.2593131E-4],"split_indices":[3,37,0,49,16,54,0,49,0,0,34,0,0,0,0],"split_type":[0,0,0,0,0,0,0,0,0,0,0,0,0,0,0],"sum_hessian":[1.3241374E1,1.147518E1,1.7661939E0,6.555808E0,4.9193716E0,5.358486E0,1.1973219E0,3.5685458E0,1.3508259E0,1.3431506E0,4.0153356E0,1.7668937E0,1.801652E0,2.6854215E0,1.3299143E0],"tree_param":{"num_deleted":"0","num_feature":"55","num_nodes":"15","size_leaf_vector":"1"}},{"base_weights":[-1.1006939E-2,-1.2680756E-1,1.0559172E-1,-3.3498213E-1,1.3470558E-2,-5.531962E-2,3.019508E-1,-1.4889014E-1,-2.2812495E-3,5.0979313E-2,-9.9635E-2,-7.773785E-2,3.210508E-2,1.2392019E-1,-0E0,3.827803E-2,-8.835357E-2],"categories":[],"categories_nodes":[],"categories_segments":[],"categories_sizes":[],"default_left":[0,0,0,0,0,0,0,0,0,0,1,0,0,0,0,0,0],"id":31,"left_children":[1,3,5,7,9,11,13,-1,-1,-1,15,-1,-1,-1,-1,-1,-1],"loss_changes":[2.0176482E-1,2.6037425E-1,2.613319E-1,1.3175127E-1,1.1785217E-1,1.890567E-1,1.0903457E-1,0E0,0E0,0E0,2.0311254E-1,0E0,0E0,0E0,0E0,0E0,0E0],"parents":[2147483647,0,0,1,1,2,2,3,3,4,4,5,5,6,6,10,10],"right_children":[2,4,6,8,10,12,14,-1,-1,-1,16,-1,-1,-1,-1,-1,-1],"split_conditions":[2.6205E1,1.142E3,5.56E1,1.83062E2,4.21464E2,-6.2214956E0,1.8881E2,-1.4889014E-1,-2.2812495E-3,5.0979313E-2,1.6118524E2,-7.773785E-2,3.210508E-2,1.2392019E-1,-0E0,3.827803E-2,-8.835357E-2],"split_indices":[3,12,0,37,40,31,8,0,0,0,52,0,0,0,0,0,0],"split_type":[0,0,0,0,0,0,0,0,0,0,0,0,0,0,0,0,0],"sum_hessian":[1.2809965E1,6.770453E0,6.0395126E0,2.425221E0,4.345232E0,3.46214E0,2.5773726E0,1.094768E0,1.3304529E0,1.9463757E0,2.3988562E0,1.5165511E0,1.945589E0,1.5506229E0,1.0267496E0,1.0536059E0,1.3452501E0],"tree_param":{"num_deleted":"0","num_feature":"55","num_nodes":"17","size_leaf_vector":"1"}},{"base_weights":[-1.1274808E-2,-1.9277E-1,4.976195E-2,3.0256689E-2,-1.09649606E-1,-3.0658122E-2,2.4577704E-1,7.1338885E-2,-1.3252966E-1,1.0566662E-1,-0E0,-1.0654281E-1,2.0726426E-2,7.9196416E-2,-1.4654487E-1,-8.573962E-2,7.6521477E-3],"categories":[],"categories_nodes":[],"categories_segments":[],"categories_sizes":[],"default_left":[1,0,0,0,0,0,0,0,0,0,0,0,1,0,0,0,0],"id":32,"left_children":[1,3,5,-1,-1,7,9,-1,11,-1,-1,-1,13,-1,15,-1,-1],"loss_changes":[1.7140873E-1,2.6153055E-1,1.9218166E-1,0E0,0E0,2.4076694E-1,9.453049E-2,0E0,2.654763E-1,0E0,0E0,0E0,2.3902053E-1,0E0,1.0708375E-1,0E0,0E0],"parents":[2147483647,0,0,1,1,2,2,5,5,6,6,8,8,12,12,14,14],"right_children":[2,4,6,-1,-1,8,10,-1,12,-1,-1,-1,14,-1,16,-1,-1],"split_conditions":[2.1192E2,1.1649E2,5.1462605E1,3.0256689E-2,-1.09649606E-1,-6.421603E1,1.8497E2,7.1338885E-2,2.0201E1,1.0566662E-1,-0E0,-1.0654281E-1,1.16160904E2,7.9196416E-2,2.28E2,-8.573962E-2,7.6521477E-3],"split_indices":[46,48,26,0,0,2,7,0,3,0,0,0,53,0,9,0,0],"split_type":[0,0,0,0,0,0,0,0,0,0,0,0,0,0,0,0,0],"sum_hessian":[1.244488E1,2.9599988E0,9.484881E0,1.0573875E0,1.9026114E0,6.9980397E0,2.486841E0,1.3149064E0,5.6831336E0,1.4597528E0,1.0270883E0,2.019641E0,3.6634927E0,1.476405E0,2.1870878E0,1.1325794E0,1.0545082E0],"tree_param":{"num_deleted":"0","num_feature":"55","num_nodes":"17","size_leaf_vector":"1"}},{"base_weights":[-3.3242109E-3,-5.7235986E-2,7.448269E-2,-1.6318586E-1,7.14246E-2,-0E0,-1.2781043E-1,-1.01157635E-1,2.3194833E-1,1.870237E-1,-7.253401E-2,-7.221744E-2,1.04548065E-2,1.0839034E-1,-0E0,-6.696636E-3,9.668037E-2],"categories":[],"categories_nodes":[],"categories_segments":[],"categories_sizes":[],"default_left":[0,0,0,0,0,0,0,0,0,0,0,0,0,0,0,0,0],"id":33,"left_children":[1,3,-1,5,7,9,-1,11,13,15,-1,-1,-1,-1,-1,-1,-1],"loss_changes":[1.7419522E-1,1.8165469E-1,0E0,3.2247996E-1,1.923179E-1,2.8592718E-1,0E0,8.687789E-2,1.2927106E-1,1.3792135E-1,0E0,0E0,0E0,0E0,0E0,0E0,0E0],"parents":[2147483647,0,0,1,1,3,3,4,4,5,5,7,7,8,8,9,9],"right_children":[2,4,-1,6,8,10,-1,12,14,16,-1,-1,-1,-1,-1,-1,-1],"split_conditions":[4.5398E1,1.295E2,7.448269E-2,7.1E1,7.9E1,1.3E1,-1.2781043E-1,2.7273E2,6.44E2,1.2464344E2,-7.253401E-2,-7.221744E-2,1.04548065E-2,1.0839034E-1,-0E0,-6.696636E-3,9.668037E-2],"split_indices":[3,37,0,37,16,44,0,46,14,53,0,0,0,0,0,0,0],"split_type":[0,0,0,0,0,0,0,0,0,0,0,0,0,0,0,0,0],"sum_hessian":[1.2062677E1,1.0864936E1,1.197742E0,6.1949334E0,4.670002E0,4.362633E0,1.8323E0,2.1584117E0,2.5115905E0,2.663458E0,1.6991752E0,1.0119735E0,1.1464382E0,1.4375547E0,1.0740358E0,1.111776E0,1.5516821E0],"tree_param":{"num_deleted":"0","num_feature":"55","num_nodes":"17","size_leaf_vector":"1"}},{"base_weights":[-1.3279498E-3,-1.5000914E-1,7.748507E-2,-1.0117338E-1,-0E0,-1.153304E-1,1.693858E-1,5.2284595E-2,-4.1888975E-2,-8.360959E-2,1.7752195E-2,3.139975E-1,-3.6286823E-2,3.7149407E-3,1.1917154E-1,4.3765873E-2,-8.001611E-2],"categories":[],"categories_nodes":[],"categories_segments":[],"categories_sizes":[],"default_left":[0,0,0,0,0,0,0,0,0,0,0,0,0,0,0,0,0],"id":34,"left_children":[1,3,5,-1,7,9,11,-1,-1,-1,-1,13,15,-1,-1,-1,-1],"loss_changes":[1.670248E-1,1.7258042E-1,1.7620505E-1,0E0,1.1493859E-1,1.23033226E-1,2.3040563E-1,0E0,0E0,0E0,0E0,6.341371E-2,1.896759E-1,0E0,0E0,0E0,0E0],"parents":[2147483647,0,0,1,1,2,2,4,4,5,5,6,6,11,11,12,12],"right_children":[2,4,6,-1,8,10,12,-1,-1,-1,-1,14,16,-1,-1,-1,-1],"split_conditions":[7.5E0,2.6205E1,1.07142914E2,-1.0117338E-1,2E0,3.4032E1,3.229E3,5.2284595E-2,-4.1888975E-2,-8.360959E-2,1.7752195E-2,1.295E2,6.504E1,3.7149407E-3,1.1917154E-1,4.3765873E-2,-8.001611E-2],"split_indices":[5,3,53,0,45,3,11,0,0,0,0,37,37,0,0,0,0],"split_type":[0,0,0,0,0,0,0,0,0,0,0,0,0,0,0,0,0],"sum_hessian":[1.1704527E1,4.1377115E0,7.5668154E0,1.5339235E0,2.6037881E0,2.0439084E0,5.5229073E0,1.3149004E0,1.2888877E0,1.0137227E0,1.0301857E0,3.1906033E0,2.3323038E0,1.1725061E0,2.0180972E0,1.2892568E0,1.043047E0],"tree_param":{"num_deleted":"0","num_feature":"55","num_nodes":"17","size_leaf_vector":"1"}},{"base_weights":[-2.4378619E-3,-1.8333098E-1,7.248435E-2,-1.21091045E-1,2.9627734E-3,-4.1130684E-2,1.5187703E-1,-3.6902364E-2,5.1225852E-2,2.3670837E-1,-1.6373234E-2,3.1706712E-1,-5.625578E-4,1.3260195E-1,-0E0],"categories":[],"categories_nodes":[],"categories_segments":[],"categories_sizes":[],"default_left":[0,0,0,0,0,0,0,0,0,1,0,0,0,0,0],"id":35,"left_children":[1,3,5,-1,7,-1,9,-1,-1,11,-1,13,-1,-1,-1],"loss_changes":[1.9136767E-1,2.1243039E-1,1.7416099E-1,0E0,9.048224E-2,0E0,1.5912023E-1,0E0,0E0,1.3920307E-1,0E0,1.5872857E-1,0E0,0E0,0E0],"parents":[2147483647,0,0,1,1,2,2,4,4,6,6,9,9,11,11],"right_children":[2,4,6,-1,8,-1,10,-1,-1,12,-1,14,-1,-1,-1],"split_conditions":[1.2649E1,5E1,2.1481E2,-1.21091045E-1,3.83215E2,-4.1130684E-2,2.53933E2,-3.6902364E-2,5.1225852E-2,3.1336E2,-1.6373234E-2,9.99E-1,-5.625578E-4,1.3260195E-1,-0E0],"split_indices":[3,28,46,0,40,0,36,0,0,48,0,42,0,0,0],"split_type":[0,0,0,0,0,0,0,0,0,0,0,0,0,0,0],"sum_hessian":[1.1403181E1,3.2678854E0,8.135296E0,1.1841528E0,2.0837326E0,1.7237945E0,6.4115014E0,1.0361474E0,1.0475852E0,4.7494993E0,1.6620023E0,3.5890543E0,1.1604449E0,2.1738458E0,1.4152085E0],"tree_param":{"num_deleted":"0","num_feature":"55","num_nodes":"15","size_leaf_vector":"1"}},{"base_weights":[-7.4011195E-3,-1.2297998E-1,1.0078082E-1,-8.815969E-2,-0E0,-5.293779E-2,2.630211E-1,4.3502375E-2,-1.0885821E-1,-7.1552336E-2,3.300759E-2,1.163344E-1,1.4230323E-3,2.535516E-2,-8.751367E-2],"categories":[],"categories_nodes":[],"categories_segments":[],"categories_sizes":[],"default_left":[0,0,0,0,0,0,0,0,1,0,0,0,0,0,0],"id":36,"left_children":[1,3,5,-1,7,9,11,-1,13,-1,-1,-1,-1,-1,-1],"loss_changes":[1.6590151E-1,1.5573013E-1,1.926036E-1,0E0,9.22956E-2,1.5384366E-1,7.78297E-2,0E0,1.5212452E-1,0E0,0E0,0E0,0E0,0E0,0E0],"parents":[2147483647,0,0,1,1,2,2,4,4,5,5,6,6,8,8],"right_children":[2,4,6,-1,8,10,12,-1,14,-1,-1,-1,-1,-1,-1],"split_conditions":[2.6205E1,1.142E3,5.47E1,-8.815969E-2,1.01E1,3.50728E2,9.0557E1,4.3502375E-2,1.6118524E2,-7.1552336E-2,3.300759E-2,1.163344E-1,1.4230323E-3,2.535516E-2,-8.751367E-2],"split_indices":[3,12,0,0,35,38,39,0,52,0,0,0,0,0,0],"split_type":[0,0,0,0,0,0,0,0,0,0,0,0,0,0,0],"sum_hessian":[1.11172695E1,5.711108E0,5.4061613E0,1.978675E0,3.7324333E0,2.8369741E0,2.5691872E0,1.6550238E0,2.0774095E0,1.3680476E0,1.4689267E0,1.1592264E0,1.4099607E0,1.0317296E0,1.0456799E0],"tree_param":{"num_deleted":"0","num_feature":"55","num_nodes":"15","size_leaf_vector":"1"}},{"base_weights":[-9.40728E-4,-1.593589E-1,6.173436E-2,2.2863725E-2,-8.83017E-2,-6.163122E-2,1.594371E-1,2.8421199E-2,-5.973839E-2,-2.7957058E-2,3.0572325E-1,-5.0390493E-2,2.4457786E-2,8.079388E-3,1.1480725E-1],"categories":[],"categories_nodes":[],"categories_segments":[],"categories_sizes":[],"default_left":[0,0,0,0,0,0,0,0,0,0,0,0,0,0,0],"id":37,"left_children":[1,3,5,-1,-1,7,9,-1,-1,11,13,-1,-1,-1,-1],"loss_changes":[1.3624375E-1,1.7067522E-1,1.247168E-1,0E0,0E0,1.1864574E-1,1.8700339E-1,0E0,0E0,6.900204E-2,2.7857244E-2,0E0,0E0,0E0,0E0],"parents":[2147483647,0,0,1,1,2,2,5,5,6,6,9,9,10,10],"right_children":[2,4,6,-1,-1,8,10,-1,-1,12,14,-1,-1,-1,-1],"split_conditions":[1.2649E1,3.8E-2,7.5E0,2.2863725E-2,-8.83017E-2,3.7296E2,1.1069315E2,2.8421199E-2,-5.973839E-2,-2.1052778E0,2.46E2,-5.0390493E-2,2.4457786E-2,8.079388E-3,1.1480725E-1],"split_indices":[3,3,5,0,0,51,50,0,0,31,9,0,0,0,0],"split_type":[0,0,0,0,0,0,0,0,0,0,0,0,0,0,0],"sum_hessian":[1.0845902E1,3.0444913E0,7.801411E0,1.0246378E0,2.0198536E0,3.2037985E0,4.5976124E0,1.33816E0,1.8656385E0,2.1004045E0,2.4972079E0,1.0481434E0,1.0522611E0,1.0853829E0,1.4118251E0],"tree_param":{"num_deleted":"0","num_feature":"55","num_nodes":"15","size_leaf_vector":"1"}},{"base_weights":[-0E0,5.2673597E-2,-5.50665E-2,-3.7064526E-2,2.4544749E-1,-1.504203E-1,6.593546E-2,1.0814652E-1,-0E0,2.3421548E-2,-2.3856436E-1,-1.0667594E-1,-3.1970232E-3],"categories":[],"categories_nodes":[],"categories_segments":[],"categories_sizes":[],"default_left":[0,0,0,0,0,1,0,0,0,0,0,0,0],"id":38,"left_children":[1,3,-1,5,7,9,-1,-1,-1,-1,11,-1,-1],"loss_changes":[1.2416764E-1,1.9621415E-1,0E0,2.3617814E-1,1.0696326E-1,1.5040934E-1,0E0,0E0,0E0,0E0,8.9520425E-2,0E0,0E0],"parents":[2147483647,0,0,1,1,3,3,4,4,5,5,10,10],"right_children":[2,4,-1,6,8,10,-1,-1,-1,-1,12,-1,-1],"split_conditions":[9.91E2,7.31E2,-5.50665E-2,7.187187E1,2.2150394E1,1.1649E2,6.593546E-2,1.0814652E-1,-0E0,2.3421548E-2,1.7989E2,-1.0667594E-1,-3.1970232E-3],"split_indices":[14,14,0,26,1,48,0,0,0,0,7,0,0],"split_type":[0,0,0,0,0,0,0,0,0,0,0,0,0],"sum_hessian":[1.0615917E1,8.732002E0,1.883915E0,6.1908126E0,2.5411894E0,4.825886E0,1.3649265E0,1.4647613E0,1.0764282E0,1.0908828E0,3.7350032E0,1.8366768E0,1.8983263E0],"tree_param":{"num_deleted":"0","num_feature":"55","num_nodes":"13","size_leaf_vector":"1"}},{"base_weights":[-0E0,-1.0132902E-1,1.0708965E-1,-7.7787325E-2,-0E0,2.3061088E-1,-3.8769163E-2,4.0739954E-2,-2.8392062E-2,-0E0,1.0488304E-1,-5.471905E-2,2.2843787E-2],"categories":[],"categories_nodes":[],"categories_segments":[],"categories_sizes":[],"default_left":[0,0,0,0,0,0,0,0,0,0,0,0,0],"id":39,"left_children":[1,3,5,-1,7,9,11,-1,-1,-1,-1,-1,-1],"loss_changes":[1.3460934E-1,1.2341327E-1,1.3598993E-1,0E0,7.4336916E-2,9.173311E-2,7.818178E-2,0E0,0E0,0E0,0E0,0E0,0E0],"parents":[2147483647,0,0,1,1,2,2,4,4,5,5,6,6],"right_children":[2,4,6,-1,8,10,12,-1,-1,-1,-1,-1,-1],"split_conditions":[2.6205E1,1.142E3,2.7018E2,-7.7787325E-2,4.21464E2,1.494E2,5.56E1,4.0739954E-2,-2.8392062E-2,-0E0,1.0488304E-1,-5.471905E-2,2.2843787E-2],"split_indices":[3,12,47,0,40,7,0,0,0,0,0,0,0],"split_type":[0,0,0,0,0,0,0,0,0,0,0,0,0],"sum_hessian":[1.0397658E1,5.3045564E0,5.093102E0,1.798461E0,3.5060952E0,2.7773185E0,2.3157835E0,1.637907E0,1.8681881E0,1.3832844E0,1.394034E0,1.1165241E0,1.1992594E0],"tree_param":{"num_deleted":"0","num_feature":"55","num_nodes":"13","size_leaf_vector":"1"}},{"base_weights":[-0E0,-4.1674674E-2,6.5710455E-2,-1.4014763E-1,7.0982E-2,-2.957221E-1,3.617427E-2,-2.097385E-2,7.656352E-2,-0E0,-1.2391191E-1,5.5545025E-2,-2.7227834E-2,-4.982356E-2,3.6688622E-2],"categories":[],"categories_nodes":[],"categories_segments":[],"categories_sizes":[],"default_left":[0,0,0,0,0,0,0,0,0,0,0,0,0,0,0],"id":40,"left_children":[1,3,-1,5,7,9,11,13,-1,-1,-1,-1,-1,-1,-1],"loss_changes":[1.1655604E-1,1.2883818E-1,0E0,2.0363358E-1,1.10707395E-1,1.2741107E-1,9.1815114E-2,1.0566292E-1,0E0,0E0,0E0,0E0,0E0,0E0,0E0],"parents":[2147483647,0,0,1,1,3,3,4,4,5,5,6,6,7,7],"right_children":[2,4,-1,6,8,10,12,14,-1,-1,-1,-1,-1,-1,-1],"split_conditions":[4.5398E1,1.295E2,6.5710455E-2,1.807E3,7.71E2,4.314E1,6.63566E2,1.9241E2,7.656352E-2,-0E0,-1.2391191E-1,5.5545025E-2,-2.7227834E-2,-4.982356E-2,3.6688622E-2],"split_indices":[3,37,0,16,16,37,38,8,0,0,0,0,0,0,0],"split_type":[0,0,0,0,0,0,0,0,0,0,0,0,0,0,0],"sum_hessian":[1.0217461E1,9.15565E0,1.0618099E0,5.1815877E0,3.974063E0,2.664264E0,2.5173237E0,2.9160247E0,1.0580381E0,1.0391054E0,1.6251585E0,1.2734222E0,1.2439014E0,1.6818436E0,1.2341812E0],"tree_param":{"num_deleted":"0","num_feature":"55","num_nodes":"15","size_leaf_vector":"1"}},{"base_weights":[-0E0,-5.131766E-2,5.5553548E-2,7.096858E-2,-8.306473E-3,-1.3830347E-1,1.4638376E-1,2.3120457E-2,-3.1944716E-1,8.659431E-2,-0E0,-1.333525E-1,-0E0],"categories":[],"categories_nodes":[],"categories_segments":[],"categories_sizes":[],"default_left":[1,0,0,0,0,0,0,0,0,0,0,0,0],"id":41,"left_children":[1,-1,3,-1,5,7,9,-1,11,-1,-1,-1,-1],"loss_changes":[1.0514787E-1,0E0,1.308986E-1,0E0,1.7093E-1,2.384534E-1,9.7994134E-2,0E0,8.641559E-2,0E0,0E0,0E0,0E0],"parents":[2147483647,0,0,2,2,4,4,5,5,6,6,8,8],"right_children":[2,-1,4,-1,6,8,10,-1,12,-1,-1,-1,-1],"split_conditions":[1.6396333E2,-5.131766E-2,-1.1E1,7.096858E-2,1.735E3,8.730445E0,-7.8207225E-1,2.3120457E-2,2.4837E2,8.659431E-2,-0E0,-1.333525E-1,-0E0],"split_indices":[49,0,6,0,12,1,31,0,48,0,0,0,0],"split_type":[0,0,0,0,0,0,0,0,0,0,0,0,0],"sum_hessian":[9.980858E0,1.604499E0,8.376359E0,1.84689E0,6.529469E0,3.9217224E0,2.6077466E0,1.8270122E0,2.0947104E0,1.1040198E0,1.5037268E0,1.0356529E0,1.0590575E0],"tree_param":{"num_deleted":"0","num_feature":"55","num_nodes":"13","size_leaf_vector":"1"}},{"base_weights":[-0E0,-8.674661E-2,9.415591E-2,-1.5699247E-1,2.5427686E-2,-1.9959524E-2,1.8451302E-1,1.8239997E-2,-2.6961467E-1,8.7194696E-2,-0E0,-1.1516826E-1,-0E0],"categories":[],"categories_nodes":[],"categories_segments":[],"categories_sizes":[],"default_left":[0,0,0,0,0,0,0,0,1,0,0,0,0],"id":42,"left_children":[1,3,5,7,-1,-1,9,-1,11,-1,-1,-1,-1],"loss_changes":[9.627476E-2,9.212885E-2,1.0659391E-1,1.5738216E-1,0E0,0E0,1.0979855E-1,0E0,1.2698942E-1,0E0,0E0,0E0,0E0],"parents":[2147483647,0,0,1,1,2,2,3,3,6,6,8,8],"right_children":[2,4,6,8,-1,-1,10,-1,12,-1,-1,-1,-1],"split_conditions":[2.6205E1,8.75E1,4.11E2,2.62E-1,2.5427686E-2,-1.9959524E-2,8.16383E2,1.8239997E-2,2.6611E2,8.7194696E-2,-0E0,-1.1516826E-1,-0E0],"split_indices":[3,5,16,3,0,0,41,0,47,0,0,0,0],"split_type":[0,0,0,0,0,0,0,0,0,0,0,0,0],"sum_hessian":[9.767257E0,5.0027933E0,4.764463E0,3.981579E0,1.021214E0,1.4511197E0,3.3133435E0,1.2414825E0,2.7400966E0,2.0380707E0,1.2752727E0,1.7064668E0,1.0336299E0],"tree_param":{"num_deleted":"0","num_feature":"55","num_nodes":"13","size_leaf_vector":"1"}},{"base_weights":[-0E0,5.1372316E-2,-4.864116E-2,-8.18131E-2,1.4984484E-1,4.086613E-2,-7.073848E-2,-3.833229E-2,2.5526527E-1,-0E0,3.4244633E-1,9.993189E-3,1.251726E-1],"categories":[],"categories_nodes":[],"categories_segments":[],"categories_sizes":[],"default_left":[0,1,0,0,0,0,0,0,0,0,0,0,0],"id":43,"left_children":[1,3,-1,5,7,-1,-1,-1,9,-1,11,-1,-1],"loss_changes":[9.4571896E-2,1.3482583E-1,0E0,1.7645924E-1,2.1519431E-1,0E0,0E0,0E0,1.1610654E-1,0E0,3.017366E-2,0E0,0E0],"parents":[2147483647,0,0,1,1,3,3,4,4,8,8,10,10],"right_children":[2,4,-1,6,8,-1,-1,-1,10,-1,12,-1,-1],"split_conditions":[9.91E2,1.1069315E2,-4.864116E-2,2.158E3,2.28E2,4.086613E-2,-7.073848E-2,-3.833229E-2,1.4E0,-0E0,2.795E3,9.993189E-3,1.251726E-1],"split_indices":[14,50,0,11,14,0,0,0,3,0,11,0,0],"split_type":[0,0,0,0,0,0,0,0,0,0,0,0,0],"sum_hessian":[9.584583E0,7.8784275E0,1.7061563E0,3.0322104E0,4.846217E0,1.0608011E0,1.9714092E0,1.0403731E0,3.8058438E0,1.1454113E0,2.6604326E0,1.0343713E0,1.6260614E0],"tree_param":{"num_deleted":"0","num_feature":"55","num_nodes":"13","size_leaf_vector":"1"}},{"base_weights":[-0E0,-1.1795009E-1,7.540674E-2,-0E0,-7.78153E-2,1.6997354E-1,-6.348564E-2,-1.6752748E-2,2.8166803E-2,-8.060863E-3,2.7450082E-1,-6.580987E-2,2.7821036E-2,3.8304578E-3,1.0689645E-1],"categories":[],"categories_nodes":[],"categories_segments":[],"categories_sizes":[],"default_left":[0,0,0,0,0,1,0,0,0,0,0,0,0,0,0],"id":44,"left_children":[1,3,5,7,-1,9,11,-1,-1,-1,13,-1,-1,-1,-1],"loss_changes":[1.0013164E-1,9.222415E-2,1.1346842E-1,2.4189007E-2,0E0,1.2995748E-1,1.0999441E-1,0E0,0E0,0E0,3.870383E-2,0E0,0E0,0E0,0E0],"parents":[2147483647,0,0,1,1,2,2,3,3,5,5,6,6,10,10],"right_children":[2,4,6,8,-1,10,12,-1,-1,-1,14,-1,-1,-1,-1],"split_conditions":[7.5E0,-7.8207225E-1,3.229E3,2.4203E2,-7.78153E-2,1.07142914E2,3.942E3,-1.6752748E-2,2.8166803E-2,-8.060863E-3,1.275E0,-6.580987E-2,2.7821036E-2,3.8304578E-3,1.0689645E-1],"split_indices":[5,31,11,46,0,53,11,0,0,0,3,0,0,0,0],"split_type":[0,0,0,0,0,0,0,0,0,0,0,0,0,0,0],"sum_hessian":[9.388037E0,3.3006396E0,6.087397E0,2.0406055E0,1.2600341E0,3.8741004E0,2.2132967E0,1.0063415E0,1.0342641E0,1.3026314E0,2.571469E0,1.1940135E0,1.0192832E0,1.1498086E0,1.4216604E0],"tree_param":{"num_deleted":"0","num_feature":"55","num_nodes":"15","size_leaf_vector":"1"}},{"base_weights":[-0E0,-8.539891E-2,9.104974E-2,1.3321278E-2,-1.8303496E-1,-1.6361553E-2,2.0854515E-1,-9.10709E-2,1.963135E-3,3.0770546E-2,-4.361838E-2,8.911508E-2,-0E0],"categories":[],"categories_nodes":[],"categories_segments":[],"categories_sizes":[],"default_left":[0,1,0,0,0,0,1,0,0,0,0,0,0],"id":45,"left_children":[1,3,5,-1,7,9,11,-1,-1,-1,-1,-1,-1],"loss_changes":[8.741854E-2,9.270678E-2,9.0635635E-2,0E0,1.1642593E-1,7.127174E-2,5.1199764E-2,0E0,0E0,0E0,0E0,0E0,0E0],"parents":[2147483647,0,0,1,1,2,2,4,4,5,5,6,6],"right_children":[2,4,6,-1,8,10,12,-1,-1,-1,-1,-1,-1],"split_conditions":[2.6205E1,1.6306786E2,5.47E1,1.3321278E-2,1.7095898E2,9.1809906E1,1.3046687E2,-9.10709E-2,1.963135E-3,3.0770546E-2,-4.361838E-2,8.911508E-2,-0E0],"split_indices":[3,52,0,0,50,50,53,0,0,0,0,0,0],"split_type":[0,0,0,0,0,0,0,0,0,0,0,0,0],"sum_hessian":[9.229217E0,4.688891E0,4.5403256E0,1.8510622E0,2.8378289E0,2.42131E0,2.1190157E0,1.6575664E0,1.1802624E0,1.0036216E0,1.4176884E0,1.117538E0,1.0014776E0],"tree_param":{"num_deleted":"0","num_feature":"55","num_nodes":"13","size_leaf_vector":"1"}},{"base_weights":[-0E0,-1.1459337E-1,6.360792E-2,1.9866578E-2,-8.123556E-2,-2.811643E-2,1.2808692E-1,2.0931846E-1,-1.6669013E-2,2.930056E-3,8.992976E-2],"categories":[],"categories_nodes":[],"categories_segments":[],"categories_sizes":[],"default_left":[0,0,0,0,0,0,0,0,0,0,0],"id":46,"left_children":[1,3,5,-1,-1,-1,7,9,-1,-1,-1],"loss_changes":[7.7063166E-2,1.3653508E-1,9.15201E-2,0E0,0E0,0E0,1.1754646E-1,5.6358814E-2,0E0,0E0,0E0],"parents":[2147483647,0,0,1,1,2,2,6,6,7,7],"right_children":[2,4,6,-1,-1,-1,8,10,-1,-1,-1],"split_conditions":[1.2649E1,3.25E1,2.1481E2,1.9866578E-2,-8.123556E-2,-2.811643E-2,2.53933E2,2.41E2,-1.6669013E-2,2.930056E-3,8.992976E-2],"split_indices":[3,0,46,0,0,0,36,9,0,0,0],"split_type":[0,0,0,0,0,0,0,0,0,0,0],"sum_hessian":[9.080772E0,2.5474222E0,6.53335E0,1.1804615E0,1.3669606E0,1.3614861E0,5.171864E0,3.8287966E0,1.3430675E0,1.8501836E0,1.9786129E0],"tree_param":{"num_deleted":"0","num_feature":"55","num_nodes":"11","size_leaf_vector":"1"}},{"base_weights":[-0E0,-3.7420888E-2,4.837861E-2,-1.3301037E-1,6.478177E-2,1.4714031E-2,-2.815317E-1,1.711632E-1,-1.9553779E-2,-1.1254046E-1,-7.932779E-3,7.101761E-2,-0E0],"categories":[],"categories_nodes":[],"categories_segments":[],"categories_sizes":[],"default_left":[0,0,0,0,0,0,0,0,0,0,0,0,0],"id":47,"left_children":[1,3,-1,5,7,-1,9,11,-1,-1,-1,-1,-1],"loss_changes":[7.0721015E-2,9.9655546E-2,0E0,1.773164E-1,8.176486E-2,0E0,3.3308476E-2,2.2034302E-2,0E0,0E0,0E0,0E0,0E0],"parents":[2147483647,0,0,1,1,3,3,4,4,6,6,7,7],"right_children":[2,4,-1,6,8,-1,10,12,-1,-1,-1,-1,-1],"split_conditions":[4.2207E1,1.295E2,4.837861E-2,5E-1,2.657E3,1.4714031E-2,3.038E1,2.31826E2,-1.9553779E-2,-1.1254046E-1,-7.932779E-3,7.101761E-2,-0E0],"split_indices":[3,37,0,42,20,0,3,37,0,0,0,0,0],"split_type":[0,0,0,0,0,0,0,0,0,0,0,0,0],"sum_hessian":[8.941455E0,7.6899133E0,1.2515417E0,4.2729416E0,3.4169717E0,1.9482969E0,2.3246446E0,2.0855474E0,1.3314244E0,1.0981411E0,1.2265036E0,1.0063045E0,1.079243E0],"tree_param":{"num_deleted":"0","num_feature":"55","num_nodes":"13","size_leaf_vector":"1"}},{"base_weights":[-0E0,-4.3215435E-2,4.1549705E-2,9.978361E-2,-1.3474439E-1,7.4713916E-2,-2.302154E-2,-7.674349E-2,-0E0,7.261829E-2,-5.083198E-2],"categories":[],"categories_nodes":[],"categories_segments":[],"categories_sizes":[],"default_left":[0,0,0,0,0,0,0,0,0,0,0],"id":48,"left_children":[1,3,-1,5,7,-1,-1,-1,9,-1,-1],"loss_changes":[6.780701E-2,1.2200265E-1,0E0,1.2246188E-1,1.1493034E-1,0E0,0E0,0E0,1.856445E-1,0E0,0E0],"parents":[2147483647,0,0,1,1,3,3,4,4,8,8],"right_children":[2,4,-1,6,8,-1,-1,-1,10,-1,-1],"split_conditions":[7.526204E1,-1.7842117E1,4.1549705E-2,-7.8207225E-1,6.89368E2,7.4713916E-2,-2.302154E-2,-7.674349E-2,8.64364E2,7.261829E-2,-5.083198E-2],"split_indices":[26,2,0,31,41,0,0,0,41,0,0],"split_type":[0,0,0,0,0,0,0,0,0,0,0],"sum_hessian":[8.804415E0,7.0535846E0,1.7508298E0,2.333709E0,4.719876E0,1.3182298E0,1.0154792E0,2.343246E0,2.3766296E0,1.0075192E0,1.3691105E0],"tree_param":{"num_deleted":"0","num_feature":"55","num_nodes":"11","size_leaf_vector":"1"}},{"base_weights":[-0E0,-1.0064044E-1,7.1059406E-2,7.728864E-3,-6.222091E-2,-2.7361158E-2,1.839058E-1,4.205175E-2,-5.3292137E-2,-0E0,7.867615E-2],"categories":[],"categories_nodes":[],"categories_segments":[],"categories_sizes":[],"default_left":[0,0,0,0,0,0,0,0,0,0,0],"id":49,"left_children":[1,3,5,-1,-1,7,9,-1,-1,-1,-1],"loss_changes":[7.432625E-2,7.635191E-2,9.238361E-2,0E0,0E0,1.2816325E-1,4.5075387E-2,0E0,0E0,0E0,0E0],"parents":[2147483647,0,0,1,1,2,2,5,5,6,6],"right_children":[2,4,6,-1,-1,8,10,-1,-1,-1,-1],"split_conditions":[7.5E0,2E0,-9.777305E1,7.728864E-3,-6.222091E-2,2.128E3,1E3,4.205175E-2,-5.3292137E-2,-0E0,7.867615E-2],"split_indices":[5,45,34,0,0,11,24,0,0,0,0],"split_type":[0,0,0,0,0,0,0,0,0,0,0],"sum_hessian":[8.645964E0,3.0499828E0,5.595981E0,1.3577943E0,1.6921885E0,2.9675205E0,2.6284604E0,1.1517191E0,1.8158014E0,1.1887695E0,1.4396911E0],"tree_param":{"num_deleted":"0","num_feature":"55","num_nodes":"11","size_leaf_vector":"1"}},{"base_weights":[8.869671E-5,5.3953405E-2,-4.045199E-2,1.4932422E-1,-5.6223847E-2,-0E0,8.432659E-2,-6.29142E-2,2.5241086E-2,4.428601E-2,-5.1253825E-2],"categories":[],"categories_nodes":[],"categories_segments":[],"categories_sizes":[],"default_left":[0,0,0,0,0,0,0,0,0,0,0],"id":50,"left_children":[1,3,-1,5,7,9,-1,-1,-1,-1,-1],"loss_changes":[6.929132E-2,1.0089806E-1,0E0,1.1535663E-1,1.15189604E-1,1.0558005E-1,0E0,0E0,0E0,0E0,0E0],"parents":[2147483647,0,0,1,1,3,3,4,4,5,5],"right_children":[2,4,-1,6,8,10,-1,-1,-1,-1,-1],"split_conditions":[9.91E2,1.93E1,-4.045199E-2,6.89368E2,1.049749E1,4.01E2,8.432659E-2,-6.29142E-2,2.5241086E-2,4.428601E-2,-5.1253825E-2],"split_indices":[14,35,0,41,26,14,0,0,0,0,0],"split_type":[0,0,0,0,0,0,0,0,0,0,0],"sum_hessian":[8.534905E0,7.005601E0,1.5293045E0,4.002681E0,3.0029202E0,2.1308582E0,1.8718227E0,1.5047476E0,1.4981725E0,1.026984E0,1.1038742E0],"tree_param":{"num_deleted":"0","num_feature":"55","num_nodes":"11","size_leaf_vector":"1"}},{"base_weights":[-0E0,-9.680606E-2,6.5527275E-2,-7.562094E-2,5.207835E-3,1.487766E-1,-2.20165E-2,1.0227971E-1,-2.2892004E-2,-3.9557878E-2,1.7567875E-2],"categories":[],"categories_nodes":[],"categories_segments":[],"categories_sizes":[],"default_left":[0,1,0,0,0,1,0,0,0,0,0],"id":51,"left_children":[1,3,5,-1,-1,7,-1,-1,9,-1,-1],"loss_changes":[6.396987E-2,9.2972025E-2,9.393228E-2,0E0,0E0,1.9665778E-1,0E0,0E0,4.3209985E-2,0E0,0E0],"parents":[2147483647,0,0,1,1,2,2,5,5,8,8],"right_children":[2,4,6,-1,-1,8,-1,-1,10,-1,-1],"split_conditions":[1.5524E1,7E2,2.94E2,-7.562094E-2,5.207835E-3,1.16160904E2,-2.20165E-2,1.0227971E-1,1.80654E2,-3.9557878E-2,1.7567875E-2],"split_indices":[3,51,9,0,0,53,0,0,40,0,0],"split_type":[0,0,0,0,0,0,0,0,0,0,0],"sum_hessian":[8.397365E0,2.8060246E0,5.59134E0,1.0113206E0,1.794704E0,3.8570251E0,1.7343147E0,1.6021438E0,2.2548816E0,1.1726137E0,1.0822679E0],"tree_param":{"num_deleted":"0","num_feature":"55","num_nodes":"11","size_leaf_vector":"1"}},{"base_weights":[-0E0,3.9371867E-2,-3.81748E-2,5.674773E-2,-1.5863894E-1,6.732309E-2,-5.0279237E-2,-9.0710714E-2,9.601893E-3,2.6043894E-2,-6.719644E-2],"categories":[],"categories_nodes":[],"categories_segments":[],"categories_sizes":[],"default_left":[0,0,0,0,0,0,0,0,0,0,0],"id":52,"left_children":[1,-1,3,5,7,-1,9,-1,-1,-1,-1],"loss_changes":[5.4571696E-2,0E0,1.0671118E-1,1.1038292E-1,1.4619285E-1,0E0,1.1101948E-1,0E0,0E0,0E0,0E0],"parents":[2147483647,0,0,2,2,3,3,4,4,6,6],"right_children":[2,-1,4,6,8,-1,10,-1,-1,-1,-1],"split_conditions":[-2.175928E2,3.9371867E-2,-7.8207225E-1,-1.2522068E1,1.475E2,6.732309E-2,1.6E1,-9.0710714E-2,9.601893E-3,2.6043894E-2,-6.719644E-2],"split_indices":[34,0,31,2,37,0,44,0,0,0,0],"split_type":[0,0,0,0,0,0,0,0,0,0,0],"sum_hessian":[8.255919E0,1.5132769E0,6.7426424E0,3.6489286E0,3.0937138E0,1.3221577E0,2.3267708E0,1.6990204E0,1.3946934E0,1.2903569E0,1.036414E0],"tree_param":{"num_deleted":"0","num_feature":"55","num_nodes":"11","size_leaf_vector":"1"}},{"base_weights":[-0E0,-4.0048264E-2,4.409953E-2,1.0192916E-1,-3.259958E-2,-1.7480625E-2,1.908759E-1,-0E0,2.839557E-1,8.1898E-3,1.0636673E-1],"categories":[],"categories_nodes":[],"categories_segments":[],"categories_sizes":[],"default_left":[1,0,0,0,0,0,0,0,0,0,0],"id":53,"left_children":[1,-1,3,5,-1,-1,7,-1,9,-1,-1],"loss_changes":[5.421105E-2,0E0,8.056541E-2,1.1851788E-1,0E0,0E0,9.046711E-2,0E0,1.6413808E-2,0E0,0E0],"parents":[2147483647,0,0,2,2,3,3,6,6,8,8],"right_children":[2,-1,4,6,-1,-1,8,-1,10,-1,-1],"split_conditions":[3.5075E2,-4.0048264E-2,9.91E2,2.92E2,-3.259958E-2,-1.7480625E-2,2.622E3,-0E0,2.0201E1,8.1898E-3,1.0636673E-1],"split_indices":[51,0,14,14,0,0,11,0,3,0,0],"split_type":[0,0,0,0,0,0,0,0,0,0,0],"sum_hessian":[8.110608E0,1.17614E0,6.934468E0,5.6991568E0,1.2353113E0,1.7964144E0,3.9027424E0,1.565412E0,2.3373303E0,1.0785044E0,1.2588259E0],"tree_param":{"num_deleted":"0","num_feature":"55","num_nodes":"11","size_leaf_vector":"1"}},{"base_weights":[-0E0,1.0392381E-1,-5.1970776E-2,-1.0216229E-2,6.642094E-2,-9.5279865E-2,4.6879414E-2,1.8162327E-1,-7.751536E-2,-0E0,7.591615E-2,-6.262922E-2,1.6283857E-2],"categories":[],"categories_nodes":[],"categories_segments":[],"categories_sizes":[],"default_left":[0,0,0,0,0,0,0,0,0,0,0,0,0],"id":54,"left_children":[1,3,5,-1,-1,-1,7,9,11,-1,-1,-1,-1],"loss_changes":[5.6071118E-2,8.2540736E-2,2.0781094E-1,0E0,0E0,0E0,1.1232952E-1,3.3523694E-2,7.904686E-2,0E0,0E0,0E0,0E0],"parents":[2147483647,0,0,1,1,2,2,6,6,7,7,8,8],"right_children":[2,4,6,-1,-1,-1,8,10,12,-1,-1,-1,-1],"split_conditions":[2.128E3,5E1,2.633E3,-1.0216229E-2,6.642094E-2,-9.5279865E-2,8.78562E2,1.099E3,1.3145988E2,-0E0,7.591615E-2,-6.262922E-2,1.6283857E-2],"split_indices":[11,28,11,0,0,0,41,16,53,0,0,0,0],"split_type":[0,0,0,0,0,0,0,0,0,0,0,0,0],"sum_hessian":[8.005449E0,2.5863779E0,5.4190717E0,1.1635557E0,1.4228221E0,1.1165512E0,4.3025208E0,2.191935E0,2.1105857E0,1.0241606E0,1.1677743E0,1.1071458E0,1.0034399E0],"tree_param":{"num_deleted":"0","num_feature":"55","num_nodes":"13","size_leaf_vector":"1"}},{"base_weights":[-0E0,-3.6228355E-2,4.3882683E-2,2.94571E-2,-1.0417883E-1,-1.794874E-1,1.436222E-2,-8.126691E-2,-0E0],"categories":[],"categories_nodes":[],"categories_segments":[],"categories_sizes":[],"default_left":[0,0,0,0,0,0,0,0,0],"id":55,"left_children":[1,3,-1,-1,5,7,-1,-1,-1],"loss_changes":[5.502405E-2,8.158942E-2,0E0,0E0,9.0067096E-2,9.076972E-2,0E0,0E0,0E0],"parents":[2147483647,0,0,1,1,4,4,5,5],"right_children":[2,4,-1,-1,6,8,-1,-1,-1],"split_conditions":[4.2207E1,8.3637E1,4.3882683E-2,2.94571E-2,4.365E3,5.96E1,1.436222E-2,-8.126691E-2,-0E0],"split_indices":[3,36,0,0,19,0,0,0,0],"split_type":[0,0,0,0,0,0,0,0,0],"sum_hessian":[7.8497148E0,6.7537065E0,1.0960084E0,1.6734035E0,5.0803027E0,3.6728857E0,1.4074172E0,2.2884445E0,1.3844413E0],"tree_param":{"num_deleted":"0","num_feature":"55","num_nodes":"9","size_leaf_vector":"1"}},{"base_weights":[1.7251952E-4,4.6103742E-2,-3.65164E-2,-2.1479383E-2,1.6744934E-1,3.7254203E-2,-1.234217E-1,7.698027E-2,-0E0,1.152222E-3,-6.9048434E-2],"categories":[],"categories_nodes":[],"categories_segments":[],"categories_sizes":[],"default_left":[0,0,0,0,0,0,0,0,0,0,0],"id":56,"left_children":[1,3,-1,5,7,-1,9,-1,-1,-1,-1],"loss_changes":[4.7827017E-2,7.9241686E-2,0E0,9.403028E-2,5.1369905E-2,0E0,7.540487E-2,0E0,0E0,0E0,0E0],"parents":[2147483647,0,0,1,1,3,3,4,4,6,6],"right_children":[2,4,-1,6,8,-1,10,-1,-1,-1,-1],"split_conditions":[5.55E2,1.295E2,-3.65164E-2,-4.5293612E0,2.657E3,3.7254203E-2,3.51E1,7.698027E-2,-0E0,1.152222E-3,-6.9048434E-2],"split_indices":[17,37,0,31,20,0,37,0,0,0,0],"split_type":[0,0,0,0,0,0,0,0,0,0,0],"sum_hessian":[7.7561307E0,6.621461E0,1.1346698E0,4.3048983E0,2.316563E0,1.3189716E0,2.9859266E0,1.1925143E0,1.1240486E0,1.4170108E0,1.5689157E0],"tree_param":{"num_deleted":"0","num_feature":"55","num_nodes":"11","size_leaf_vector":"1"}},{"base_weights":[9.900731E-4,-6.156499E-2,8.319539E-2,-4.97848E-2,9.8085115E-3,-1.9919429E-2,5.937401E-2,9.582619E-3,-3.2122247E-2],"categories":[],"categories_nodes":[],"categories_segments":[],"categories_sizes":[],"default_left":[0,0,0,0,0,0,0,0,0],"id":57,"left_children":[1,3,5,-1,-1,7,-1,-1,-1],"loss_changes":[5.161737E-2,6.536196E-2,7.663777E-2,0E0,0E0,2.3826715E-2,0E0,0E0,0E0],"parents":[2147483647,0,0,1,1,2,2,5,5],"right_children":[2,4,6,-1,-1,8,-1,-1,-1],"split_conditions":[2.6205E1,3.62824E2,5.47E1,-4.97848E-2,9.8085115E-3,-6.628588E1,5.937401E-2,9.582619E-3,-3.2122247E-2],"split_indices":[3,40,0,0,0,34,0,0,0],"split_type":[0,0,0,0,0,0,0,0,0],"sum_hessian":[7.662953E0,3.8722153E0,3.7907376E0,1.9297718E0,1.9424435E0,2.0182076E0,1.77253E0,1.0148209E0,1.0033867E0],"tree_param":{"num_deleted":"0","num_feature":"55","num_nodes":"9","size_leaf_vector":"1"}},{"base_weights":[3.4601975E-4,4.854471E-2,-3.2723606E-2,-6.911043E-2,1.2661883E-1,-4.769936E-2,3.5324327E-3,-1.7772267E-2,2.138065E-1,-0E0,8.43965E-2],"categories":[],"categories_nodes":[],"categories_segments":[],"categories_sizes":[],"default_left":[0,1,0,0,0,0,0,0,0,0,0],"id":58,"left_children":[1,3,-1,5,7,-1,-1,-1,9,-1,-1],"loss_changes":[4.5148153E-2,8.030772E-2,0E0,3.744333E-2,1.10147655E-1,0E0,0E0,0E0,5.591598E-2,0E0,0E0],"parents":[2147483647,0,0,1,1,3,3,4,4,8,8],"right_children":[2,4,-1,6,8,-1,-1,-1,10,-1,-1],"split_conditions":[9.91E2,1.0398797E2,-3.2723606E-2,-1.0430388E0,2.76E2,-4.769936E-2,3.5324327E-3,-1.7772267E-2,-1.5478811E0,-0E0,8.43965E-2],"split_indices":[14,50,0,31,14,0,0,0,27,0,0],"split_type":[0,0,0,0,0,0,0,0,0,0,0],"sum_hessian":[7.5896645E0,6.2262917E0,1.3633728E0,2.0694067E0,4.1568847E0,1.0499588E0,1.019448E0,1.0999682E0,3.0569165E0,1.007068E0,2.0498486E0],"tree_param":{"num_deleted":"0","num_feature":"55","num_nodes":"11","size_leaf_vector":"1"}},{"base_weights":[-0E0,-1.0127638E-1,5.3403277E-2,8.752973E-3,-6.7270696E-2,-2.31701E-2,1.1311522E-1,1.8065184E-1,-8.632827E-3,7.198166E-2,-0E0],"categories":[],"categories_nodes":[],"categories_segments":[],"categories_sizes":[],"default_left":[0,0,0,0,0,0,0,1,0,0,0],"id":59,"left_children":[1,3,5,-1,-1,-1,7,9,-1,-1,-1],"loss_changes":[4.9851544E-2,7.3374346E-2,6.2147193E-2,0E0,0E0,0E0,6.9600515E-2,3.4953266E-2,0E0,0E0,0E0],"parents":[2147483647,0,0,1,1,2,2,6,6,7,7],"right_children":[2,4,6,-1,-1,-1,8,10,-1,-1,-1],"split_conditions":[1.2649E1,2.62E-1,2.1481E2,8.752973E-3,-6.7270696E-2,-2.31701E-2,2.53933E2,2.1307428E2,-8.632827E-3,7.198166E-2,-0E0],"split_indices":[3,3,46,0,0,0,36,52,0,0,0],"split_type":[0,0,0,0,0,0,0,0,0,0,0],"sum_hessian":[7.504537E0,2.0716372E0,5.4329E0,1.0199873E0,1.0516499E0,1.1392494E0,4.2936506E0,3.1538467E0,1.1398036E0,1.9618287E0,1.1920182E0],"tree_param":{"num_deleted":"0","num_feature":"55","num_nodes":"11","size_leaf_vector":"1"}},{"base_weights":[-0E0,-6.681078E-2,6.537431E-2,-5.2667405E-2,9.4392495E-3,-1.6234031E-2,1.4277883E-1,-1.8998818E-2,3.5182927E-2,-0E0,7.534194E-2],"categories":[],"categories_nodes":[],"categories_segments":[],"categories_sizes":[],"default_left":[0,0,0,0,0,0,0,0,0,0,0],"id":60,"left_children":[1,3,5,-1,7,-1,9,-1,-1,-1,-1],"loss_changes":[4.1147757E-2,5.5885654E-2,5.9005745E-2,0E0,3.775901E-2,0E0,6.321472E-2,0E0,0E0,0E0,0E0],"parents":[2147483647,0,0,1,1,2,2,4,4,6,6],"right_children":[2,4,6,-1,8,-1,10,-1,-1,-1,-1],"split_conditions":[2.6205E1,9.1572E2,4.11E2,-5.2667405E-2,5E1,-1.6234031E-2,2.27E2,-1.8998818E-2,3.5182927E-2,-0E0,7.534194E-2],"split_indices":[3,54,16,0,28,0,9,0,0,0,0],"split_type":[0,0,0,0,0,0,0,0,0,0,0],"sum_hessian":[7.417485E0,3.736196E0,3.6812892E0,1.4898031E0,2.246393E0,1.1082563E0,2.573033E0,1.089223E0,1.1571698E0,1.4158862E0,1.1571468E0],"tree_param":{"num_deleted":"0","num_feature":"55","num_nodes":"11","size_leaf_vector":"1"}},{"base_weights":[-0E0,8.780125E-2,-5.3322025E-2,-7.9759415E-3,5.552293E-2,-8.14999E-2,2.755876E-2,5.756131E-2,-6.102089E-2,-5.523903E-2,2.506523E-2],"categories":[],"categories_nodes":[],"categories_segments":[],"categories_sizes":[],"default_left":[0,1,0,0,0,0,0,0,0,0,0],"id":61,"left_children":[1,3,5,-1,-1,-1,7,-1,9,-1,-1],"loss_changes":[4.3017507E-2,5.684576E-2,1.346116E-1,0E0,0E0,0E0,9.5558956E-2,0E0,8.886794E-2,0E0,0E0],"parents":[2147483647,0,0,1,1,2,2,6,6,8,8],"right_children":[2,4,6,-1,-1,-1,8,-1,10,-1,-1],"split_conditions":[2.128E3,1.07142914E2,2.642E3,-7.9759415E-3,5.552293E-2,-8.14999E-2,3.229E3,5.756131E-2,9.862347E0,-5.523903E-2,2.506523E-2],"split_indices":[11,53,11,0,0,0,11,0,34,0,0],"split_type":[0,0,0,0,0,0,0,0,0,0,0],"sum_hessian":[7.338199E0,2.384174E0,4.9540253E0,1.0043199E0,1.3798541E0,1.0023637E0,3.9516616E0,1.3317068E0,2.6199548E0,1.6035708E0,1.016384E0],"tree_param":{"num_deleted":"0","num_feature":"55","num_nodes":"11","size_leaf_vector":"1"}},{"base_weights":[-0E0,3.3696454E-2,-4.13169E-2,3.1209834E-2,-1.05028845E-1,-2.1407679E-1,1.1169306E-2,-8.8094205E-2,-3.539132E-4,-1.4746386E-2,3.480651E-2],"categories":[],"categories_nodes":[],"categories_segments":[],"categories_sizes":[],"default_left":[0,0,0,0,0,0,0,0,0,0,0],"id":62,"left_children":[1,-1,3,-1,5,7,9,-1,-1,-1,-1],"loss_changes":[4.12237E-2,0E0,7.4784026E-2,0E0,9.3084544E-2,3.0670956E-2,3.2709025E-2,0E0,0E0,0E0,0E0],"parents":[2147483647,0,0,2,2,4,4,5,5,6,6],"right_children":[2,-1,4,-1,6,8,10,-1,-1,-1,-1],"split_conditions":[-2.175928E2,3.3696454E-2,-4.2607746E1,3.1209834E-2,1.295E2,3.3076E1,2.2268E1,-8.8094205E-2,-3.539132E-4,-1.4746386E-2,3.480651E-2],"split_indices":[34,0,2,0,37,3,3,0,0,0,0],"split_type":[0,0,0,0,0,0,0,0,0,0,0],"sum_hessian":[7.2218E0,1.3357971E0,5.886003E0,1.1702552E0,4.715748E0,2.3978884E0,2.3178594E0,1.1615669E0,1.2363214E0,1.2634889E0,1.0543705E0],"tree_param":{"num_deleted":"0","num_feature":"55","num_nodes":"11","size_leaf_vector":"1"}},{"base_weights":[-0E0,-5.186938E-2,9.705923E-2,-1.6309988E-1,5.8981817E-2,4.9848128E-2,-0E0,-0E0,-8.0035545E-2,-1.17058E-2,5.151395E-2],"categories":[],"categories_nodes":[],"categories_segments":[],"categories_sizes":[],"default_left":[1,0,0,0,0,0,0,0,0,0,0],"id":63,"left_children":[1,3,5,7,9,-1,-1,-1,-1,-1,-1],"loss_changes":[4.504688E-2,9.4178885E-2,2.7025811E-2,7.5832695E-2,5.60224E-2,0E0,0E0,0E0,0E0,0E0,0E0],"parents":[2147483647,0,0,1,1,2,2,3,3,4,4],"right_children":[2,4,6,8,10,-1,-1,-1,-1,-1,-1],"split_conditions":[2.3132959E2,2.103E0,4.03E-1,1.8294875E2,2.2268E1,4.9848128E-2,-0E0,-0E0,-8.0035545E-2,-1.17058E-2,5.151395E-2],"split_indices":[49,42,42,49,3,0,0,0,0,0,0],"split_type":[0,0,0,0,0,0,0,0,0,0,0],"sum_hessian":[7.138039E0,5.097709E0,2.04033E0,2.7146358E0,2.3830733E0,1.0162499E0,1.02408E0,1.2608314E0,1.4538044E0,1.1973789E0,1.1856945E0],"tree_param":{"num_deleted":"0","num_feature":"55","num_nodes":"11","size_leaf_vector":"1"}},{"base_weights":[-0E0,-3.893061E-2,4.0077765E-2,5.456369E-2,-8.394192E-3,-1.3114162E-1,8.9151405E-2,-0E0,-7.117861E-2,4.7880217E-2,-0E0],"categories":[],"categories_nodes":[],"categories_segments":[],"categories_sizes":[],"default_left":[1,0,0,0,0,0,0,0,0,0,0],"id":64,"left_children":[1,-1,3,-1,5,7,9,-1,-1,-1,-1],"loss_changes":[4.7415804E-2,0E0,6.45458E-2,0E0,8.278756E-2,6.398497E-2,2.9630994E-2,0E0,0E0,0E0,0E0],"parents":[2147483647,0,0,2,2,4,4,5,5,6,6],"right_children":[2,-1,4,-1,6,8,10,-1,-1,-1,-1],"split_conditions":[1.6396333E2,-3.893061E-2,-1.1E1,5.456369E-2,1.295E3,9.196437E0,4.6755E2,-0E0,-7.117861E-2,4.7880217E-2,-0E0],"split_indices":[49,0,6,0,12,1,40,0,0,0,0],"split_type":[0,0,0,0,0,0,0,0,0,0,0],"sum_hessian":[7.0540533E0,1.1579105E0,5.896143E0,1.274079E0,4.622064E0,2.3028345E0,2.3192294E0,1.1571509E0,1.1456838E0,1.1989353E0,1.1202941E0],"tree_param":{"num_deleted":"0","num_feature":"55","num_nodes":"11","size_leaf_vector":"1"}},{"base_weights":[-0E0,-3.145153E-2,4.9802594E-2,-5.103045E-2,1.3682891E-1,-4.2231888E-2,5.42098E-3,6.1077278E-2,-0E0],"categories":[],"categories_nodes":[],"categories_segments":[],"categories_sizes":[],"default_left":[0,0,0,0,1,0,0,0,0],"id":65,"left_children":[1,-1,3,5,7,-1,-1,-1,-1],"loss_changes":[4.7096852E-2,0E0,6.7822374E-2,3.2524273E-2,4.646486E-2,0E0,0E0,0E0,0E0],"parents":[2147483647,0,0,2,2,3,3,4,4],"right_children":[2,-1,4,6,8,-1,-1,-1,-1],"split_conditions":[1.2649E1,-3.145153E-2,5.47E1,6.91053E2,1.00693E3,-4.2231888E-2,5.42098E-3,6.1077278E-2,-0E0],"split_indices":[3,0,0,41,54,0,0,0,0],"split_type":[0,0,0,0,0,0,0,0,0],"sum_hessian":[6.972003E0,1.9190688E0,5.052934E0,2.0531406E0,2.9997935E0,1.0087495E0,1.0443913E0,1.9276664E0,1.0721271E0],"tree_param":{"num_deleted":"0","num_feature":"55","num_nodes":"9","size_leaf_vector":"1"}},{"base_weights":[-0E0,