{"learner":{"attributes":{"best_iteration":"12","best_score":"0.03486097001945855","scikit_learn":"{\"_estimator_type\": \"classifier\"}"},"feature_names":["Price_gas","Imbalance netting import","Imbalance netting export","Energy_positive_secondary","Energy_negative_secondary","Energy_positive_tertiary","Energy_negative_tertiary","CH_dayahead_price","CH_intraday_price","renewable_energy","Cross_border_physical_flows_IT_CH","Cross_border_physical_flows_CH_IT","Cross_border_physical_flows_FR_CH","Cross_border_physical_flows_CH_FR","Cross_border_physical_flows_AT_CH","Cross_border_physical_flows_CH_AT","Cross_border_physical_flows_DE_CH","Cross_border_physical_flows_CH_DE","Forecast_transfer_capacities_dayahead_IT_CH","Forecast_transfer_capacities_dayahead_CH_IT","Forecast_transfer_capacities_dayahead_FR_CH","Forecast_transfer_capacities_dayahead_CH_FR","Forecast_transfer_capacities_dayahead_DE_CH","Forecast_transfer_capacities_dayahead_CH_DE","Forecast_transfer_capacities_dayahead_AT_CH","Forecast_transfer_capacities_dayahead_CH_AT","aFRR p","aFRR n","mFRR p","mFRR n","FRCE p","FRCE n","RR p","RR n","Total System Imbalance","Exchange_CH_AT","Exchange_AT_CH","Exchange_CH_DE","Exchange_DE_CH","Exchange_CH_FR","Exchange_FR_CH","Exchange_CH_IT","Exchange_IT_CH","day_type","hour","weekday","Price_positive_secondary_lag_1","Price_positive_secondary_lag_24","Price_positive_secondary_lag_168","Price_positive_secondary_mean_24","Price_positive_secondary_std_24","Price_positive_secondary_max_24","Price_positive_secondary_mean_168","Price_positive_secondary_std_168","Price_positive_secondary_max_168","Price_negative_secondary_lag_1","Price_negative_secondary_lag_24","Price_negative_secondary_lag_168","Price_negative_secondary_mean_24","Price_negative_secondary_std_24","Price_negative_secondary_max_24","Price_negative_secondary_mean_168","Price_negative_secondary_std_168","Price_negative_secondary_max_168","Price_positive_tertiary_lag_1","Price_positive_tertiary_lag_24","Price_positive_tertiary_lag_168","Price_positive_tertiary_mean_24","Price_positive_tertiary_std_24","Price_positive_tertiary_max_24","Price_positive_tertiary_mean_168","Price_positive_tertiary_std_168","Price_positive_tertiary_max_168"],"feature_types":["float","float","float","float","float","float","float","float","float","float","int","int","int","int","float","float","int","int","int","int","int","int","int","int","int","int","float","float","int","int","float","float","float","float","float","float","float","float","float","float","float","float","float","int","int","int","float","float","float","float","float","float","float","float","float","float","float","float","float","float","float","float","float","float","float","float","float","float","float","float","float","float","float"],"gradient_booster":{"model":{"gbtree_model_param":{"num_parallel_tree":"1","num_trees":"43"},"iteration_indptr":[0,1,2,3,4,5,6,7,8,9,10,11,12,13,14,15,16,17,18,19,20,21,22,23,24,25,26,27,28,29,30,31,32,33,34,35,36,37,38,39,40,41,42,43],"tree_info":[0,0,0,0,0,0,0,0,0,0,0,0,0,0,0,0,0,0,0,0,0,0,0,0,0,0,0,0,0,0,0,0,0,0,0,0,0,0,0,0,0,0,0],"trees":[{"base_weights":[-0E0,-3.7506786E-1,1.2324833E1,-9.151257E-1,1.7058312E0,4.8230162E-1,4.3999143E0,-9.608297E-1,4.3682295E-1,8.185974E-1,9.592006E0,-9.766616E-1,4.4570617E-2,-2.7156798E-2,3.416994E-1,-2.743771E-1,2.4800956E0,7.536717E-1,3.5314846E0,-0E0,-9.845086E-1,5.025146E0,1.264276E0,-2.9774055E-1,-0E0,1.892157E0,3.359727E-1,-1.9219732E-2,6.710906E-1],"categories":[],"categories_nodes":[],"categories_segments":[],"categories_sizes":[],"default_left":[1,1,0,1,0,0,0,1,0,0,0,0,0,0,0,0,0,0,0,0,0,0,0,0,0,0,0,0,0],"id":0,"left_children":[1,3,5,7,9,-1,-1,11,13,15,17,19,-1,-1,-1,-1,21,-1,-1,-1,23,25,27,-1,-1,-1,-1,-1,-1],"loss_changes":[7.5474243E2,1.7910414E2,8.667267E1,8.594818E0,2.1438928E2,0E0,0E0,2.8586578E0,2.4095647E0,9.1429985E1,9.487793E0,8.7612915E-1,0E0,0E0,0E0,0E0,3.9274963E1,0E0,0E0,0E0,7.989197E-1,1.1507294E1,1.7599874E1,0E0,0E0,0E0,0E0,0E0,0E0],"parents":[2147483647,0,0,1,1,2,2,3,3,4,4,7,7,8,8,9,9,10,10,11,11,16,16,20,20,21,21,22,22],"right_children":[2,4,6,8,10,-1,-1,12,14,16,18,20,-1,-1,-1,-1,22,-1,-1,-1,24,26,28,-1,-1,-1,-1,-1,-1],"split_conditions":[2.43028E2,2.5E2,1.45E1,1.077885E2,1.395E2,4.8230162E-1,4.3999143E0,3.772861E2,9.459078E1,1.25E0,6.4E1,-3.4291E2,4.4570617E-2,-2.7156798E-2,3.416994E-1,-2.743771E-1,9.636E1,7.536717E-1,3.5314846E0,-0E0,2.1225E2,1.7647041E2,1.32E2,-2.9774055E-1,-0E0,1.892157E0,3.359727E-1,-1.9219732E-2,6.710906E-1],"split_indices":[64,69,5,68,5,0,0,62,71,5,13,55,0,0,0,0,64,0,0,0,5,49,8,0,0,0,0,0,0],"split_type":[0,0,0,0,0,0,0,0,0,0,0,0,0,0,0,0,0,0,0,0,0,0,0,0,0,0,0,0,0],"sum_hessian":[1.6127054E2,1.5744864E2,3.8218908E0,1.2570265E2,3.1745995E1,1.0383172E0,2.7835736E0,1.2234469E2,3.357962E0,2.9603085E1,2.1429098E0,1.2132846E2,1.0162253E0,1.8778076E0,1.4801543E0,1.4514348E1,1.5088737E1,1.0825008E0,1.0604091E0,1.0383172E0,1.20290146E2,3.6893396E0,1.1399397E1,1.1916346E2,1.1266845E0,2.1870935E0,1.5022461E0,4.9264836E0,6.4729133E0],"tree_param":{"num_deleted":"0","num_feature":"73","num_nodes":"29","size_leaf_vector":"1"}},{"base_weights":[-4.6033582E-1,-6.1171836E-1,1.1481735E0,-6.5757656E-1,6.670731E-1,-1.9486113E-1,1.5671791E0,-7.288328E-1,9.588955E-1,1.0290578E-1,-2.4730158E-1,1.9182764E0,-3.2766701E-3,-8.4273416E-1,-8.744117E-2,-0E0,4.1793075E-1,5.868072E-1,2.695155E0,-7.468903E-1,-1.673061E0,-3.2934338E-1,1.6721991E0,-1.0538215E-1,1.3591142E-1,2.77531E-1,-0E0,7.5666285E-1,1.1111568E0,-2.724436E-1,-2.8122963E-2,-5.8646464E-1,-0E0,-2.107388E-1,2.0481253E-1,1.3687445E-2,6.406266E-1,-0E0,3.3486697E-1],"categories":[],"categories_nodes":[],"categories_segments":[],"categories_sizes":[],"default_left":[1,0,0,0,0,0,0,1,0,0,0,0,0,1,0,0,0,0,0,1,0,0,0,0,0,0,0,1,0,0,0,0,0,0,0,0,0,0,0],"id":1,"left_children":[1,3,5,7,-1,9,11,13,15,-1,-1,17,-1,19,21,23,-1,25,27,29,31,33,35,-1,-1,-1,-1,37,-1,-1,-1,-1,-1,-1,-1,-1,-1,-1,-1],"loss_changes":[4.5011204E1,2.235851E1,1.0075117E1,1.9781242E1,0E0,2.0430353E0,8.201546E0,1.1066193E1,2.6249619E0,0E0,0E0,7.1784782E0,0E0,7.946213E0,1.0839055E1,7.2073346E-1,0E0,1.5491247E0,6.1396675E0,1.2326279E1,6.737896E0,9.64874E0,7.2756195E-1,0E0,0E0,0E0,0E0,8.441713E-1,0E0,0E0,0E0,0E0,0E0,0E0,0E0,0E0,0E0,0E0,0E0],"parents":[2147483647,0,0,1,1,2,2,3,3,5,5,6,6,7,7,8,8,11,11,13,13,14,14,15,15,17,17,18,18,19,19,20,20,21,21,22,22,27,27],"right_children":[2,4,6,8,-1,10,12,14,16,-1,-1,18,-1,20,22,24,-1,26,28,30,32,34,36,-1,-1,-1,-1,38,-1,-1,-1,-1,-1,-1,-1,-1,-1,-1,-1],"split_conditions":[3.0545E2,2.8975E2,2.0461E2,1.9867E2,6.670731E-1,6.569E1,8.123124E0,1.1866366E2,1.2E1,1.0290578E-1,-2.4730158E-1,2.08E-1,-3.2766701E-3,2.43028E2,5.44665E2,1.2926E1,4.1793075E-1,2.9049E2,2.9468E2,2.6644E2,1.625E2,4.14945E2,3.8021E2,-1.0538215E-1,1.3591142E-1,2.77531E-1,-0E0,5.390964E1,1.1111568E0,-2.724436E-1,-2.8122963E-2,-5.8646464E-1,-0E0,-2.107388E-1,2.0481253E-1,1.3687445E-2,6.406266E-1,-0E0,3.3486697E-1],"split_indices":[46,5,47,7,0,57,30,68,44,0,0,35,0,64,38,42,0,47,69,69,5,37,51,0,0,0,0,61,0,0,0,0,0,0,0,0,0,0,0],"split_type":[0,0,0,0,0,0,0,0,0,0,0,0,0,0,0,0,0,0,0,0,0,0,0,0,0,0,0,0,0,0,0,0,0,0,0,0,0,0,0],"sum_hessian":[1.8242203E2,1.6767227E2,1.47497635E1,1.6598866E2,1.6835996E0,3.259661E0,1.1490103E1,1.5989801E2,6.0906487E0,1.4371045E0,1.8225565E0,9.565162E0,1.9249408E0,1.3464334E2,2.525467E1,2.3786814E0,3.7119672E0,4.4847345E0,5.0804276E0,1.2312625E2,1.1517098E1,2.3247149E1,2.0075202E0,1.1742449E0,1.2044364E0,3.0169299E0,1.4678044E0,2.5620048E0,2.5184228E0,9.762232E1,2.5503927E1,9.93137E0,1.5857291E0,1.7685638E1,5.561511E0,1.0046444E0,1.0028759E0,1.2476689E0,1.314336E0],"tree_param":{"num_deleted":"0","num_feature":"73","num_nodes":"39","size_leaf_vector":"1"}},{"base_weights":[-3.7077427E-1,-2.9596227E-1,-1.2573412E-2,1.8638526E0,-1.303563E-1,1.032086E0,1.1143844E-2,-2.9951033E-1,1.2272621E0,-1.1523337E-1,2.0884612E-1,-6.4941657E-1,1.4185889E-1,-1.2982576E-1,1.6204528E0,-2.639594E-1,-1.3775539E0,-3.0093756E-1,9.9639106E-1,8.899931E-2,2.368387E0,-2.4924755E-1,9.0922855E-2,-4.921289E-1,4.1436784E-2,-1.712567E-1,2.0848425E-1,5.4807484E-1,4.5231964E-2,-1.0963809E-1,1.9105095E-1,1.0404916E0,2.2099997E-1],"categories":[],"categories_nodes":[],"categories_segments":[],"categories_sizes":[],"default_left":[0,0,0,0,0,0,0,0,0,0,0,0,0,0,0,0,0,0,0,0,0,0,0,0,0,0,0,0,0,0,0,0,0],"id":2,"left_children":[1,-1,3,5,7,-1,9,11,13,-1,-1,15,17,-1,19,21,23,25,27,29,31,-1,-1,-1,-1,-1,-1,-1,-1,-1,-1,-1,-1],"loss_changes":[3.5043396E1,0E0,2.209723E1,1.4855982E1,2.2532133E1,0E0,1.5293124E0,1.4239299E1,8.504068E0,0E0,0E0,1.2837532E1,1.5718153E1,0E0,8.733051E0,1.1886528E1,7.9080563E0,7.3840446E0,8.41487E0,1.496601E0,5.201275E0,0E0,0E0,0E0,0E0,0E0,0E0,0E0,0E0,0E0,0E0,0E0,0E0],"parents":[2147483647,0,0,2,2,3,3,4,4,6,6,7,7,8,8,11,11,12,12,14,14,15,15,16,16,17,17,18,18,19,19,20,20],"right_children":[2,-1,4,6,8,-1,10,12,14,-1,-1,16,18,-1,20,22,24,26,28,30,32,-1,-1,-1,-1,-1,-1,-1,-1,-1,-1,-1,-1],"split_conditions":[1.25E0,-2.9596227E-1,7.5E0,2.163E3,2.43244E2,1.032086E0,2.8E3,1.38E0,2E2,-1.1523337E-1,2.0884612E-1,2.36959E2,1.701E2,-1.2982576E-1,5.99E-1,2.59287E2,1.49E2,1.2931743E2,1.4048E2,1.94E2,2.49864E2,-2.4924755E-1,9.0922855E-2,-4.921289E-1,4.1436784E-2,-1.712567E-1,2.0848425E-1,5.4807484E-1,4.5231964E-2,-1.0963809E-1,1.9105095E-1,1.0404916E0,2.2099997E-1],"split_indices":[5,0,5,11,65,0,20,3,46,0,0,64,8,0,42,69,28,68,60,13,64,0,0,0,0,0,0,0,0,0,0,0,0],"split_type":[0,0,0,0,0,0,0,0,0,0,0,0,0,0,0,0,0,0,0,0,0,0,0,0,0,0,0,0,0,0,0,0,0],"sum_hessian":[1.6092702E2,5.786141E1,1.03065605E2,4.880416E0,9.818519E1,1.9811616E0,2.8992543E0,8.843286E1,9.752328E0,1.5053626E0,1.3938917E0,4.9899467E1,3.8533398E1,1.5265087E0,8.22582E0,3.4111595E1,1.57878685E1,2.529883E1,1.3234567E1,3.3561785E0,4.869641E0,1.7408415E1,1.6703182E1,1.3755725E1,2.0321438E0,2.0761902E1,4.536928E0,5.697225E0,7.537342E0,1.3571731E0,1.9990054E0,1.9946206E0,2.8750205E0],"tree_param":{"num_deleted":"0","num_feature":"73","num_nodes":"33","size_leaf_vector":"1"}},{"base_weights":[-3.0049586E-1,-2.9204848E-1,-5.5077383E-3,-1.13933615E-1,1.326629E0,-5.222358E-1,1.6048963E-1,1.5830104E0,-0E0,-7.235212E-1,2.1799201E-1,2.1609528E0,-0E0,1.8987916E0,9.242293E-3,4.6304065E-1,-8.572474E-1,-2.7230272E-1,1.0256461E0,8.226118E-1,-0E0,5.9547395E-1,-3.7554884E-1,7.851317E-2,6.558719E-1,-1.0552111E-1,4.6946654E-1,2.02114E-2,-2.7452546E-1,-2.4843547E-1,1.748157E-1,4.04552E-1,-0E0,4.4421044E-1,-0E0,-1.7979413E-1,1.8214162E-1],"categories":[],"categories_nodes":[],"categories_segments":[],"categories_sizes":[],"default_left":[0,0,0,1,0,0,0,0,0,0,0,0,0,0,0,0,0,1,0,0,0,0,0,0,0,0,0,0,0,0,0,0,0,0,0,0,0],"id":3,"left_children":[1,-1,3,5,7,9,11,13,-1,15,17,19,21,23,-1,25,27,29,31,-1,-1,33,35,-1,-1,-1,-1,-1,-1,-1,-1,-1,-1,-1,-1,-1,-1],"loss_changes":[2.8698353E1,0E0,1.4440241E1,1.13026285E1,2.9336205E0,6.539692E0,1.7515041E1,1.8166924E0,0E0,5.869299E0,4.239815E0,3.4023933E0,1.2722343E1,1.4923859E-1,0E0,4.472358E0,2.2459087E0,3.364248E0,1.2131147E0,0E0,0E0,1.2360108E1,7.824982E0,0E0,0E0,0E0,0E0,0E0,0E0,0E0,0E0,0E0,0E0,0E0,0E0,0E0,0E0],"parents":[2147483647,0,0,2,2,3,3,4,4,5,5,6,6,7,7,9,9,10,10,11,11,12,12,13,13,15,15,16,16,17,17,18,18,21,21,22,22],"right_children":[2,-1,4,6,8,10,12,14,-1,16,18,20,22,24,-1,26,28,30,32,-1,-1,34,36,-1,-1,-1,-1,-1,-1,-1,-1,-1,-1,-1,-1,-1,-1],"split_conditions":[1.25E0,-2.9204848E-1,3.8508E2,8.653576E1,4.45E2,1.6563E2,5.5304417E1,1.335E3,-0E0,9.099792E1,1.61444E2,2.308537E1,1.1260089E0,4.4E0,9.242293E-3,1.406E3,6E-3,2.14069E2,3.9145777E0,8.226118E-1,-0E0,1.5199E2,1.882E3,7.851317E-2,6.558719E-1,-1.0552111E-1,4.6946654E-1,2.02114E-2,-2.7452546E-1,-2.4843547E-1,1.748157E-1,4.04552E-1,-0E0,4.4421044E-1,-0E0,-1.7979413E-1,1.8214162E-1],"split_indices":[5,0,46,68,9,7,67,16,0,49,37,1,30,35,0,17,42,66,1,0,0,8,13,0,0,0,0,0,0,0,0,0,0,0,0,0,0],"split_type":[0,0,0,0,0,0,0,0,0,0,0,0,0,0,0,0,0,0,0,0,0,0,0,0,0,0,0,0,0,0,0,0,0,0,0,0,0],"sum_hessian":[1.4684189E2,4.336564E1,1.0347626E2,9.699228E1,6.4839764E0,3.95911E1,5.740118E1,5.4267783E0,1.0571979E0,3.1846462E1,7.7446356E0,3.0728967E0,5.432828E1,3.9701335E0,1.4566449E0,2.4757228E0,2.9370739E1,4.7225375E0,3.022098E0,1.9820893E0,1.0908074E0,2.1373798E1,3.2954483E1,1.2216454E0,2.7484882E0,1.4699035E0,1.0058193E0,1.0468345E0,2.8323906E1,3.349431E0,1.3731067E0,1.9938134E0,1.0282848E0,8.2560215E0,1.3117776E1,2.7707731E1,5.2467527E0],"tree_param":{"num_deleted":"0","num_feature":"73","num_nodes":"37","size_leaf_vector":"1"}},{"base_weights":[-2.3814632E-1,-2.8758872E-1,-0E0,-2.3919468E-1,3.9952102E-1,8.951877E-1,-3.6403963E-1,-2.676939E-1,6.72917E-1,-1.098701E-1,1.4685034E0,-1.4764586E-1,-8.334319E-1,-7.260882E-1,3.622898E-1,1.9382979E0,3.1855646E-1,-0E0,6.677819E-1,-6.323568E-1,2.277254E-1,-1.0437939E0,1.6598663E-1,1.3308777E-1,-3.4218094E-1,2.6290253E-1,-7.937602E-2,-6.0372114E-2,2.6191955E0,-4.1259295E-1,6.920453E-1,-2.8633294E-1,7.773183E-2,-6.320098E-2,2.7299988E-1,-0E0,-3.344516E-1,-1.0983817E-1,2.6393652E-1,8.793363E-2,1.0272862E0,-2.6772594E-1,1.6898681E-1,3.6740488E-1,-0E0],"categories":[],"categories_nodes":[],"categories_segments":[],"categories_sizes":[],"default_left":[0,0,1,0,0,0,0,0,0,0,0,0,0,0,0,0,0,0,0,0,0,0,1,0,0,0,0,0,0,0,0,0,0,0,0,0,0,0,0,0,0,0,0,0,0],"id":4,"left_children":[1,-1,3,5,7,9,11,13,15,-1,17,19,21,23,25,27,29,-1,-1,31,33,35,37,-1,-1,-1,-1,-1,39,41,43,-1,-1,-1,-1,-1,-1,-1,-1,-1,-1,-1,-1,-1,-1],"loss_changes":[2.3279934E1,0E0,9.796137E0,8.903666E0,7.5208073E0,5.6161532E0,5.1231565E0,3.7617276E0,1.0666835E1,0E0,4.6992273E0,8.034677E0,4.355171E0,4.588849E0,2.1867619E0,1.0324446E1,6.986466E0,0E0,0E0,6.2537837E0,7.706568E0,1.0269947E0,1.9132937E0,0E0,0E0,0E0,0E0,0E0,5.1084576E0,4.511382E0,5.50105E0,0E0,0E0,0E0,0E0,0E0,0E0,0E0,0E0,0E0,0E0,0E0,0E0,0E0,0E0],"parents":[2147483647,0,0,2,2,3,3,4,4,5,5,6,6,7,7,8,8,10,10,11,11,12,12,13,13,14,14,15,15,16,16,19,19,20,20,21,21,22,22,28,28,29,29,30,30],"right_children":[2,-1,4,6,8,10,12,14,16,-1,18,20,22,24,26,28,30,-1,-1,32,34,36,38,-1,-1,-1,-1,-1,40,42,44,-1,-1,-1,-1,-1,-1,-1,-1,-1,-1,-1,-1,-1,-1],"split_conditions":[1.25E0,-2.8758872E-1,1.7124E2,9.302375E1,-9.01E0,5.697421E1,5.501567E0,2.06333E2,1.901E2,-1.098701E-1,7.130011E1,9.074366E1,2.14E2,-2.1211018E2,3.81E2,2.59287E2,1.0058799E2,-0E0,6.677819E-1,9.15E2,4.36E2,2.7974E2,8.39E1,1.3308777E-1,-3.4218094E-1,2.6290253E-1,-7.937602E-2,-6.0372114E-2,7.443E1,1.3559E2,9.688E1,-2.8633294E-1,7.773183E-2,-6.320098E-2,2.7299988E-1,-0E0,-3.344516E-1,-1.0983817E-1,2.6393652E-1,8.793363E-2,1.0272862E0,-2.6772594E-1,1.6898681E-1,3.6740488E-1,-0E0],"split_indices":[5,0,65,49,4,50,30,66,65,0,68,68,15,34,9,69,50,0,0,13,12,54,60,0,0,0,0,0,55,55,55,0,0,0,0,0,0,0,0,0,0,0,0,0,0],"split_type":[0,0,0,0,0,0,0,0,0,0,0,0,0,0,0,0,0,0,0,0,0,0,0,0,0,0,0,0,0,0,0,0,0,0,0,0,0,0,0,0,0,0,0,0,0],"sum_hessian":[1.323847E2,3.256441E1,9.98203E1,6.2046215E1,3.7774082E1,5.01505E0,5.7031166E1,1.0282953E1,2.7491127E1,1.3198419E0,3.695208E0,4.0898693E1,1.6132473E1,6.4708347E0,3.8121188E0,4.628583E0,2.2862545E1,1.7032743E0,1.9919338E0,1.8319103E1,2.2579592E1,1.38367605E1,2.2957122E0,1.2576591E0,5.213176E0,2.455008E0,1.3571106E0,1.053214E0,3.5753691E0,7.0965085E0,1.5766036E1,1.3949617E1,4.3694854E0,1.3577911E1,9.00168E0,1.0044241E0,1.2832336E1,1.0639821E0,1.2317301E0,1.4810508E0,2.0943184E0,5.2685976E0,1.8279109E0,8.021416E0,7.744621E0],"tree_param":{"num_deleted":"0","num_feature":"73","num_nodes":"45","size_leaf_vector":"1"}},{"base_weights":[-1.968466E-1,-2.8229088E-1,-0E0,-7.499022E-2,8.550104E-1,-1.3180117E-1,1.2270416E0,-0E0,1.0874695E0,9.0483147E-1,-2.0328936E-1,5.4648364E-1,-0E0,-0E0,3.7781727E-1,1.6110641E0,-4.242954E-2,-3.2793584E-1,4.317364E-1,6.2851787E-1,-0E0,-1.3276166E-1,6.863961E-2,3.2631853E-1,-1.2788313E-4],"categories":[],"categories_nodes":[],"categories_segments":[],"categories_sizes":[],"default_left":[0,0,0,0,1,0,0,0,0,1,0,0,0,0,0,0,0,0,0,0,0,0,0,0,0],"id":5,"left_children":[1,-1,3,5,7,9,11,-1,13,15,17,-1,-1,-1,-1,19,-1,21,23,-1,-1,-1,-1,-1,-1],"loss_changes":[1.782568E1,0E0,6.204064E0,6.2405844E0,1.5771356E0,6.3535795E0,2.8752923E0,0E0,8.819976E-1,5.1606107E0,6.8126473E0,0E0,0E0,0E0,0E0,1.7726307E0,0E0,4.8754773E0,4.555322E0,0E0,0E0,0E0,0E0,0E0,0E0],"parents":[2147483647,0,0,2,2,3,3,4,4,5,5,6,6,8,8,9,9,10,10,15,15,17,17,18,18],"right_children":[2,-1,4,6,8,10,12,-1,14,16,18,-1,-1,-1,-1,20,-1,22,24,-1,-1,-1,-1,-1,-1],"split_conditions":[1.25E0,-2.8229088E-1,3.8508E2,2.8975E2,8.794664E1,4.75E0,3.274E3,-0E0,2.3387E2,5.949E1,1.9003E2,5.4648364E-1,-0E0,-0E0,3.7781727E-1,3.89E1,-4.242954E-2,8.2523964E1,8.699503E1,6.2851787E-1,-0E0,-1.3276166E-1,6.863961E-2,3.2631853E-1,-1.2788313E-4],"split_indices":[5,0,46,5,70,5,11,0,47,57,7,0,0,0,0,0,0,34,62,0,0,0,0,0,0],"split_type":[0,0,0,0,0,0,0,0,0,0,0,0,0,0,0,0,0,0,0,0,0,0,0,0,0],"sum_hessian":[1.222697E2,2.4526993E1,9.774271E1,9.096354E1,6.7791677E0,8.850794E1,2.455596E0,1.6366835E0,5.142484E0,4.361621E0,8.414632E1,1.4344449E0,1.021151E0,1.0064801E0,4.136004E0,2.6586819E0,1.7029392E0,7.161364E1,1.2532678E1,1.5673586E0,1.0913233E0,6.054288E1,1.1070761E1,4.982119E0,7.550558E0],"tree_param":{"num_deleted":"0","num_feature":"73","num_nodes":"25","size_leaf_vector":"1"}},{"base_weights":[-1.4435078E-1,-6.761659E-1,8.7432176E-2,-8.183769E-1,5.728617E-1,3.0135855E-1,-3.1135905E-1,1.0151266E-1,-9.03345E-1,3.135283E-1,-0E0,8.6537236E-1,7.971376E-2,-7.690149E-1,9.554255E-2,-9.326312E-1,-0E0,-0E0,1.3499442E0,-2.1457465E-2,1.0395856E0,4.3759402E-2,-9.6270025E-1,-2.0181866E-1,7.748061E-1,-0E0,-2.8838393E-1,2.3358755E-1,-4.005291E-1,2.1731634E0,2.9327238E-1,-1.8811975E-1,8.3460927E-1,-0E0,4.7678497E-1,-1.1343045E0,-0E0,-4.8291993E-1,2.2144724E-1,2.9867637E-1,-0E0,-0E0,-1.9311142E-1,7.513103E-2,7.690028E-1,-1.4352958E-1,2.6302963E-1,-1.4246623E-1,1.472382E-1,4.0852085E-1,-2.2272043E-2,-0E0,-3.7486458E-1,1.0917034E-1,-2.807172E-1],"categories":[],"categories_nodes":[],"categories_segments":[],"categories_sizes":[],"default_left":[1,1,0,0,0,0,0,0,1,0,0,0,1,0,0,0,0,0,0,0,0,0,0,0,0,0,0,0,0,0,0,0,0,0,0,0,0,0,0,0,0,0,0,0,0,0,0,0,0,0,0,0,0,0,0],"id":6,"left_children":[1,3,5,7,9,11,13,-1,15,-1,-1,17,19,21,23,25,-1,27,29,31,33,-1,35,37,39,-1,-1,-1,41,43,45,47,49,-1,-1,51,-1,53,-1,-1,-1,-1,-1,-1,-1,-1,-1,-1,-1,-1,-1,-1,-1,-1,-1],"loss_changes":[1.4487742E1,6.946024E0,6.85631E0,3.9032478E0,1.5348865E0,5.960745E0,5.568078E0,0E0,8.1370544E-1,0E0,0E0,6.0343504E0,4.5944886E0,3.0965815E0,3.4595926E0,6.536045E-1,0E0,2.1394277E0,5.6444073E0,4.9635625E0,3.5811968E0,0E0,2.5555143E0,2.8796587E0,1.0418985E0,0E0,0E0,0E0,7.6776946E-1,9.5337105E-1,3.1548057E0,6.485225E0,3.5942304E0,0E0,0E0,1.1925726E0,0E0,4.1646776E0,0E0,0E0,0E0,0E0,0E0,0E0,0E0,0E0,0E0,0E0,0E0,0E0,0E0,0E0,0E0,0E0,0E0],"parents":[2147483647,0,0,1,1,2,2,3,3,4,4,5,5,6,6,8,8,11,11,12,12,13,13,14,14,15,15,17,17,18,18,19,19,20,20,22,22,23,23,24,24,28,28,29,29,30,30,31,31,32,32,35,35,37,37],"right_children":[2,4,6,8,10,12,14,-1,16,-1,-1,18,20,22,24,26,-1,28,30,32,34,-1,36,38,40,-1,-1,-1,42,44,46,48,50,-1,-1,52,-1,54,-1,-1,-1,-1,-1,-1,-1,-1,-1,-1,-1,-1,-1,-1,-1,-1,-1],"split_conditions":[2.46495E2,1.077885E2,2.43028E2,4.9066288E1,4.179E1,7.927E1,1.9748062E2,1.0151266E-1,1.2148E2,3.135283E-1,-0E0,3.175E1,2.423E2,-5.022623E1,4.35817E2,1.0608333E0,-0E0,2.04383E2,1.0483907E2,3.67718E2,1.06225E2,4.3759402E-2,1.9867E2,2.65E2,1.06925835E2,-0E0,-2.8838393E-1,2.3358755E-1,-1.7407893E2,2.18605E2,1.291E3,1.91E3,1.3819E2,-0E0,4.7678497E-1,3.4E-2,-0E0,1.0121288E0,2.2144724E-1,2.9867637E-1,-0E0,-0E0,-1.9311142E-1,7.513103E-2,7.690028E-1,-1.4352958E-1,2.6302963E-1,-1.4246623E-1,1.472382E-1,4.0852085E-1,-2.2272043E-2,-0E0,-3.7486458E-1,1.0917034E-1,-2.807172E-1],"split_indices":[69,68,64,71,57,40,67,0,57,0,0,5,66,2,39,67,0,39,71,36,5,0,7,65,58,0,0,0,34,37,13,18,60,0,0,42,0,30,0,0,0,0,0,0,0,0,0,0,0,0,0,0,0,0,0],"split_type":[0,0,0,0,0,0,0,0,0,0,0,0,0,0,0,0,0,0,0,0,0,0,0,0,0,0,0,0,0,0,0,0,0,0,0,0,0,0,0,0,0,0,0,0,0,0,0,0,0,0,0,0,0,0,0],"sum_hessian":[1.12897354E2,3.4552246E1,7.834511E1,3.1804811E1,2.747433E0,5.2228794E1,2.6116316E1,1.4401473E0,3.0364664E1,1.5312469E0,1.2161862E0,1.3074109E1,3.9154686E1,1.2636966E1,1.3479349E1,2.9361294E1,1.00337E0,4.9792457E0,8.094864E0,3.5682972E1,3.4717147E0,1.6550133E0,1.0981953E1,9.18751E0,4.2918396E0,1.0753996E0,2.8285894E1,1.2873832E0,3.6918626E0,3.6046755E0,4.490188E0,3.1167276E1,4.515695E0,1.1405408E0,2.331174E0,9.616969E0,1.3649833E0,7.987881E0,1.1996279E0,3.2561936E0,1.035646E0,1.0224199E0,2.6694427E0,1.17074E0,2.4339354E0,1.5232677E0,2.9669204E0,2.2807362E1,8.359915E0,3.002784E0,1.5129112E0,1.1042684E0,8.512701E0,2.343077E0,5.6448045E0],"tree_param":{"num_deleted":"0","num_feature":"73","num_nodes":"55","size_leaf_vector":"1"}},{"base_weights":[-9.6722074E-2,-2.712685E-1,4.512783E-2,-1.3024205E-1,3.1126451E-1,-3.8375512E-1,1.5674059E-1,5.8835495E-1,-0E0,-7.12372E-1,-0E0,-2.2940542E-1,7.1673656E-1,8.837525E-1,-1.0529735E-1,-4.1177598E-1,7.812224E-1,-0E0,-2.8573632E-1,8.3704835E-1,-2.9584935E-1,4.661277E-1,-5.8319056E-1,1.3417014E0,-0E0,1.1155862E0,-0E0,1.3556002E-1,-1.7287797E-1,2.249224E-1,-6.855221E-1,-0E0,4.0372822E-1,-1.3513911E-1,2.010013E-1,-0E0,3.7901694E-1,-2.3401141E-1,5.8698732E-2,-9.149555E-2,3.8060448E-1,-2.666659E-1,-0E0,5.4863137E-1,-0E0,-1.1533951E-1,1.1610382E-1,-0E0,3.9560667E-1,6.725967E-2,-1.2892872E-1,-4.8294388E-2,2.1236776E-1,2.8322276E-2,-3.1042415E-1,1.6544852E-1,-1.5746556E-1],"categories":[],"categories_nodes":[],"categories_segments":[],"categories_sizes":[],"default_left":[0,0,0,0,0,0,0,0,0,0,0,0,0,0,0,0,0,0,0,0,0,0,0,0,0,0,0,0,0,0,0,0,0,0,0,0,0,0,0,0,0,0,0,0,0,0,0,0,0,0,0,0,0,0,0,0,0],"id":7,"left_children":[1,-1,3,5,7,9,11,13,15,17,19,21,23,25,27,29,31,33,-1,35,37,39,41,43,45,47,49,-1,-1,51,53,55,-1,-1,-1,-1,-1,-1,-1,-1,-1,-1,-1,-1,-1,-1,-1,-1,-1,-1,-1,-1,-1,-1,-1,-1,-1],"loss_changes":[1.2785196E1,0E0,4.3923197E0,4.129299E0,3.427793E0,4.046212E0,5.8392324E0,4.804779E0,6.1119175E0,2.539215E0,4.0029926E0,3.968976E0,4.763437E0,3.77281E0,2.0071683E0,2.7055786E0,3.134696E0,1.9076681E0,0E0,2.0898397E0,3.1737232E0,4.0473175E0,2.4445243E0,4.9302654E0,1.0784968E0,3.5341492E0,5.675341E-1,0E0,0E0,1.2028731E0,3.439639E0,1.3065974E0,0E0,0E0,0E0,0E0,0E0,0E0,0E0,0E0,0E0,0E0,0E0,0E0,0E0,0E0,0E0,0E0,0E0,0E0,0E0,0E0,0E0,0E0,0E0,0E0,0E0],"parents":[2147483647,0,0,2,2,3,3,4,4,5,5,6,6,7,7,8,8,9,9,10,10,11,11,12,12,13,13,14,14,15,15,16,16,17,17,19,19,20,20,21,21,22,22,23,23,24,24,25,25,26,26,29,29,30,30,31,31],"right_children":[2,-1,4,6,8,10,12,14,16,18,20,22,24,26,28,30,32,34,-1,36,38,40,42,44,46,48,50,-1,-1,52,54,56,-1,-1,-1,-1,-1,-1,-1,-1,-1,-1,-1,-1,-1,-1,-1,-1,-1,-1,-1,-1,-1,-1,-1,-1,-1],"split_conditions":[1.25E0,-2.712685E-1,2.049E2,3.3809E2,1.140856E1,8.15811E2,5.25377E2,4.59E2,-2E-3,8.6E-2,1.86067E2,-4.0131634E1,2.2134E2,2.11259E2,-1.1835E1,1E0,1.0058799E2,-8.307E0,-2.8573632E-1,5.34694E0,5.1498104E1,-6.96587E1,2.2431E2,5.943998E1,1.82968E2,3.6512E1,1.2361E2,1.3556002E-1,-1.7287797E-1,1.3364E2,1.98E0,2.7091E2,4.0372822E-1,-1.3513911E-1,2.010013E-1,-0E0,3.7901694E-1,-2.3401141E-1,5.8698732E-2,-9.149555E-2,3.8060448E-1,-2.666659E-1,-0E0,5.4863137E-1,-0E0,-1.1533951E-1,1.1610382E-1,-0E0,3.9560667E-1,6.725967E-2,-1.2892872E-1,-4.8294388E-2,2.1236776E-1,2.8322276E-2,-3.1042415E-1,1.6544852E-1,-1.5746556E-1],"split_indices":[5,0,37,69,1,41,38,9,4,3,36,2,48,66,4,45,50,4,0,26,59,2,48,59,66,40,55,0,0,7,57,51,0,0,0,0,0,0,0,0,0,0,0,0,0,0,0,0,0,0,0,0,0,0,0,0,0],"split_type":[0,0,0,0,0,0,0,0,0,0,0,0,0,0,0,0,0,0,0,0,0,0,0,0,0,0,0,0,0,0,0,0,0,0,0,0,0,0,0,0,0,0,0,0,0,0,0,0,0,0,0,0,0,0,0,0,0],"sum_hessian":[1.0530577E2,1.5627394E1,8.967838E1,5.2868694E1,3.680969E1,2.9114664E1,2.375403E1,1.9484678E1,1.732501E1,1.5712461E1,1.3402203E1,1.3710443E1,1.0043587E1,1.4141064E1,5.343614E0,1.1892371E1,5.4326386E0,4.564393E0,1.1148068E1,3.330104E0,1.0072098E1,3.8858397E0,9.824603E0,4.797616E0,5.2459707E0,1.1533431E1,2.6076324E0,1.8237168E0,3.5198975E0,2.903624E0,8.988748E0,2.5340686E0,2.89857E0,3.2242901E0,1.3401031E0,1.1200581E0,2.210046E0,5.4553165E0,4.6167817E0,1.8780587E0,2.007781E0,6.753383E0,3.0712197E0,3.594815E0,1.202801E0,2.4577928E0,2.788178E0,1.5310922E0,1.0002338E1,1.108716E0,1.4989163E0,1.2241436E0,1.6794803E0,2.42056E0,6.5681877E0,1.0054667E0,1.5286018E0],"tree_param":{"num_deleted":"0","num_feature":"73","num_nodes":"57","size_leaf_vector":"1"}},{"base_weights":[-8.282876E-2,-2.6241848E-1,2.750709E-2,1.4527898E-1,-2.558052E-1,-2.827068E-1,2.9675654E-1,-4.1012743E-1,5.763904E-1,7.767152E-1,-5.4849786E-1,8.022929E-1,1.2452064E-1,-5.992143E-1,3.9287516E-1,-0E0,2.5088215E-1,2.9099062E-1,-0E0,-7.261169E-1,1.0687346E-1,1.3343867E0,-0E0,8.778291E-1,-0E0,5.9027273E-2,-7.2121596E-1,2.0051588E-1,-0E0,-0E0,-2.57974E-1,-0E0,5.402492E-1,1.5978022E-1,-1.0631589E-1,-0E0,3.8269874E-1,-4.3959297E-2,1.5888731E-1,1.9993337E-2,-2.4858649E-1],"categories":[],"categories_nodes":[],"categories_segments":[],"categories_sizes":[],"default_left":[0,0,0,1,0,0,0,0,0,0,1,0,0,0,0,0,0,0,0,0,0,0,0,0,0,0,0,0,0,0,0,0,0,0,0,0,0,0,0,0,0],"id":8,"left_children":[1,-1,3,5,7,9,11,13,15,17,19,21,23,25,27,-1,-1,-1,-1,29,-1,31,33,35,37,-1,39,-1,-1,-1,-1,-1,-1,-1,-1,-1,-1,-1,-1,-1,-1],"loss_changes":[9.283591E0,0E0,2.8879812E0,4.254192E0,3.2660065E0,4.8228407E0,3.5571227E0,3.6932862E0,5.896591E-1,5.88125E-2,2.7521439E0,5.170213E0,3.4947004E0,2.3110108E0,6.9154143E-1,0E0,0E0,0E0,0E0,1.1605425E0,0E0,3.7984438E0,1.1453286E0,2.5302868E0,2.8089805E0,0E0,2.0148335E0,0E0,0E0,0E0,0E0,0E0,0E0,0E0,0E0,0E0,0E0,0E0,0E0,0E0,0E0],"parents":[2147483647,0,0,2,2,3,3,4,4,5,5,6,6,7,7,8,8,9,9,10,10,11,11,12,12,13,13,14,14,19,19,21,21,22,22,23,23,24,24,26,26],"right_children":[2,-1,4,6,8,10,12,14,16,18,20,22,24,26,28,-1,-1,-1,-1,30,-1,32,34,36,38,-1,40,-1,-1,-1,-1,-1,-1,-1,-1,-1,-1,-1,-1,-1,-1],"split_conditions":[1.25E0,-2.6241848E-1,2.43028E2,2.46495E2,2.65E2,3.75E0,7.487808E1,1.9867E2,4.03221E2,1.1319E2,1.133712E2,4.37E2,-2.4519293E2,2.239E3,9.5163635E1,-0E0,2.5088215E-1,2.9099062E-1,-0E0,6.4247955E1,1.0687346E-1,8E0,6.0875797E1,-3.3876395E2,1.3011392E2,5.9027273E-2,1E-3,2.0051588E-1,-0E0,-0E0,-2.57974E-1,-0E0,5.402492E-1,1.5978022E-1,-1.0631589E-1,-0E0,3.8269874E-1,-4.3959297E-2,1.5888731E-1,1.9993337E-2,-2.4858649E-1],"split_indices":[5,0,64,69,65,5,67,7,69,48,68,9,34,19,62,0,0,0,0,71,0,44,50,34,53,0,42,0,0,0,0,0,0,0,0,0,0,0,0,0,0],"split_type":[0,0,0,0,0,0,0,0,0,0,0,0,0,0,0,0,0,0,0,0,0,0,0,0,0,0,0,0,0,0,0,0,0,0,0,0,0,0,0,0,0],"sum_hessian":[9.856805E1,1.1939151E1,8.66289E1,6.3183224E1,2.3445677E1,1.5150026E1,4.8033195E1,2.0875633E1,2.5700452E0,2.1544394E0,1.2995587E1,1.0301776E1,3.773142E1,1.7768257E1,3.1073747E0,1.0309582E0,1.539087E0,1.0852056E0,1.0692339E0,1.1638452E1,1.3571358E0,5.989192E0,4.312584E0,4.314472E0,3.3416946E1,1.5602573E0,1.6208E1,1.9670904E0,1.1402842E0,2.0574758E0,9.580976E0,1.9804481E0,4.008744E0,1.2301823E0,3.0824018E0,1.2430202E0,3.071452E0,2.6508493E1,6.9084544E0,1.2519923E0,1.4956008E1],"tree_param":{"num_deleted":"0","num_feature":"73","num_nodes":"41","size_leaf_vector":"1"}},{"base_weights":[-4.80244E-2,-2.5183803E-1,3.9287962E-2,-9.668248E-3,5.81748E-1,3.9111602E-1,-1.3132344E-1,-2.6175572E-2,9.118412E-1,-7.211014E-3,1.0274955E0,-2.0180823E-1,8.0008703E-1,-0E0,3.6621836E-1,-5.0730056E-1,4.5889002E-1,1.5721687E0,-5.1716078E-2,-3.5456544E-1,2.4626435E-1,3.159649E-1,-0E0,-0E0,6.444012E-2,-2.2773299E-1,2.70959E-2,-0E0,2.5903887E-1,-0E0,5.596093E-1,-1.4707205E-1,1.1017097E-1,1.9262359E-1,-1.5564536E-1],"categories":[],"categories_nodes":[],"categories_segments":[],"categories_sizes":[],"default_left":[0,0,0,0,0,0,0,0,0,0,0,0,0,0,0,0,0,1,0,0,0,0,0,0,0,0,0,0,0,0,0,0,0,0,0],"id":9,"left_children":[1,-1,3,5,7,9,11,-1,13,15,17,19,21,23,-1,25,27,29,-1,31,33,-1,-1,-1,-1,-1,-1,-1,-1,-1,-1,-1,-1,-1,-1],"loss_changes":[7.0997806E0,0E0,2.6520286E0,3.6931965E0,2.4361467E0,5.0413694E0,3.8373961E0,0E0,1.0208564E0,2.813107E0,5.9450197E0,4.2046814E0,6.475663E-1,9.39495E-2,0E0,1.4785053E0,1.4352052E0,1.5626593E0,0E0,4.7260075E0,4.811231E0,0E0,0E0,0E0,0E0,0E0,0E0,0E0,0E0,0E0,0E0,0E0,0E0,0E0,0E0],"parents":[2147483647,0,0,2,2,3,3,4,4,5,5,6,6,8,8,9,9,10,10,11,11,12,12,13,13,15,15,16,16,17,17,19,19,20,20],"right_children":[2,-1,4,6,8,10,12,-1,14,16,18,20,22,24,-1,26,28,30,-1,32,34,-1,-1,-1,-1,-1,-1,-1,-1,-1,-1,-1,-1,-1,-1],"split_conditions":[1.25E0,-2.5183803E-1,4.95056E2,1.45E1,3.725E1,4.7568245E1,2.8975E2,-2.6175572E-2,1.0628E1,8.0233E2,5.90664E2,1.5025E1,3.274E3,1.0483907E2,3.6621836E-1,4.53571E2,1.1146426E2,6.434872E1,-5.1716078E-2,2.43244E2,6.2837082E1,3.159649E-1,-0E0,-0E0,6.444012E-2,-2.2773299E-1,2.70959E-2,-0E0,2.5903887E-1,-0E0,5.596093E-1,-1.4707205E-1,1.1017097E-1,1.9262359E-1,-1.5564536E-1],"split_indices":[5,0,39,5,5,34,5,0,42,54,38,3,11,71,0,40,50,62,0,65,58,0,0,0,0,0,0,0,0,0,0,0,0,0,0],"split_type":[0,0,0,0,0,0,0,0,0,0,0,0,0,0,0,0,0,0,0,0,0,0,0,0,0,0,0,0,0,0,0,0,0,0,0],"sum_hessian":[9.361512E1,9.197558E0,8.4417564E1,7.721333E1,7.2042294E0,1.6199419E1,6.1013916E1,1.9619621E0,5.2422676E0,9.932692E0,6.2667284E0,5.8109196E1,2.9047194E0,2.0742927E0,3.1679747E0,5.4328456E0,4.499846E0,4.47551E0,1.7912182E0,4.4590614E1,1.35185795E1,1.8371327E0,1.0675867E0,1.0380741E0,1.0362185E0,4.4100356E0,1.0228099E0,2.0214734E0,2.4783726E0,1.1368996E0,3.3386106E0,3.857584E1,6.0147767E0,9.584451E0,3.9341292E0],"tree_param":{"num_deleted":"0","num_feature":"73","num_nodes":"35","size_leaf_vector":"1"}},{"base_weights":[-2.8171074E-2,-2.3945494E-1,4.0223636E-2,-8.672423E-2,2.0372942E-1,-3.791182E-1,1.048067E-1,3.9342437E-2,6.5844196E-1,1.10414185E-1,-8.040666E-1,-9.769034E-2,5.104894E-1,-5.238103E-2,7.094488E-1,-0E0,8.5022116E-1,1.0218695E0,-3.681474E-1,-0E0,-2.7565014E-1,-5.624481E-1,2.619042E-1,1.1389182E0,-0E0,-3.6675262E-1,2.2616039E-1,3.7777266E-1,-7.960004E-2,-0E0,2.8829154E-1,4.1669455E-1,-0E0,-1.9026637E-1,1.2379572E-2,-2.2261654E-1,-0E0,2.0622192E-1,-9.201822E-2,4.101776E-1,-0E0,-1.7818977E-1,1.0203897E-1,-1.8191536E-1,1.1094813E-1,-6.899562E-2,1.5451856E-1],"categories":[],"categories_nodes":[],"categories_segments":[],"categories_sizes":[],"default_left":[0,0,0,0,0,0,0,0,0,0,0,0,0,1,0,0,0,0,0,0,0,0,0,0,0,0,0,0,0,0,0,0,0,0,0,0,0,0,0,0,0,0,0,0,0,0,0],"id":10,"left_children":[1,-1,3,5,7,9,11,13,15,17,19,21,23,25,27,-1,29,31,33,-1,-1,35,37,39,41,43,45,-1,-1,-1,-1,-1,-1,-1,-1,-1,-1,-1,-1,-1,-1,-1,-1,-1,-1,-1,-1],"loss_changes":[5.2598786E0,0E0,1.8094349E0,2.7368116E0,2.403902E0,4.574909E0,2.5046332E0,2.348182E0,1.3792834E0,4.801021E0,1.3695664E0,3.2656596E0,2.9282258E0,2.5334024E0,3.462815E0,0E0,4.1298532E-1,1.4888783E0,1.1001275E0,0E0,0E0,8.5458946E-1,2.8167014E0,2.3727083E-1,1.5081668E0,2.8770914E0,2.1226807E0,0E0,0E0,0E0,0E0,0E0,0E0,0E0,0E0,0E0,0E0,0E0,0E0,0E0,0E0,0E0,0E0,0E0,0E0,0E0,0E0],"parents":[2147483647,0,0,2,2,3,3,4,4,5,5,6,6,7,7,8,8,9,9,10,10,11,11,12,12,13,13,14,14,16,16,17,17,18,18,21,21,22,22,23,23,24,24,25,25,26,26],"right_children":[2,-1,4,6,8,10,12,14,16,18,20,22,24,26,28,-1,30,32,34,-1,-1,36,38,40,42,44,46,-1,-1,-1,-1,-1,-1,-1,-1,-1,-1,-1,-1,-1,-1,-1,-1,-1,-1,-1,-1],"split_conditions":[1.25E0,-2.3945494E-1,1.82824E2,6.98335E2,1E2,5.5972E1,3.5698E2,6.308367E1,1.19287384E2,1.751E3,-3.1688E1,2.3762E2,3.4047E2,1.28816E2,2.5E1,-0E0,1.13E-1,1.82727E2,3.58E1,-0E0,-2.7565014E-1,2.1002485E1,2.09227E2,2.4334E2,1.66611E2,5.7026096E1,1.5E1,3.7777266E-1,-7.960004E-2,-0E0,2.8829154E-1,4.1669455E-1,-0E0,-1.9026637E-1,1.2379572E-2,-2.2261654E-1,-0E0,2.0622192E-1,-9.201822E-2,4.101776E-1,-0E0,-1.7818977E-1,1.0203897E-1,-1.8191536E-1,1.1094813E-1,-6.899562E-2,1.5451856E-1],"split_indices":[5,0,37,41,5,37,69,34,52,11,4,46,51,66,5,0,42,64,37,0,0,26,64,47,66,1,44,0,0,0,0,0,0,0,0,0,0,0,0,0,0,0,0,0,0,0,0],"split_type":[0,0,0,0,0,0,0,0,0,0,0,0,0,0,0,0,0,0,0,0,0,0,0,0,0,0,0,0,0,0,0,0,0,0,0,0,0,0,0,0,0,0,0,0,0,0,0],"sum_hessian":[8.875585E1,7.158063E0,8.1597786E1,4.3923584E1,3.7674202E1,1.8362072E1,2.5561512E1,2.9535982E1,8.138219E0,8.154072E0,1.0208E1,1.6470673E1,9.090839E0,2.5923439E1,3.6125436E0,1.7495108E0,6.388708E0,2.8917947E0,5.2622766E0,1.0027966E0,9.205204E0,7.740182E0,8.730492E0,3.2847464E0,5.8060927E0,1.3144031E1,1.2779409E1,2.5565867E0,1.0559568E0,1.1577255E0,5.230983E0,1.8781643E0,1.0136303E0,3.8348067E0,1.42747E0,5.5732403E0,2.1669416E0,5.538877E0,3.1916144E0,2.1000195E0,1.1847271E0,1.5519807E0,4.254112E0,1.0727743E1,2.416287E0,4.1476297E0,8.63178E0],"tree_param":{"num_deleted":"0","num_feature":"73","num_nodes":"47","size_leaf_vector":"1"}},{"base_weights":[-2.0295402E-2,-2.2535175E-1,3.2409664E-2,-2.024943E-2,3.3753806E-1,2.8639856E-1,-1.1817809E-1,-4.6298254E-2,6.1339515E-1,-4.10995E-1,5.658165E-1,-5.03128E-1,1.3684144E-2,8.6261585E-2,-4.7683963E-1,-4.0720343E-3,7.851906E-1,-0E0,-1.506051E-1,-0E0,1.0694491E0,-0E0,-6.8864864E-1,-1.4550574E-1,3.7982595E-1,-1.9712959E-1,-0E0,2.9082713E-1,-0E0,1.4234617E-1,-1.4666677E-1,4.1565254E-2,5.89374E-1,-4.4446167E-2,1.1708842E-1,-0E0,-2.3894885E-1,4.8085865E-2,-1.1688032E-1,-7.1005836E-2,2.1651602E-1],"categories":[],"categories_nodes":[],"categories_segments":[],"categories_sizes":[],"default_left":[0,0,0,0,1,0,1,0,0,0,0,0,0,0,1,0,0,0,0,0,0,0,0,0,0,0,0,0,0,0,0,0,0,0,0,0,0,0,0,0,0],"id":11,"left_children":[1,-1,3,5,7,9,11,13,15,17,19,21,23,-1,25,-1,27,-1,-1,29,31,33,35,37,39,-1,-1,-1,-1,-1,-1,-1,-1,-1,-1,-1,-1,-1,-1,-1,-1],"loss_changes":[3.7945852E0,0E0,1.5004208E0,1.9420071E0,1.8499086E0,3.2452383E0,3.0362258E0,1.0731205E0,1.4922583E0,9.478557E-2,2.8791244E0,1.8310909E0,2.5066788E0,0E0,3.2505214E-1,0E0,1.5670004E0,0E0,0E0,1.838068E0,3.1789312E0,4.4885138E-1,1.0254574E0,2.22389E0,3.3314986E0,0E0,0E0,0E0,0E0,0E0,0E0,0E0,0E0,0E0,0E0,0E0,0E0,0E0,0E0,0E0,0E0],"parents":[2147483647,0,0,2,2,3,3,4,4,5,5,6,6,7,7,8,8,9,9,10,10,11,11,12,12,14,14,16,16,19,19,20,20,21,21,22,22,23,23,24,24],"right_children":[2,-1,4,6,8,10,12,14,16,18,20,22,24,-1,26,-1,28,-1,-1,30,32,34,36,38,40,-1,-1,-1,-1,-1,-1,-1,-1,-1,-1,-1,-1,-1,-1,-1,-1],"split_conditions":[1.25E0,-2.2535175E-1,1.665E2,3.4339E2,7.682959E1,7.420959E1,5.7332E2,3.6557E2,2.6368E2,7.2534E1,2.5922E2,-1.9707631E2,3.48E2,8.6261585E-2,1.77748E2,-4.0720343E-3,1.35E2,-0E0,-1.506051E-1,1.4289E2,1.9E2,1.773E1,4E0,1.82727E2,3.0668934E1,-1.9712959E-1,-0E0,2.9082713E-1,-0E0,1.4234617E-1,-1.4666677E-1,4.1565254E-2,5.89374E-1,-4.4446167E-2,1.1708842E-1,-0E0,-2.3894885E-1,4.8085865E-2,-1.1688032E-1,-7.1005836E-2,2.1651602E-1],"split_indices":[5,0,5,54,62,68,54,72,69,40,51,34,17,0,66,0,56,0,0,46,46,42,44,64,59,0,0,0,0,0,0,0,0,0,0,0,0,0,0,0,0],"split_type":[0,0,0,0,0,0,0,0,0,0,0,0,0,0,0,0,0,0,0,0,0,0,0,0,0,0,0,0,0,0,0,0,0,0,0,0,0,0,0,0,0],"sum_hessian":[8.454661E1,5.638583E0,7.890803E1,6.624388E1,1.26641445E1,1.3935503E1,5.230838E1,4.6420455E0,8.022099E0,3.1751537E0,1.0760349E1,1.390633E1,3.840205E1,1.9373516E0,2.704694E0,1.0962636E0,6.925835E0,1.000658E0,2.1744957E0,5.951084E0,4.8092647E0,3.0885108E0,1.081782E1,2.592744E1,1.247461E1,1.7037253E0,1.0009687E0,5.8669834E0,1.0588517E0,3.493245E0,2.4578393E0,3.285451E0,1.5238138E0,1.5025338E0,1.585977E0,1.3672519E0,9.450568E0,1.04600525E1,1.5467387E1,3.8704653E0,8.604145E0],"tree_param":{"num_deleted":"0","num_feature":"73","num_nodes":"41","size_leaf_vector":"1"}},{"base_weights":[-1.8228797E-2,-3.9717215E-1,7.039092E-2,-6.1355275E-1,3.983027E-1,-4.6385986E-1,1.20979615E-1,3.21904E-2,-7.5291246E-1,2.8060797E-1,-0E0,-1.9784701E-1,-0E0,-3.026725E-2,2.6209947E-1,-0E0,-2.6080856E-1,2.4969417E-1,-2.763316E-1,9.8718566E-1,1.1915154E-1,-1.7878447E-1,5.74465E-1,-5.856479E-1,1.3639578E-1,9.734796E-3,3.7537146E-1,-9.081764E-3,5.352689E-1,6.711432E-2,-1.9329157E-1,-0E0,2.822274E-1,-0E0,-2.3719151E-1,-1.0234602E-1,1.8115564E-1,-1.1155018E-1,9.120954E-2,2.3357666E-1,-0E0],"categories":[],"categories_nodes":[],"categories_segments":[],"categories_sizes":[],"default_left":[1,1,0,0,0,0,0,0,0,0,0,0,0,0,1,0,0,0,0,0,0,0,0,0,0,0,0,0,0,0,0,0,0,0,0,0,0,0,0,0,0],"id":12,"left_children":[1,3,5,7,9,11,13,-1,15,-1,-1,-1,-1,17,19,-1,-1,21,23,25,27,29,31,33,35,-1,-1,37,39,-1,-1,-1,-1,-1,-1,-1,-1,-1,-1,-1,-1],"loss_changes":[3.000045E0,3.3332953E0,1.6121064E0,1.9645209E0,1.1784263E0,4.6967936E-1,1.4881005E0,0E0,1.2803206E0,0E0,0E0,0E0,0E0,2.0599568E0,2.7300022E0,0E0,0E0,2.1271439E0,2.5439954E0,3.1811714E-1,1.9927502E0,1.4240794E0,1.9067926E0,1.5419433E0,1.9798502E0,0E0,0E0,2.8005886E0,1.5797379E0,0E0,0E0,0E0,0E0,0E0,0E0,0E0,0E0,0E0,0E0,0E0,0E0],"parents":[2147483647,0,0,1,1,2,2,3,3,4,4,5,5,6,6,8,8,13,13,14,14,17,17,18,18,19,19,20,20,21,21,22,22,23,23,24,24,27,27,28,28],"right_children":[2,4,6,8,10,12,14,-1,16,-1,-1,-1,-1,18,20,-1,-1,22,24,26,28,30,32,34,36,-1,-1,38,40,-1,-1,-1,-1,-1,-1,-1,-1,-1,-1,-1,-1],"split_conditions":[2.46495E2,1.077885E2,-3.0371E1,4.9066288E1,3.3108E1,1.9950626E2,1.3083E2,3.21904E-2,3.99E2,2.8060797E-1,-0E0,-1.9784701E-1,-0E0,4.456875E1,8.2803246E1,-0E0,-2.6080856E-1,1.3116E2,1.91E3,7.962E1,5.7332E2,-2.4939476E1,2.824E1,1E0,1.9E2,9.734796E-3,3.7537146E-1,2.579E3,3.04E2,6.711432E-2,-1.9329157E-1,-0E0,2.822274E-1,-0E0,-2.3719151E-1,-1.0234602E-1,1.8115564E-1,-1.1155018E-1,9.120954E-2,2.3357666E-1,-0E0],"split_indices":[69,68,4,71,39,49,65,0,24,0,0,0,0,58,71,0,0,47,18,56,51,2,55,45,46,0,0,11,12,0,0,0,0,0,0,0,0,0,0,0,0],"split_type":[0,0,0,0,0,0,0,0,0,0,0,0,0,0,0,0,0,0,0,0,0,0,0,0,0,0,0,0,0,0,0,0,0,0,0,0,0,0,0,0,0],"sum_hessian":[8.107334E1,1.6119473E1,6.495387E1,1.3505174E1,2.614299E0,3.7821226E0,6.117175E1,1.4570905E0,1.2048083E1,1.0023099E0,1.6119893E0,2.4457028E0,1.3364199E0,2.7645674E1,3.3526073E1,1.5674057E0,1.0480678E1,1.1669123E1,1.5976552E1,3.7873156E0,2.973876E1,4.3478966E0,7.3212256E0,9.807947E0,6.168605E0,1.6059203E0,2.181395E0,2.2267124E1,7.471636E0,1.8491707E0,2.4987261E0,3.063885E0,4.257341E0,2.4111867E0,7.39676E0,2.4858377E0,3.682767E0,1.1206581E1,1.1060543E1,5.6099734E0,1.8616624E0],"tree_param":{"num_deleted":"0","num_feature":"73","num_nodes":"41","size_leaf_vector":"1"}},{"base_weights":[-8.321329E-3,-1.9837798E-1,2.5789883E-2,1.6094032E-1,-7.3309384E-2,8.167189E-1,2.4226295E-2,-2.3818941E-1,3.22271E-1,-0E0,3.6099663E-1,-7.409315E-2,7.659432E-1,-6.521008E-1,2.8959103E-2,-0E0,8.2798636E-1,-3.039368E-1,3.967362E-1,8.990106E-1,-0E0,4.4519E-3,-7.6531047E-1,-3.539415E-1,1.8997996E-1,2.7999604E-1,-3.2862926E-1,3.642108E-1,-0E0,2.694881E-2,-1.6009575E-1,-1.0949427E-1,2.0665477E-1,-0E0,3.2747418E-1,-2.6380068E-1,-0E0,-0E0,-1.516001E-1,1.6545916E-1,-3.869009E-3,-0E0,1.3066652E-1,-0E0,-1.7287238E-1],"categories":[],"categories_nodes":[],"categories_segments":[],"categories_sizes":[],"default_left":[0,0,0,0,0,0,0,0,0,0,0,0,0,0,0,0,0,0,0,0,0,0,0,0,0,0,0,0,0,0,0,0,0,0,0,0,0,0,0,0,0,0,0,0,0],"id":13,"left_children":[1,-1,3,5,7,9,11,13,15,-1,-1,17,19,21,23,25,27,29,31,33,-1,-1,35,37,39,41,43,-1,-1,-1,-1,-1,-1,-1,-1,-1,-1,-1,-1,-1,-1,-1,-1,-1,-1],"loss_changes":[2.181662E0,0E0,1.0667946E0,2.529165E0,2.6835465E0,1.8646011E0,2.7394762E0,3.810292E0,1.9524226E0,0E0,0E0,2.9889472E0,7.716894E-2,1.4888926E0,1.1033921E0,8.076149E-1,2.085286E0,2.1232097E0,2.3280964E0,5.3765297E-2,0E0,0E0,1.3000689E0,3.300715E-1,1.4583355E0,2.7578175E-1,6.074754E-1,0E0,0E0,0E0,0E0,0E0,0E0,0E0,0E0,0E0,0E0,0E0,0E0,0E0,0E0,0E0,0E0,0E0,0E0],"parents":[2147483647,0,0,2,2,3,3,4,4,5,5,6,6,7,7,8,8,11,11,12,12,13,13,14,14,15,15,16,16,17,17,18,18,19,19,22,22,23,23,24,24,25,25,26,26],"right_children":[2,-1,4,6,8,10,12,14,16,-1,-1,18,20,22,24,26,28,30,32,34,-1,-1,36,38,40,42,44,-1,-1,-1,-1,-1,-1,-1,-1,-1,-1,-1,-1,-1,-1,-1,-1,-1,-1],"split_conditions":[1.25E0,-1.9837798E-1,-4.0968766E0,9.066E1,4.07248E2,7.984E1,1.4337E2,5.4867977E1,3.07E3,-0E0,3.6099663E-1,1.91E3,3.74203E2,4.75E0,8.777619E0,-1.8882732E2,3.14E2,1E0,1.09E1,2.067E3,-0E0,4.4519E-3,4.017E3,6.5869E1,1.82727E2,4.13573E2,6.8552155E1,3.642108E-1,-0E0,2.694881E-2,-1.6009575E-1,-1.0949427E-1,2.0665477E-1,-0E0,3.2747418E-1,-2.6380068E-1,-0E0,-0E0,-1.516001E-1,1.6545916E-1,-3.869009E-3,-0E0,1.3066652E-1,-0E0,-1.7287238E-1],"split_indices":[5,0,2,7,37,7,56,61,19,0,0,18,38,5,1,34,15,45,37,11,0,0,11,40,64,69,71,0,0,0,0,0,0,0,0,0,0,0,0,0,0,0,0,0,0],"split_type":[0,0,0,0,0,0,0,0,0,0,0,0,0,0,0,0,0,0,0,0,0,0,0,0,0,0,0,0,0,0,0,0,0,0,0,0,0,0,0,0,0,0,0,0,0],"sum_hessian":[7.733582E1,3.8885045E0,7.344732E1,3.3628475E1,3.9818844E1,4.1095066E0,2.951897E1,2.956439E1,1.0254454E1,1.4680344E0,2.6414723E0,2.6072226E1,3.4467447E0,1.2001671E1,1.756272E1,6.701551E0,3.5529027E0,1.870086E1,7.371366E0,2.3232734E0,1.1234714E0,1.0207641E0,1.09809065E1,3.6297839E0,1.3932936E1,3.463874E0,3.2376766E0,2.5325587E0,1.0203439E0,6.0547724E0,1.2646087E1,1.3471602E0,6.0242057E0,1.0239942E0,1.2992792E0,9.7565365E0,1.2243706E0,1.0659581E0,2.5638258E0,5.560929E0,8.372007E0,1.1654421E0,2.2984319E0,1.0299679E0,2.2077088E0],"tree_param":{"num_deleted":"0","num_feature":"73","num_nodes":"45","size_leaf_vector":"1"}},{"base_weights":[-0E0,-1.8133079E-1,2.8417833E-2,1.03257254E-1,-1.4916882E-1,-1.2930952E-1,1.5443876E-1,-4.4385913E-1,5.2191842E-2,-8.434743E-3,3.6027023E-1,-6.158243E-1,3.7359606E-2,2.5927693E-1,-1.19275115E-1,1.3468447E-1,-5.9177196E-1,5.067135E-1,-9.991211E-3,-2.4125157E-1,-0E0,-7.9529226E-2,5.545218E-1,-1.0878227E-1,1.064156E-1,-2.211128E-1,-0E0,-6.855685E-2,1.8029673E-1,-1.16768464E-1,1.4363356E-2,-1.2126947E-1,3.7763454E-2,2.107942E-1,-0E0],"categories":[],"categories_nodes":[],"categories_segments":[],"categories_sizes":[],"default_left":[0,0,0,0,0,0,0,0,0,0,0,1,0,0,0,1,0,0,0,0,0,0,0,0,0,0,0,0,0,0,0,0,0,0,0],"id":14,"left_children":[1,-1,3,5,7,-1,9,11,13,15,17,19,-1,21,-1,23,25,27,29,-1,-1,31,33,-1,-1,-1,-1,-1,-1,-1,-1,-1,-1,-1,-1],"loss_changes":[1.5889766E0,0E0,9.414126E-1,1.3558818E0,1.416836E0,0E0,1.944936E0,1.30061E0,1.0292491E0,2.6901886E0,1.6530137E0,1.3080833E0,0E0,1.2673905E0,0E0,2.5425408E0,4.6480203E-1,1.6823597E0,3.890237E-1,0E0,0E0,5.059886E-1,5.765095E-1,0E0,0E0,0E0,0E0,0E0,0E0,0E0,0E0,0E0,0E0,0E0,0E0],"parents":[2147483647,0,0,2,2,3,3,4,4,6,6,7,7,8,8,9,9,10,10,11,11,13,13,15,15,16,16,17,17,18,18,21,21,22,22],"right_children":[2,-1,4,6,8,-1,10,12,14,16,18,20,-1,22,-1,24,26,28,30,-1,-1,32,34,-1,-1,-1,-1,-1,-1,-1,-1,-1,-1,-1,-1],"split_conditions":[1.25E0,-1.8133079E-1,2.43028E2,1.04E1,2.68895E2,-1.2930952E-1,2.607E3,2.49864E2,1.3355E2,2.198E3,2.7393E2,1.2513561E2,3.7359606E-2,1.598E2,-1.19275115E-1,6.01E0,1.75E2,-2.2311E1,1.019414E2,-2.4125157E-1,-0E0,5.96575E1,1.0063186E1,-1.0878227E-1,1.064156E-1,-2.211128E-1,-0E0,-6.855685E-2,1.8029673E-1,-1.16768464E-1,1.4363356E-2,-1.2126947E-1,3.7763454E-2,2.107942E-1,-0E0],"split_indices":[5,0,64,37,39,0,11,65,57,11,48,62,0,48,0,57,5,4,70,0,0,58,30,0,0,0,0,0,0,0,0,0,0,0,0],"split_type":[0,0,0,0,0,0,0,0,0,0,0,0,0,0,0,0,0,0,0,0,0,0,0,0,0,0,0,0,0,0,0,0,0,0,0],"sum_hessian":[7.414734E1,3.1902187E0,7.095712E1,5.2831676E1,1.8125443E1,2.8411834E0,4.9990494E1,8.2007265E0,9.924715E0,2.6650812E1,2.3339682E1,7.124291E0,1.0764358E0,8.0917E0,1.8330158E0,2.1108406E1,5.5424066E0,1.773945E1,5.6002297E0,5.787053E0,1.3372381E0,3.0660348E0,5.025665E0,5.354986E0,1.575342E1,4.07318E0,1.4692259E0,1.0577592E0,1.6681692E1,1.4949391E0,4.105291E0,2.0593624E0,1.0066724E0,3.9206052E0,1.1050594E0],"tree_param":{"num_deleted":"0","num_feature":"73","num_nodes":"35","size_leaf_vector":"1"}},{"base_weights":[-1.7571546E-2,-3.0711162E-1,3.6592975E-2,-6.652235E-1,1.1751206E-1,-9.147599E-3,3.0239728E-1,-0E0,-2.3739922E-1,9.2349315E-1,-3.8650513E-1,-1.0929672E-1,2.733696E-1,5.031852E-1,-1.2846234E-1,-0E0,3.5301757E-1,-0E0,-1.444863E-1,-0E0,-5.189391E-1,-1.1955127E-1,5.5493766E-1,6.695568E-1,-0E0,-0E0,-1.0928023E-1,4.6186996E-1,-8.4502466E-2,-7.085084E-1,-0E0,2.4850871E-2,-1.3730963E-1,-1.8065572E-2,7.507416E-1,7.9689974E-1,-0E0,2.2592984E-1,-0E0,6.504741E-3,-1.4655589E-1,-2.3583992E-1,-0E0,3.0859506E-1,-0E0,2.7117267E-1,-0E0],"categories":[],"categories_nodes":[],"categories_segments":[],"categories_sizes":[],"default_left":[1,1,0,0,0,0,0,0,0,1,0,0,0,0,0,0,0,0,0,0,0,0,0,0,0,0,0,1,0,0,0,0,0,0,0,0,0,0,0,0,0,0,0,0,0,0,0],"id":15,"left_children":[1,3,5,7,9,11,13,-1,-1,15,17,19,21,23,25,-1,-1,-1,-1,27,29,31,33,35,-1,-1,-1,37,39,41,-1,-1,-1,-1,43,45,-1,-1,-1,-1,-1,-1,-1,-1,-1,-1,-1],"loss_changes":[1.3485597E0,2.5189056E0,9.406573E-1,9.0076256E-1,3.254888E0,1.366405E0,1.275638E0,0E0,0E0,2.3061204E-1,1.0028863E-1,1.7785202E0,1.673259E0,9.229603E-1,2.1189049E-1,0E0,0E0,0E0,0E0,1.303893E0,1.0865507E0,6.155327E-1,1.4775052E0,6.634314E-1,0E0,0E0,0E0,1.1341319E0,1.5461962E0,8.582735E-2,0E0,0E0,0E0,0E0,9.442272E-1,2.3522258E-1,0E0,0E0,0E0,0E0,0E0,0E0,0E0,0E0,0E0,0E0,0E0],"parents":[2147483647,0,0,1,1,2,2,3,3,4,4,5,5,6,6,9,9,10,10,11,11,12,12,13,13,14,14,19,19,20,20,21,21,22,22,23,23,27,27,28,28,29,29,34,34,35,35],"right_children":[2,4,6,8,10,12,14,-1,-1,16,18,20,22,24,26,-1,-1,-1,-1,28,30,32,34,36,-1,-1,-1,38,40,42,-1,-1,-1,-1,44,46,-1,-1,-1,-1,-1,-1,-1,-1,-1,-1,-1],"split_conditions":[2.46495E2,7.760887E1,1.665E2,9.9245E0,1.065E2,4.07248E2,6.2E2,-0E0,-2.3739922E-1,8.4280426E1,4.28E-1,1.9E1,4.7813965E1,6.1257088E1,6.453E1,-0E0,3.5301757E-1,-0E0,-1.444863E-1,9.6E-2,4.559E3,-1.678E0,2.6472E1,1.2575E2,-0E0,-0E0,-1.0928023E-1,9.384814E1,6.53158E1,4.46391E2,-0E0,2.4850871E-2,-1.3730963E-1,-1.8065572E-2,6.578E1,2.4590658E1,-0E0,2.2592984E-1,-0E0,6.504741E-3,-1.4655589E-1,-2.3583992E-1,-0E0,3.0859506E-1,-0E0,2.7117267E-1,-0E0],"split_indices":[69,68,5,67,8,37,9,0,0,53,3,44,62,59,57,0,0,0,0,42,19,4,40,55,0,0,0,62,59,39,0,0,0,0,56,26,0,0,0,0,0,0,0,0,0,0,0],"split_type":[0,0,0,0,0,0,0,0,0,0,0,0,0,0,0,0,0,0,0,0,0,0,0,0,0,0,0,0,0,0,0,0,0,0,0,0,0,0,0,0,0,0,0,0,0,0,0],"sum_hessian":[7.2876015E1,1.2670978E1,6.0205036E1,7.410579E0,5.260399E0,5.0068832E1,1.0136204E1,1.0285935E0,6.3819857E0,2.2080803E0,3.0523183E0,3.9144424E1,1.0924408E1,7.845643E0,2.2905605E0,1.0656463E0,1.142434E0,1.0101858E0,2.0421326E0,3.1759373E1,7.3850536E0,3.821049E0,7.103359E0,6.054631E0,1.7910119E0,1.2844433E0,1.0061172E0,4.154778E0,2.7604593E1,5.6628146E0,1.722239E0,1.6403438E0,2.180705E0,1.0675309E0,6.035828E0,5.0248365E0,1.0297949E0,2.9385245E0,1.2162534E0,2.1313786E1,6.290808E0,4.550851E0,1.1119639E0,3.640028E0,2.3958004E0,3.9706678E0,1.0541686E0],"tree_param":{"num_deleted":"0","num_feature":"73","num_nodes":"47","size_leaf_vector":"1"}},{"base_weights":[-1.1585753E-2,-3.9485398E-1,1.4034112E-2,-5.445194E-1,-0E0,-3.691261E-2,2.7804932E-1,-0E0,-2.0198914E-1,8.643432E-2,-2.5120553E-1,4.395893E-1,-1.0660925E-1,-0E0,6.162042E-1,2.1500549E-1,-4.4401014E-1,6.9809735E-1,-1.0751245E-1,3.4052804E-1,-1.5575837E-1,9.074061E-1,-0E0,-4.80537E-2,4.9769643E-1,2.568588E-2,-5.592827E-1,-0E0,8.285243E-1,-9.46198E-2,-0E0,-1.9426096E-2,1.6842523E-1,-8.877315E-2,7.934946E-2,3.248169E-1,-0E0,-0E0,1.928086E-1,-1.9880803E-1,1.7475143E-2,2.8601485E-1,-0E0],"categories":[],"categories_nodes":[],"categories_segments":[],"categories_sizes":[],"default_left":[0,1,1,0,0,0,0,0,0,1,0,0,0,0,0,0,0,0,0,0,1,0,0,0,0,0,0,0,0,0,0,0,0,0,0,0,0,0,0,0,0,0,0],"id":16,"left_children":[1,3,5,7,-1,9,11,-1,-1,13,15,17,-1,19,21,23,25,27,29,31,33,35,-1,-1,37,-1,39,-1,41,-1,-1,-1,-1,-1,-1,-1,-1,-1,-1,-1,-1,-1,-1],"loss_changes":[9.5333296E-1,5.588015E-1,1.0547277E0,3.436737E-1,0E0,1.5565193E0,1.5276657E0,0E0,0E0,1.8463254E0,2.2171764E0,2.095184E0,0E0,1.4652371E0,1.32038E0,9.4804424E-1,1.3887362E0,9.8232174E-1,1.8571576E-1,1.0959485E0,1.3561339E0,5.4209232E-2,0E0,0E0,3.5366273E-1,0E0,1.3948607E0,0E0,6.2556887E-1,0E0,0E0,0E0,0E0,0E0,0E0,0E0,0E0,0E0,0E0,0E0,0E0,0E0,0E0],"parents":[2147483647,0,0,1,1,2,2,3,3,5,5,6,6,9,9,10,10,11,11,13,13,14,14,15,15,16,16,17,17,18,18,19,19,20,20,21,21,24,24,26,26,28,28],"right_children":[2,4,6,8,-1,10,12,-1,-1,14,16,18,-1,20,22,24,26,28,30,32,34,36,-1,-1,38,-1,40,-1,42,-1,-1,-1,-1,-1,-1,-1,-1,-1,-1,-1,-1,-1,-1],"split_conditions":[-3.175E1,8.021833E1,2.23794E2,4.5990807E1,-0E0,4.2E1,5.83E2,-0E0,-2.0198914E-1,6.8185E2,1E0,2.23362E2,-1.0660925E-1,-1.2E1,2.4705125E2,1.32677E2,4.9835503E1,-3E0,9.581E1,7.93E-1,2.5064E2,1.74E2,-0E0,-4.80537E-2,3.725E1,2.568588E-2,2.641E2,-0E0,1.747E3,-9.46198E-2,-0E0,-1.9426096E-2,1.6842523E-1,-8.877315E-2,7.934946E-2,3.248169E-1,-0E0,-0E0,1.928086E-1,-1.9880803E-1,1.7475143E-2,2.8601485E-1,-0E0],"split_indices":[6,61,65,62,0,28,12,0,0,51,45,66,0,6,49,37,68,6,56,42,46,65,0,0,5,0,5,0,13,0,0,0,0,0,0,0,0,0,0,0,0,0,0],"split_type":[0,0,0,0,0,0,0,0,0,0,0,0,0,0,0,0,0,0,0,0,0,0,0,0,0,0,0,0,0,0,0,0,0,0,0,0,0,0,0,0,0,0,0],"sum_hessian":[6.9898674E1,5.0925584E0,6.4806114E1,4.088307E0,1.0042515E0,5.2946644E1,1.1859473E1,1.002171E0,3.086136E0,3.202591E1,2.0920732E1,1.0524516E1,1.334957E0,2.751362E1,4.5122895E0,5.0843806E0,1.583635E1,7.780083E0,2.744433E0,7.1704226E0,2.0343199E1,3.1456125E0,1.366677E0,1.3666636E0,3.7177172E0,1.8521008E0,1.398425E1,1.1157404E0,6.664343E0,1.30202E0,1.4424129E0,1.7236179E0,5.4468045E0,1.6656477E1,3.6867218E0,1.9580137E0,1.187599E0,1.0323935E0,2.6853237E0,1.2832212E1,1.1520376E0,5.476537E0,1.1878055E0],"tree_param":{"num_deleted":"0","num_feature":"73","num_nodes":"43","size_leaf_vector":"1"}},{"base_weights":[-1.2218137E-3,-1.4978328E-1,1.3826184E-2,1.4696099E-1,-8.204225E-2,4.7066048E-1,-0E0,-3.577205E-1,7.397894E-2,-0E0,7.8779715E-1,3.695845E-1,-1.7720269E-1,-0E0,-5.096605E-1,4.9541026E-1,-3.575487E-2,-2.4063557E-1,5.875094E-2,1.0154839E0,-0E0,-0E0,2.1755314E-1,-3.3769408E-1,1.857859E-1,-7.993625E-2,1.8804845E-1,-6.2751883E-1,-0E0,7.6826715E-1,-0E0,2.0580545E-1,-2.8631505E-1,-0E0,-9.3522966E-2,-0E0,3.800307E-1,-7.4653424E-2,8.388295E-2,-0E0,-1.745559E-1,1.2319205E-1,-0E0,-0E0,1.4194056E-1,-2.1981294E-1,-0E0,-0E0,2.765816E-1,1.6209486E-1,-4.76307E-2,-1.8730623E-1,-0E0],"categories":[],"categories_nodes":[],"categories_segments":[],"categories_sizes":[],"default_left":[0,0,0,0,1,0,0,0,0,0,0,0,0,0,1,0,0,0,0,0,0,0,0,0,0,0,0,1,0,0,0,0,0,0,0,0,0,0,0,0,0,0,0,0,0,0,0,0,0,0,0,0,0],"id":17,"left_children":[1,-1,3,5,7,9,11,13,15,17,19,21,23,25,27,29,31,33,-1,35,-1,37,-1,39,41,-1,43,45,-1,47,-1,49,51,-1,-1,-1,-1,-1,-1,-1,-1,-1,-1,-1,-1,-1,-1,-1,-1,-1,-1,-1,-1],"loss_changes":[8.3825487E-1,0E0,8.9497906E-1,1.7342248E0,1.7631896E0,1.8021538E0,1.3284577E0,8.914547E-1,1.352672E0,2.961912E-1,1.6087785E0,8.0063075E-1,1.0889542E0,2.8839546E-1,7.4895215E-1,1.0971082E0,1.1641423E0,3.0799732E-2,0E0,6.671381E-1,0E0,3.4587663E-1,0E0,1.3069018E0,3.7439987E-1,0E0,5.021596E-1,7.2766757E-1,0E0,2.1582603E-2,0E0,1.3243549E0,1.0902699E0,0E0,0E0,0E0,0E0,0E0,0E0,0E0,0E0,0E0,0E0,0E0,0E0,0E0,0E0,0E0,0E0,0E0,0E0,0E0,0E0],"parents":[2147483647,0,0,2,2,3,3,4,4,5,5,6,6,7,7,8,8,9,9,10,10,11,11,12,12,13,13,14,14,15,15,16,16,17,17,19,19,21,21,23,23,24,24,26,26,27,27,29,29,31,31,32,32],"right_children":[2,-1,4,6,8,10,12,14,16,18,20,22,24,26,28,30,32,34,-1,36,-1,38,-1,40,42,-1,44,46,-1,48,-1,50,52,-1,-1,-1,-1,-1,-1,-1,-1,-1,-1,-1,-1,-1,-1,-1,-1,-1,-1,-1,-1],"split_conditions":[1.25E0,-1.4978328E-1,5.746E1,1.67E-1,1.9536E2,8.533463E1,8.2803246E1,6.5869E1,1.9456E2,2.352E3,6.55E2,3.653E1,1.565E2,2.6472E1,8.4763336E1,1.224E3,8.7358E1,1.87358E2,5.875094E-2,1.4658E2,-0E0,5E0,2.1755314E-1,7.5788E1,6.82E-1,-7.993625E-2,7.846679E1,1.9794E2,-0E0,9.799E1,-0E0,4.0430218E1,1.38E0,-0E0,-9.3522966E-2,-0E0,3.800307E-1,-7.4653424E-2,8.388295E-2,-0E0,-1.745559E-1,1.2319205E-1,-0E0,-0E0,1.4194056E-1,-2.1981294E-1,-0E0,-0E0,2.765816E-1,1.6209486E-1,-4.76307E-2,-1.8730623E-1,-0E0],"split_indices":[5,0,57,3,48,53,71,40,46,11,13,57,5,40,58,14,40,69,0,46,0,45,0,40,42,0,68,65,0,55,0,26,3,0,0,0,0,0,0,0,0,0,0,0,0,0,0,0,0,0,0,0,0],"split_type":[0,0,0,0,0,0,0,0,0,0,0,0,0,0,0,0,0,0,0,0,0,0,0,0,0,0,0,0,0,0,0,0,0,0,0,0,0,0,0,0,0,0,0,0,0,0,0,0,0,0,0,0,0],"sum_hessian":[6.712795E1,2.3126662E0,6.4815285E1,2.9795967E1,3.501932E1,9.831202E0,1.9964766E1,1.3719689E1,2.1299631E1,4.061413E0,5.769789E0,5.072203E0,1.4892563E1,4.0363245E0,9.683365E0,4.91813E0,1.63815E1,2.2589662E0,1.8024465E0,4.6344366E0,1.1353525E0,2.9725535E0,2.09965E0,1.1637218E1,3.2553444E0,1.1028868E0,2.9334376E0,7.949154E0,1.7342114E0,3.3196445E0,1.5984855E0,7.0888743E0,9.292625E0,1.0002389E0,1.2587272E0,1.5979201E0,3.0365167E0,1.6378381E0,1.3347152E0,4.520272E0,7.1169467E0,2.0913446E0,1.1639997E0,1.0688639E0,1.8645737E0,6.9194493E0,1.0297043E0,1.294616E0,2.0250285E0,4.3906045E0,2.6982698E0,3.961345E0,5.3312807E0],"tree_param":{"num_deleted":"0","num_feature":"73","num_nodes":"53","size_leaf_vector":"1"}},{"base_weights":[-0E0,1.900813E-1,-5.997437E-2,4.2138645E-1,-6.472997E-2,-1.4225215E-1,1.6862996E-1,7.66656E-1,-0E0,-3.28362E-1,4.7592327E-2,-3.5118946E-1,1.6796894E-3,-1.7219603E-2,5.175548E-1,2.8547788E-1,-0E0,2.910566E-1,-7.925007E-2,-0E0,-1.7043369E-1,-4.86794E-1,8.043207E-2,3.9551505E-1,-1.2594879E-1,-2.236869E-1,8.286999E-2,-0E0,2.1874727E-1,-0E0,1.2597312E-1,-0E0,-6.8633354E-1,1.2518321E-1,-3.2478835E-2,-9.086713E-2,7.0938027E-1,-4.2924872E-1,2.0328341E-1,-1.6690435E-1,-0E0,4.776789E-2,-7.430374E-2,-2.540695E-1,-0E0,2.7929297E-1,-0E0,-0E0,-2.1500593E-1,-3.437068E-2,1.5034744E-1,9.96077E-2,-8.460704E-2],"categories":[],"categories_nodes":[],"categories_segments":[],"categories_sizes":[],"default_left":[0,0,0,0,1,0,0,0,0,0,0,1,0,0,0,0,0,0,0,0,0,0,0,0,0,0,0,0,0,0,0,0,1,0,0,0,0,0,0,0,0,0,0,0,0,0,0,0,0,0,0,0,0],"id":18,"left_children":[1,3,5,7,9,11,13,15,17,19,-1,21,23,25,27,-1,-1,29,-1,-1,-1,31,33,35,37,39,-1,-1,-1,-1,-1,41,43,-1,-1,-1,45,47,49,-1,51,-1,-1,-1,-1,-1,-1,-1,-1,-1,-1,-1,-1],"loss_changes":[7.0801747E-1,1.1124996E0,9.8553574E-1,1.1225796E0,5.391298E-1,1.4627236E0,1.1246223E0,5.4470277E-1,4.9923587E-1,5.649688E-1,0E0,1.3949318E0,1.402321E0,4.8947677E-1,4.7980678E-1,0E0,0E0,1.1371872E-1,0E0,0E0,0E0,1.3227324E0,5.121357E-1,2.067641E0,1.9478226E0,6.8954074E-1,0E0,0E0,0E0,0E0,0E0,2.9360887E-1,8.8443995E-1,0E0,0E0,0E0,1.2591052E0,1.1785891E0,1.0562181E0,0E0,4.9696317E-1,0E0,0E0,0E0,0E0,0E0,0E0,0E0,0E0,0E0,0E0,0E0,0E0],"parents":[2147483647,0,0,1,1,2,2,3,3,4,4,5,5,6,6,7,7,8,8,9,9,11,11,12,12,13,13,14,14,17,17,21,21,22,22,23,23,24,24,25,25,31,31,32,32,36,36,37,37,38,38,40,40],"right_children":[2,4,6,8,10,12,14,16,18,20,-1,22,24,26,28,-1,-1,30,-1,-1,-1,32,34,36,38,40,-1,-1,-1,-1,-1,42,44,-1,-1,-1,46,48,50,-1,52,-1,-1,-1,-1,-1,-1,-1,-1,-1,-1,-1,-1],"split_conditions":[-4.0131634E1,9.039022E1,1.303E3,1.1E1,8.277541E1,2.607E3,3.67E1,3E0,9E-1,6.5054E1,4.7592327E-2,2.3827458E2,8.455867E1,7.716457E1,6.62E1,2.8547788E-1,-0E0,2.4725E2,-7.925007E-2,-0E0,-1.7043369E-1,-9.156216E0,1.1717279E2,8.121933E1,3.324586E1,1.431E2,8.286999E-2,-0E0,2.1874727E-1,-0E0,1.2597312E-1,1.2925E2,1.336479E2,1.2518321E-1,-3.2478835E-2,-9.086713E-2,9.01752E2,3.38E-1,7.4E1,-1.6690435E-1,3.14E2,4.776789E-2,-7.430374E-2,-2.540695E-1,-0E0,2.7929297E-1,-0E0,-0E0,-2.1500593E-1,-3.437068E-2,1.5034744E-1,9.96077E-2,-8.460704E-2],"split_indices":[2,34,17,44,58,11,0,45,35,50,0,49,67,34,38,0,0,46,0,0,0,2,53,71,26,48,0,0,0,0,0,40,50,0,0,0,41,42,5,0,15,0,0,0,0,0,0,0,0,0,0,0,0],"split_type":[0,0,0,0,0,0,0,0,0,0,0,0,0,0,0,0,0,0,0,0,0,0,0,0,0,0,0,0,0,0,0,0,0,0,0,0,0,0,0,0,0,0,0,0,0,0,0,0,0,0,0,0,0],"sum_hessian":[6.44625E1,1.3414373E1,5.1048126E1,8.04804E0,5.366334E0,3.9940865E1,1.1107261E1,3.643396E0,4.404644E0,3.60248E0,1.7638539E0,1.7576574E1,2.2364292E1,6.6319156E0,4.4753456E0,2.6154678E0,1.027928E0,2.5026064E0,1.9020379E0,1.3144536E0,2.2880263E0,1.4442181E1,3.134394E0,6.227009E0,1.6137283E1,5.354148E0,1.2777674E0,1.8143412E0,2.6610043E0,1.1748656E0,1.3277407E0,4.865804E0,9.576377E0,1.9476866E0,1.1867073E0,1.2888749E0,4.9381337E0,9.285888E0,6.8513947E0,2.254932E0,3.0992162E0,2.5445027E0,2.3213015E0,7.179281E0,2.3970957E0,3.9004397E0,1.0376941E0,4.301515E0,4.984373E0,2.5391724E0,4.3122225E0,1.976363E0,1.1228533E0],"tree_param":{"num_deleted":"0","num_feature":"73","num_nodes":"53","size_leaf_vector":"1"}},{"base_weights":[-0E0,-9.485683E-2,9.37495E-2,3.6793123E-3,-4.6388343E-1,2.3224917E-1,-3.838705E-2,-2.0519486E-1,2.2456762E-1,-0E0,-6.2833536E-1,-5.1294524E-2,3.330097E-1,-3.5029608E-1,1.8937838E-1,-5.397311E-1,4.385741E-3,-3.023827E-1,3.9316663E-1,-4.140251E-3,1.8924262E-2,-0E0,-2.2272748E-1,4.2307034E-1,-0E0,-5.2215797E-1,-0E0,-1.9618735E-2,3.7475145E-1,-0E0,-2.0227975E-1,3.327519E-1,-2.4517053E-1,-1.23428315E-1,-0E0,5.3873897E-1,-0E0,5.2521974E-1,-7.2884466E-3,1.8641302E-2,-8.672002E-2,-2.0571293E-1,-0E0,-9.943219E-3,3.0587183E-2,-0E0,1.561783E-1,-0E0,1.5795347E-1,-0E0,-1.2752357E-1,-0E0,2.0510364E-1,-2.8374972E-2,1.850974E-2,1.9452964E-1,-0E0],"categories":[],"categories_nodes":[],"categories_segments":[],"categories_sizes":[],"default_left":[1,0,0,1,0,0,0,1,0,1,0,0,0,0,0,1,0,0,0,0,0,0,0,0,0,0,0,0,0,0,0,0,0,0,0,0,0,0,0,0,0,0,0,0,0,0,0,0,0,0,0,0,0,0,0,0,0],"id":19,"left_children":[1,3,5,7,9,11,13,15,17,19,21,-1,23,25,27,29,31,33,35,-1,-1,-1,-1,37,39,41,43,-1,45,-1,-1,47,49,-1,-1,51,53,55,-1,-1,-1,-1,-1,-1,-1,-1,-1,-1,-1,-1,-1,-1,-1,-1,-1,-1,-1],"loss_changes":[5.6216264E-1,1.5136504E0,6.8521357E-1,1.2490624E0,7.04113E-1,8.6318123E-1,1.1492476E0,1.2145243E0,1.471755E0,8.360891E-3,3.7874937E-1,0E0,6.6601956E-1,5.1993775E-1,5.769661E-1,5.0377095E-1,7.380964E-1,7.492122E-2,7.8391016E-1,0E0,0E0,0E0,0E0,9.5032287E-1,1.8365581E-1,5.2867365E-1,2.4017181E-2,0E0,4.178524E-1,0E0,0E0,2.4370742E-1,2.267492E-1,0E0,0E0,7.8799915E-1,3.425457E-2,1.1703384E0,0E0,0E0,0E0,0E0,0E0,0E0,0E0,0E0,0E0,0E0,0E0,0E0,0E0,0E0,0E0,0E0,0E0,0E0,0E0],"parents":[2147483647,0,0,1,1,2,2,3,3,4,4,5,5,6,6,7,7,8,8,9,9,10,10,12,12,13,13,14,14,15,15,16,16,17,17,18,18,23,23,24,24,25,25,26,26,28,28,31,31,32,32,35,35,36,36,37,37],"right_children":[2,4,6,8,10,12,14,16,18,20,22,-1,24,26,28,30,32,34,36,-1,-1,-1,-1,38,40,42,44,-1,46,-1,-1,48,50,-1,-1,52,54,56,-1,-1,-1,-1,-1,-1,-1,-1,-1,-1,-1,-1,-1,-1,-1,-1,-1,-1,-1],"split_conditions":[3.3809E2,5.25377E2,-1.4821211E0,7.760887E1,1.7263959E2,-9.749267E1,1.3286E2,2.5E2,3.41665E2,1.17476746E2,-2.4007974E2,-5.1294524E-2,2.5922E2,1.5025E1,1.81E2,2.8033773E1,8.953089E0,4.3504E1,6.2164585E1,-4.140251E-3,1.8924262E-2,-0E0,-2.2272748E-1,6.53158E1,1.93E-1,7.21906E1,1.308E3,-1.9618735E-2,1.6799E2,-0E0,-2.0227975E-1,9.686E1,1.48E2,-1.23428315E-1,-0E0,1E0,1.6453327E1,5.1829E1,-7.2884466E-3,1.8641302E-2,-8.672002E-2,-2.0571293E-1,-0E0,-9.943219E-3,3.0587183E-2,-0E0,1.561783E-1,-0E0,1.5795347E-1,-0E0,-1.2752357E-1,-0E0,2.0510364E-1,-2.8374972E-2,1.850974E-2,1.9452964E-1,-0E0],"split_indices":[69,38,2,68,49,2,66,69,41,53,34,0,48,3,9,70,1,42,58,0,0,0,0,59,42,61,22,0,46,0,0,56,65,0,0,45,1,42,0,0,0,0,0,0,0,0,0,0,0,0,0,0,0,0,0,0,0],"split_type":[0,0,0,0,0,0,0,0,0,0,0,0,0,0,0,0,0,0,0,0,0,0,0,0,0,0,0,0,0,0,0,0,0,0,0,0,0,0,0,0,0,0,0,0,0,0,0,0,0,0,0,0,0,0,0,0,0],"sum_hessian":[6.117296E1,3.2217632E1,2.8955326E1,2.4796213E1,7.4214215E0,1.6208733E1,1.27465925E1,1.1243794E1,1.3552418E1,2.0478992E0,5.3735223E0,1.790215E0,1.4418518E1,6.37686E0,6.3697324E0,4.938382E0,6.3054123E0,2.1427877E0,1.1409631E1,1.0446134E0,1.0032858E0,1.121204E0,4.2523184E0,1.2273831E1,2.144687E0,4.2269874E0,2.149873E0,1.4541227E0,4.91561E0,1.0252498E0,3.9131322E0,3.7221007E0,2.5833116E0,1.1402317E0,1.0025561E0,8.3102045E0,3.0994256E0,1.1052948E1,1.2208834E0,1.0410985E0,1.1035883E0,3.1552858E0,1.0717014E0,1.0568391E0,1.0930338E0,1.3084229E0,3.6071868E0,1.9568889E0,1.7652117E0,1.1363986E0,1.4469129E0,1.8432255E0,6.466979E0,1.8880267E0,1.211399E0,9.691073E0,1.3618741E0],"tree_param":{"num_deleted":"0","num_feature":"73","num_nodes":"57","size_leaf_vector":"1"}},{"base_weights":[-1.762096E-2,6.2590644E-2,-1.2264218E-1,4.432827E-1,-2.401891E-2,-4.267795E-1,1.4107503E-2,6.7505825E-1,-0E0,-1.9913535E-1,1.9434251E-1,-0E0,-1.7330079E-1,5.003753E-1,-4.041616E-2,-0E0,2.5071257E-1,3.0010294E-3,-2.6993167E-2,-0E0,-4.7838876E-1,-0E0,5.034421E-1,-3.4551106E-2,5.418776E-2,1.804353E-1,-0E0,-3.360342E-1,9.620617E-2,-2.4593629E-1,3.179736E-1,-0E0,-2.052008E-1,-1.356029E-1,1.9707082E-1,-0E0,1.871666E-1,1.3682826E-3,-1.7605573E-1,-0E0,4.3332013E-1,-1.4833964E-1,3.4305606E-2,-0E0,1.4506318E-1,-1.0577475E-1,3.1675578E-3,1.2778851E-1,-0E0,-1.4942469E-1,4.1934974E-2,-0E0,1.884219E-1],"categories":[],"categories_nodes":[],"categories_segments":[],"categories_sizes":[],"default_left":[0,0,1,0,0,0,0,0,0,0,0,0,0,0,0,0,0,0,0,0,0,0,0,0,0,0,0,0,0,0,0,0,0,0,0,0,0,0,0,0,0,0,0,0,0,0,0,0,0,0,0,0,0],"id":20,"left_children":[1,3,5,7,9,11,13,15,17,19,21,23,-1,25,27,-1,-1,-1,-1,29,31,33,35,-1,-1,-1,-1,37,39,41,43,-1,-1,45,47,-1,-1,-1,-1,49,51,-1,-1,-1,-1,-1,-1,-1,-1,-1,-1,-1,-1],"loss_changes":[5.5142516E-1,1.3104905E0,1.5187794E0,8.620626E-1,9.9043864E-1,7.6284814E-1,8.5539496E-1,3.5343456E-1,1.8101973E-2,7.565174E-1,6.049663E-1,1.0367824E-1,0E0,1.5667081E-3,9.0650773E-1,0E0,0E0,0E0,0E0,9.088496E-1,9.498881E-1,2.1255341E-1,1.12995565E-1,0E0,0E0,0E0,0E0,1.0155126E0,5.981554E-1,9.5022345E-1,3.8706833E-1,0E0,0E0,3.8250405E-1,2.5444117E-1,0E0,0E0,0E0,0E0,8.596778E-1,3.4426987E-1,0E0,0E0,0E0,0E0,0E0,0E0,0E0,0E0,0E0,0E0,0E0,0E0],"parents":[2147483647,0,0,1,1,2,2,3,3,4,4,5,5,6,6,7,7,8,8,9,9,10,10,11,11,13,13,14,14,19,19,20,20,21,21,22,22,27,27,28,28,29,29,30,30,33,33,34,34,39,39,40,40],"right_children":[2,4,6,8,10,12,14,16,18,20,22,24,-1,26,28,-1,-1,-1,-1,30,32,34,36,-1,-1,-1,-1,38,40,42,44,-1,-1,46,48,-1,-1,-1,-1,50,52,-1,-1,-1,-1,-1,-1,-1,-1,-1,-1,-1,-1],"split_conditions":[6.388E1,4.875E0,1.9536E2,1.5E1,6.98335E2,1E3,2.0213E2,3.407E1,7.18E-1,2.657E3,4.036E2,1.32E2,-1.7330079E-1,8E0,1.38E0,-0E0,2.5071257E-1,3.0010294E-3,-2.6993167E-2,1.4187E2,-1.5199791E1,9.893E1,2.63E-2,-3.4551106E-2,5.418776E-2,1.804353E-1,-0E0,7.927E1,6.473366E1,1.153E3,2.925E1,-0E0,-2.052008E-1,1.875E2,-1.979E0,-0E0,1.871666E-1,1.3682826E-3,-1.7605573E-1,1.98E2,1.0439E2,-1.4833964E-1,3.4305606E-2,-0E0,1.4506318E-1,-1.0577475E-1,3.1675578E-3,1.2778851E-1,-0E0,-1.4942469E-1,4.1934974E-2,-0E0,1.884219E-1],"split_indices":[57,39,48,28,41,25,48,56,42,20,69,8,0,44,3,0,0,0,0,65,27,56,30,0,0,0,0,40,34,9,5,0,0,5,4,0,0,0,0,9,55,0,0,0,0,0,0,0,0,0,0,0,0],"split_type":[0,0,0,0,0,0,0,0,0,0,0,0,0,0,0,0,0,0,0,0,0,0,0,0,0,0,0,0,0,0,0,0,0,0,0,0,0,0,0,0,0,0,0,0,0,0,0,0,0,0,0,0,0],"sum_hessian":[5.8838085E1,3.002142E1,2.8816668E1,6.2148185E0,2.38066E1,9.778847E0,1.903782E1,4.0027494E0,2.2120688E0,1.4939584E1,8.867018E0,2.6095312E0,7.1693153E0,2.3167639E0,1.6721056E1,1.2324572E0,2.7702923E0,1.0008572E0,1.2112116E0,9.872009E0,5.0675745E0,6.0097733E0,2.8572443E0,1.4125695E0,1.1969615E0,1.2999815E0,1.0167824E0,6.3524466E0,1.036861E1,6.175722E0,3.6962872E0,1.0693059E0,3.9982688E0,3.8179662E0,2.191807E0,1.0552773E0,1.8019668E0,1.9932597E0,4.3591866E0,7.622576E0,2.7460337E0,4.5195637E0,1.6561582E0,1.0100484E0,2.6862388E0,2.7877445E0,1.0302217E0,1.0855051E0,1.1063019E0,1.9388269E0,5.6837497E0,1.0902323E0,1.6558014E0],"tree_param":{"num_deleted":"0","num_feature":"73","num_nodes":"53","size_leaf_vector":"1"}},{"base_weights":[-0E0,-4.2167217E-2,1.9283965E-1,-1.4043379E-1,7.749167E-2,3.1151727E-1,-1.0866309E-2,-5.1000494E-1,-0E0,-1.7850448E-1,2.0647037E-1,4.2612183E-1,-0E0,-0E0,-6.213972E-1,-1.7252022E-1,1.6869044E-1,-0E0,-3.959789E-1,4.727192E-1,-1.6380364E-2,5.483273E-1,-0E0,-2.0769624E-1,-0E0,1.936882E-2,-4.2728478E-1,-0E0,4.117054E-1,-0E0,-1.4717619E-1,-0E0,5.9735036E-1,-2.2884883E-1,8.397989E-2,-0E0,1.891422E-1,-8.610913E-2,1.6561154E-1,-1.827564E-1,-0E0,6.7841426E-2,-7.136177E-2,1.750617E-1,-0E0,2.3457544E-1,-0E0,-1.0659317E-1,-0E0,-0E0,8.1453525E-2],"categories":[],"categories_nodes":[],"categories_segments":[],"categories_sizes":[],"default_left":[0,0,0,0,1,0,0,0,1,0,0,0,0,0,0,0,0,0,0,0,0,0,0,0,0,0,0,0,0,0,0,0,0,0,0,0,0,0,0,0,0,0,0,0,0,0,0,0,0,0,0],"id":21,"left_children":[1,3,5,7,9,11,-1,13,15,17,19,21,-1,-1,23,25,27,-1,29,31,33,35,-1,-1,-1,37,39,41,43,-1,-1,-1,45,47,49,-1,-1,-1,-1,-1,-1,-1,-1,-1,-1,-1,-1,-1,-1,-1,-1],"loss_changes":[4.3591443E-1,6.251524E-1,4.485339E-1,1.2648202E0,7.01628E-1,4.4904208E-1,0E0,3.9833927E-1,7.2930205E-1,4.3924963E-1,1.2108958E0,4.4857013E-1,0E0,0E0,5.4620028E-2,9.655762E-1,7.0111954E-1,0E0,8.562511E-2,5.505389E-1,2.83132E-1,1.3999963E-1,0E0,0E0,0E0,1.5579551E0,6.494467E-1,3.808243E-1,6.500387E-1,0E0,0E0,0E0,9.481337E-1,2.2233695E-1,1.8193543E-1,0E0,0E0,0E0,0E0,0E0,0E0,0E0,0E0,0E0,0E0,0E0,0E0,0E0,0E0,0E0,0E0],"parents":[2147483647,0,0,1,1,2,2,3,3,4,4,5,5,7,7,8,8,9,9,10,10,11,11,14,14,15,15,16,16,18,18,19,19,20,20,21,21,25,25,26,26,27,27,28,28,32,32,33,33,34,34],"right_children":[2,4,6,8,10,12,-1,14,16,18,20,22,-1,-1,24,26,28,-1,30,32,34,36,-1,-1,-1,38,40,42,44,-1,-1,-1,46,48,50,-1,-1,-1,-1,-1,-1,-1,-1,-1,-1,-1,-1,-1,-1,-1,-1],"split_conditions":[1.665E2,3.62E2,3.970579E1,5.02E2,4.5990807E1,1.3E2,-1.0866309E-2,1E1,1.08504364E2,1E0,1.0186414E2,6.051959E1,-0E0,-0E0,1.864E3,2.87E-1,-7.23E-1,-0E0,3.88E2,7.337527E1,4.39766E2,4.1571E2,-0E0,-2.0769624E-1,-0E0,8.1E-2,2.0441E2,3.0148636E1,2.1270583E2,-0E0,-1.4717619E-1,-0E0,6.214E1,1.4083E2,3.799E1,-0E0,1.891422E-1,-8.610913E-2,1.6561154E-1,-1.827564E-1,-0E0,6.7841426E-2,-7.136177E-2,1.750617E-1,-0E0,2.3457544E-1,-0E0,-1.0659317E-1,-0E0,-0E0,8.1453525E-2],"split_indices":[5,17,1,16,62,56,0,5,68,45,62,59,0,0,13,3,4,0,9,68,37,54,0,0,0,3,66,59,49,0,0,0,56,56,40,0,0,0,0,0,0,0,0,0,0,0,0,0,0,0,0],"split_type":[0,0,0,0,0,0,0,0,0,0,0,0,0,0,0,0,0,0,0,0,0,0,0,0,0,0,0,0,0,0,0,0,0,0,0,0,0,0,0,0,0,0,0,0,0,0,0,0,0,0,0],"sum_hessian":[5.609728E1,4.770383E1,8.393448E0,2.9129862E1,1.8573969E1,7.1918406E0,1.2016077E0,6.1472316E0,2.298263E1,4.3779345E0,1.4196034E1,5.850998E0,1.3408428E0,1.3011599E0,4.8460712E0,1.3068898E1,9.913732E0,1.4837121E0,2.8942223E0,7.308235E0,6.8877997E0,4.629471E0,1.2215267E0,3.8235998E0,1.0224717E0,6.502045E0,6.5668535E0,4.9451313E0,4.9686003E0,1.0013839E0,1.8928384E0,1.5623266E0,5.7459083E0,3.9110823E0,2.9767177E0,1.0191952E0,3.6102757E0,3.6330214E0,2.8690238E0,4.4726214E0,2.0942318E0,1.2322623E0,3.712869E0,3.879993E0,1.0886077E0,4.4878664E0,1.2580422E0,2.798462E0,1.1126202E0,1.1282958E0,1.8484219E0],"tree_param":{"num_deleted":"0","num_feature":"73","num_nodes":"51","size_leaf_vector":"1"}},{"base_weights":[-1.1750098E-3,-7.266635E-2,1.0254907E-1,3.235019E-2,-2.6488614E-1,3.1147563E-1,-5.1563583E-2,-3.4971118E-1,1.6274542E-1,6.449383E-2,-4.7172463E-1,4.6438208E-1,-0E0,1.4601605E-1,-3.70113E-1,-0E0,-1.640561E-1,3.031272E-1,-7.476546E-2,-2.9752007E-2,2.949876E-1,-0E0,-5.9008753E-1,6.024101E-1,-0E0,-3.191929E-2,1.0033941E-2,1.0692767E-1,-0E0,-1.815817E-1,-0E0,3.9218757E-1,-7.993961E-3,-1.3257264E-1,6.7235686E-2,1.4855771E-1,-0E0,2.1699913E-2,-1.1282514E-2,-2.211801E-1,-0E0,-0E0,2.2929706E-1,-2.4839537E-2,-0E0,1.5202013E-1,-0E0,9.904422E-2,-0E0],"categories":[],"categories_nodes":[],"categories_segments":[],"categories_sizes":[],"default_left":[1,0,0,0,0,0,0,0,0,0,0,0,0,0,0,0,0,0,0,0,0,0,0,0,0,0,0,0,0,0,0,0,0,0,0,0,0,0,0,0,0,0,0,0,0,0,0,0,0],"id":22,"left_children":[1,3,5,7,9,11,13,15,17,19,21,23,25,27,29,-1,-1,31,33,-1,35,37,39,41,-1,-1,-1,-1,43,-1,-1,45,-1,-1,47,-1,-1,-1,-1,-1,-1,-1,-1,-1,-1,-1,-1,-1,-1],"loss_changes":[3.9582455E-1,9.078273E-1,8.0277133E-1,1.057044E0,1.3474344E0,5.6491125E-1,8.3337265E-1,4.9702406E-1,7.999662E-1,3.691684E-1,6.4448357E-1,6.314275E-1,3.0910593E-2,3.1566316E-1,5.7316864E-1,0E0,0E0,6.5594053E-1,5.91798E-1,0E0,4.2544308E-1,1.3447763E-2,8.770218E-1,6.2233186E-1,0E0,0E0,0E0,0E0,1.3906655E-2,0E0,0E0,6.7871714E-1,0E0,0E0,2.522453E-1,0E0,0E0,0E0,0E0,0E0,0E0,0E0,0E0,0E0,0E0,0E0,0E0,0E0,0E0],"parents":[2147483647,0,0,1,1,2,2,3,3,4,4,5,5,6,6,7,7,8,8,9,9,10,10,11,11,12,12,13,13,14,14,17,17,18,18,20,20,21,21,22,22,23,23,28,28,31,31,34,34],"right_children":[2,4,6,8,10,12,14,16,18,20,22,24,26,28,30,-1,-1,32,34,-1,36,38,40,42,-1,-1,-1,-1,44,-1,-1,46,-1,-1,48,-1,-1,-1,-1,-1,-1,-1,-1,-1,-1,-1,-1,-1,-1],"split_conditions":[9.893E1,1.1149225E2,2E-1,7.222747E1,7.0422E1,6.21E2,8.96E-1,-8.729048E0,1.69874E2,1.7382E2,4E0,2.36959E2,2.36959E2,1.3E1,1.3114359E2,-0E0,-1.640561E-1,1.482E3,-4.18E-1,-2.9752007E-2,1.3675386E2,-4.519991E0,1.8275E2,4.6429E1,-0E0,-3.191929E-2,1.0033941E-2,1.0692767E-1,4.923E0,-1.815817E-1,-0E0,4.6E1,-7.993961E-3,-1.3257264E-1,2.86E2,1.4855771E-1,-0E0,2.1699913E-2,-1.1282514E-2,-2.211801E-1,-0E0,-0E0,2.2929706E-1,-2.4839537E-2,-0E0,1.5202013E-1,-0E0,9.904422E-2,-0E0],"split_indices":[56,67,35,68,40,13,42,61,64,46,44,64,64,44,50,0,0,13,4,0,50,2,5,39,0,0,0,0,3,0,0,28,0,0,69,0,0,0,0,0,0,0,0,0,0,0,0,0,0],"split_type":[0,0,0,0,0,0,0,0,0,0,0,0,0,0,0,0,0,0,0,0,0,0,0,0,0,0,0,0,0,0,0,0,0,0,0,0,0,0,0,0,0,0,0,0,0,0,0,0,0],"sum_hessian":[5.4036602E1,3.5936794E1,1.8099808E1,2.1554926E1,1.438187E1,9.070019E0,9.029789E0,3.7673774E0,1.7787548E1,4.5808625E0,9.801008E0,6.149872E0,2.920147E0,4.6272173E0,4.4025717E0,1.155713E0,2.6116643E0,1.2754537E1,5.0330114E0,1.3356335E0,3.245229E0,2.047592E0,7.753416E0,4.988744E0,1.161128E0,1.4904054E0,1.4297414E0,2.429173E0,2.198044E0,2.5845938E0,1.8179779E0,1.1470946E1,1.2835906E0,2.1123903E0,2.9206214E0,2.241448E0,1.0037812E0,1.0229286E0,1.0246632E0,6.2208624E0,1.5325539E0,1.2032584E0,3.785485E0,1.0285151E0,1.169529E0,9.113314E0,2.3576329E0,1.4768414E0,1.4437801E0],"tree_param":{"num_deleted":"0","num_feature":"73","num_nodes":"49","size_leaf_vector":"1"}},{"base_weights":[-1.112039E-2,-1.542231E-1,2.6524981E-2,-3.9102033E-1,4.9688734E-2,1.5548599E-1,-7.567765E-2,-4.9266368E-1,-0E0,-1.8418637E-1,3.4063E-1,-3.0534668E-3,3.3505192E-1,-4.510985E-1,2.1557644E-2,-0E0,-1.9379266E-1,-9.652732E-2,-0E0,-0E0,1.5018883E-1,1.5254676E-1,-1.7131765E-1,5.677082E-1,-7.805653E-2,-1.9354674E-1,-0E0,-1.4863832E-1,2.2551648E-1,-0E0,9.272796E-2,-3.5045007E-1,4.38633E-3,-0E0,7.183383E-1,3.3656307E-2,-1.21528186E-1,1.0123052E-2,-3.520535E-1,4.384119E-1,-0E0,-0E0,-1.5008555E-1,2.5446793E-1,-0E0,-1.6504927E-1,-0E0,-0E0,1.5832718E-1,-7.059829E-2,3.89251E-2],"categories":[],"categories_nodes":[],"categories_segments":[],"categories_sizes":[],"default_left":[1,1,1,1,0,1,0,0,0,0,0,0,0,0,0,0,0,0,0,0,0,0,0,0,0,0,0,0,0,0,0,1,0,0,0,0,0,0,0,0,0,0,0,0,0,0,0,0,0,0,0],"id":23,"left_children":[1,3,5,7,9,11,13,15,-1,17,19,21,23,25,27,-1,-1,-1,-1,-1,-1,29,31,33,35,-1,-1,37,39,-1,-1,41,-1,-1,43,-1,-1,-1,45,47,49,-1,-1,-1,-1,-1,-1,-1,-1,-1,-1],"loss_changes":[3.7359077E-1,9.608246E-1,5.798612E-1,4.9517834E-1,6.6650045E-1,8.032216E-1,1.0100435E0,5.74816E-1,0E0,1.1998998E-1,2.783481E-1,2.9799956E-1,1.4792094E0,5.7274866E-1,6.10104E-1,0E0,0E0,0E0,0E0,0E0,0E0,1.188733E-1,4.6924156E-1,1.0491972E0,4.892121E-1,0E0,0E0,4.85362E-1,6.074666E-1,0E0,0E0,4.52807E-1,0E0,0E0,5.340228E-1,0E0,0E0,0E0,5.3472096E-1,1.7974305E-1,2.0946552E-1,0E0,0E0,0E0,0E0,0E0,0E0,0E0,0E0,0E0,0E0],"parents":[2147483647,0,0,1,1,2,2,3,3,4,4,5,5,6,6,7,7,9,9,10,10,11,11,12,12,13,13,14,14,21,21,22,22,23,23,24,24,27,27,28,28,31,31,34,34,38,38,39,39,40,40],"right_children":[2,4,6,8,10,12,14,16,-1,18,20,22,24,26,28,-1,-1,-1,-1,-1,-1,30,32,34,36,-1,-1,38,40,-1,-1,42,-1,-1,44,-1,-1,-1,46,48,50,-1,-1,-1,-1,-1,-1,-1,-1,-1,-1],"split_conditions":[2.568E1,1.50027E2,6.388E1,1.334391E2,2.1E0,2.777E1,1.0331975E2,-2.0568945E2,-0E0,2.25E2,5.1E1,9.1E-2,8.953089E0,4.0149044E1,1.1276E2,-0E0,-1.9379266E-1,-9.652732E-2,-0E0,-0E0,1.5018883E-1,7.829E1,1.625E2,2.178E1,1E0,-1.9354674E-1,-0E0,7.927E1,2.2226167E2,-0E0,9.272796E-2,8.747E1,4.38633E-3,-0E0,1.95425E2,3.3656307E-2,-1.21528186E-1,1.0123052E-2,3.5E1,7.214E1,3.48E2,-0E0,-1.5008555E-1,2.5446793E-1,-0E0,-1.6504927E-1,-0E0,-0E0,1.5832718E-1,-7.059829E-2,3.89251E-2],"split_indices":[56,66,57,59,35,57,67,34,0,9,5,3,1,26,57,0,0,0,0,0,0,55,5,55,45,0,0,40,52,0,0,63,0,0,39,0,0,0,32,55,17,0,0,0,0,0,0,0,0,0,0],"split_type":[0,0,0,0,0,0,0,0,0,0,0,0,0,0,0,0,0,0,0,0,0,0,0,0,0,0,0,0,0,0,0,0,0,0,0,0,0,0,0,0,0,0,0,0,0,0,0,0,0,0,0],"sum_hessian":[5.192711E1,1.3825671E1,3.8101437E1,7.4716763E0,6.3539953E0,1.947326E1,1.8628176E1,6.3767705E0,1.0949059E0,2.4668975E0,3.8870976E0,8.910005E0,1.0563255E1,4.481437E0,1.4146738E1,1.7084838E0,4.668287E0,1.2950609E0,1.1718367E0,1.5140274E0,2.3730702E0,2.637604E0,6.272401E0,7.541286E0,3.0219693E0,3.0558875E0,1.42555E0,6.093592E0,8.053146E0,1.5073422E0,1.1302619E0,4.5538983E0,1.7185025E0,1.1732295E0,6.368057E0,1.0485985E0,1.9733708E0,1.940074E0,4.153518E0,4.555988E0,3.497158E0,1.0194297E0,3.5344687E0,5.026526E0,1.3415308E0,2.87688E0,1.2766382E0,1.0766071E0,3.4793808E0,2.0334225E0,1.4637355E0],"tree_param":{"num_deleted":"0","num_feature":"73","num_nodes":"51","size_leaf_vector":"1"}},{"base_weights":[-2.930651E-3,-9.2807986E-2,6.54364E-2,-2.1588469E-1,1.1184956E-1,-1.3195772E-1,1.9110973E-1,-0E0,-4.9650866E-1,4.307382E-1,-2.3100676E-2,1.7531224E-2,-2.7072468E-1,3.8494435E-1,-0E0,-1.5344627E-1,2.4340609E-1,-0E0,-2.0395048E-1,-0E0,1.6567446E-1,2.302447E-2,-2.3150079E-1,-4.1157097E-1,-0E0,4.9379447E-1,-0E0,-1.3869892E-1,8.576602E-2,1.3377841E-1,-3.501914E-1,9.849305E-2,-0E0,-2.706505E-2,1.8905092E-3,-0E0,-1.1262796E-1,-1.7050147E-1,-0E0,5.683883E-1,-0E0,-0E0,-2.7644315E-1,-0E0,5.7493985E-2,-0E0,-1.4912446E-1,-0E0,1.9051965E-1,-0E0,-1.4078365E-1],"categories":[],"categories_nodes":[],"categories_segments":[],"categories_sizes":[],"default_left":[0,0,1,0,0,0,0,0,0,1,0,0,1,0,0,0,0,0,0,0,0,0,0,0,0,0,0,0,0,0,0,0,0,0,0,0,0,0,0,0,0,0,0,0,0,0,0,0,0,0,0],"id":24,"left_children":[1,3,5,7,9,11,13,15,17,19,21,-1,23,25,27,29,31,33,-1,-1,-1,-1,35,37,-1,39,-1,41,-1,43,45,-1,-1,-1,-1,-1,-1,-1,-1,47,-1,-1,49,-1,-1,-1,-1,-1,-1,-1,-1],"loss_changes":[3.3437854E-1,7.5788105E-1,6.866045E-1,9.3325615E-1,6.4753586E-1,3.754986E-1,7.0726955E-1,4.6630177E-1,5.444739E-1,1.2006372E-1,2.3458576E-1,0E0,4.530537E-1,5.634979E-1,4.0273833E-1,7.173346E-1,7.3409885E-2,1.7769493E-2,0E0,0E0,0E0,0E0,2.1835783E-1,4.2709506E-1,0E0,2.8929746E-1,0E0,3.1662434E-1,0E0,1.7430421E-2,5.4788965E-1,0E0,0E0,0E0,0E0,0E0,0E0,0E0,0E0,6.1412096E-2,0E0,0E0,3.4781027E-1,0E0,0E0,0E0,0E0,0E0,0E0,0E0,0E0],"parents":[2147483647,0,0,1,1,2,2,3,3,4,4,5,5,6,6,7,7,8,8,9,9,10,10,12,12,13,13,14,14,15,15,16,16,17,17,22,22,23,23,25,25,27,27,29,29,30,30,39,39,42,42],"right_children":[2,4,6,8,10,12,14,16,18,20,22,-1,24,26,28,30,32,34,-1,-1,-1,-1,36,38,-1,40,-1,42,-1,44,46,-1,-1,-1,-1,-1,-1,-1,-1,48,-1,-1,50,-1,-1,-1,-1,-1,-1,-1,-1],"split_conditions":[1.64008E2,3.674E3,5.204784E1,6.9474E1,1.80354E2,9.146125E1,1.0186414E2,5.0284E1,-3.623488E1,1.385533E2,1.01975E2,1.7531224E-2,8.133E1,4.59E2,1.0225E2,1.751E3,4.1E1,2.828E3,-2.0395048E-1,-0E0,1.6567446E-1,2.302447E-2,1.6997E1,3.5928E1,-0E0,3.970579E1,-0E0,1.98E0,8.576602E-2,2.4826E1,1.26E2,9.849305E-2,-0E0,-2.706505E-2,1.8905092E-3,-0E0,-1.1262796E-1,-1.7050147E-1,-0E0,8.751487E1,-0E0,-0E0,5.359E1,-0E0,5.7493985E-2,-0E0,-1.4912446E-1,-0E0,1.9051965E-1,-0E0,-1.4078365E-1],"split_indices":[37,11,62,37,64,49,62,37,2,70,40,0,56,9,5,11,28,11,0,0,0,0,39,42,0,1,0,57,0,42,9,0,0,0,0,0,0,0,0,53,0,0,55,0,0,0,0,0,0,0,0],"split_type":[0,0,0,0,0,0,0,0,0,0,0,0,0,0,0,0,0,0,0,0,0,0,0,0,0,0,0,0,0,0,0,0,0,0,0,0,0,0,0,0,0,0,0,0,0,0,0,0,0,0,0],"sum_hessian":[4.948628E1,2.5400686E1,2.4085592E1,1.7843546E1,7.557141E0,7.304686E0,1.6780907E1,1.1495356E1,6.348191E0,3.0512502E0,4.505891E0,1.3162289E0,5.988457E0,8.155492E0,8.625415E0,8.334565E0,3.1607897E0,2.2506552E0,4.0975356E0,1.1929656E0,1.8582847E0,1.3299443E0,3.1759465E0,4.69837E0,1.290087E0,6.874974E0,1.2805176E0,6.4517717E0,2.1736429E0,2.1530805E0,6.1814847E0,1.9680815E0,1.1927084E0,1.1730957E0,1.0775595E0,1.038854E0,2.1370926E0,3.310557E0,1.3878131E0,5.8391004E0,1.0358737E0,1.4327707E0,5.019001E0,1.1421028E0,1.0109776E0,1.3998511E0,4.781634E0,1.2084471E0,4.6306534E0,2.3509529E0,2.6680481E0],"tree_param":{"num_deleted":"0","num_feature":"73","num_nodes":"51","size_leaf_vector":"1"}},{"base_weights":[-0E0,-1.710919E-1,3.7531532E-2,4.2558543E-2,-4.5887834E-1,1.8639961E-1,-2.178071E-3,-1.1049079E-2,1.04532905E-1,-1.7546055E-1,-0E0,-9.495564E-2,3.377757E-1,-2.1275868E-1,8.880454E-2,-0E0,-8.451584E-2,-0E0,4.801484E-1,-5.262369E-1,-0E0,3.7743717E-1,-2.3511378E-2,1.5707547E-2,-5.1996514E-2,5.398231E-1,-0E0,-0E0,-1.902587E-1,1.7818138E-1,-3.3475727E-2,-0E0,5.130332E-1,-3.015378E-1,8.44164E-2,1.8865477E-1,-0E0,-0E0,9.877431E-2,1.9736956E-1,-0E0,-0E0,-1.4212573E-1,9.06001E-2,-0E0],"categories":[],"categories_nodes":[],"categories_segments":[],"categories_sizes":[],"default_left":[1,0,0,1,0,0,0,0,0,0,0,0,0,0,1,0,0,0,0,0,0,0,0,0,0,0,0,0,0,0,0,0,0,0,0,0,0,0,0,0,0,0,0,0,0],"id":25,"left_children":[1,3,5,7,9,11,13,-1,-1,-1,-1,15,17,19,21,-1,-1,23,25,27,29,31,33,-1,-1,35,-1,-1,-1,37,-1,-1,39,41,43,-1,-1,-1,-1,-1,-1,-1,-1,-1,-1],"loss_changes":[2.9814836E-1,7.9929936E-1,3.649855E-1,3.2334903E-1,3.015722E-1,7.1067643E-1,6.7396694E-1,0E0,0E0,0E0,0E0,1.6220829E-1,5.9978807E-1,1.1036344E0,8.7179506E-1,0E0,0E0,7.291611E-2,1.5282154E-1,3.3265674E-1,1.9449577E-1,5.347979E-1,5.6688154E-1,0E0,0E0,2.5627923E-1,0E0,0E0,0E0,1.9439144E-1,0E0,0E0,2.5365627E-1,4.2553324E-1,2.8950015E-1,0E0,0E0,0E0,0E0,0E0,0E0,0E0,0E0,0E0,0E0],"parents":[2147483647,0,0,1,1,2,2,3,3,4,4,5,5,6,6,11,11,12,12,13,13,14,14,17,17,18,18,19,19,20,20,21,21,22,22,25,25,29,29,32,32,33,33,34,34],"right_children":[2,4,6,8,10,12,14,-1,-1,-1,-1,16,18,20,22,-1,-1,24,26,28,30,32,34,-1,-1,36,-1,-1,-1,38,-1,-1,40,42,44,-1,-1,-1,-1,-1,-1,-1,-1,-1,-1],"split_conditions":[2.46495E2,9.932E1,4.7182083E1,7.760887E1,3.524E3,1.2284E2,7.962E1,-1.1049079E-2,1.04532905E-1,-1.7546055E-1,-0E0,2.502E1,1.431E2,1.9311917E2,1.8666399E2,-0E0,-8.451584E-2,9.494E1,1.519E3,-4.769069E1,9.9801384E1,-3.412E0,1.9058691E2,1.5707547E-2,-5.1996514E-2,2.49864E2,-0E0,-0E0,-1.902587E-1,1.90652E2,-3.3475727E-2,-0E0,3.8E1,1.98E0,-4.0131634E1,1.8865477E-1,-0E0,-0E0,9.877431E-2,1.9736956E-1,-0E0,-0E0,-1.4212573E-1,9.06001E-2,-0E0],"split_indices":[69,7,58,68,11,47,56,0,0,0,0,57,48,49,52,0,0,7,22,27,62,4,67,0,0,64,0,0,0,39,0,0,5,57,2,0,0,0,0,0,0,0,0,0,0],"split_type":[0,0,0,0,0,0,0,0,0,0,0,0,0,0,0,0,0,0,0,0,0,0,0,0,0,0,0,0,0,0,0,0,0,0,0,0,0,0,0,0,0,0,0,0,0],"sum_hessian":[4.7290974E1,7.2083616E0,4.008261E1,3.3084333E0,3.899928E0,1.1166224E1,2.8916388E1,1.6100949E0,1.6983385E0,2.8978634E0,1.0020647E0,2.5096262E0,8.656597E0,1.0511356E1,1.8405031E1,1.067101E0,1.4425253E0,2.2760367E0,6.380561E0,4.866963E0,5.6443934E0,6.1423907E0,1.226264E1,1.034426E0,1.2416108E0,5.363408E0,1.0171527E0,1.0003608E0,3.866602E0,4.1464663E0,1.4979273E0,1.2446847E0,4.897706E0,4.6393986E0,7.6232414E0,4.337278E0,1.0261303E0,1.8459933E0,2.300473E0,3.1724207E0,1.7252854E0,1.4588141E0,3.1805844E0,2.8479636E0,4.7752776E0],"tree_param":{"num_deleted":"0","num_feature":"73","num_nodes":"45","size_leaf_vector":"1"}},{"base_weights":[-0E0,-3.5124302E-2,1.5955666E-1,-1.2703855E-1,6.1796892E-2,2.9168096E-1,-0E0,-4.4088793E-1,-0E0,-7.155969E-2,1.8744218E-1,-0E0,1.1281679E-1,-5.358513E-2,7.2282143E-3,-1.5352187E-1,-0E0,1.5381615E-1,-1.07201E-1,-0E0,-1.9818509E-1,4.1228312E-1,-0E0,1.2218563E-1,-0E0,-3.105734E-1,8.000369E-2,-0E0,-1.1074942E-1,-0E0,5.0980735E-1,7.024874E-2,-4.9214326E-2,-7.079169E-2,-0E0,-1.5930368E-1,-0E0,-1.3523126E-2,8.7033406E-2,1.7717895E-1,-0E0,-0E0,1.0648512E-1],"categories":[],"categories_nodes":[],"categories_segments":[],"categories_sizes":[],"default_left":[0,0,0,0,1,0,0,0,0,0,0,0,0,0,0,0,0,0,0,0,0,0,0,0,0,1,0,0,0,0,0,0,0,0,0,0,0,0,0,0,0,0,0],"id":26,"left_children":[1,3,5,7,9,11,13,15,17,19,21,-1,-1,-1,-1,-1,-1,23,25,-1,27,29,31,-1,33,35,37,-1,-1,-1,39,41,-1,-1,-1,-1,-1,-1,-1,-1,-1,-1,-1],"loss_changes":[2.5131488E-1,4.0171146E-1,2.6757938E-1,7.121437E-1,3.637404E-1,1.6054115E-1,7.1904585E-2,1.1432612E-1,3.0995414E-1,1.468834E-1,5.2133524E-1,0E0,0E0,0E0,0E0,0E0,0E0,4.76926E-1,7.15769E-1,0E0,2.342399E-1,1.9523746E-1,1.0129607E-1,0E0,1.1672823E-1,7.167158E-1,3.449963E-1,0E0,0E0,0E0,2.3127913E-2,2.8474393E-1,0E0,0E0,0E0,0E0,0E0,0E0,0E0,0E0,0E0,0E0,0E0],"parents":[2147483647,0,0,1,1,2,2,3,3,4,4,5,5,6,6,7,7,8,8,9,9,10,10,17,17,18,18,20,20,21,21,22,22,24,24,25,25,26,26,30,30,31,31],"right_children":[2,4,6,8,10,12,14,16,18,20,22,-1,-1,-1,-1,-1,-1,24,26,-1,28,30,32,-1,34,36,38,-1,-1,-1,40,42,-1,-1,-1,-1,-1,-1,-1,-1,-1,-1,-1],"split_conditions":[1.665E2,3.62E2,2.4177E2,5.02E2,5.204784E1,4.4171E2,1.7E1,2.277E3,4.153407E1,1E0,1.0186414E2,-0E0,1.1281679E-1,-5.358513E-2,7.2282143E-3,-1.5352187E-1,-0E0,-1.8348679E1,1.8355165E1,-0E0,1.065E2,5.271E1,-1.36E-1,1.2218563E-1,5.878E1,1.00693E3,8.388E1,-0E0,-1.1074942E-1,-0E0,3.6E1,1.96227E2,-4.9214326E-2,-7.079169E-2,-0E0,-1.5930368E-1,-0E0,-1.3523126E-2,8.7033406E-2,1.7717895E-1,-0E0,-0E0,1.0648512E-1],"split_indices":[5,17,47,16,62,54,44,13,59,45,62,0,0,0,0,0,0,2,26,0,8,55,4,0,56,54,55,0,0,0,5,66,0,0,0,0,0,0,0,0,0,0,0],"split_type":[0,0,0,0,0,0,0,0,0,0,0,0,0,0,0,0,0,0,0,0,0,0,0,0,0,0,0,0,0,0,0,0,0,0,0,0,0,0,0,0,0,0,0],"sum_hessian":[4.533681E1,3.8373234E1,6.9635806E0,2.3034807E1,1.5338425E1,4.528104E0,2.4354768E0,4.659144E0,1.8375664E1,5.098652E0,1.0239773E1,1.0671467E0,3.4609573E0,1.2133412E0,1.2221354E0,3.6371427E0,1.0220009E0,5.2294474E0,1.3146216E1,1.5638906E0,3.5347612E0,4.3903637E0,5.849409E0,2.7635984E0,2.465849E0,7.676822E0,5.469394E0,1.5090395E0,2.0257218E0,1.1138641E0,3.2764995E0,4.0027623E0,1.8466469E0,1.0963022E0,1.3695468E0,4.509891E0,3.166931E0,1.9495485E0,3.519846E0,2.2528427E0,1.0236568E0,2.546754E0,1.4560083E0],"tree_param":{"num_deleted":"0","num_feature":"73","num_nodes":"43","size_leaf_vector":"1"}},{"base_weights":[-0E0,-2.2135796E-2,2.1627921E-1,1.2469085E-1,-6.8478666E-2,-0E0,9.5663235E-2,-2.171442E-2,3.2130158E-1,-2.0384589E-1,1.7773781E-2,-0E0,1.3077527E-1,-4.4037977E-1,-0E0,2.3669524E-1,-5.7449542E-2,-5.3156716E-1,-0E0,-2.0536588E-1,2.1060714E-1,-3.355502E-2,4.3022478E-1,-3.3071026E-1,3.879286E-2,-0E0,-1.902499E-1,-0E0,-1.5525067E-1,-0E0,1.179594E-1,-0E0,1.5882328E-1,-1.6493392E-1,-0E0,7.332122E-2,-1.042913E-2],"categories":[],"categories_nodes":[],"categories_segments":[],"categories_sizes":[],"default_left":[1,0,0,0,1,0,0,0,0,1,0,0,0,0,0,0,0,0,0,0,0,0,0,0,0,0,0,0,0,0,0,0,0,0,0,0,0],"id":27,"left_children":[1,3,5,7,9,-1,-1,-1,11,13,15,-1,-1,17,19,21,23,25,-1,27,29,-1,31,33,35,-1,-1,-1,-1,-1,-1,-1,-1,-1,-1,-1,-1],"loss_changes":[2.1758601E-1,2.5477725E-1,6.5415025E-2,4.5606017E-1,5.436386E-1,0E0,0E0,0E0,1.6604394E-1,6.700875E-1,4.5739377E-1,0E0,0E0,2.4916601E-1,5.118073E-1,7.639929E-1,5.545162E-1,2.4693954E-1,0E0,7.2890675E-1,3.3543348E-1,0E0,2.9021442E-1,4.8758E-1,2.8184822E-1,0E0,0E0,0E0,0E0,0E0,0E0,0E0,0E0,0E0,0E0,0E0,0E0],"parents":[2147483647,0,0,1,1,2,2,3,3,4,4,8,8,9,9,10,10,13,13,14,14,15,15,16,16,17,17,19,19,20,20,22,22,23,23,24,24],"right_children":[2,4,6,8,10,-1,-1,-1,12,14,16,-1,-1,18,20,22,24,26,-1,28,30,-1,32,34,36,-1,-1,-1,-1,-1,-1,-1,-1,-1,-1,-1,-1],"split_conditions":[3.8508E2,1.1074696E2,5.0336197E1,2.777E1,7.962E1,-0E0,9.5663235E-2,-2.171442E-2,7.940357E0,9.955659E1,1.807775E2,-0E0,1.3077527E-1,1.91E3,6.075E1,1.40855E2,8.277541E1,1E0,-0E0,8.817E1,6E-1,-3.355502E-2,1.55E-1,2.09478E2,3.323E0,-0E0,-1.902499E-1,-0E0,-1.5525067E-1,-0E0,1.179594E-1,-0E0,1.5882328E-1,-1.6493392E-1,-0E0,7.332122E-2,-1.042913E-2],"split_indices":[46,52,59,55,56,0,0,0,61,68,49,0,0,18,5,49,58,45,0,60,35,0,3,65,42,0,0,0,0,0,0,0,0,0,0,0,0],"split_type":[0,0,0,0,0,0,0,0,0,0,0,0,0,0,0,0,0,0,0,0,0,0,0,0,0,0,0,0,0,0,0,0,0,0,0,0,0],"sum_hessian":[4.3862026E1,4.064669E1,3.2153342E0,5.9254184E0,3.472127E1,1.6328483E0,1.582486E0,1.596473E0,4.3289456E0,1.5963959E1,1.8757313E1,1.5600764E0,2.7688692E0,6.089994E0,9.873964E0,6.4942217E0,1.2263091E1,4.7479424E0,1.3420516E0,5.818916E0,4.055049E0,1.2503387E0,5.243883E0,4.347697E0,7.915395E0,1.0953995E0,3.652543E0,3.0233104E0,2.7956054E0,1.4351575E0,2.6198914E0,1.0849823E0,4.1589007E0,2.5481434E0,1.7995534E0,3.8403718E0,4.0750227E0],"tree_param":{"num_deleted":"0","num_feature":"73","num_nodes":"37","size_leaf_vector":"1"}},{"base_weights":[-0E0,6.2563434E-2,-6.5763466E-2,2.1018682E-1,-0E0,-2.350863E-1,1.1220341E-2,3.2523006E-1,-0E0,-1.2513912E-1,1.9305836E-1,-4.135503E-1,1.4384318E-3,-1.2893215E-2,8.077523E-2,-0E0,4.758692E-1,-3.2433805E-1,-0E0,-0E0,9.850134E-2,-1.7291114E-1,-0E0,-0E0,4.9985964E-2,-2.0382802E-1,7.014999E-2,-0E0,1.7161074E-1,-0E0,-4.074653E-1,-0E0,1.5399969E-1,-0E0,-3.9227682E-1,2.2219254E-1,-1.16797285E-2,-1.5392898E-1,-0E0,9.351437E-2,-0E0,-0E0,-1.4846288E-1,9.9448964E-2,-0E0],"categories":[],"categories_nodes":[],"categories_segments":[],"categories_sizes":[],"default_left":[0,0,1,0,0,0,0,0,0,0,0,0,0,0,0,0,0,0,0,0,0,0,0,0,0,0,0,0,0,0,0,0,0,0,0,0,0,0,0,0,0,0,0,0,0],"id":28,"left_children":[1,3,5,7,9,11,13,15,-1,17,19,21,23,25,-1,-1,27,29,31,-1,-1,-1,-1,-1,-1,33,35,-1,-1,-1,37,-1,39,-1,41,43,-1,-1,-1,-1,-1,-1,-1,-1,-1],"loss_changes":[1.8266797E-1,2.8419644E-1,4.5077685E-1,3.667402E-1,3.3163202E-1,6.919099E-1,2.6061663E-1,5.4405785E-1,0E0,4.6349645E-1,1.6957484E-1,8.3661544E-1,5.5561114E-2,2.851587E-1,0E0,0E0,2.3043871E-1,1.0911858E-1,9.401143E-2,0E0,0E0,0E0,0E0,0E0,0E0,4.7138315E-1,2.351371E-1,0E0,0E0,0E0,1.6628623E-1,0E0,1.5133798E-1,0E0,1.7771655E-1,1.7404449E-1,0E0,0E0,0E0,0E0,0E0,0E0,0E0,0E0,0E0],"parents":[2147483647,0,0,1,1,2,2,3,3,4,4,5,5,6,6,7,7,9,9,10,10,11,11,12,12,13,13,16,16,17,17,18,18,25,25,26,26,30,30,32,32,34,34,35,35],"right_children":[2,4,6,8,10,12,14,16,-1,18,20,22,24,26,-1,-1,28,30,32,-1,-1,-1,-1,-1,-1,34,36,-1,-1,-1,38,-1,40,-1,42,44,-1,-1,-1,-1,-1,-1,-1,-1,-1],"split_conditions":[5.843E1,1.67E-1,3.20283E2,3.6717E1,4.2440422E1,1.25E2,1.9003E2,7.663846E1,-0E0,8.586296E1,2.65E2,5E1,2.7964E2,-6.27E-1,8.077523E-2,-0E0,2E0,6.958821E1,1.7881E2,-0E0,9.850134E-2,-1.7291114E-1,-0E0,-0E0,4.9985964E-2,6.5869E1,2.865E1,-0E0,1.7161074E-1,-0E0,3.918E1,-0E0,-9.9202E-1,-0E0,-4.647786E1,2.3557E2,-1.16797285E-2,-1.5392898E-1,-0E0,9.351437E-2,-0E0,-0E0,-1.4846288E-1,9.9448964E-2,-0E0],"split_indices":[57,3,69,42,26,5,7,68,0,62,9,32,47,4,0,0,45,67,37,0,0,0,0,0,0,40,3,0,0,0,57,0,31,0,2,47,0,0,0,0,0,0,0,0,0],"split_type":[0,0,0,0,0,0,0,0,0,0,0,0,0,0,0,0,0,0,0,0,0,0,0,0,0,0,0,0,0,0,0,0,0,0,0,0,0,0,0,0,0,0,0,0,0],"sum_hessian":[4.2251858E1,2.021984E1,2.2032019E1,7.312975E0,1.2906863E1,8.926807E0,1.310521E1,5.939236E0,1.373739E0,9.363334E0,3.54353E0,6.2534504E0,2.6733572E0,1.05122E1,2.5930097E0,1.2954106E0,4.6438255E0,4.948791E0,4.4145427E0,1.3997339E0,2.1437962E0,5.252591E0,1.0008595E0,1.6717596E0,1.0015976E0,5.1570125E0,5.3551884E0,1.0338732E0,3.6099524E0,1.5224121E0,3.426379E0,1.4504752E0,2.9640672E0,1.431406E0,3.7256062E0,4.334219E0,1.0209694E0,2.4230852E0,1.0032939E0,1.5250548E0,1.4390124E0,1.0306739E0,2.6949325E0,2.9802763E0,1.3539425E0],"tree_param":{"num_deleted":"0","num_feature":"73","num_nodes":"45","size_leaf_vector":"1"}},{"base_weights":[-0E0,-3.4227118E-2,1.3838933E-1,-0E0,-2.1851131E-1,-0E0,2.785033E-1,-2.8396187E-2,1.4263491E-1,2.5330675E-3,-3.9981592E-1,1.2242399E-1,-0E0,4.932204E-2,-1.4702226E-1,-0E0,1.174551E-1,-0E0,-5.0117505E-1,-5.499273E-2,2.1763605E-1,-3.1038195E-1,-0E0,1.759986E-2,-4.951753E-2,-0E0,-1.7816268E-1,-0E0,-9.12966E-2,-4.5012287E-3,1.310142E-1,-1.3658553E-1,-0E0,-2.215195E-2,5.365354E-2],"categories":[],"categories_nodes":[],"categories_segments":[],"categories_sizes":[],"default_left":[0,0,0,0,0,0,0,0,0,0,0,0,0,0,1,0,0,0,0,0,0,0,0,0,0,0,0,0,0,0,0,0,0,0,0],"id":29,"left_children":[1,3,5,7,9,-1,11,13,15,-1,17,-1,-1,19,21,23,-1,-1,25,27,29,31,33,-1,-1,-1,-1,-1,-1,-1,-1,-1,-1,-1,-1],"loss_changes":[1.9203334E-1,3.084518E-1,3.24983E-1,1.6596234E-1,5.6296825E-1,0E0,3.375842E-1,2.7701056E-1,3.908396E-1,0E0,2.652666E-1,0E0,0E0,3.0960467E-1,4.3944559E-1,9.180103E-2,0E0,0E0,1.12957E-1,2.4360916E-1,6.302097E-1,3.276714E-1,1.4115435E-1,0E0,0E0,0E0,0E0,0E0,0E0,0E0,0E0,0E0,0E0,0E0,0E0],"parents":[2147483647,0,0,1,1,2,2,3,3,4,4,6,6,7,7,8,8,10,10,13,13,14,14,15,15,18,18,19,19,20,20,21,21,22,22],"right_children":[2,4,6,8,10,-1,12,14,16,-1,18,-1,-1,20,22,24,-1,-1,26,28,30,32,34,-1,-1,-1,-1,-1,-1,-1,-1,-1,-1,-1,-1],"split_conditions":[3.83353E2,8.0325E0,3.5E1,3.69949E0,2E0,-0E0,1.0182E1,1.9068E2,1.1E3,2.5330675E-3,1.2E3,1.2242399E-1,-0E0,9E1,2.6536E2,-9.947107E0,1.174551E-1,-0E0,9.43E0,1.1026381E2,9.074366E1,1.2148E2,1.6E1,1.759986E-2,-4.951753E-2,-0E0,-1.7816268E-1,-0E0,-9.12966E-2,-4.5012287E-3,1.310142E-1,-1.3658553E-1,-0E0,-2.215195E-2,5.365354E-2],"split_indices":[39,30,5,30,44,0,3,47,14,0,21,0,0,64,47,2,0,0,57,52,68,57,44,0,0,0,0,0,0,0,0,0,0,0,0],"split_type":[0,0,0,0,0,0,0,0,0,0,0,0,0,0,0,0,0,0,0,0,0,0,0,0,0,0,0,0,0,0,0,0,0,0,0],"sum_hessian":[4.0743855E1,3.3848515E1,6.8953404E0,2.753339E1,6.3151245E0,1.7560112E0,5.1393294E0,2.125805E1,6.2753377E0,1.6095061E0,4.7056184E0,3.8866827E0,1.2526466E0,9.831388E0,1.1426662E1,3.7599745E0,2.5153632E0,1.0183741E0,3.6872444E0,4.0617714E0,5.7696176E0,6.3497725E0,5.0768905E0,1.7360651E0,2.0239093E0,1.0288221E0,2.6584222E0,2.2660494E0,1.7957219E0,1.7872732E0,3.9823444E0,3.9966407E0,2.353132E0,2.2112186E0,2.8656716E0],"tree_param":{"num_deleted":"0","num_feature":"73","num_nodes":"35","size_leaf_vector":"1"}},{"base_weights":[-0E0,-4.5822076E-2,9.7354755E-2,-1.4424385E-1,3.400912E-2,1.0790448E-1,-0E0,-0E0,-3.223335E-1,-6.5734945E-2,1.7669238E-1,5.007618E-2,-8.697239E-2,-1.717242E-1,2.5143296E-1,-4.5999727E-1,-0E0,-0E0,-1.0705802E-1,3.3712417E-1,-0E0,1.0103278E-2,-3.1061625E-1,-0E0,-3.3462918E-1,-0E0,3.6591914E-1,-0E0,-5.6005347E-1,-0E0,1.5439112E-1,-0E0,1.3693005E-1,-0E0,-3.939973E-2,5.095763E-2,-0E0,-1.2998033E-1,-0E0,-1.449029E-1,-0E0,-0E0,1.4034203E-1,-1.853461E-1,-0E0,7.946248E-2,-0E0],"categories":[],"categories_nodes":[],"categories_segments":[],"categories_sizes":[],"default_left":[0,0,0,0,1,0,0,0,0,0,0,0,0,0,0,1,0,0,0,0,0,0,0,0,0,0,0,0,0,0,0,0,0,0,0,0,0,0,0,0,0,0,0,0,0,0,0],"id":30,"left_children":[1,3,5,7,9,-1,11,13,15,17,19,-1,21,23,25,27,-1,29,-1,31,33,35,37,-1,39,-1,41,-1,43,-1,45,-1,-1,-1,-1,-1,-1,-1,-1,-1,-1,-1,-1,-1,-1,-1,-1],"loss_changes":[1.7038819E-1,3.1550488E-1,3.243741E-1,5.2011037E-1,2.8148323E-1,0E0,1.3620427E-1,4.9053884E-1,6.51304E-1,3.1415915E-1,4.3506292E-1,0E0,3.5224518E-1,3.6651623E-1,1.896883E-1,4.2618263E-1,0E0,7.583301E-2,0E0,3.294279E-1,3.722687E-2,7.219046E-2,1.286684E-1,0E0,1.6415751E-1,0E0,9.327382E-2,0E0,2.2456765E-2,0E0,6.546436E-2,0E0,0E0,0E0,0E0,0E0,0E0,0E0,0E0,0E0,0E0,0E0,0E0,0E0,0E0,0E0,0E0],"parents":[2147483647,0,0,1,1,2,2,3,3,4,4,6,6,7,7,8,8,9,9,10,10,12,12,13,13,14,14,15,15,17,17,19,19,20,20,21,21,22,22,24,24,26,26,28,28,30,30],"right_children":[2,4,6,8,10,-1,12,14,16,18,20,-1,22,24,26,28,-1,30,-1,32,34,36,38,-1,40,-1,42,-1,44,-1,46,-1,-1,-1,-1,-1,-1,-1,-1,-1,-1,-1,-1,-1,-1,-1,-1],"split_conditions":[1.25E2,3.62E2,6.8765E1,6.49E1,1.3261166E2,1.0790448E-1,1.71254E2,3.58E1,9E1,1.0703E2,-1.28E-1,5.007618E-2,4.98E-1,7.1071266E1,4E0,7.257787E1,-0E0,4.246E1,-1.0705802E-1,1.3325E2,8.699503E1,1.58E2,4.03221E2,-0E0,1.2533646E2,-0E0,8.863549E0,-0E0,4.80943E2,-0E0,1.19E2,-0E0,1.3693005E-1,-0E0,-3.939973E-2,5.095763E-2,-0E0,-1.2998033E-1,-0E0,-1.449029E-1,-0E0,-0E0,1.4034203E-1,-1.853461E-1,-0E0,7.946248E-2,-0E0],"split_indices":[5,17,40,37,49,0,64,37,5,49,4,0,42,50,45,53,0,55,0,47,62,13,69,0,53,0,26,0,39,0,48,0,0,0,0,0,0,0,0,0,0,0,0,0,0,0,0],"split_type":[0,0,0,0,0,0,0,0,0,0,0,0,0,0,0,0,0,0,0,0,0,0,0,0,0,0,0,0,0,0,0,0,0,0,0,0,0,0,0,0,0,0,0,0,0,0,0],"sum_hessian":[3.953455E1,2.9260975E1,1.0273577E1,1.6449947E1,1.2811028E1,2.3332431E0,7.9403334E0,8.949578E0,7.500369E0,5.132018E0,7.6790094E0,2.005852E0,5.9344816E0,4.9792876E0,3.9702904E0,6.2518954E0,1.2484734E0,3.4570394E0,1.674979E0,5.212112E0,2.4668975E0,2.743908E0,3.1905735E0,1.1314875E0,3.8478E0,1.2069244E0,2.763366E0,1.0009671E0,5.2509284E0,1.2756734E0,2.181366E0,1.2419028E0,3.970209E0,1.3085934E0,1.158304E0,1.5153413E0,1.2285668E0,1.8392425E0,1.351331E0,2.0304475E0,1.8173525E0,1.0345777E0,1.7287883E0,4.1954737E0,1.055455E0,1.0139673E0,1.1673987E0],"tree_param":{"num_deleted":"0","num_feature":"73","num_nodes":"47","size_leaf_vector":"1"}},{"base_weights":[-0E0,-4.4434153E-2,9.7996786E-2,-1.3074411E-1,3.0449865E-2,2.3511136E-1,-1.158002E-1,-3.3006477E-1,-0E0,1.7341204E-1,-1.4025974E-1,-0E0,4.4182816E-1,-0E0,-4.961911E-2,-4.5194587E-1,-0E0,8.915623E-2,-2.1627668E-1,3.3419323E-1,-6.9418144E-3,-0E0,-9.051353E-2,-2.3018874E-2,-0E0,1.5660712E-1,-0E0,-1.6103432E-1,-0E0,2.1961845E-1,-1.3858551E-2,-1.1105318E-1,-0E0,1.3217959E-1,-0E0,-0E0,-4.9451914E-2,-0E0,1.2856206E-2,-0E0,9.935149E-2],"categories":[],"categories_nodes":[],"categories_segments":[],"categories_sizes":[],"default_left":[1,0,1,1,0,0,0,0,0,0,0,0,0,0,0,1,0,0,0,0,0,0,0,0,0,0,0,0,0,0,0,0,0,0,0,0,0,0,0,0,0],"id":31,"left_children":[1,3,5,7,9,11,13,15,17,19,21,23,25,-1,-1,27,-1,29,31,33,35,-1,-1,-1,37,-1,-1,-1,-1,39,-1,-1,-1,-1,-1,-1,-1,-1,-1,-1,-1],"loss_changes":[1.6740122E-1,2.5305587E-1,4.4659024E-1,4.0003595E-1,3.355903E-1,5.602594E-1,1.3010539E-2,3.6474687E-1,2.719225E-1,4.797052E-1,1.7877913E-1,1.626953E-2,1.473391E-1,0E0,0E0,1.404084E-1,0E0,2.78062E-1,2.0123903E-1,3.3713716E-1,6.131E-2,0E0,0E0,0E0,3.717082E-3,0E0,0E0,0E0,0E0,2.5139353E-1,0E0,0E0,0E0,0E0,0E0,0E0,0E0,0E0,0E0,0E0,0E0],"parents":[2147483647,0,0,1,1,2,2,3,3,4,4,5,5,6,6,7,7,8,8,9,9,10,10,11,11,12,12,15,15,17,17,18,18,19,19,20,20,24,24,29,29],"right_children":[2,4,6,8,10,12,14,16,18,20,22,24,26,-1,-1,28,-1,30,32,34,36,-1,-1,-1,38,-1,-1,-1,-1,40,-1,-1,-1,-1,-1,-1,-1,-1,-1,-1,-1],"split_conditions":[2.5501E2,1.8526E1,1.239E2,7.679E1,4.6274E1,5.95E1,-9.745106E0,1.725E2,4.2E1,1.3478367E1,1.537E1,3.3276E2,5.21687E2,-0E0,-4.961911E-2,1.3388156E2,-0E0,5.2940254E0,4.13573E2,1.7E1,7.190246E1,-0E0,-9.051353E-2,-2.3018874E-2,1.1551803E2,1.5660712E-1,-0E0,-1.6103432E-1,-0E0,5.878E1,-1.3858551E-2,-1.1105318E-1,-0E0,1.3217959E-1,-0E0,-0E0,-4.9451914E-2,-0E0,1.2856206E-2,-0E0,9.935149E-2],"split_indices":[46,42,57,55,42,5,2,5,28,1,36,69,38,0,0,68,0,30,69,44,53,0,0,0,50,0,0,0,0,56,0,0,0,0,0,0,0,0,0,0,0],"split_type":[0,0,0,0,0,0,0,0,0,0,0,0,0,0,0,0,0,0,0,0,0,0,0,0,0,0,0,0,0,0,0,0,0,0,0,0,0,0,0,0,0],"sum_hessian":[3.7900673E1,2.7284231E1,1.0616444E1,1.6427528E1,1.0856702E1,8.290338E0,2.3261056E0,5.4065075E0,1.1021021E1,8.006352E0,2.8503492E0,3.7896316E0,4.500706E0,1.2200881E0,1.1060175E0,4.2027564E0,1.2037508E0,7.6832776E0,3.3377433E0,5.7187414E0,2.2876112E0,1.0542784E0,1.7960708E0,1.7634354E0,2.0261962E0,3.4811168E0,1.0195894E0,3.1754818E0,1.0272747E0,6.080958E0,1.6023201E0,1.9492522E0,1.3884912E0,4.602105E0,1.1166362E0,1.0254242E0,1.262187E0,1.0021564E0,1.0240399E0,1.6747473E0,4.4062104E0],"tree_param":{"num_deleted":"0","num_feature":"73","num_nodes":"41","size_leaf_vector":"1"}},{"base_weights":[-4.115617E-4,-6.76786E-2,4.9072977E-2,-1.5058659E-1,1.1963785E-1,1.350336E-1,-2.4015829E-2,8.339913E-3,-2.541774E-1,9.193562E-2,-0E0,2.4278381E-1,-0E0,-2.291126E-1,1.5544475E-2,-9.833832E-3,1.8161322E-1,-3.4608284E-1,5.4851496E-3,-0E0,-1.1928699E-2,-0E0,3.873842E-1,-0E0,-4.201966E-2,-0E0,-1.326222E-1,-0E0,8.370548E-2,-1.6988763E-1,-1.3758711E-2,2.3717921E-2,-2.3705455E-2,1.4342186E-1,-0E0,1.3032912E-2,-7.7905454E-2],"categories":[],"categories_nodes":[],"categories_segments":[],"categories_sizes":[],"default_left":[1,0,1,0,0,0,0,0,0,0,0,0,0,0,0,0,0,0,0,0,0,0,0,0,0,0,0,0,0,0,0,0,0,0,0,0,0],"id":32,"left_children":[1,3,5,7,9,11,13,15,17,-1,19,21,23,25,-1,-1,27,29,-1,-1,-1,31,33,-1,-1,-1,-1,-1,-1,-1,35,-1,-1,-1,-1,-1,-1],"loss_changes":[1.4133869E-1,3.8149476E-1,1.8140319E-1,4.64169E-1,1.7331362E-1,2.8861213E-1,2.1783355E-1,1.4442474E-1,5.626222E-1,0E0,3.3107586E-3,3.120801E-1,5.1741388E-2,2.9912382E-1,0E0,0E0,7.421942E-2,4.8770642E-1,0E0,0E0,0E0,3.212293E-2,1.7108822E-1,0E0,0E0,0E0,0E0,0E0,0E0,0E0,2.5272024E-1,0E0,0E0,0E0,0E0,0E0,0E0],"parents":[2147483647,0,0,1,1,2,2,3,3,4,4,5,5,6,6,7,7,8,8,10,10,11,11,12,12,13,13,16,16,17,17,21,21,22,22,30,30],"right_children":[2,4,6,8,10,12,14,16,18,-1,20,22,24,26,-1,-1,28,30,-1,-1,-1,32,34,-1,-1,-1,-1,-1,-1,-1,36,-1,-1,-1,-1,-1,-1],"split_conditions":[1.7124E2,2.0693E1,9.949645E1,1.1074696E2,3.5489E1,1.85581E2,1.4083E2,2.824E1,1.603E3,9.193562E-2,3.13285E2,2.542E3,1.5E1,-8.043657E1,1.5544475E-2,-9.833832E-3,2.7047E1,-1.6165869E1,5.4851496E-3,-0E0,-1.1928699E-2,2.657E3,9.9E1,-0E0,-4.201966E-2,-0E0,-1.326222E-1,-0E0,8.370548E-2,-1.6988763E-1,1.7154E2,2.3717921E-2,-2.3705455E-2,1.4342186E-1,-0E0,1.3032912E-2,-7.7905454E-2],"split_indices":[65,3,62,52,39,40,56,55,13,0,69,11,28,34,0,0,42,34,0,0,0,20,28,0,0,0,0,0,0,0,47,0,0,0,0,0,0],"split_type":[0,0,0,0,0,0,0,0,0,0,0,0,0,0,0,0,0,0,0,0,0,0,0,0,0,0,0,0,0,0,0,0,0,0,0,0,0],"sum_hessian":[3.6770027E1,2.1088192E1,1.5681834E1,1.7199116E1,3.8890772E0,1.0971105E1,4.71073E0,4.6328187E0,1.2566297E1,1.5906141E0,2.298463E0,7.59959E0,3.3715146E0,3.0778842E0,1.6328459E0,1.3177301E0,3.3150885E0,1.1007957E1,1.5583385E0,1.2044284E0,1.0940348E0,3.142183E0,4.4574065E0,1.7341177E0,1.6373968E0,1.4519616E0,1.6259226E0,1.5335569E0,1.7815315E0,5.001537E0,6.006421E0,1.4042187E0,1.7379643E0,3.3318603E0,1.1255465E0,3.3612642E0,2.6451569E0],"tree_param":{"num_deleted":"0","num_feature":"73","num_nodes":"37","size_leaf_vector":"1"}},{"base_weights":[-0E0,9.169539E-2,-3.4358352E-2,2.2512354E-1,-2.8470019E-2,-1.00402065E-1,1.4949079E-1,-0E0,3.2060787E-1,-1.5746781E-1,4.1910164E-2,2.8709343E-1,-0E0,-0E0,1.16266005E-1,-2.094826E-1,2.5442832E-3,-0E0,2.0769729E-1,1.1297674E-1,-0E0,-2.8715882E-1,-0E0,-0E0,7.9552814E-2,-0E0,-1.4195189E-1,3.4664396E-2,-0E0],"categories":[],"categories_nodes":[],"categories_segments":[],"categories_sizes":[],"default_left":[0,0,0,0,0,0,0,0,0,0,0,0,0,0,0,0,0,0,0,0,0,0,0,0,0,0,0,0,0],"id":33,"left_children":[1,3,5,7,-1,9,11,-1,13,15,17,19,-1,-1,-1,21,-1,-1,23,-1,-1,25,27,-1,-1,-1,-1,-1,-1],"loss_changes":[1.0678846E-1,3.2236105E-1,3.3429664E-1,2.3859838E-1,0E0,2.8235614E-1,2.0359224E-1,0E0,1.07706845E-1,3.1628412E-1,1.3871945E-1,7.473013E-2,0E0,0E0,0E0,4.411245E-1,0E0,0E0,1.8499687E-2,0E0,0E0,8.6933935E-1,3.70942E-2,0E0,0E0,0E0,0E0,0E0,0E0],"parents":[2147483647,0,0,1,1,2,2,3,3,5,5,6,6,8,8,9,9,10,10,11,11,15,15,18,18,21,21,22,22],"right_children":[2,4,6,8,-1,10,12,-1,14,16,18,20,-1,-1,-1,22,-1,-1,24,-1,-1,26,28,-1,-1,-1,-1,-1,-1],"split_conditions":[-1.8882732E2,1.56E2,1.9375E2,1.2496E2,-2.8470019E-2,4.13014E2,1.0793E1,-0E0,3.725E1,2.63633E2,-1.3293288E1,1.0642125E2,-0E0,-0E0,1.16266005E-1,1.333E3,2.5442832E-3,-0E0,-1.4761449E1,1.1297674E-1,-0E0,9E1,3.6733E2,-0E0,7.9552814E-2,-0E0,-1.4195189E-1,3.4664396E-2,-0E0],"split_indices":[34,60,8,7,0,40,3,0,5,66,34,71,0,0,0,14,0,0,2,0,0,63,69,0,0,0,0,0,0],"split_type":[0,0,0,0,0,0,0,0,0,0,0,0,0,0,0,0,0,0,0,0,0,0,0,0,0,0,0,0,0],"sum_hessian":[3.56009E1,7.6337323E0,2.7967165E1,6.3952084E0,1.2385236E0,2.3553743E1,4.4134207E0,1.4277447E0,4.967464E0,2.005014E1,3.503604E0,2.9378579E0,1.4755629E0,1.1664617E0,3.801002E0,1.8097008E1,1.9531322E0,1.1045283E0,2.3990757E0,1.8155451E0,1.1223129E0,1.451243E1,3.5845778E0,1.0507607E0,1.3483149E0,5.9163256E0,8.596105E0,1.7783141E0,1.8062637E0],"tree_param":{"num_deleted":"0","num_feature":"73","num_nodes":"29","size_leaf_vector":"1"}},{"base_weights":[-0E0,-1.867798E-2,1.1435959E-1,-6.307275E-2,7.7997215E-2,2.154409E-1,-0E0,1.9001407E-3,-1.7126413E-1,-0E0,2.1537875E-1,2.8558826E-1,-0E0,-1.8881397E-1,1.1379985E-1,-2.6128092E-1,2.1157167E-3,8.486591E-2,-0E0,-0E0,1.1430039E-1,-6.994178E-2,-0E0,2.6758948E-1,-0E0,-0E0,-3.8408098E-1,1.1615493E-1,-0E0,-8.442812E-2,2.4706507E-2,-0E0,1.9744914E-2,-1.5140742E-1,-0E0],"categories":[],"categories_nodes":[],"categories_segments":[],"categories_sizes":[],"default_left":[0,0,0,0,0,0,0,1,1,0,0,0,0,0,0,0,0,0,0,0,0,0,0,0,0,0,0,0,0,0,0,0,0,0,0],"id":34,"left_children":[1,3,5,7,9,11,-1,13,15,-1,17,19,-1,21,23,25,-1,-1,-1,-1,-1,-1,-1,27,29,31,33,-1,-1,-1,-1,-1,-1,-1,-1],"loss_changes":[9.728371E-2,1.2397575E-1,1.5927736E-1,2.9373944E-1,1.462281E-1,1.00914E-1,0E0,2.5589123E-1,3.8675335E-1,0E0,2.922903E-2,1.0627204E-1,0E0,3.8144141E-3,2.8138828E-1,4.4056296E-1,0E0,0E0,0E0,0E0,0E0,0E0,0E0,3.006749E-1,2.3138094E-1,1.1641441E-2,3.475126E-1,0E0,0E0,0E0,0E0,0E0,0E0,0E0,0E0],"parents":[2147483647,0,0,1,1,2,2,3,3,4,4,5,5,7,7,8,8,10,10,11,11,13,13,14,14,15,15,23,23,24,24,25,25,26,26],"right_children":[2,4,6,8,10,12,-1,14,16,-1,18,20,-1,22,24,26,-1,-1,-1,-1,-1,-1,-1,28,30,32,34,-1,-1,-1,-1,-1,-1,-1,-1],"split_conditions":[1.665E2,1.986E3,6.2E2,1.1E1,4.826098E1,6.84336E2,-0E0,2.8255E2,2.2304184E2,-0E0,1.6423E1,7.20376E2,-0E0,2.3503E1,1.807775E2,5.5972E1,2.1157167E-3,8.486591E-2,-0E0,-0E0,1.1430039E-1,-6.994178E-2,-0E0,1.79E2,1.79E2,6.60021E2,2.9026E2,1.1615493E-1,-0E0,-8.442812E-2,2.4706507E-2,-0E0,1.9744914E-2,-1.5140742E-1,-0E0],"split_indices":[5,17,9,44,62,38,0,51,67,0,36,41,0,42,49,37,0,0,0,0,0,0,0,64,64,72,46,0,0,0,0,0,0,0,0],"split_type":[0,0,0,0,0,0,0,0,0,0,0,0,0,0,0,0,0,0,0,0,0,0,0,0,0,0,0,0,0,0,0,0,0,0,0],"sum_hessian":[3.4674915E1,2.9037521E1,5.6373954E0,2.4821276E1,4.2162457E0,4.301802E0,1.3355931E0,1.2306311E1,1.2514965E1,1.3798771E0,2.8363686E0,3.2544532E0,1.047349E0,2.1130307E0,1.019328E1,1.0469764E1,2.0452013E0,1.5890824E0,1.2472861E0,1.1319554E0,2.1224978E0,1.1120131E0,1.0010177E0,4.954206E0,5.239074E0,3.1753447E0,7.2944193E0,3.8496902E0,1.1045159E0,1.517066E0,3.7220085E0,1.4879048E0,1.6874399E0,5.1680727E0,2.1263466E0],"tree_param":{"num_deleted":"0","num_feature":"73","num_nodes":"35","size_leaf_vector":"1"}},{"base_weights":[-0E0,-4.5440976E-2,1.949207E-2,-0E0,1.6916588E-1,2.3089E-2,-1.1357836E-1,3.471061E-1,-0E0,-2.7090581E-2,1.6252866E-1,-0E0,-2.945634E-1,-0E0,1.2702079E-1,-1.3153514E-1,5.1784333E-2,1.132633E-2,-2.457864E-1,-0E0,2.5605872E-1,9.229009E-2,-8.460801E-3,-1.3114509E-1,-0E0,-4.76702E-2,-0E0,-2.1207568E-3,5.305971E-2,-0E0,-1.0395847E-1,-0E0,1.1039254E-1,7.686904E-2,-0E0],"categories":[],"categories_nodes":[],"categories_segments":[],