{"learner":{"attributes":{"best_iteration":"24","best_score":"0.02456812999362352","scikit_learn":"{\"_estimator_type\": \"classifier\"}"},"feature_names":["Price_gas","Imbalance netting import","Imbalance netting export","Energy_positive_secondary","Energy_negative_secondary","Energy_positive_tertiary","Energy_negative_tertiary","CH_dayahead_price","CH_intraday_price","renewable_energy","Cross_border_physical_flows_IT_CH","Cross_border_physical_flows_CH_IT","Cross_border_physical_flows_FR_CH","Cross_border_physical_flows_CH_FR","Cross_border_physical_flows_AT_CH","Cross_border_physical_flows_CH_AT","Cross_border_physical_flows_DE_CH","Cross_border_physical_flows_CH_DE","Forecast_transfer_capacities_dayahead_IT_CH","Forecast_transfer_capacities_dayahead_CH_IT","Forecast_transfer_capacities_dayahead_FR_CH","Forecast_transfer_capacities_dayahead_CH_FR","Forecast_transfer_capacities_dayahead_DE_CH","Forecast_transfer_capacities_dayahead_CH_DE","Forecast_transfer_capacities_dayahead_AT_CH","Forecast_transfer_capacities_dayahead_CH_AT","aFRR p","aFRR n","mFRR p","mFRR n","FRCE p","FRCE n","RR p","RR n","Total System Imbalance","Exchange_CH_AT","Exchange_AT_CH","Exchange_CH_DE","Exchange_DE_CH","Exchange_CH_FR","Exchange_FR_CH","Exchange_CH_IT","Exchange_IT_CH","day_type","hour","weekday","Price_positive_secondary_lag_1","Price_positive_secondary_lag_24","Price_positive_secondary_lag_168","Price_positive_secondary_mean_24","Price_positive_secondary_std_24","Price_positive_secondary_max_24","Price_positive_secondary_mean_168","Price_positive_secondary_std_168","Price_positive_secondary_max_168","Price_negative_secondary_lag_1","Price_negative_secondary_lag_24","Price_negative_secondary_lag_168","Price_negative_secondary_mean_24","Price_negative_secondary_std_24","Price_negative_secondary_max_24","Price_negative_secondary_mean_168","Price_negative_secondary_std_168","Price_negative_secondary_max_168"],"feature_types":["float","float","float","float","float","float","float","float","float","float","int","int","int","int","float","float","int","int","int","int","int","int","int","int","int","int","float","float","int","int","float","float","float","float","float","float","float","float","float","float","float","float","float","int","int","int","float","float","float","float","float","float","float","float","float","float","float","float","float","float","float","float","float","float"],"gradient_booster":{"model":{"gbtree_model_param":{"num_parallel_tree":"1","num_trees":"55"},"iteration_indptr":[0,1,2,3,4,5,6,7,8,9,10,11,12,13,14,15,16,17,18,19,20,21,22,23,24,25,26,27,28,29,30,31,32,33,34,35,36,37,38,39,40,41,42,43,44,45,46,47,48,49,50,51,52,53,54,55],"tree_info":[0,0,0,0,0,0,0,0,0,0,0,0,0,0,0,0,0,0,0,0,0,0,0,0,0,0,0,0,0,0,0,0,0,0,0,0,0,0,0,0,0,0,0,0,0,0,0,0,0,0,0,0,0,0,0],"trees":[{"base_weights":[-0E0,9.415439E0,-2.4504337E-1,2.7362356E-1,4.19482E0,-6.494229E-1,4.5633383E0,2.3349867E0,-8.263098E-1,-2.1167263E-1,8.211713E0,-8.0187336E-2,3.6225035E0,-8.866651E-1,2.654763E0,-2.456859E-1,3.9130637E-1,1.1997441E1,1.6665676E-1,-1.9530484E-1,2.3988424E-1,-4.194943E-2,4.8624907E0,4.9794546E-1,-9.3507063E-1,-1.1996432E-1,1.4312328E0,4.241585E0,2.3047593E-1,-1.6323957E-1,3.5413554E-1,2.941727E-1,1.743906E0,-2.0474522E-1,5.3256744E-1,-0E0,-2.9041275E-1],"categories":[],"categories_nodes":[],"categories_segments":[],"categories_sizes":[],"default_left":[0,0,1,0,0,0,0,0,0,0,0,0,0,0,0,0,0,0,0,0,0,0,0,0,0,0,0,0,0,0,0,0,0,0,0,0,0],"id":0,"left_children":[1,3,5,-1,-1,7,9,11,13,15,17,19,21,23,25,-1,-1,27,29,-1,-1,-1,31,33,35,-1,-1,-1,-1,-1,-1,-1,-1,-1,-1,-1,-1],"loss_changes":[4.7598273E2,1.8547202E2,3.9261172E2,0E0,0E0,9.982986E1,2.7721014E2,3.439861E1,3.891072E1,8.00945E0,2.6622723E2,2.7648566E0,3.5005592E1,1.2318771E1,2.3861433E1,0E0,0E0,1.2928973E2,3.669329E0,0E0,0E0,0E0,1.1839905E1,1.1104323E1,5.02005E0,0E0,0E0,0E0,0E0,0E0,0E0,0E0,0E0,0E0,0E0,0E0,0E0],"parents":[2147483647,0,0,1,1,2,2,5,5,6,6,7,7,8,8,9,9,10,10,11,11,12,12,13,13,14,14,17,17,18,18,22,22,23,23,24,24],"right_children":[2,4,6,-1,-1,8,10,12,14,16,18,20,22,24,26,-1,-1,28,30,-1,-1,-1,32,34,36,-1,-1,-1,-1,-1,-1,-1,-1,-1,-1,-1,-1],"split_conditions":[-4.2014E1,5.799368E1,1.5E2,2.7362356E-1,4.19482E0,-4.115E1,-1.482E0,1.6108E1,2.1077486E1,2.3101E2,-6E-3,4.94E1,4.9272583E1,-3.1612E1,4.392088E1,-2.456859E-1,3.9130637E-1,5.85961E2,1.58E2,-1.9530484E-1,2.3988424E-1,-4.194943E-2,4E0,4.755391E1,-4.794E1,-1.1996432E-1,1.4312328E0,4.241585E0,2.3047593E-1,-1.6323957E-1,3.5413554E-1,2.941727E-1,1.743906E0,-2.0474522E-1,5.3256744E-1,-0E0,-2.9041275E-1],"split_indices":[4,59,60,0,0,55,4,42,30,47,4,0,59,4,59,0,0,38,60,0,0,0,45,59,56,0,0,0,0,0,0,0,0,0,0,0,0],"split_type":[0,0,0,0,0,0,0,0,0,0,0,0,0,0,0,0,0,0,0,0,0,0,0,0,0,0,0,0,0,0,0,0,0,0,0,0,0],"sum_hessian":[2.0430412E2,4.2330136E0,2.000711E2,1.9240971E0,2.3089166E0,1.85413E2,1.4658121E1,9.585502E0,1.7582748E2,6.716848E0,7.941273E0,3.5683255E0,6.017176E0,1.7365851E2,2.168982E0,5.282521E0,1.4343269E0,5.037636E0,2.9036374E0,2.5538015E0,1.0145239E0,1.6442283E0,4.3729477E0,5.3175044E0,1.68341E2,1.1544583E0,1.0145239E0,3.9881284E0,1.0495075E0,1.7841628E0,1.1194746E0,1.3293761E0,3.0435717E0,2.8686538E0,2.4488509E0,5.9821925E0,1.6235881E2],"tree_param":{"num_deleted":"0","num_feature":"64","num_nodes":"37","size_leaf_vector":"1"}},{"base_weights":[-4.6815977E-1,-1.0276262E0,-1.771841E-2,-9.822221E-1,-5.905899E-1,8.9885443E-1,-3.5676667E-1,-0E0,-9.927334E-1,1.5158854E0,-6.037984E-1,-5.157916E-1,7.022815E-1,-0E0,-1.0034446E0,2.286396E0,4.1714948E-1,-1.2244846E0,3.1586468E-1,9.723862E-3,-8.481702E-1,-1.8345824E-1,1.0773579E0,-3.042831E-1,-0E0,3.4341998E0,9.806368E-1,1.6446182E0,-6.793585E-1,-0E0,-4.346907E-1,8.2532406E-1,-1.2979217E-1,-4.1217685E-1,1.0092651E0,-9.2726344E-1,1.7500296E-1,1.3458772E0,-1.1904722E-1,1.0922752E-1,1.3752046E0,4.944656E-2,5.2157986E-1,6.879538E-1,-6.473733E-2,-3.2285774E-1,1.4937975E-1,-0E0,3.366522E-1,3.0305058E-1,-2.04015E-1,-4.767277E-2,6.669895E-1,-1.8532908E-1,-4.1534245E-1,4.633802E-1,-0E0],"categories":[],"categories_nodes":[],"categories_segments":[],"categories_sizes":[],"default_left":[0,0,0,0,0,0,1,0,0,0,0,0,0,0,0,0,0,0,0,1,1,0,0,0,0,0,0,0,0,0,0,0,0,0,0,1,0,0,0,0,0,0,0,0,0,0,0,0,0,0,0,0,0,0,0,0,0],"id":1,"left_children":[1,3,5,7,-1,9,11,-1,13,15,17,19,21,-1,23,25,27,29,31,33,35,-1,37,-1,-1,39,41,43,45,-1,-1,47,-1,49,51,53,-1,55,-1,-1,-1,-1,-1,-1,-1,-1,-1,-1,-1,-1,-1,-1,-1,-1,-1,-1,-1],"loss_changes":[5.260672E1,1.0646973E0,3.674838E1,9.0237427E-1,0E0,3.0731623E1,1.4948274E1,0E0,7.655716E-1,1.7613205E1,6.2985764E0,1.3648613E1,6.483942E0,0E0,7.13089E-1,1.4810181E1,1.6094141E1,1.6500826E0,2.218132E0,1.3363614E1,6.006489E0,0E0,4.6176844E0,0E0,0E0,1.941874E1,3.8185549E0,7.918618E0,3.6796653E0,0E0,0E0,4.7181058E-1,0E0,8.854567E0,1.4518225E1,4.8935127E0,0E0,2.4447956E0,0E0,0E0,0E0,0E0,0E0,0E0,0E0,0E0,0E0,0E0,0E0,0E0,0E0,0E0,0E0,0E0,0E0,0E0,0E0],"parents":[2147483647,0,0,1,1,2,2,3,3,5,5,6,6,8,8,9,9,10,10,11,11,12,12,14,14,15,15,16,16,17,17,18,18,19,19,20,20,22,22,25,25,26,26,27,27,28,28,31,31,33,33,34,34,35,35,37,37],"right_children":[2,4,6,8,-1,10,12,-1,14,16,18,20,22,-1,24,26,28,30,32,34,36,-1,38,-1,-1,40,42,44,46,-1,-1,48,-1,50,52,54,-1,56,-1,-1,-1,-1,-1,-1,-1,-1,-1,-1,-1,-1,-1,-1,-1,-1,-1,-1,-1],"split_conditions":[4.7264275E1,1.58E2,-2.08E1,-7.1525E0,-5.905899E-1,4.80975E1,1.4317E2,-0E0,-1.4939226E1,1.082E2,1.85E1,2.1E-1,2.2866556E-1,-0E0,1.3334E2,1.549802E2,1.568E3,1.568E3,1.0875E2,9.1572E2,2.0168904E2,-1.8345824E-1,1.868E3,-3.042831E-1,-0E0,-2.5E1,2.68685E2,1.6E3,2.78144E2,-0E0,-4.346907E-1,2E-1,-1.2979217E-1,-1.1819E1,-2.28E-1,1.959E2,1.7500296E-1,7.1692024E1,-1.1904722E-1,1.0922752E-1,1.3752046E0,4.944656E-2,5.2157986E-1,6.879538E-1,-6.473733E-2,-3.2285774E-1,1.4937975E-1,-0E0,3.366522E-1,3.0305058E-1,-2.04015E-1,-4.767277E-2,6.669895E-1,-1.8532908E-1,-4.1534245E-1,4.633802E-1,-0E0],"split_indices":[59,60,4,58,0,58,55,0,61,37,5,55,30,0,55,62,11,11,5,54,50,0,12,0,0,6,36,22,40,0,0,35,0,4,4,48,0,59,0,0,0,0,0,0,0,0,0,0,0,0,0,0,0,0,0,0,0],"split_type":[0,0,0,0,0,0,0,0,0,0,0,0,0,0,0,0,0,0,0,0,0,0,0,0,0,0,0,0,0,0,0,0,0,0,0,0,0,0,0,0,0,0,0,0,0,0,0,0,0,0,0,0,0,0,0,0,0],"sum_hessian":[2.092189E2,9.241165E1,1.1680724E2,9.044877E1,1.9628878E0,3.082703E1,8.598022E1,1.0106763E0,8.943809E1,2.200588E1,8.821149E0,7.5477295E1,1.050292E1,1.1601027E0,8.8277985E1,1.2119628E1,9.886252E0,5.2871656E0,3.533983E0,2.922654E1,4.625076E1,1.9933431E0,8.509577E0,8.707434E1,1.2036464E0,5.445329E0,6.6742992E0,4.573481E0,5.312772E0,1.0112597E0,4.275906E0,2.3091304E0,1.2248527E0,2.0728302E1,8.498239E0,4.4385643E1,1.8651139E0,7.4650707E0,1.0445062E0,1.9221785E0,3.5231504E0,4.0145907E0,2.6597083E0,3.3528476E0,1.2206335E0,4.251375E0,1.0613965E0,1.1445048E0,1.1646256E0,2.646901E0,1.80814E1,4.632615E0,3.8656232E0,2.8309238E1,1.6076405E1,6.4517417E0,1.013329E0],"tree_param":{"num_deleted":"0","num_feature":"64","num_nodes":"57","size_leaf_vector":"1"}},{"base_weights":[-4.0898377E-1,-1.0003403E0,-2.9290091E-2,-0E0,-1.0140413E0,4.850163E-1,-3.530508E-1,-0E0,-1.028144E0,2.2136598E0,1.8387811E-1,-2.972763E-1,-4.4434797E-2,-4.916707E-2,-3.1291452E-1,2.7982905E0,7.432832E-2,-2.9781625E-1,9.112821E-1,8.460576E-1,-3.4429204E-1,9.6121764E-1,1.6255185E-1,6.362839E-1,-7.934933E-1,1.4559817E0,1.8854005E-3,-3.4344908E-2,1.5343037E0,-6.7769E-1,3.3284152E-1,4.8219404E-1,-1.16837755E-1,-3.093296E-1,1.6953316E-1,3.695149E-2,5.487483E-1,2.738674E-1,-2.2666432E-1,-2.3048067E-1,3.3558458E-1,9.095337E-1,1.3133794E-1,2.0245554E-2,-3.4295112E-1,2.1454887E-1,-3.3700147E-1],"categories":[],"categories_nodes":[],"categories_segments":[],"categories_sizes":[],"default_left":[0,0,0,0,0,0,0,0,0,0,0,0,0,0,0,0,0,0,0,0,0,0,0,0,0,0,0,1,0,0,0,0,0,0,0,0,0,0,0,0,0,0,0,0,0,0,0],"id":2,"left_children":[1,3,5,-1,7,9,11,-1,13,15,17,-1,19,-1,-1,21,-1,23,25,27,29,-1,-1,31,33,35,37,39,41,43,45,-1,-1,-1,-1,-1,-1,-1,-1,-1,-1,-1,-1,-1,-1,-1,-1],"loss_changes":[4.103116E1,9.4044495E-1,1.9056131E1,0E0,8.104477E-1,2.1658218E1,1.3534135E1,0E0,3.1903076E-1,5.4791927E0,1.4028898E1,0E0,1.3227686E1,0E0,0E0,1.2133598E0,0E0,1.1550856E1,7.3988113E0,8.0527315E0,8.854644E0,0E0,0E0,9.552495E0,5.966339E0,3.9580917E0,5.7114234E0,5.9802747E0,9.293432E0,9.433365E0,7.780432E0,0E0,0E0,0E0,0E0,0E0,0E0,0E0,0E0,0E0,0E0,0E0,0E0,0E0,0E0,0E0,0E0],"parents":[2147483647,0,0,1,1,2,2,4,4,5,5,6,6,8,8,9,9,10,10,12,12,15,15,17,17,18,18,19,19,20,20,23,23,24,24,25,25,26,26,27,27,28,28,29,29,30,30],"right_children":[2,4,6,-1,8,10,12,-1,14,16,18,-1,20,-1,-1,22,-1,24,26,28,30,-1,-1,32,34,36,38,40,42,44,46,-1,-1,-1,-1,-1,-1,-1,-1,-1,-1,-1,-1,-1,-1,-1,-1],"split_conditions":[4.7264275E1,-7.1525E0,-1.1819E1,-0E0,-1.4939226E1,2.4E1,9.103673E1,-0E0,1.25E2,6.83042E1,1.724988E1,-2.972763E-1,9.3045E1,-4.916707E-2,-3.1291452E-1,4.63572E1,7.432832E-2,7.5E2,4.906E1,-2.77E-1,3.2E1,9.6121764E-1,1.6255185E-1,6.51E1,7.24E1,4.68E2,-2.7227375E1,7.0255E1,3.17E1,2.595E3,6.75E1,4.8219404E-1,-1.16837755E-1,-3.093296E-1,1.6953316E-1,3.695149E-2,5.487483E-1,2.738674E-1,-2.2666432E-1,-2.3048067E-1,3.3558458E-1,9.095337E-1,1.3133794E-1,2.0245554E-2,-3.4295112E-1,2.1454887E-1,-3.3700147E-1],"split_indices":[59,58,4,0,61,8,53,0,9,50,30,0,36,0,0,61,0,24,55,4,28,0,0,37,35,16,27,61,0,19,0,0,0,0,0,0,0,0,0,0,0,0,0,0,0,0,0],"split_type":[0,0,0,0,0,0,0,0,0,0,0,0,0,0,0,0,0,0,0,0,0,0,0,0,0,0,0,0,0,0,0,0,0,0,0,0,0,0,0,0,0,0,0,0,0,0,0],"sum_hessian":[1.834121E2,7.0730995E1,1.1268111E2,1.0106763E0,6.9720314E1,4.2936947E1,6.974416E1,1.1601027E0,6.856021E1,5.26215E0,3.7674797E1,2.1664808E1,4.8079357E1,1.7483318E0,6.681188E1,3.597701E0,1.6644486E0,2.2742538E1,1.4932258E1,1.1370041E1,3.6709316E1,2.5670352E0,1.0306659E0,7.550777E0,1.5191762E1,8.731432E0,6.2008257E0,5.1910095E0,6.179032E0,2.4930414E1,1.17789E1,3.756064E0,3.7947133E0,1.3346314E1,1.8454477E0,2.3981152E0,6.3333163E0,2.9234936E0,3.2773323E0,3.5540798E0,1.6369296E0,1.7362034E0,4.442828E0,9.636261E0,1.5294152E1,9.915485E0,1.8634148E0],"tree_param":{"num_deleted":"0","num_feature":"64","num_nodes":"47","size_leaf_vector":"1"}},{"base_weights":[-3.485622E-1,-9.7580093E-1,-1.8261626E-2,-9.8687746E-2,-1.0117397E0,8.6965E-1,-1.5014768E-1,9.485808E-2,-1.5182042E-1,-3.0937847E-1,-1.3190749E-2,1.2457428E0,-3.704286E-1,1.0792753E0,-2.4684703E-1,1.6846502E0,-2.3601116E-1,-1.6442691E-1,-0E0,1.9837943E0,1.2029061E-1,2.1145326E-1,-4.9177587E-1,2.4290584E-1,2.0701318E0,3.3224717E-2,-1.8088771E-1,7.589634E-1,9.473922E-2,-1.7911938E-1,7.0768404E-1,1.2552128E0,-1.2549047E-1,-5.8111084E-1,2.89376E-1,2.1756037E-1,-5.2360144E-2,8.8304445E-2,6.994992E-1,3.0755687E-1,-0E0,-1.2547494E-1,5.5342E-1,-1.3640548E-1,2.1688455E-1,-1.9472124E-1,1.6841839E-1],"categories":[],"categories_nodes":[],"categories_segments":[],"categories_sizes":[],"default_left":[0,0,0,0,0,0,0,0,0,0,0,0,0,0,0,0,0,0,0,0,0,0,0,0,1,0,0,0,0,0,0,0,1,1,0,0,0,0,0,0,0,0,0,0,0,0,0],"id":3,"left_children":[1,3,5,7,9,11,13,-1,-1,-1,-1,15,17,19,21,23,25,-1,-1,27,29,31,33,35,37,-1,-1,-1,-1,-1,39,41,43,45,-1,-1,-1,-1,-1,-1,-1,-1,-1,-1,-1,-1,-1],"loss_changes":[3.281108E1,1.2554626E0,1.2327937E1,8.383184E-1,5.793266E-1,7.0778265E0,1.1122395E1,0E0,0E0,0E0,0E0,7.933546E0,2.9565048E-1,4.919739E0,1.0066069E1,3.5316238E0,6.3682973E-1,0E0,0E0,1.1905403E0,2.3675709E0,1.1383148E1,7.986614E0,9.447842E-1,1.4562187E0,0E0,0E0,0E0,0E0,0E0,5.131433E-1,9.005986E0,6.9356294E0,4.707428E0,0E0,0E0,0E0,0E0,0E0,0E0,0E0,0E0,0E0,0E0,0E0,0E0,0E0],"parents":[2147483647,0,0,1,1,2,2,3,3,4,4,5,5,6,6,11,11,12,12,13,13,14,14,15,15,16,16,19,19,20,20,21,21,22,22,23,23,24,24,30,30,31,31,32,32,33,33],"right_children":[2,4,6,8,10,12,14,-1,-1,-1,-1,16,18,20,22,24,26,-1,-1,28,30,32,34,36,38,-1,-1,-1,-1,-1,40,42,44,46,-1,-1,-1,-1,-1,-1,-1,-1,-1,-1,-1,-1,-1],"split_conditions":[4.7264275E1,-2.917E1,-3.487E1,-1.3808E1,1.998E3,2.2857815E1,4.790805E1,9.485808E-2,-1.5182042E-1,-3.0937847E-1,-1.3190749E-2,4.906E1,2.2492E2,3.6263E1,1.857E3,4.0707E2,2.01898E2,-1.6442691E-1,-0E0,4.24137E2,3.2731133E0,-3.093E1,2.5952969E1,2.385E3,6.8856606E1,3.3224717E-2,-1.8088771E-1,7.589634E-1,9.473922E-2,-1.7911938E-1,4.3124857E0,1.07E1,1.3E2,2.0168904E2,2.89376E-1,2.1756037E-1,-5.2360144E-2,8.8304445E-2,6.994992E-1,3.0755687E-1,-0E0,-1.2547494E-1,5.5342E-1,-1.3640548E-1,2.1688455E-1,-1.9472124E-1,1.6841839E-1],"split_indices":[59,56,56,4,13,1,50,0,0,0,0,55,39,42,11,41,40,0,0,38,30,4,30,20,62,0,0,0,0,0,26,57,56,50,0,0,0,0,0,0,0,0,0,0,0,0,0],"split_type":[0,0,0,0,0,0,0,0,0,0,0,0,0,0,0,0,0,0,0,0,0,0,0,0,0,0,0,0,0,0,0,0,0,0,0,0,0,0,0,0,0,0,0,0,0,0,0],"sum_hessian":[1.5907217E2,5.3846054E1,1.0522612E2,2.6353428E0,5.1210712E1,1.2555113E1,9.2671005E1,1.0074108E0,1.6279322E0,4.979306E1,1.4176503E0,9.838116E0,2.7169971E0,5.762841E0,8.6908165E1,7.659439E0,2.178677E0,1.6820264E0,1.0349708E0,2.2351706E0,3.5276706E0,2.98386E1,5.7069565E1,2.143894E0,5.515545E0,1.0077529E0,1.1709241E0,1.1426677E0,1.0925031E0,1.3228918E0,2.204779E0,6.8603287E0,2.2978271E1,5.4555077E1,2.5144887E0,1.0265281E0,1.117366E0,1.1460129E0,4.369532E0,1.0153402E0,1.1894387E0,1.7141783E0,5.1461506E0,1.7174982E1,5.8032885E0,5.2177723E1,2.3773544E0],"tree_param":{"num_deleted":"0","num_feature":"64","num_nodes":"47","size_leaf_vector":"1"}},{"base_weights":[-2.7855858E-1,-9.4589704E-1,-0E0,-6.515449E-2,-9.914201E-1,3.34234E-1,-2.3401038E-1,9.4918706E-2,-1.4361645E-1,-0E0,-3.049755E-1,1.0169928E0,-8.720447E-2,-2.8605816E-1,1.193333E-2,6.603272E-1,7.3386556E-1,5.8416414E-1,-4.2379263E-1,-2.2973655E-1,8.114017E-1,1.1342093E0,-2.995298E-1,1.1024051E0,-1.9056831E-1,-6.4982593E-1,6.014997E-1,1.7871162E-1,-8.026945E-1,-1.6874732E-1,1.1434462E0,4.0166157E-1,-6.431804E-2,6.928697E-2,-2.4079293E-1,-0E0,4.2570612E-1,-1.9541939E-1,1.4212991E-1,1.7579079E-2,-2.7291214E-1,2.6195687E-1,-0E0,-7.8085E-2,3.257192E-1,-3.875139E-2,-4.2733216E-1,3.228888E-2,4.5696667E-1],"categories":[],"categories_nodes":[],"categories_segments":[],"categories_sizes":[],"default_left":[0,0,0,0,0,0,0,0,0,0,0,0,0,0,0,0,0,0,0,1,0,0,0,0,1,0,0,0,0,0,0,0,0,0,0,0,0,0,0,0,0,0,0,0,0,0,0,0,0],"id":4,"left_children":[1,3,5,7,9,11,13,-1,-1,-1,-1,15,17,-1,19,21,-1,23,25,27,29,31,33,35,37,39,41,43,45,-1,47,-1,-1,-1,-1,-1,-1,-1,-1,-1,-1,-1,-1,-1,-1,-1,-1,-1,-1],"loss_changes":[2.6649773E1,1.2745972E0,8.095899E0,7.600689E-1,7.262459E-1,1.2628209E1,1.1150501E1,0E0,0E0,0E0,0E0,5.8023567E0,6.2701945E0,0E0,9.311518E0,7.3725386E0,0E0,4.156933E0,4.7696557E0,8.765378E0,5.980682E0,3.530694E0,1.8356845E0,2.3493996E0,1.6622313E0,3.317266E0,6.2107813E-1,9.105306E0,5.777746E0,0E0,3.0656748E0,0E0,0E0,0E0,0E0,0E0,0E0,0E0,0E0,0E0,0E0,0E0,0E0,0E0,0E0,0E0,0E0,0E0,0E0],"parents":[2147483647,0,0,1,1,2,2,3,3,4,4,5,5,6,6,11,11,12,12,14,14,15,15,17,17,18,18,19,19,20,20,21,21,22,22,23,23,24,24,25,25,26,26,27,27,28,28,30,30],"right_children":[2,4,6,8,10,12,14,-1,-1,-1,-1,16,18,-1,20,22,-1,24,26,28,30,32,34,36,38,40,42,44,46,-1,48,-1,-1,-1,-1,-1,-1,-1,-1,-1,-1,-1,-1,-1,-1,-1,-1,-1,-1],"split_conditions":[4.7264275E1,-2.917E1,-1.1819E1,2.0253E2,1.25E2,8.3842224E1,9.103673E1,9.4918706E-2,-1.4361645E-1,-0E0,-3.049755E-1,3E-2,1.05E3,-2.8605816E-1,2.90136E2,-9.764099E0,7.3386556E-1,-2.9537E1,2.2404781E1,2.052E2,4.5222E1,3.83983E2,8.585E1,2.22E2,9.929869E1,-4.789583E0,1.2693E2,-2.28E-1,7.271232E1,-1.6874732E-1,1.5454E2,4.0166157E-1,-6.431804E-2,6.928697E-2,-2.4079293E-1,-0E0,4.2570612E-1,-1.9541939E-1,1.4212991E-1,1.7579079E-2,-2.7291214E-1,2.6195687E-1,-0E0,-7.8085E-2,3.257192E-1,-3.875139E-2,-4.2733216E-1,3.228888E-2,4.5696667E-1],"split_indices":[59,56,4,51,9,53,53,0,0,0,0,3,25,0,39,2,0,4,30,48,40,37,60,9,53,58,60,4,61,0,60,0,0,0,0,0,0,0,0,0,0,0,0,0,0,0,0,0,0],"split_type":[0,0,0,0,0,0,0,0,0,0,0,0,0,0,0,0,0,0,0,0,0,0,0,0,0,0,0,0,0,0,0,0,0,0,0,0,0,0,0,0,0,0,0,0,0,0,0,0,0],"sum_hessian":[1.4291565E2,4.1266674E1,1.0164898E2,2.510813E0,3.875586E1,4.149214E1,6.0156837E1,1.0050623E0,1.5057507E0,1.2411615E0,3.7514698E1,1.56016035E1,2.5890537E1,1.4940053E1,4.5216785E1,1.3844171E1,1.7574333E0,8.066273E0,1.7824265E1,3.494512E1,1.0271663E1,9.381406E0,4.462764E0,4.8399677E0,3.226305E0,1.5173482E1,2.6507828E0,2.046035E1,1.4484772E1,1.666992E0,8.604671E0,8.368139E0,1.0132673E0,2.110115E0,2.3526487E0,1.1485653E0,3.6914022E0,2.2154112E0,1.010894E0,3.9328227E0,1.1240659E1,1.5469378E0,1.1038451E0,1.4017866E1,6.442483E0,7.792345E0,6.6924267E0,2.89043E0,5.714241E0],"tree_param":{"num_deleted":"0","num_feature":"64","num_nodes":"49","size_leaf_vector":"1"}},{"base_weights":[-2.3427372E-1,-9.0297866E-1,-0E0,-0E0,-9.394524E-1,6.125359E-1,-9.930045E-2,-0E0,-9.6892756E-1,9.301156E-1,-2.1745144E-1,7.214445E-1,-2.1249193E-1,-3.0008134E-1,-0E0,9.1422826E-2,1.3996196E0,3.2034904E-2,-1.5973791E-1,1.2460306E0,-4.4254917E-1,-3.0701002E-1,9.612161E-1,-5.534784E-1,2.5583193E-1,1.7290617E0,-0E0,1.4825742E0,-0E0,-1.6299531E-1,-0E0,-4.634168E-1,1.379158E-1,-4.9287386E-2,4.4658113E-1,-2.0663233E-1,-0E0,6.98966E-1,2.0962578E-1,4.9486688E-1,5.3252872E-2,-1.9603811E-1,8.252015E-2,3.5178593E-1,-5.5389922E-2],"categories":[],"categories_nodes":[],"categories_segments":[],"categories_sizes":[],"default_left":[1,0,0,0,0,0,0,0,0,0,0,0,0,0,0,0,0,0,0,1,0,0,0,0,0,0,0,1,0,0,0,0,0,0,0,0,0,0,0,0,0,0,0,0,0],"id":5,"left_children":[1,3,5,-1,7,9,11,-1,13,15,17,19,21,-1,-1,23,25,-1,-1,27,29,31,33,35,-1,37,-1,39,-1,-1,-1,41,43,-1,-1,-1,-1,-1,-1,-1,-1,-1,-1,-1,-1],"loss_changes":[2.0294657E1,1.2747421E0,5.988213E0,0E0,8.8280106E-1,4.072094E0,7.717193E0,0E0,8.607826E-1,3.482668E0,6.421714E-1,6.902524E0,8.317955E0,0E0,0E0,3.0645175E0,3.36864E0,0E0,0E0,2.282053E0,6.5359116E-2,5.0299697E0,3.963354E0,4.8107684E-2,0E0,6.3363934E-1,0E0,4.464817E-1,0E0,0E0,0E0,7.6646414E0,6.677477E0,0E0,0E0,0E0,0E0,0E0,0E0,0E0,0E0,0E0,0E0,0E0,0E0],"parents":[2147483647,0,0,1,1,2,2,4,4,5,5,6,6,8,8,9,9,10,10,11,11,12,12,15,15,16,16,19,19,20,20,21,21,22,22,23,23,25,25,27,27,31,31,32,32],"right_children":[2,4,6,-1,8,10,12,-1,14,16,18,20,22,-1,-1,24,26,-1,-1,28,30,32,34,36,-1,38,-1,40,-1,-1,-1,42,44,-1,-1,-1,-1,-1,-1,-1,-1,-1,-1,-1,-1],"split_conditions":[4.7264275E1,-4.771E1,-8.778197E1,-0E0,-9.9780754E1,1.4E1,4.615E1,-0E0,1.998E3,-1.2792852E2,3.44E2,-1.1819E1,1.0866209E2,-3.0008134E-1,-0E0,1.3134459E2,9E1,3.2034904E-2,-1.5973791E-1,1.3951E2,2.08884E2,-1.78E-1,1.414E3,6.2E2,2.5583193E-1,1.2075894E2,-0E0,9.543E1,-0E0,-1.6299531E-1,-0E0,1.748071E1,3.17E1,-4.9287386E-2,4.4658113E-1,-2.0663233E-1,-0E0,6.98966E-1,2.0962578E-1,4.9486688E-1,5.3252872E-2,-1.9603811E-1,8.252015E-2,3.5178593E-1,-5.5389922E-2],"split_indices":[59,55,2,0,27,44,7,0,13,2,14,4,58,0,0,49,55,0,0,48,36,4,11,14,0,34,0,63,0,0,0,30,0,0,0,0,0,0,0,0,0,0,0,0,0],"split_type":[0,0,0,0,0,0,0,0,0,0,0,0,0,0,0,0,0,0,0,0,0,0,0,0,0,0,0,0,0,0,0,0,0,0,0,0,0,0,0,0,0,0,0,0,0],"sum_hessian":[1.2757842E2,3.254497E1,9.503345E1,1.1098207E0,3.143515E1,1.2771862E1,8.226159E1,1.0030313E0,3.043212E1,9.44326E0,3.3286018E0,8.9584675E0,7.3303116E1,2.9353443E1,1.0786765E0,4.0750704E0,5.36819E0,1.439741E0,1.888861E0,6.326015E0,2.6324525E0,6.878866E1,4.5144596E0,2.1148489E0,1.9602215E0,4.299445E0,1.0687448E0,5.2130127E0,1.1130023E0,1.6314013E0,1.0010513E0,5.1425415E1,1.7363243E1,1.4565647E0,3.057895E0,1.11274E0,1.0021088E0,1.7127726E0,2.5866725E0,4.159114E0,1.0538993E0,4.135396E1,1.0071457E1,3.7478957E0,1.3615348E1],"tree_param":{"num_deleted":"0","num_feature":"64","num_nodes":"45","size_leaf_vector":"1"}},{"base_weights":[-1.8105048E-1,-2.8685758E-1,-6.333747E-4,2.7616033E-1,-1.8538296E-1,1.0829334E0,-0E0,-3.81769E-1,5.624193E-1,-3.306829E-2,1.3799794E0,2.929646E-1,-5.688095E-1,-8.3015E-1,9.471118E-2,1.081513E0,-9.25309E-2,-0E0,1.6335537E0,6.460778E-1,-2.5093824E-1,-3.084908E-1,3.8553333E-1,-1.0530594E-1,-9.679316E-1,-4.7770408E-1,5.608838E-1,-0E0,1.2313569E0,2.133167E-1,-4.5530626E-1,5.8003604E-1,8.143302E-2,-5.162469E-2,2.5878963E-1,-2.3147948E-1,8.1813075E-2,-2.2517394E-2,2.321976E-1,-2.0564418E-1,1.469798E-1,-3.1002948E-1,-0E0,-2.3682354E-1,2.2395289E-1,-1.7760612E-1,3.2470444E-1,4.1732135E-1,2.2094656E-2,-2.1320346E-1,2.3209775E-2],"categories":[],"categories_nodes":[],"categories_segments":[],"categories_sizes":[],"default_left":[1,0,0,0,0,0,0,0,0,0,0,0,0,0,0,0,0,0,0,0,0,0,0,0,0,0,0,0,0,0,0,0,0,0,0,0,0,0,0,0,0,0,0,0,0,0,0,0,0,0,0],"id":6,"left_children":[1,-1,3,5,7,9,11,13,15,-1,17,19,21,23,25,27,29,-1,31,33,35,-1,37,39,41,43,45,-1,47,-1,49,-1,-1,-1,-1,-1,-1,-1,-1,-1,-1,-1,-1,-1,-1,-1,-1,-1,-1,-1,-1],"loss_changes":[1.6101404E1,0E0,4.961537E0,8.313461E0,8.858393E0,3.9756193E0,5.068094E0,1.05585785E1,4.640429E0,0E0,2.7412634E0,4.242567E0,5.090763E0,2.0478764E0,6.634493E0,8.8570595E-1,2.0179262E0,0E0,1.4771175E0,2.7048464E0,2.678327E0,0E0,9.7459793E-1,2.310582E0,1.5122032E0,4.75478E0,9.147799E0,0E0,5.497141E-1,0E0,9.625187E-1,0E0,0E0,0E0,0E0,0E0,0E0,0E0,0E0,0E0,0E0,0E0,0E0,0E0,0E0,0E0,0E0,0E0,0E0,0E0,0E0],"parents":[2147483647,0,0,2,2,3,3,4,4,5,5,6,6,7,7,8,8,10,10,11,11,12,12,13,13,14,14,15,15,16,16,18,18,19,19,20,20,22,22,23,23,24,24,25,25,26,26,28,28,30,30],"right_children":[2,-1,4,6,8,10,12,14,16,-1,18,20,22,24,26,28,30,-1,32,34,36,-1,38,40,42,44,46,-1,48,-1,50,-1,-1,-1,-1,-1,-1,-1,-1,-1,-1,-1,-1,-1,-1,-1,-1,-1,-1,-1,-1],"split_conditions":[4.2744846E1,-2.8685758E-1,-1.3808E1,1.2E3,2.99717E2,1E0,1.082E2,9.1572E2,2.4E2,-3.306829E-2,2.403E0,1.2973E2,2.0569061E2,1E0,9.911052E1,-1.1743889E-1,7.303E1,-0E0,-7.9979277E0,-2.65E1,1.7034786E1,-3.084908E-1,9.54214E0,9.0402E1,9.91169E2,1.4317E2,-7.41E-1,-0E0,5.5231E2,2.133167E-1,5.02871E2,5.8003604E-1,8.143302E-2,-5.162469E-2,2.5878963E-1,-2.3147948E-1,8.1813075E-2,-2.2517394E-2,2.321976E-1,-2.0564418E-1,1.469798E-1,-3.1002948E-1,-0E0,-2.3682354E-1,2.2395289E-1,-1.7760612E-1,3.2470444E-1,4.1732135E-1,2.2094656E-2,-2.1320346E-1,2.3209775E-2],"split_indices":[59,0,4,21,39,45,37,54,9,0,42,63,34,45,62,31,48,0,27,6,30,0,30,39,41,55,4,0,39,0,39,0,0,0,0,0,0,0,0,0,0,0,0,0,0,0,0,0,0,0,0],"split_type":[0,0,0,0,0,0,0,0,0,0,0,0,0,0,0,0,0,0,0,0,0,0,0,0,0,0,0,0,0,0,0,0,0,0,0,0,0,0,0,0,0,0,0,0,0,0,0,0,0,0,0],"sum_hessian":[1.1644047E2,2.0820974E1,9.561949E1,3.7348248E1,5.8271244E1,8.582708E0,2.8765537E1,4.6895115E1,1.1376129E1,1.6104194E0,6.9722886E0,1.9553598E1,9.21194E0,2.4141289E1,2.2753826E1,6.269487E0,5.1066422E0,1.2556874E0,5.7166014E0,1.2117399E1,7.4361997E0,6.403718E0,2.8082213E0,4.5277243E0,1.9613565E1,9.878086E0,1.2875739E1,1.0774508E0,5.1920366E0,1.0012891E0,4.1053534E0,4.138892E0,1.5777091E0,2.2538857E0,9.863514E0,3.8134549E0,3.6227448E0,1.2577118E0,1.5505097E0,2.5023139E0,2.0254107E0,1.8499304E1,1.1142613E0,8.375499E0,1.5025871E0,3.7669508E0,9.1087885E0,4.1300964E0,1.0619398E0,2.976001E0,1.1293522E0],"tree_param":{"num_deleted":"0","num_feature":"64","num_nodes":"51","size_leaf_vector":"1"}},{"base_weights":[-1.4989199E-1,-2.834781E-1,-5.3136324E-4,4.7879663E-1,-9.111823E-2,6.895452E-1,-1.4385165E-1,5.697716E-1,-1.745253E-1,-0E0,1.0639937E0,-1.3242927E-1,7.977624E-3,-2.779536E-2,1.3306587E0,8.333679E-2,-5.324598E-1,-4.873717E-1,2.4894373E-1,-1.4135244E-2,3.9775342E-1,-1.728695E-1,2.2524534E-1,9.692007E-2,5.235505E-1,-2.8346708E-1,2.772875E-1,-1.0660261E0,-2.4867174E-1,-2.2614525E-1,-0E0,1.856972E-1,-7.9270296E-2,-1.6564362E-1,1.55673E-1,2.2747244E-1,4.7334437E-3,-3.390134E-1,-2.6460957E-2,-1.8464662E-1,9.3746446E-2],"categories":[],"categories_nodes":[],"categories_segments":[],"categories_sizes":[],"default_left":[0,0,0,0,0,0,1,0,0,0,0,0,0,0,0,0,1,0,0,0,0,0,0,0,0,0,0,0,0,0,0,0,0,0,0,0,0,0,0,0,0],"id":7,"left_children":[1,-1,3,5,7,9,11,13,15,17,19,-1,-1,21,23,25,27,29,-1,-1,-1,-1,31,-1,-1,33,35,37,39,-1,-1,-1,-1,-1,-1,-1,-1,-1,-1,-1,-1],"loss_changes":[1.2258319E1,0E0,3.8436348E0,2.114306E0,4.241913E0,2.5230494E0,3.518101E-1,4.328354E0,6.6644115E0,2.591175E0,2.4857593E0,0E0,0E0,1.008146E0,4.0927553E-1,2.9974086E0,3.8398447E0,6.3721037E-1,0E0,0E0,0E0,0E0,1.0630747E0,0E0,0E0,3.3363533E0,3.244533E0,9.8376274E-2,4.6827803E0,0E0,0E0,0E0,0E0,0E0,0E0,0E0,0E0,0E0,0E0,0E0,0E0],"parents":[2147483647,0,0,2,2,3,3,4,4,5,5,6,6,7,7,8,8,9,9,10,10,13,13,14,14,15,15,16,16,17,17,22,22,25,25,26,26,27,27,28,28],"right_children":[2,-1,4,6,8,10,12,14,16,18,20,-1,-1,22,24,26,28,30,-1,-1,-1,-1,32,-1,-1,34,36,38,40,-1,-1,-1,-1,-1,-1,-1,-1,-1,-1,-1,-1],"split_conditions":[4.2744846E1,-2.834781E-1,-8.778197E1,1.4E1,4.790805E1,-1.2792852E2,1.0167E2,6.81E2,2.444E3,1.1920476E2,3.53E1,-1.3242927E-1,7.977624E-3,1.2E3,7.38045E2,8E0,5.4697357E1,1.128E3,2.4894373E-1,-1.4135244E-2,3.9775342E-1,-1.728695E-1,5.283E1,9.692007E-2,5.235505E-1,1.3921834E2,-2.3147E1,9.91169E2,1.8535042E2,-2.2614525E-1,-0E0,1.856972E-1,-7.9270296E-2,-1.6564362E-1,1.55673E-1,2.2747244E-1,4.7334437E-3,-3.390134E-1,-2.6460957E-2,-1.8464662E-1,9.3746446E-2],"split_indices":[59,0,2,44,50,2,60,14,11,59,37,0,0,22,41,44,59,12,0,0,0,0,57,0,0,53,4,41,49,0,0,0,0,0,0,0,0,0,0,0,0],"split_type":[0,0,0,0,0,0,0,0,0,0,0,0,0,0,0,0,0,0,0,0,0,0,0,0,0,0,0,0,0,0,0,0,0,0,0,0,0,0,0,0,0],"sum_hessian":[1.0491339E2,1.5393914E1,8.951948E1,1.2957481E1,7.6562E1,1.0004207E1,2.9532743E0,7.4742074E0,6.908779E1,4.15378E0,5.8504267E0,1.2153214E0,1.7379528E0,4.4784E0,2.995807E0,4.005719E1,2.9030598E1,2.6497524E0,1.5040278E0,1.0271621E0,4.8232646E0,1.4304153E0,3.047985E0,1.628425E0,1.3673819E0,1.3095187E1,2.6962004E1,8.710886E0,2.0319712E1,1.6470121E0,1.0027401E0,1.9234443E0,1.1245409E0,1.0357941E1,2.737246E0,8.374375E0,1.8587627E1,7.7066083E0,1.0042777E0,1.2591582E1,7.72813E0],"tree_param":{"num_deleted":"0","num_feature":"64","num_nodes":"41","size_leaf_vector":"1"}},{"base_weights":[-1.1865379E-1,-2.749265E-1,-0E0,2.4888524E-1,-4.296158E-2,-1.1340142E-1,4.4131437E-1,1.20627016E-1,-4.5148733E-1,4.0964922E-1,-0E0,-1.0160017E-2,8.0318797E-1,-5.760226E-2,-7.4784034E-1,5.233981E-1,-4.1541362E-1,-1.23606175E-1,6.849345E-2,-0E0,3.602378E-1,-2.1383515E-1,1.4456198E-1,-2.597422E-1,7.660599E-2,-0E0,2.1075936E-1,-1.9399239E-1,7.066639E-3],"categories":[],"categories_nodes":[],"categories_segments":[],"categories_sizes":[],"default_left":[0,0,0,0,1,0,0,1,0,0,0,0,0,1,0,0,0,0,0,0,0,0,0,0,0,0,0,0,0],"id":8,"left_children":[1,-1,3,-1,5,7,9,11,13,-1,15,17,19,21,23,25,27,-1,-1,-1,-1,-1,-1,-1,-1,-1,-1,-1,-1],"loss_changes":[9.296975E0,0E0,3.072814E0,0E0,2.8132157E0,6.0952654E0,4.397003E0,4.2463202E0,3.3575907E0,0E0,1.9109586E0,3.7886286E0,2.6600199E0,5.749738E0,2.4831028E0,3.2831132E-1,7.4198735E-1,0E0,0E0,0E0,0E0,0E0,0E0,0E0,0E0,0E0,0E0,0E0,0E0],"parents":[2147483647,0,0,2,2,4,4,5,5,6,6,7,7,8,8,10,10,11,11,12,12,13,13,14,14,15,15,16,16],"right_children":[2,-1,4,-1,6,8,10,12,14,-1,16,18,20,22,24,26,28,-1,-1,-1,-1,-1,-1,-1,-1,-1,-1,-1,-1],"split_conditions":[4.2744846E1,-2.749265E-1,-5.5101E1,2.4888524E-1,1.4317E2,4.344E1,1.62E2,1.3084216E2,1.3087E2,4.0964922E-1,7.9424E1,3.2275279E0,-9.616572E1,3.3267082E1,3.0734085E2,3.38E2,5.47E2,-1.23606175E-1,6.849345E-2,-0E0,3.602378E-1,-2.1383515E-1,1.4456198E-1,-2.597422E-1,7.660599E-2,-0E0,2.1075936E-1,-1.9399239E-1,7.066639E-3],"split_indices":[59,0,4,0,55,55,9,50,7,0,40,30,34,58,34,14,9,0,0,0,0,0,0,0,0,0,0,0,0],"split_type":[0,0,0,0,0,0,0,0,0,0,0,0,0,0,0,0,0,0,0,0,0,0,0,0,0,0,0,0,0],"sum_hessian":[9.8207886E1,1.1733184E1,8.64747E1,3.2386858E0,8.3236015E1,7.394145E1,9.2945595E0,4.3487118E1,3.0454336E1,2.4334512E0,6.861108E0,3.690744E1,6.5796785E0,1.4075734E1,1.6378601E1,2.7662432E0,4.094865E0,1.3999365E1,2.2908075E1,2.3437133E0,4.2359657E0,6.4927616E0,7.582972E0,1.507787E1,1.3007318E0,1.0105814E0,1.755662E0,2.874179E0,1.2206857E0],"tree_param":{"num_deleted":"0","num_feature":"64","num_nodes":"29","size_leaf_vector":"1"}},{"base_weights":[-8.903203E-2,-2.6501617E-1,2.3006576E-3,2.1217085E-1,-2.7322039E-2,4.4046637E-1,-8.926919E-2,-4.0486157E-2,9.8717016E-1,5.8487367E-2,-3.2678792E-1,-1.5584677E-1,1.6319388E-1,3.933766E-1,-0E0,1.3589597E-1,-5.0659144E-1,-2.8971368E-1,-4.5681335E-2,1.7733009E-1,-4.1273654E-2,-3.153818E-2,1.2889749E-1,1.5045445E-2,-2.2213405E-1,-9.987663E-2,1.867351E-1],"categories":[],"categories_nodes":[],"categories_segments":[],"categories_sizes":[],"default_left":[0,0,0,0,0,0,0,0,0,0,1,0,0,0,0,0,0,0,0,0,0,0,0,0,0,0,0],"id":9,"left_children":[1,-1,3,-1,5,7,9,11,13,15,17,-1,19,-1,-1,21,23,-1,25,-1,-1,-1,-1,-1,-1,-1,-1],"loss_changes":[7.065732E0,0E0,2.0079093E0,0E0,2.2794657E0,2.7381E0,2.682942E0,7.361543E-1,1.6627712E0,1.9205393E0,4.8508415E0,0E0,7.6037306E-1,0E0,0E0,3.0609426E0,9.3749547E-1,0E0,4.2662435E0,0E0,0E0,0E0,0E0,0E0,0E0,0E0,0E0],"parents":[2147483647,0,0,2,2,4,4,5,5,6,6,7,7,8,8,9,9,10,10,12,12,15,15,16,16,18,18],"right_children":[2,-1,4,-1,6,8,10,12,14,16,18,-1,20,-1,-1,22,24,-1,26,-1,-1,-1,-1,-1,-1,-1,-1],"split_conditions":[4.2744846E1,-2.6501617E-1,-5.5101E1,2.1217085E-1,4.790805E1,6.81E2,2.444E3,1.2E3,-7.91E-1,3.331E3,5.4697357E1,-1.5584677E-1,1.1913921E2,3.933766E-1,-0E0,3.4921665E1,-2.4749E1,-2.8971368E-1,3.2E1,1.7733009E-1,-4.1273654E-2,-3.153818E-2,1.2889749E-1,1.5045445E-2,-2.2213405E-1,-9.987663E-2,1.867351E-1],"split_indices":[59,0,4,0,50,14,11,22,4,20,59,0,62,0,0,58,4,0,28,0,0,0,0,0,0,0,0],"split_type":[0,0,0,0,0,0,0,0,0,0,0,0,0,0,0,0,0,0,0,0,0,0,0,0,0,0,0],"sum_hessian":[9.227677E1,9.001196E0,8.327558E1,2.8937829E0,8.03818E1,8.050216E0,7.233158E1,4.4478707E0,3.6023445E0,4.418326E1,2.8148321E1,1.3572206E0,3.09065E0,2.5755582E0,1.0267864E0,4.0051563E1,4.131696E0,7.4906764E0,2.0657644E1,1.3389626E0,1.7516874E0,2.1724329E1,1.8327236E1,1.0289736E0,3.102723E0,1.5149751E1,5.507893E0],"tree_param":{"num_deleted":"0","num_feature":"64","num_nodes":"27","size_leaf_vector":"1"}},{"base_weights":[-7.306996E-2,-2.5365472E-1,-0E0,-4.6792075E-2,4.472127E-1,-1.5055425E-1,2.5213107E-1,7.8582656E-1,-0E0,3.551406E-1,-2.5495514E-1,5.614755E-1,-5.57045E-1,2.8571782E-1,1.2795005E-2,1.6358425E-1,-1.6363867E-1,6.3838404E-1,-1.0006371E-1,-3.2476357E-1,7.02823E-1,-2.824567E-1,8.481458E-1,-0E0,-2.090634E-1,3.0538386E-1,-0E0,-1.24111384E-1,1.20723896E-1,-0E0,3.0013537E-1,-1.9211164E-1,5.4899257E-2,1.3852834E-2,3.341551E-1],"categories":[],"categories_nodes":[],"categories_segments":[],"categories_sizes":[],"default_left":[0,0,0,0,0,0,0,0,0,0,0,0,0,0,0,0,0,0,0,0,0,0,0,0,0,0,0,0,0,0,0,0,0,0,0],"id":10,"left_children":[1,-1,3,5,7,9,11,13,15,17,19,21,23,-1,-1,-1,-1,25,-1,27,29,31,33,-1,-1,-1,-1,-1,-1,-1,-1,-1,-1,-1,-1],"loss_changes":[5.218475E0,0E0,1.8326637E0,2.306501E0,1.0945213E0,3.0435667E0,4.9872284E0,1.7882562E-1,1.7469553E0,2.1778212E0,3.31206E0,3.8904834E0,4.5425844E-1,0E0,0E0,0E0,0E0,1.9184492E0,0E0,3.130733E0,4.9930263E-1,9.5067465E-1,1.9501419E0,0E0,0E0,0E0,0E0,0E0,0E0,0E0,0E0,0E0,0E0,0E0,0E0],"parents":[2147483647,0,0,2,2,3,3,4,4,5,5,6,6,7,7,8,8,9,9,10,10,11,11,12,12,17,17,19,19,20,20,21,21,22,22],"right_children":[2,-1,4,6,8,10,12,14,16,18,20,22,24,-1,-1,-1,-1,26,-1,28,30,32,34,-1,-1,-1,-1,-1,-1,-1,-1,-1,-1,-1,-1],"split_conditions":[4.2744846E1,-2.5365472E-1,2.1077486E1,-1.78E-1,-3.0039888E1,4.615E1,2.6706E1,1.3585E2,7.3552574E1,-1.1819E1,2.0565848E2,8.347436E1,1.8515E2,2.8571782E-1,1.2795005E-2,1.6358425E-1,-1.6363867E-1,6.434658E1,-1.0006371E-1,1.05E2,2.106E3,1.00330414E2,-9.616572E1,-0E0,-2.090634E-1,3.0538386E-1,-0E0,-1.24111384E-1,1.20723896E-1,-0E0,3.0013537E-1,-1.9211164E-1,5.4899257E-2,1.3852834E-2,3.341551E-1],"split_indices":[59,0,30,4,27,7,3,48,59,4,50,62,46,0,0,0,0,50,0,28,16,58,34,0,0,0,0,0,0,0,0,0,0,0,0],"split_type":[0,0,0,0,0,0,0,0,0,0,0,0,0,0,0,0,0,0,0,0,0,0,0,0,0,0,0,0,0,0,0,0,0,0,0],"sum_hessian":[8.7552155E1,6.9609733E0,8.059119E1,7.324058E1,7.350604E0,5.5572155E1,1.7668425E1,3.476973E0,3.8736308E0,8.547223E0,4.7024933E1,1.3304168E1,4.3642564E0,2.240601E0,1.2363719E0,2.135675E0,1.7379559E0,6.454248E0,2.092975E0,4.477373E1,2.2512014E0,3.0795121E0,1.0224655E1,1.00138E0,3.3628764E0,3.783094E0,2.671154E0,4.0690582E1,4.0831513E0,1.1478336E0,1.1033677E0,1.9370067E0,1.1425054E0,3.151745E0,7.0729103E0],"tree_param":{"num_deleted":"0","num_feature":"64","num_nodes":"35","size_leaf_vector":"1"}},{"base_weights":[-4.760342E-2,-2.4084157E-1,1.0444967E-2,2.796552E-1,-7.820173E-2,8.011606E-1,-0E0,-1.9024202E-1,3.7032306E-1,3.9466324E-1,5.6515034E-2,5.161101E-1,-2.6362965E-1,-8.0198064E-2,-6.774699E-1,5.7970166E-1,-1.4609408E-1,-1.6605258E-1,1.6375083E-1,-0E0,2.578446E-1,2.6191324E-1,-4.9446708E-1,-2.856499E-1,4.5171615E-1,-8.4827054E-1,1.3122727E-2,7.939015E-2,1.136303E0,-4.9403254E-2,2.0421612E-1,-2.2726782E-1,5.5594105E-2,1.8104939E-2,-1.4655802E-1,-0E0,2.9293904E-1,-0E0,-2.9179996E-1,-8.7086536E-2,1.089719E-1,3.8946018E-1,4.4389628E-2],"categories":[],"categories_nodes":[],"categories_segments":[],"categories_sizes":[],"default_left":[0,0,0,1,0,0,0,0,0,0,0,0,0,1,0,0,0,0,0,0,0,0,0,0,0,0,0,0,0,0,0,0,0,0,0,0,0,0,0,0,0,0,0],"id":11,"left_children":[1,-1,3,5,7,9,11,13,15,-1,17,19,21,23,25,27,-1,-1,-1,-1,-1,29,31,33,35,37,-1,39,41,-1,-1,-1,-1,-1,-1,-1,-1,-1,-1,-1,-1,-1,-1],"loss_changes":[3.965656E0,0E0,1.9690603E0,3.2657416E0,2.9791257E0,2.3774638E0,1.9699223E0,2.2931852E0,2.3865242E0,0E0,1.6187878E0,9.2992294E-1,1.4659774E0,4.5856986E0,1.3234403E0,2.3005414E0,0E0,0E0,0E0,0E0,0E0,8.8854516E-1,1.763194E0,2.339468E0,2.7843382E0,6.2017393E-1,0E0,8.31786E-1,1.9960403E-2,0E0,0E0,0E0,0E0,0E0,0E0,0E0,0E0,0E0,0E0,0E0,0E0,0E0,0E0],"parents":[2147483647,0,0,2,2,3,3,4,4,5,5,6,6,7,7,8,8,10,10,11,11,12,12,13,13,14,14,15,15,21,21,22,22,23,23,24,24,25,25,27,27,28,28],"right_children":[2,-1,4,6,8,10,12,14,16,-1,18,20,22,24,26,28,-1,-1,-1,-1,-1,30,32,34,36,38,-1,40,42,-1,-1,-1,-1,-1,-1,-1,-1,-1,-1,-1,-1,-1,-1],"split_conditions":[4.2744846E1,-2.4084157E-1,-3.093E1,8.585E1,2.99717E2,-8.8E1,3.8483334E0,1.6895E2,5.17E2,3.9466324E-1,2.26E2,9.732E1,1.554E3,1.7413834E2,1.62E2,-2.630888E1,-1.4609408E-1,-1.6605258E-1,1.6375083E-1,-0E0,2.578446E-1,4.675E1,2.41E1,6.4855736E1,1.2763735E1,8.4655E1,1.3122727E-2,9.492834E1,1.8E1,-4.9403254E-2,2.0421612E-1,-2.2726782E-1,5.5594105E-2,1.8104939E-2,-1.4655802E-1,-0E0,2.9293904E-1,-0E0,-2.9179996E-1,-8.7086536E-2,1.089719E-1,3.8946018E-1,4.4389628E-2],"split_indices":[59,0,4,60,39,29,58,8,9,0,14,60,11,49,60,34,0,0,0,0,0,55,35,50,1,40,0,58,44,0,0,0,0,0,0,0,0,0,0,0,0,0,0],"split_type":[0,0,0,0,0,0,0,0,0,0,0,0,0,0,0,0,0,0,0,0,0,0,0,0,0,0,0,0,0,0,0,0,0,0,0,0,0,0,0,0,0,0,0],"sum_hessian":[8.318919E1,5.435794E0,7.7753395E1,1.9667055E1,5.808634E1,6.6061196E0,1.3060935E1,4.7537506E1,1.0548838E1,3.1865034E0,3.419616E0,3.6893017E0,9.371634E0,4.029228E1,7.245229E0,9.053845E0,1.4949919E0,1.1576755E0,2.2619405E0,1.739548E0,1.9497539E0,2.3742418E0,6.9973917E0,2.9855886E1,1.0436389E1,6.0926337E0,1.1525948E0,5.688068E0,3.3657775E0,1.0788538E0,1.295388E0,5.319202E0,1.6781901E0,1.0682141E1,1.9173746E1,6.068788E0,4.367601E0,1.0426489E0,5.049985E0,1.9458964E0,3.7421715E0,2.3301697E0,1.0356078E0],"tree_param":{"num_deleted":"0","num_feature":"64","num_nodes":"43","size_leaf_vector":"1"}},{"base_weights":[-2.9951075E-2,-2.1847151E-1,1.8550044E-2,-4.5305558E-2,3.659765E-1,8.688325E-2,-4.4297028E-1,7.5901955E-1,-1.15650356E-1,-2.0410872E-1,2.1728401E-1,-8.080161E-1,-0E0,1.3124331E0,-6.268207E-2,-1.702102E-1,3.2980275E-1,1.7173055E-1,-3.7960684E-1,3.276458E-1,-2.5354767E-1,-2.5781572E-1,-9.177826E-3,4.737901E-1,-3.507417E-1,-0E0,4.997286E-1,1.2670977E-1,-1.8066573E-1,-0E0,1.9491842E-1,-1.755946E-1,3.552092E-2,5.2642975E-2,2.4235415E-1,1.6403978E-1,-2.1803907E-1,-0E0,2.2733203E-1,-1.7336321E-1,-0E0],"categories":[],"categories_nodes":[],"categories_segments":[],"categories_sizes":[],"default_left":[1,0,0,0,0,0,0,0,0,0,0,0,0,0,0,0,0,0,1,0,0,0,0,0,0,0,0,0,0,0,0,0,0,0,0,0,0,0,0,0,0],"id":12,"left_children":[1,-1,3,5,7,9,11,13,15,17,19,21,23,25,27,-1,29,-1,31,33,35,-1,-1,37,39,-1,-1,-1,-1,-1,-1,-1,-1,-1,-1,-1,-1,-1,-1,-1,-1],"loss_changes":[2.9815896E0,0E0,1.807839E0,3.5314755E0,2.7100456E0,1.88389E0,2.5732424E0,3.9200525E0,1.5134118E0,2.1534398E0,1.9099717E0,3.3442974E-2,1.6090312E0,2.2270155E0,1.292094E0,0E0,4.979371E-1,0E0,1.5510832E0,1.6544635E0,2.9464383E0,0E0,0E0,5.855883E-1,5.532924E-1,0E0,0E0,0E0,0E0,0E0,0E0,0E0,0E0,0E0,0E0,0E0,0E0,0E0,0E0,0E0,0E0],"parents":[2147483647,0,0,2,2,3,3,4,4,5,5,6,6,7,7,8,8,9,9,10,10,11,11,12,12,13,13,14,14,16,16,18,18,19,19,20,20,23,23,24,24],"right_children":[2,-1,4,6,8,10,12,14,16,18,20,22,24,26,28,-1,30,-1,32,34,36,-1,-1,38,40,-1,-1,-1,-1,-1,-1,-1,-1,-1,-1,-1,-1,-1,-1,-1,-1],"split_conditions":[4.2744846E1,-2.1847151E-1,3.212E3,2.496E3,9.69E2,1.78068E2,7.972669E1,1.6895E2,6.94E1,-1.2394345E1,3.375E3,1.439E3,1.1446605E2,4.54E2,1.0091158E2,-1.702102E-1,1.62E2,1.7173055E-1,8.886625E1,1.8E3,9.4233E1,-2.5781572E-1,-9.177826E-3,1.0468469E1,2.1561E2,-0E0,4.997286E-1,1.2670977E-1,-1.8066573E-1,-0E0,1.9491842E-1,-1.755946E-1,3.552092E-2,5.2642975E-2,2.4235415E-1,1.6403978E-1,-2.1803907E-1,-0E0,2.2733203E-1,-1.7336321E-1,-0E0],"split_indices":[59,0,11,11,14,38,59,8,37,61,19,13,62,14,50,0,60,0,61,22,40,0,0,30,36,0,0,0,0,0,0,0,0,0,0,0,0,0,0,0,0],"split_type":[0,0,0,0,0,0,0,0,0,0,0,0,0,0,0,0,0,0,0,0,0,0,0,0,0,0,0,0,0,0,0,0,0,0,0,0,0,0,0,0,0],"sum_hessian":[7.958791E1,4.7092104E0,7.48787E1,6.316965E1,1.1709048E1,4.7361588E1,1.5808063E1,6.514936E0,5.194113E0,1.3682868E1,3.3678722E1,7.992885E0,7.815178E0,3.780789E0,2.7341468E0,2.818014E0,2.3760989E0,1.7519841E0,1.1930883E1,2.8108734E1,5.5699873E0,6.992669E0,1.000216E0,2.9580235E0,4.8571544E0,1.0104375E0,2.7703514E0,1.2257903E0,1.5083567E0,1.3266807E0,1.0494181E0,8.797286E0,3.133598E0,2.2913698E1,5.1950364E0,1.7478254E0,3.822162E0,1.3909373E0,1.5670862E0,2.8145463E0,2.042608E0],"tree_param":{"num_deleted":"0","num_feature":"64","num_nodes":"41","size_leaf_vector":"1"}},{"base_weights":[-2.307744E-2,-2.1210968E-1,1.3834907E-2,3.470199E-1,-4.336708E-2,-0E0,5.209349E-1,-2.961291E-1,4.514398E-2,1.1110648E-1,-1.0036717E-1,-0E0,7.2108287E-1,-5.079469E-1,1.1659102E-1,3.599085E-1,-7.498101E-2,1.0104169E-1,-1.1090892E-1,2.5546047E-1,-0E0,-7.3561394E-1,-0E0,-3.3768365E-1,5.837173E-1,-2.063558E-1,5.811056E-1,7.2006665E-2,-5.3183323E-1,-2.5758055E-1,-0E0,1.3333264E-1,-7.316926E-2,-1.825891E-1,-0E0,-0E0,2.5655812E-1,5.9552915E-2,-1.8480268E-1,-0E0,2.6393E-1,-1.0026197E-1,7.6643206E-2,-0E0,-2.6292327E-1],"categories":[],"categories_nodes":[],"categories_segments":[],"categories_sizes":[],"default_left":[0,0,0,0,0,0,0,0,0,0,0,0,0,0,0,0,0,0,0,0,0,1,0,0,0,0,0,0,0,0,0,0,0,0,0,0,0,0,0,0,0,0,0,0,0],"id":13,"left_children":[1,-1,3,5,7,9,11,13,15,-1,-1,17,19,21,23,25,27,-1,-1,-1,-1,29,31,33,35,37,39,41,43,-1,-1,-1,-1,-1,-1,-1,-1,-1,-1,-1,-1,-1,-1,-1,-1],"loss_changes":[2.2043364E0,0E0,1.5318358E0,8.762959E-1,1.5156617E0,6.532593E-1,8.6034966E-1,1.7255572E0,1.8931881E0,0E0,0E0,5.471115E-1,3.8393474E-1,1.5235026E0,1.6016045E0,1.9843934E0,2.4722524E0,0E0,0E0,0E0,0E0,6.730976E-1,6.3741636E-1,4.7136164E-1,6.964438E-1,9.6086526E-1,1.5903914E0,1.9968853E0,1.394161E0,0E0,0E0,0E0,0E0,0E0,0E0,0E0,0E0,0E0,0E0,0E0,0E0,0E0,0E0,0E0,0E0],"parents":[2147483647,0,0,2,2,3,3,4,4,5,5,6,6,7,7,8,8,11,11,12,12,13,13,14,14,15,15,16,16,21,21,22,22,23,23,24,24,25,25,26,26,27,27,28,28],"right_children":[2,-1,4,6,8,10,12,14,16,-1,-1,18,20,22,24,26,28,-1,-1,-1,-1,30,32,34,36,38,40,42,44,-1,-1,-1,-1,-1,-1,-1,-1,-1,-1,-1,-1,-1,-1,-1,-1],"split_conditions":[4.2744846E1,-2.1210968E-1,-8.778197E1,5.743E1,8E0,-6.747625E1,2.254E0,1.276875E1,-2.0408463E1,1.1110648E-1,-1.0036717E-1,8.21E-1,1.959E2,1.240422E1,-6.803217E1,2E0,1.4654152E2,1.0104169E-1,-1.1090892E-1,2.5546047E-1,-0E0,1.4317E2,6.27E1,7.5488524E0,5.6E-2,1.020197E2,6.01E2,1.4615E2,-4.3048283E1,-2.5758055E-1,-0E0,1.3333264E-1,-7.316926E-2,-1.825891E-1,-0E0,-0E0,2.5655812E-1,5.9552915E-2,-1.8480268E-1,-0E0,2.6393E-1,-1.0026197E-1,7.6643206E-2,-0E0,-2.6292327E-1],"split_indices":[59,0,2,57,44,58,42,26,27,0,0,42,48,30,34,45,62,0,0,0,0,55,36,30,3,62,14,47,34,0,0,0,0,0,0,0,0,0,0,0,0,0,0,0,0],"split_type":[0,0,0,0,0,0,0,0,0,0,0,0,0,0,0,0,0,0,0,0,0,0,0,0,0,0,0,0,0,0,0,0,0,0,0,0,0,0,0,0,0,0,0,0,0],"sum_hessian":[7.6688385E1,3.4639485E0,7.322444E1,1.08486805E1,6.237576E1,3.3616676E0,7.487013E0,1.6554909E1,4.582085E1,1.1056973E0,2.2559702E0,2.4029016E0,5.0841117E0,1.1326351E1,5.228557E0,1.2878821E1,3.2942028E1,1.3521088E0,1.0507927E0,3.892256E0,1.1918555E0,7.692631E0,3.6337206E0,2.4261107E0,2.8024464E0,3.209276E0,9.669545E0,2.5003428E1,7.938603E0,6.293739E0,1.3988919E0,1.1898192E0,2.4439015E0,1.327133E0,1.0989776E0,1.0786906E0,1.7237558E0,1.4602674E0,1.7490085E0,3.959733E0,5.709812E0,6.9532866E0,1.805014E1,3.8319316E0,4.1066713E0],"tree_param":{"num_deleted":"0","num_feature":"64","num_nodes":"45","size_leaf_vector":"1"}},{"base_weights":[-2.394591E-2,2.3444815E-1,-1.1410833E-1,6.03221E-1,-0E0,-3.1154794E-1,1.0057636E-1,7.7284104E-1,-4.7249272E-3,2.2672528E-1,-3.917437E-1,-4.152357E-2,-7.398842E-1,5.2658397E-1,-9.5502794E-2,-0E0,2.689135E-1,-9.600821E-2,4.1194585E-1,-1.910842E-1,2.2608E-2,-2.930777E-1,5.4708725E-1,-2.6354155E-1,-0E0,-1.0750793E-1,7.224257E-1,-4.249186E-1,1.9668084E-1,-2.7250085E-2,6.265559E-1,1.724959E-1,-2.6060393E-1,-1.1326959E-1,9.031914E-1,1.1014493E0,6.011456E-2,-0E0,-6.255929E-1,3.8890308E-1,-1.413511E-1,2.3759487E-1,-0E0,1.5536481E-1,-9.040359E-2,3.136421E-1,1.098251E-2,3.9534357E-1,2.0493776E-2,1.16537295E-1,-9.147852E-2,-8.836425E-2,6.541505E-2,-2.2546233E-1,-0E0,-7.610079E-2,1.91544E-1],"categories":[],"categories_nodes":[],"categories_segments":[],"categories_sizes":[],"default_left":[0,0,1,0,0,1,0,0,0,1,0,0,0,0,0,0,0,0,0,0,0,0,0,0,0,0,0,0,0,0,0,0,0,0,0,0,0,0,0,0,0,0,0,0,0,0,0,0,0,0,0,0,0,0,0,0,0],"id":14,"left_children":[1,3,5,7,9,11,13,15,-1,17,19,21,23,25,27,-1,-1,-1,29,-1,-1,31,33,-1,-1,-1,35,37,39,-1,41,43,-1,-1,45,47,49,51,53,55,-1,-1,-1,-1,-1,-1,-1,-1,-1,-1,-1,-1,-1,-1,-1,-1,-1],"loss_changes":[1.7179995E0,1.6208048E0,2.5074317E0,1.0293498E0,1.1874259E0,3.2477503E0,2.4609568E0,3.5292768E-1,0E0,1.0139623E0,8.0068034E-1,3.0837345E0,1.2057295E0,1.9833417E0,1.97754E0,0E0,0E0,0E0,1.0113577E0,0E0,0E0,4.4810414E0,2.5042372E0,0E0,0E0,0E0,1.6043272E0,7.058886E-1,1.458286E0,0E0,5.6201315E-1,1.695792E0,0E0,0E0,2.0344067E-1,5.2595997E-1,6.702844E-1,3.6445832E-1,3.762095E-1,1.705691E0,0E0,0E0,0E0,0E0,0E0,0E0,0E0,0E0,0E0,0E0,0E0,0E0,0E0,0E0,0E0,0E0,0E0],"parents":[2147483647,0,0,1,1,2,2,3,3,4,4,5,5,6,6,7,7,9,9,10,10,11,11,12,12,13,13,14,14,18,18,21,21,22,22,26,26,27,27,28,28,30,30,31,31,34,34,35,35,36,36,37,37,38,38,39,39],"right_children":[2,4,6,8,10,12,14,16,-1,18,20,22,24,26,28,-1,-1,-1,30,-1,-1,32,34,-1,-1,-1,36,38,40,-1,42,44,-1,-1,46,48,50,52,54,56,-1,-1,-1,-1,-1,-1,-1,-1,-1,-1,-1,-1,-1,-1,-1,-1,-1],"split_conditions":[-3.093E1,5E0,1.2973E2,2E0,1.082E2,9.6E1,1.9381E2,6.481217E1,-4.7249272E-3,-7.47E0,4.2E1,-2.28E-1,1.6439615E1,9E-3,2.4883E2,-0E0,2.689135E-1,-9.600821E-2,1.69E2,-1.910842E-1,2.2608E-2,-1.1819E1,9.315E1,-2.6354155E-1,-0E0,-1.0750793E-1,2.42421E2,2.595E3,2.6706E1,-2.7250085E-2,1.999E3,6.4855736E1,-2.6060393E-1,-1.1326959E-1,1.516894E2,1.6304E2,-1.0244944E0,6.089867E-1,1.686E3,5.405521E1,-1.413511E-1,2.3759487E-1,-0E0,1.5536481E-1,-9.040359E-2,3.136421E-1,1.098251E-2,3.9534357E-1,2.0493776E-2,1.16537295E-1,-9.147852E-2,-8.836425E-2,6.541505E-2,-2.2546233E-1,-0E0,-7.610079E-2,1.91544E-1],"split_indices":[4,55,60,5,37,63,48,34,0,57,28,4,30,3,46,0,0,0,9,0,0,4,63,0,0,0,40,19,3,0,12,50,0,0,52,7,2,30,12,59,0,0,0,0,0,0,0,0,0,0,0,0,0,0,0,0,0],"split_type":[0,0,0,0,0,0,0,0,0,0,0,0,0,0,0,0,0,0,0,0,0,0,0,0,0,0,0,0,0,0,0,0,0,0,0,0,0,0,0,0,0,0,0,0,0,0,0,0,0,0,0,0,0,0,0,0,0],"sum_hessian":[7.333143E1,1.7589788E1,5.574164E1,6.2624E0,1.1327389E1,2.9618326E1,2.6123312E1,5.14689E0,1.1155096E0,7.4053197E0,3.9220684E0,1.9320793E1,1.0297532E1,8.243465E0,1.7879847E1,1.138312E0,4.0085783E0,1.2300893E0,6.1752305E0,2.8057935E0,1.1162748E0,1.4288122E1,5.032671E0,8.57652E0,1.7210119E0,1.0320995E0,7.2113657E0,8.732122E0,9.147724E0,1.5509354E0,4.624295E0,7.9630747E0,6.3250475E0,1.1198655E0,3.9128053E0,3.8418112E0,3.3695545E0,3.4385836E0,5.2935386E0,7.8187337E0,1.3289907E0,3.4161234E0,1.2081718E0,4.9627333E0,3.0003417E0,2.850194E0,1.0626113E0,2.6794913E0,1.1623199E0,2.2253633E0,1.1441913E0,1.7000723E0,1.7385113E0,4.026946E0,1.2665925E0,1.8055995E0,6.0131345E0],"tree_param":{"num_deleted":"0","num_feature":"64","num_nodes":"57","size_leaf_vector":"1"}},{"base_weights":[-2.6668968E-2,-1.0812301E-1,2.2357145E-1,3.2979216E-2,-3.05122E-1,4.9048844E-1,-1.2030511E-1,5.720168E-1,-6.8982586E-2,-6.124453E-1,-0E0,7.291684E-1,-9.087454E-2,-5.437983E-1,1.8230596E-1,2.4925601E-1,-0E0,-1.6249505E-1,3.7184715E-1,-7.304558E-1,1.9819126E-2,-3.312665E-1,3.0075312E-1,1.6251335E-1,1.3445103E0,-0E0,-2.0256992E-1,2.0517284E-1,-3.786094E-1,1.723056E-1,-0E0,-8.4680086E-1,-0E0,-2.1206604E-1,1.4457001E-1,-8.392568E-2,6.336435E-1,4.4736087E-1,-7.055552E-2,4.899402E-1,4.2728122E-2,1.5178673E-1,-5.7435554E-2,-1.4690682E-1,6.0095996E-2,-0E0,-2.8398508E-1,-2.206845E-2,1.2537742E-1,-1.1787081E-1,5.8013E-2,-0E0,2.3758581E-1,-0E0,2.0683472E-1],"categories":[],"categories_nodes":[],"categories_segments":[],"categories_sizes":[],"default_left":[0,0,0,1,0,0,1,0,0,0,1,0,0,0,0,0,0,0,0,0,0,1,0,0,0,0,0,0,0,0,0,0,0,0,0,0,0,0,0,0,0,0,0,0,0,0,0,0,0,0,0,0,0,0,0],"id":15,"left_children":[1,3,5,7,9,11,13,15,17,19,21,23,-1,25,-1,-1,-1,27,29,31,-1,33,35,37,39,-1,-1,41,43,-1,-1,45,-1,-1,47,49,51,53,-1,-1,-1,-1,-1,-1,-1,-1,-1,-1,-1,-1,-1,-1,-1,-1,-1],"loss_changes":[1.3868445E0,1.5904725E0,1.6701844E0,1.9188563E0,2.1983864E0,2.2326903E0,2.568868E0,9.449034E-1,1.083803E0,1.2070322E0,1.3714572E0,2.1352134E0,0E0,3.440956E-1,0E0,0E0,0E0,1.980719E0,4.0406328E-1,6.9586945E-1,0E0,1.4622304E0,1.1619902E0,8.2153654E-1,3.882184E-1,0E0,0E0,1.2365909E0,1.1953697E0,0E0,0E0,4.8808765E-1,0E0,0E0,3.4485492E-1,4.6536052E-1,3.3893156E-1,5.1228577E-1,0E0,0E0,0E0,0E0,0E0,0E0,0E0,0E0,0E0,0E0,0E0,0E0,0E0,0E0,0E0,0E0,0E0],"parents":[2147483647,0,0,1,1,2,2,3,3,4,4,5,5,6,6,7,7,8,8,9,9,10,10,11,11,13,13,17,17,18,18,19,19,21,21,22,22,23,23,24,24,27,27,28,28,31,31,34,34,35,35,36,36,37,37],"right_children":[2,4,6,8,10,12,14,16,18,20,22,24,-1,26,-1,-1,-1,28,30,32,-1,34,36,38,40,-1,-1,42,44,-1,-1,46,-1,-1,48,50,52,54,-1,-1,-1,-1,-1,-1,-1,-1,-1,-1,-1,-1,-1,-1,-1,-1,-1],"split_conditions":[1.81E3,-3.9056144E0,6.1824165E1,-4.42E0,-7.58E-1,2.1898739E1,1.3E2,6.755793E1,1.4936E2,2.5205E2,9.1572E2,6.59633E0,-9.087454E-2,4.84E1,1.8230596E-1,2.4925601E-1,-0E0,-3.093E1,3.8575E2,1.748071E1,1.9819126E-2,1.5498E2,4E0,-1.63745E1,1.937E0,-0E0,-2.0256992E-1,2.083E3,1.08350725E1,1.723056E-1,-0E0,1.8863E2,-0E0,-2.1206604E-1,3.12004E2,2.9451745E0,-2.89E-1,3.4663E1,-7.055552E-2,4.899402E-1,4.2728122E-2,1.5178673E-1,-5.7435554E-2,-1.4690682E-1,6.0095996E-2,-0E0,-2.8398508E-1,-2.206845E-2,1.2537742E-1,-1.1787081E-1,5.8013E-2,-0E0,2.3758581E-1,-0E0,2.0683472E-1],"split_indices":[16,2,58,57,4,26,55,50,56,46,54,1,0,0,0,0,0,4,51,30,0,60,45,27,42,0,0,11,26,0,0,41,0,0,37,30,4,37,0,0,0,0,0,0,0,0,0,0,0,0,0,0,0,0,0],"split_type":[0,0,0,0,0,0,0,0,0,0,0,0,0,0,0,0,0,0,0,0,0,0,0,0,0,0,0,0,0,0,0,0,0,0,0,0,0,0,0,0,0,0,0,0,0,0,0,0,0,0,0,0,0,0,0],"sum_hessian":[6.775847E1,5.2561756E1,1.5196714E1,3.0115875E1,2.2445883E1,8.866499E0,6.3302155E0,4.581958E0,2.5533916E1,1.0680379E1,1.1765503E1,7.204228E0,1.6622708E0,4.4542103E0,1.8760053E0,3.0145855E0,1.5673722E0,2.2215843E1,3.3180728E0,9.455142E0,1.2252371E0,5.5508704E0,6.2146325E0,4.6931906E0,2.5110373E0,1.1619834E0,3.2922268E0,7.6667037E0,1.454914E1,2.0348122E0,1.2832606E0,7.749996E0,1.7051461E0,3.2258534E0,2.3250172E0,2.7611802E0,3.4534523E0,3.1547039E0,1.5384866E0,1.5100268E0,1.0010107E0,4.685769E0,2.9809346E0,1.2823859E1,1.725281E0,1.2033088E0,6.546687E0,1.0151438E0,1.3098733E0,1.6826446E0,1.0785357E0,1.0621127E0,2.3913398E0,1.3277291E0,1.8269747E0],"tree_param":{"num_deleted":"0","num_feature":"64","num_nodes":"55","size_leaf_vector":"1"}},{"base_weights":[-1.0731928E-2,1.698553E-1,-4.469932E-2,-1.0348735E-1,2.0308912E-1,3.6916192E-4,-4.054837E-1,5.234465E-1,-9.604182E-2,2.206279E-1,-1.1543968E-1,-6.938723E-1,-0E0,-1.916618E-2,8.152264E-1,-3.846212E-1,1.9798493E-1,5.251088E-1,-1.7068139E-1,-3.386917E-1,1.9884594E-1,-2.4276233E-1,-1.0135656E-2,2.2468585E-1,-4.0088674E-1,1.4035041E-2,3.0152857E-1,-0E0,-1.8581426E-1,1.2049512E-1,-0E0,2.0039912E-1,-4.716728E-3,-1.5756276E-1,3.6218062E-2,9.5768936E-2,-1.4611316E-1,1.8991773E-1,-1.0415768E-1,-0E0,1.6871178E-1,-1.7803927E-1,-0E0],"categories":[],"categories_nodes":[],"categories_segments":[],"categories_sizes":[],"default_left":[0,0,0,0,0,0,1,0,0,0,0,0,0,0,0,0,0,0,0,0,0,0,0,0,0,0,0,0,0,0,0,0,0,0,0,0,0,0,0,0,0,0,0],"id":16,"left_children":[1,-1,3,5,7,9,11,13,15,17,19,21,23,-1,25,27,29,31,33,35,37,-1,-1,39,41,-1,-1,-1,-1,-1,-1,-1,-1,-1,-1,-1,-1,-1,-1,-1,-1,-1,-1],"loss_changes":[1.1255941E0,0E0,9.046154E-1,1.7876111E0,1.2781504E0,1.0644268E0,1.4454937E0,1.3606151E0,6.609444E-1,1.9844155E0,1.8994725E0,2.8945446E-1,8.1560755E-1,0E0,2.6607203E-1,5.6398445E-1,2.1911556E-1,9.339311E-1,9.012317E-1,1.7609727E0,2.8222098E0,0E0,0E0,5.264838E-1,2.89639E-1,0E0,0E0,0E0,0E0,0E0,0E0,0E0,0E0,0E0,0E0,0E0,0E0,0E0,0E0,0E0,0E0,0E0,0E0],"parents":[2147483647,0,0,2,2,3,3,4,4,5,5,6,6,7,7,8,8,9,9,10,10,11,11,12,12,14,14,15,15,16,16,17,17,18,18,19,19,20,20,23,23,24,24],"right_children":[2,-1,4,6,8,10,12,14,16,18,20,22,24,-1,26,28,30,32,34,36,38,-1,-1,40,42,-1,-1,-1,-1,-1,-1,-1,-1,-1,-1,-1,-1,-1,-1,-1,-1,-1,-1],"split_conditions":[-5.5101E1,1.698553E-1,3.212E3,2.444E3,2.3814833E0,7.1975E1,7.972669E1,1E3,2.37729E2,1.7023E2,-6.8E-1,2.5015E2,2.1E-1,-1.916618E-2,1.525E1,-1.5082E1,3.16229E2,2E0,-1.1128311E0,-8.4101944E1,9.636E0,-2.4276233E-1,-1.0135656E-2,1.0168192E1,2.23082E2,1.4035041E-2,3.0152857E-1,-0E0,-1.8581426E-1,1.2049512E-1,-0E0,2.0039912E-1,-4.716728E-3,-1.5756276E-1,3.6218062E-2,9.5768936E-2,-1.4611316E-1,1.8991773E-1,-1.0415768E-1,-0E0,1.6871178E-1,-1.7803927E-1,-0E0],"split_indices":[4,0,11,11,26,37,59,24,39,48,4,46,55,0,5,4,39,5,27,27,3,0,0,30,36,0,0,0,0,0,0,0,0,0,0,0,0,0,0,0,0,0,0],"split_type":[0,0,0,0,0,0,0,0,0,0,0,0,0,0,0,0,0,0,0,0,0,0,0,0,0,0,0,0,0,0,0,0,0,0,0,0,0,0,0,0,0,0,0],"sum_hessian":[6.410008E1,2.1422694E0,6.195781E1,5.1645023E1,1.0312788E1,3.8343494E1,1.3301528E1,5.1606736E0,5.152115E0,1.3902308E1,2.4441185E1,6.886259E0,6.415269E0,1.5893905E0,3.571283E0,3.022082E0,2.1300328E0,8.109803E0,5.7925053E0,1.4870634E1,9.570552E0,5.235843E0,1.650416E0,3.8700821E0,2.5451868E0,1.3055731E0,2.2657099E0,1.0010014E0,2.0210805E0,1.1187719E0,1.011261E0,6.7210126E0,1.3887904E0,2.7721028E0,3.0204022E0,2.1069698E0,1.2763664E1,5.5855923E0,3.9849594E0,2.427988E0,1.4420941E0,1.4400547E0,1.1051321E0],"tree_param":{"num_deleted":"0","num_feature":"64","num_nodes":"43","size_leaf_vector":"1"}},{"base_weights":[-6.688408E-3,-1.6568066E-1,1.4504135E-2,-1.36674205E-2,3.8874874E-1,2.0625767E-1,-7.443653E-2,-0E0,1.6814615E-1,-1.08058274E-1,4.8280555E-1,-1.6680598E-1,1.7700759E-1,-1.607523E-1,1.9121796E-1,-0E0,6.074412E-1,5.047877E-2,-3.4760565E-1,4.3076226E-1,-2.9269186E-1,-0E0,1.0499519E-1,2.037607E-1,-0E0,8.46038E-2,-1.2391112E-1,-1.4331102E-1,8.498454E-2,-7.282228E-2,1.8684539E-1,-1.960033E-1,1.7628241E-2],"categories":[],"categories_nodes":[],"categories_segments":[],"categories_sizes":[],"default_left":[0,0,0,0,0,0,1,0,0,0,0,0,0,0,0,0,0,0,0,0,0,0,0,0,0,0,0,0,0,0,0,0,0],"id":17,"left_children":[1,-1,3,5,7,9,11,-1,-1,13,15,17,19,-1,21,-1,23,25,27,29,31,-1,-1,-1,-1,-1,-1,-1,-1,-1,-1,-1,-1],"loss_changes":[9.104493E-1,0E0,7.688363E-1,7.240931E-1,3.6213243E-1,1.1575241E0,1.0964099E0,0E0,0E0,9.251887E-1,4.623952E-1,1.5001695E0,1.5893753E0,0E0,1.7329155E-1,0E0,2.8692007E-2,1.7909212E0,1.8572614E0,1.3898373E0,7.8345203E-1,0E0,0E0,0E0,0E0,0E0,0E0,0E0,0E0,0E0,0E0,0E0,0E0],"parents":[2147483647,0,0,2,2,3,3,4,4,5,5,6,6,9,9,10,10,11,11,12,12,14,14,16,16,17,17,18,18,19,19,20,20],"right_children":[2,-1,4,6,8,10,12,-1,-1,14,16,18,20,-1,22,-1,24,26,28,30,32,-1,-1,-1,-1,-1,-1,-1,-1,-1,-1,-1,-1],"split_conditions":[4.2744846E1,-1.6568066E-1,2.2404781E1,6E2,1.061E2,1.4122E2,2.4883E2,-0E0,1.6814615E-1,5.895979E1,2.406E3,2.522E3,-1.8E-2,-1.607523E-1,8.348165E1,-0E0,1.293E3,1.371E2,6.16E1,5.405521E1,1.58E2,-0E0,1.0499519E-1,2.037607E-1,-0E0,8.46038E-2,-1.2391112E-1,-1.4331102E-1,8.498454E-2,-7.282228E-2,1.8684539E-1,-1.960033E-1,1.7628241E-2],"split_indices":[59,0,30,24,36,47,46,0,0,34,19,19,4,0,59,0,9,37,35,59,60,0,0,0,0,0,0,0,0,0,0,0,0],"split_type":[0,0,0,0,0,0,0,0,0,0,0,0,0,0,0,0,0,0,0,0,0,0,0,0,0,0,0,0,0,0,0,0,0],"sum_hessian":[6.1403603E1,1.9525288E0,5.9451073E1,5.5349174E1,4.1018987E0,1.0266024E1,4.5083153E1,1.4947851E0,2.6071136E0,4.5207005E0,5.7453227E0,3.4195713E1,1.088744E1,1.998176E0,2.5225244E0,1.2308998E0,4.514423E0,1.5013086E1,1.9182625E1,7.587461E0,3.299979E0,1.0562555E0,1.4662689E0,3.4729235E0,1.0414995E0,1.0757107E1,4.2559786E0,1.654655E1,2.6360745E0,1.2363238E0,6.351137E0,1.6771584E0,1.6228206E0],"tree_param":{"num_deleted":"0","num_feature":"64","num_nodes":"33","size_leaf_vector":"1"}},{"base_weights":[-4.0853745E-3,1.4716984E-1,-3.423285E-2,2.3369405E-1,-7.7282295E-2,-1.5703508E-1,4.8309624E-1,1.9051407E-1,-1.4865859E-1,1.9568342E-3,-1.2205771E-1,-0E0,1.9811031E-1,-9.711472E-2,3.690099E-1,-3.0997407E-1,4.537343E-2,-8.512883E-2,5.449693E-1,-5.764073E-1,-0E0,-1.8178701E-1,2.2735737E-1,-0E0,2.0829259E-1,-0E0,-1.9902505E-1,1.3978726E-1,-5.9509564E-2,1.8141173E-1,-0E0],"categories":[],"categories_nodes":[],"categories_segments":[],"categories_sizes":[],"default_left":[0,0,0,0,1,0,0,0,0,0,0,0,0,0,0,0,0,0,0,0,0,0,0,0,0,0,0,0,0,0,0],"id":18,"left_children":[1,-1,3,5,7,9,11,13,15,-1,-1,-1,-1,-1,17,19,21,-1,23,25,27,-1,29,-1,-1,-1,-1,-1,-1,-1,-1],"loss_changes":[7.608076E-1,0E0,6.3793623E-1,8.9089423E-1,1.0094643E0,2.61925E-1,5.168408E-1,1.089608E0,1.4384625E0,0E0,0E0,0E0,0E0,0E0,1.2390282E0,1.9011502E0,2.2972677E0,0E0,7.3673964E-1,8.0517626E-1,1.2052994E0,0E0,1.5059471E0,0E0,0E0,0E0,0E0,0E0,0E0,0E0,0E0],"parents":[2147483647,0,0,2,2,3,3,4,4,5,5,6,6,7,7,8,8,14,14,15,15,16,16,18,18,19,19,20,20,22,22],"right_children":[2,-1,4,6,8,10,12,14,16,-1,-1,-1,-1,-1,18,20,22,-1,24,26,28,-1,30,-1,-1,-1,-1,-1,-1,-1,-1],"split_conditions":[-5.5101E1,1.4716984E-1,4.790805E1,2.09E3,7.1643453E0,1.2897366E0,2.295631E1,9.1834E1,1.5E2,1.9568342E-3,-1.2205771E-1,-0E0,1.9811031E-1,-9.711472E-2,3.67E1,9.345994E0,-2.877E0,-8.512883E-2,-3.75E1,-8.4101944E1,5.04E-1,-1.8178701E-1,1.99E2,-0E0,2.0829259E-1,-0E0,-1.9902505E-1,1.3978726E-1,-5.9509564E-2,1.8141173E-1,-0E0],"split_indices":[4,0,50,11,61,26,61,40,60,0,0,0,0,0,37,30,4,0,6,27,42,0,48,0,0,0,0,0,0,0,0],"split_type":[0,0,0,0,0,0,0,0,0,0,0,0,0,0,0,0,0,0,0,0,0,0,0,0,0,0,0,0,0,0,0],"sum_hessian":[5.9186634E1,1.8816555E0,5.730498E1,6.2380447E0,5.1066936E1,2.049159E0,4.1888857E0,9.403507E0,4.166343E1,1.0131356E0,1.0360234E0,1.2267421E0,2.9621437E0,1.7277381E0,7.675769E0,2.3370123E1,1.8293304E1,1.0937215E0,6.5820475E0,1.1769861E1,1.1600263E1,3.0825076E0,1.5210797E1,1.3825784E0,5.1994686E0,1.3005294E0,1.0469332E1,2.769785E0,8.830478E0,5.409909E0,9.800889E0],"tree_param":{"num_deleted":"0","num_feature":"64","num_nodes":"31","size_leaf_vector":"1"}},{"base_weights":[-3.0404907E-3,1.3891475E-1,-8.9856856E-2,1.2621336E-2,2.5844094E-1,-2.8267822E-1,9.028208E-2,3.863378E-1,-1.8830638E-1,-0E0,-5.7285875E-1,-3.1808842E-2,4.8820943E-1,-0E0,6.6165537E-1,2.9660198E-1,-3.572671E-1,-2.5223166E-1,4.6539143E-1,-0E0,-2.4067952E-1,1.0596016E-1,-1.7446947E-1,-5.521943E-2,2.3375775E-1,9.658993E-2,-2.0164564E-1,1.994047E-2,2.4568652E-1,1.377127E-1,-0E0,-5.934827E-1,-0E0,1.9516891E-1,-2.1914893E-1,-0E0,2.1459706E-1,-1.0779873E-1,1.2511821E-1,3.1186518E-1,-3.050708E-1,-0E0,-1.1927416E-1,-2.2134401E-1,-0E0,-8.7030075E-2,1.06538E-1,1.379433E-1,-1.6596846E-2,-6.1092347E-2,1.4639375E-1,-0E0,-1.4992563E-1],"categories":[],"categories_nodes":[],"categories_segments":[],"categories_sizes":[],"default_left":[0,0,1,0,0,0,0,0,0,0,0,0,0,0,0,0,0,0,0,0,0,0,0,0,0,0,0,0,0,0,0,0,0,0,0,0,0,0,0,0,0,0,0,0,0,0,0,0,0,0,0,0,0],"id":19,"left_children":[1,3,5,7,-1,9,11,13,15,17,19,21,23,25,27,29,31,33,35,37,-1,39,-1,-1,-1,-1,41,-1,-1,-1,-1,43,45,47,-1,-1,-1,-1,-1,49,51,-1,-1,-1,-1,-1,-1,-1,-1,-1,-1,-1,-1],"loss_changes":[7.0591724E-1,1.5916071E0,1.4040117E0,1.5737511E0,0E0,1.6112565E0,1.1120949E0,7.7498794E-1,1.1513119E0,1.389347E0,1.1770554E0,1.3687065E0,1.3736393E0,3.4570432E-1,5.5767536E-2,1.7579368E-1,8.434442E-1,1.9469199E0,6.6401184E-1,7.2706187E-1,0E0,1.1525375E0,0E0,0E0,0E0,0E0,1.9484979E-1,0E0,0E0,0E0,0E0,5.9223485E-1,6.3002753E-1,4.497265E-1,0E0,0E0,0E0,0E0,0E0,1.0435125E0,3.9528427E-1,0E0,0E0,0E0,0E0,0E0,0E0,0E0,0E0,0E0,0E0,0E0,0E0],"parents":[2147483647,0,0,1,1,2,2,3,3,5,5,6,6,7,7,8,8,9,9,10,10,11,11,12,12,13,13,14,14,15,15,16,16,17,17,18,18,19,19,21,21,26,26,31,31,32,32,33,33,39,39,40,40],"right_children":[2,4,6,8,-1,10,12,14,16,18,20,22,24,26,28,30,32,34,36,38,-1,40,-1,-1,-1,-1,42,-1,-1,-1,-1,44,46,48,-1,-1,-1,-1,-1,50,52,-1,-1,-1,-1,-1,-1,-1,-1,-1,-1,-1,-1],"split_conditions":[-2.2138E1,4E-3,1.5E2,8.585E1,2.5844094E-1,3.17E1,2.66993E2,1E0,-5.0018E1,-2.28E-1,5.04E-1,1.2421E1,6.106E1,1.568E3,4.50059E2,9.63E2,2.72339E2,-1.1819E1,3.14E1,6.4E1,-2.4067952E-1,4.38041E2,-1.7446947E-1,-5.521943E-2,2.3375775E-1,9.658993E-2,6E-1,1.994047E-2,2.4568652E-1,1.377127E-1,-0E0,2.91839E2,1.2153E1,6.83E1,-2.1914893E-1,-0E0,2.1459706E-1,-1.0779873E-1,1.2511821E-1,5.446E1,1.9311E2,-0E0,-1.1927416E-1,-2.2134401E-1,-0E0,-8.7030075E-2,1.06538E-1,1.379433E-1,-1.6596846E-2,-6.1092347E-2,1.4639375E-1,-0E0,-1.4992563E-1],"split_indices":[4,3,60,60,0,0,36,43,4,4,42,3,57,11,41,14,40,4,0,28,0,38,0,0,0,0,35,0,0,0,0,36,42,37,0,0,0,0,0,40,48,0,0,0,0,0,0,0,0,0,0,0,0],"split_type":[0,0,0,0,0,0,0,0,0,0,0,0,0,0,0,0,0,0,0,0,0,0,0,0,0,0,0,0,0,0,0,0,0,0,0,0,0,0,0,0,0,0,0,0,0,0,0,0,0,0,0,0,0],"sum_hessian":[5.6606026E1,1.9783106E1,3.6822918E1,1.8102144E1,1.6809609E0,1.841247E1,1.841045E1,6.5923066E0,1.1509837E1,9.775771E0,8.6367E0,1.4145122E1,4.2653284E0,3.2335923E0,3.3587146E0,2.2644455E0,9.245392E0,6.5908346E0,3.1849365E0,2.8944573E0,5.742242E0,1.14668455E1,2.6782758E0,1.0502261E0,3.2151022E0,1.1094995E0,2.1240928E0,1.4465516E0,1.912163E0,1.1971154E0,1.06733E0,5.107414E0,4.137978E0,3.3476908E0,3.2431436E0,1.1158304E0,2.069106E0,1.7726903E0,1.121767E0,8.345781E0,3.1210644E0,1.087793E0,1.0362997E0,4.039599E0,1.0678152E0,2.4336085E0,1.7043694E0,1.8745965E0,1.4730942E0,1.598945E0,6.746836E0,1.0026758E0,2.1183887E0],"tree_param":{"num_deleted":"0","num_feature":"64","num_nodes":"53","size_leaf_vector":"1"}},{"base_weights":[-0E0,-6.849139E-2,1.8862611E-1,6.2221926E-2,-2.088403E-1,3.3365896E-1,-2.827581E-1,4.4273132E-1,-1.319466E-2,-0E0,-4.3333295E-1,-1.00104555E-1,5.0232494E-1,-1.1509157E-1,-0E0,-0E0,1.8555027E-1,-2.4261992E-1,1.2609376E-1,3.5696897E-1,-2.4589427E-1,2.0823965E-2,-5.3341204E-1,-7.8487545E-2,-0E0,-0E0,7.032514E-1,1.15185134E-1,-4.438601E-1,-1.4512876E-1,2.582836E-1,5.105312E-1,-0E0,-4.330837E-1,4.040809E-2,-0E0,-6.6174346E-1,8.535484E-2,-1.04761E-1,2.481771E-1,-0E0,1.0864961E-1,-7.12671E-3,-1.707393E-1,-0E0,-1.10875495E-1,2.1505048E-3,-0E0,1.0531592E-1,-0E0,1.836685E-1,-0E0,-1.8242382E-1,3.1165244E-2,-0E0,-2.254948E-1,-0E0],"categories":[],"categories_nodes":[],"categories_segments":[],"categories_sizes":[],"default_left":[0,0,0,0,0,0,0,0,0,0,0,0,0,0,0,0,0,0,0,0,0,0,0,0,0,0,0,0,0,0,0,0,0,0,0,0,0,0,0,0,0,0,0,0,0,0,0,0,0,0,0,0,0,0,0,0,0],"id":20,"left_children":[1,3,5,7,9,11,13,15,17,19,21,23,25,-1,-1,-1,-1,27,29,31,33,-1,35,-1,-1,37,39,41,43,45,47,49,-1,51,53,-1,55,-1,-1,-1,-1,-1,-1,-1,-1,-1,-1,-1,-1,-1,-1,-1,-1,-1,-1,-1,-1],"loss_changes":[6.782991E-1,8.1543E-1,1.0447804E0,7.468003E-1,1.0783646E0,1.0228642E0,4.9734384E-2,1.7693901E-1,6.315812E-1,1.1254648E0,7.305982E-1,1.347208E-1,9.886675E-1,0E0,0E0,0E0,0E0,7.3021257E-1,4.5861602E-1,4.3425584E-1,5.322722E-1,0E0,6.0590935E-1,0E0,0E0,4.440493E-1,4.482E-1,2.2657616E-1,4.0888095E-1,2.3763159E-1,2.959398E-1,7.862234E-2,0E0,2.7932036E-1,1.6697261E-2,0E0,3.5463428E-1,0E0,0E0,0E0,0E0,0E0,0E0,0E0,0E0,0E0,0E0,0E0,0E0,0E0,0E0,0E0,0E0,0E0,0E0,0E0,0E0],"parents":[2147483647,0,0,1,1,2,2,3,3,4,4,5,5,6,6,7,7,8,8,9,9,10,10,11,11,12,12,17,17,18,18,19,19,20,20,22,22,25,25,26,26,27,27,28,28,29,29,30,30,31,31,33,33,34,34,36,36],"right_children":[2,4,6,8,10,12,14,16,18,20,22,24,26,-1,-1,-1,-1,28,30,32,34,-1,36,-1,-1,38,40,42,44,46,48,50,-1,52,54,-1,56,-1,-1,-1,-1,-1,-1,-1,-1,-1,-1,-1,-1,-1,-1,-1,-1,-1,-1,-1,-1],"split_conditions":[1.81E3,-1.58141365E1,2.843E3,-4.42E0,3.302E1,2.89E2,2.41E2,-4.964E1,1.4903E2,8.25E1,7E2,3.58E2,5.93751E2,-1.1509157E-1,-0E0,-0E0,1.8555027E-1,4.85E1,1.322E1,3.6506966E1,2.51602E2,2.0823965E-2,3.03089E2,-7.8487545E-2,-0E0,1.742E3,3.474E3,2.001E3,7.71013E2,-1.78E-1,-2.9885265E1,9.141115E1,-0E0,9.6896E1,4.11E2,-0E0,1.968E2,8.535484E-2,-1.04761E-1,2.481771E-1,-0E0,1.0864961E-1,-7.12671E-3,-1.707393E-1,-0E0,-1.10875495E-1,2.1505048E-3,-0E0,1.0531592E-1,-0E0,1.836685E-1,-0E0,-1.8242382E-1,3.1165244E-2,-0E0,-2.254948E-1,-0E0],"split_indices":[16,2,16,57,55,12,9,57,47,36,25,13,41,0,0,0,0,37,56,1,36,0,41,0,0,11,11,11,41,4,34,53,0,40,9,0,7,0,0,0,0,0,0,0,0,0,0,0,0,0,0,0,0,0,0,0,0],"split_type":[0,0,0,0,0,0,0,0,0,0,0,0,0,0,0,0,0,0,0,0,0,0,0,0,0,0,0,0,0,0,0,0,0,0,0,0,0,0,0,0,0,0,0,0,0,0,0,0,0,0,0,0,0,0,0,0,0],"sum_hessian":[5.2703228E1,4.0051575E1,1.2651654E1,1.9784767E1,2.0266808E1,1.044412E1,2.2075346E0,3.2049134E0,1.6579855E1,1.05844755E1,9.682331E0,2.4794776E0,7.964642E0,1.0803549E0,1.1271795E0,1.5878286E0,1.6170846E0,6.8955092E0,9.684344E0,4.444171E0,6.140305E0,1.1002297E0,8.582102E0,1.477634E0,1.0018438E0,2.3917248E0,5.5729175E0,2.034344E0,4.8611655E0,2.3073525E0,7.376992E0,3.3277328E0,1.1164378E0,4.1133146E0,2.0269904E0,1.9724745E0,6.6096272E0,1.231831E0,1.159894E0,4.4049773E0,1.16794E0,1.0257208E0,1.0086231E0,3.827265E0,1.0339004E0,1.248917E0,1.0584357E0,1.441058E0,5.935934E0,1.1085862E0,2.2191467E0,1.7641706E0,2.349144E0,1.0051836E0,1.0218068E0,5.525798E0,1.0838295E0],"tree_param":{"num_deleted":"0","num_feature":"64","num_nodes":"57","size_leaf_vector":"1"}},{"base_weights":[-0E0,1.803968E-1,-7.193324E-2,2.821838E-1,-6.513805E-2,-3.3307847E-1,-0E0,-0E0,3.9824566E-1,6.3738115E-2,-5.940424E-1,1.9749682E-1,-6.335771E-2,2.8258542E-2,-8.081248E-2,-6.760289E-3,5.268468E-1,-2.0293322E-1,-0E0,-2.9817474E-1,9.405053E-2,-0E0,1.8488026E-1,-5.647726E-1,-0E0,2.0342147E-1,-3.13853E-1,5.6161057E-2,-2.3439805E-1,-1.2621409E-1,1.17899336E-1,-4.610593E-2,1.0610834E-1,-1.4431828E-1,-0E0],"categories":[],"categories_nodes":[],"categories_segments":[],"categories_sizes":[],"default_left":[0,0,0,0,0,0,0,0,0,0,1,0,1,0,0,0,1,0,0,0,0,0,0,0,0,0,0,0,0,0,0,0,0,0,0],"id":21,"left_children":[1,3,5,7,-1,9,11,13,15,-1,17,-1,19,-1,-1,-1,21,-1,-1,23,25,-1,-1,27,29,31,33,-1,-1,-1,-1,-1,-1,-1,-1],"loss_changes":[6.590848E-1,6.547111E-1,7.1479774E-1,5.20513E-1,0E0,1.4277303E0,1.3307853E0,1.7454383E-1,6.947781E-1,0E0,1.9135618E-1,0E0,1.1870263E0,0E0,0E0,0E0,3.9636064E-1,0E0,0E0,1.0596792E0,8.101996E-1,0E0,0E0,1.4742999E0,1.3224707E0,9.3229556E-1,2.130948E-1,0E0,0E0,0E0,0E0,0E0,0E0,0E0,0E0],"parents":[2147483647,0,0,1,1,2,2,3,3,5,5,6,6,7,7,8,8,10,10,12,12,16,16,19,19,20,20,23,23,24,24,25,25,26,26],"right_children":[2,4,6,8,-1,10,12,14,16,-1,18,-1,20,-1,-1,-1,22,-1,-1,24,26,-1,-1,28,30,32,34,-1,-1,-1,-1,-1,-1,-1,-1],"split_conditions":[-3.093E1,8.9E1,4E-3,1.78068E2,-6.513805E-2,-1.291E1,-1.5742E1,1.538E3,1.87E2,6.3738115E-2,5.2706E2,1.9749682E-1,1.5E2,2.8258542E-2,-8.081248E-2,-6.760289E-3,-5.643E1,-2.0293322E-1,-0E0,9.1572E2,1.7524E1,-0E0,1.8488026E-1,-1.1425E1,-2.28E-1,4.02E-1,4.6415555E-1,5.6161057E-2,-2.3439805E-1,-1.2621409E-1,1.17899336E-1,-4.610593E-2,1.0610834E-1,-1.4431828E-1,-0E0],"split_indices":[4,55,3,38,0,57,4,11,9,0,51,0,60,0,0,0,57,0,0,54,3,0,0,4,4,42,30,0,0,0,0,0,0,0,0],"split_type":[0,0,0,0,0,0,0,0,0,0,0,0,0,0,0,0,0,0,0,0,0,0,0,0,0,0,0,0,0,0,0,0,0,0,0],"sum_hessian":[5.0661335E1,1.3125466E1,3.753587E1,1.1354537E1,1.7709292E0,7.2403727E0,3.0295498E1,2.8697946E0,8.484743E0,1.9858102E0,5.2545624E0,1.7974286E0,2.849807E1,1.8076931E0,1.0621016E0,1.5668473E0,6.9178953E0,4.2417593E0,1.0128031E0,1.19356985E1,1.656237E1,1.0874319E0,5.8304634E0,5.927867E0,6.0078316E0,1.4106147E1,2.4562235E0,1.0083699E0,4.919497E0,2.7992454E0,3.2085865E0,3.5080957E0,1.0598051E1,1.3919561E0,1.0642673E0],"tree_param":{"num_deleted":"0","num_feature":"64","num_nodes":"35","size_leaf_vector":"1"}},{"base_weights":[-6.1576082E-3,8.6256914E-2,-1.2438179E-1,-0E0,4.0479916E-1,-3.7935108E-1,-0E0,3.2598016E-1,-1.3518731E-1,-0E0,2.084244E-1,4.1110545E-2,-1.9521038E-1,-1.05111115E-1,2.7159095E-1,5.273209E-1,-8.9039765E-3,-2.3007706E-1,8.132629E-2,8.224842E-2,-6.791476E-2,-4.191625E-2,9.4717465E-2,1.4686537E-1,-3.5182256E-1,-0E0,1.4431418E-1,-0E0,2.0566626E-1,-5.1553965E-1,-0E0,-5.513622E-2,3.7868318E-1,-0E0,-4.8670873E-1,-1.8605834E-1,-0E0,8.204897E-2,-5.4495342E-2,-1.0456284E-1,2.920661E-2,1.3935235E-1,-0E0,-1.9152771E-1,-1.7458526E-2],"categories":[],"categories_nodes":[],"categories_segments":[],"categories_sizes":[],"default_left":[0,1,0,0,0,0,1,0,0,0,0,0,0,0,0,0,0,0,0,0,0,0,0,1,0,0,0,0,0,1,0,0,0,0,0,0,0,0,0,0,0,0,0,0,0],"id":22,"left_children":[1,3,5,7,9,11,13,15,17,19,-1,21,-1,23,25,27,-1,29,-1,-1,-1,-1,-1,31,33,-1,-1,-1,-1,35,37,39,41,-1,43,-1,-1,-1,-1,-1,-1,-1,-1,-1,-1],"loss_changes":[5.588923E-1,7.609857E-1,7.427893E-1,9.8247325E-1,5.6257725E-1,1.1090137E0,5.074415E-1,6.45806E-1,6.725402E-1,2.9999688E-1,0E0,2.756364E-1,0E0,9.2023605E-1,3.9964327E-1,3.7932682E-1,0E0,7.898555E-1,0E0,0E0,0E0,0E0,0E0,4.2915693E-1,5.0341153E-1,0E0,0E0,0E0,0E0,2.5778484E-1,4.949796E-1,2.7567467E-1,2.7304709E-2,0E0,1.2035823E-1,0E0,0E0,0E0,0E0,0E0,0E0,0E0,0E0,0E0,0E0],"parents":[2147483647,0,0,1,1,2,2,3,3,4,4,5,5,6,6,7,7,8,8,9,9,11,11,13,13,14,14,15,15,17,17,23,23,24,24,29,29,30,30,31,31,32,32,34,34],"right_children":[2,4,6,8,10,12,14,16,18,20,-1,22,-1,24,26,28,-1,30,-1,-1,-1,-1,-1,32,34,-1,-1,-1,-1,36,38,40,42,-1,44,-1,-1,-1,-1,-1,-1,-1,-1,-1,-1],"split_conditions":[4.344E1,8.374E1,6.14E2,-2.917E1,2.3221E2,6.8966E1,1.4317E2,-1.3056E1,6.0083225E1,1.255E2,2.084244E-1,1.3606E1,-1.9521038E-1,1.3087E2,1.2796E2,-2.925E1,-8.9039765E-3,1.0628E1,8.132629E-2,8.224842E-2,-6.791476E-2,-4.191625E-2,9.4717465E-2,7.344E1,-4.2014E1,-0E0,1.4431418E-1,-0E0,2.0566626E-1,1.3585509E2,-3.3049E1,0E0,1.91E3,-0E0,3.5E1,-1.8605834E-1,-0E0,8.204897E-2,-5.4495342E-2,-1.0456284E-1,2.920661E-2,1.3935235E-1,-0E0,-1.9152771E-1,-1.7458526E-2],"split_indices":[55,56,16,56,47,40,55,4,1,8,0,42,0,7,39,6,0,42,0,0,0,0,0,55,4,0,0,0,0,53,4,6,18,0,28,0,0,0,0,0,0,0,0,0,0],"split_type":[0,0,0,0,0,0,0,0,0,0,0,0,0,0,0,0,0,0,0,0,0,0,0,0,0,0,0,0,0,0,0,0,0,0,0,0,0,0,0,0,0,0,0,0,0],"sum_hessian":[4.799832E1,2.5494417E1,2.2503904E1,2.0647371E1,4.847047E0,6.6883845E0,1.581552E1,5.462044E0,1.5185328E1,2.6965027E0,2.1505442E0,2.469914E0,4.2184706E0,1.1862671E1,3.9528491E0,3.7834563E0,1.6785873E0,1.3333011E1,1.8523169E0,1.4798057E0,1.216697E0,1.0467744E0,1.4231396E0,5.394325E0,6.4683466E0,1.6470928E0,2.3057563E0,1.1462091E0,2.6372473E0,4.8265224E0,8.506488E0,2.5143268E0,2.8799977E0,1.4408032E0,5.0275435E0,3.696234E0,1.1302885E0,2.5474684E0,5.9590197E0,1.1746647E0,1.3396621E0,1.7052264E0,1.1747713E0,2.7713819E0,2.2561617E0],"tree_param":{"num_deleted":"0","num_feature":"64","num_nodes":"45","size_leaf_vector":"1"}},{"base_weights":[-0E0,-3.7196245E-2,3.215476E-1,3.1820203E-3,-2.3569766E-1,1.3810904E-1,-0E0,-6.8454616E-2,2.4330908E-1,3.1953894E-2,-3.5142624E-1,6.94698E-2,-2.4993855E-1,-7.737769E-2,4.3736768E-1,-0E0,-4.4768164E-1,1.9815646E-1,-3.4686086E-1,8.076309E-2,-3.97477E-1,-0E0,6.3300765E-1,-1.6389813E-1,-0E0,-3.5465006E-2,1.14306614E-1,-1.4337108E-1,-0E0,1.01212636E-1,-3.659905E-2,-1.6219616E-1,-0E0,2.186034E-1,-0E0],"categories":[],"categories_nodes":[],"categories_segments":[],"categories_sizes":[],"default_left":[0,0,0,0,0,0,0,0,0,0,1,0,1,0,1,0,0,0,0,0,0,0,0,0,0,0,0,0,0,0,0,0,0,0,0],"id":23,"left_children":[1,3,5,7,9,-1,-1,11,13,-1,15,17,19,-1,21,-1,23,25,27,29,31,-1,33,-1,-1,-1,-1,-1,-1,-1,-1,-1,-1,-1,-1],"loss_changes":[4.9591923E-1,4.3013775E-1,1.6440642E-1,6.944961E-1,4.694205E-1,0E0,0E0,7.6437867E-1,1.1037785E0,0E0,3.184399E-1,8.3884174E-1,7.783117E-1,0E0,8.610023E-1,0E0,2.4186039E-1,8.8249505E-1,7.762858E-2,3.306988E-1,6.796874E-1,0E0,2.3025274E-1,0E0,0E0,0E0,0E0,0E0,0E0,0E0,0E0,0E0,0E0,0E0,0E0],"parents":[2147483647,0,0,1,1,2,2,3,3,4,4,7,7,8,8,10,10,11,11,12,12,14,14,16,16,17,17,18,18,19,19,20,20,22,22],"right_children":[2,4,6,8,10,-1,-1,12,14,-1,16,18,20,-1,22,-1,24,26,28,30,32,-1,34,-1,-1,-1,-1,-1,-1,-1,-1,-1,-1,-1,-1],"split_conditions":[2.2404781E1,1.886E3,9.01E1,2.81489E2,2E0,1.3810904E-1,-0E0,3E0,7E0,3.1953894E-2,5.655625E1,1.2421E1,6.2085556E1,-7.737769E-2,3.609E1,-0E0,3.807E0,4E-3,1.0316644E2,-1.1819E1,3.07382E2,-0E0,1.048E3,-1.6389813E-1,-0E0,-3.5465006E-2,1.14306614E-1,-1.4337108E-1,-0E0,1.01212636E-1,-3.659905E-2,-1.6219616E-1,-0E0,2.186034E-1,-0E0],"split_indices":[30,12,37,40,44,0,0,45,44,0,62,3,50,0,57,0,39,3,62,4,36,0,14,0,0,0,0,0,0,0,0,0,0,0,0],"split_type":[0,0,0,0,0,0,0,0,0,0,0,0,0,0,0,0,0,0,0,0,0,0,0,0,0,0,0,0,0,0,0,0,0,0,0],"sum_hessian":[4.60229E1,4.281273E1,3.2101712E0,3.4985348E1,7.8273826E0,1.8296854E0,1.3804858E0,2.641803E1,8.567317E0,1.2635939E0,6.563789E0,1.4307839E1,1.2110189E1,1.8154587E0,6.7518587E0,1.3140231E0,5.249766E0,1.1947115E1,2.3607244E0,3.172205E0,8.937984E0,1.9024274E0,4.849431E0,4.0069184E0,1.2428471E0,3.8317273E0,8.115388E0,1.1102579E0,1.2504666E0,1.8394642E0,1.3327408E0,6.696609E0,2.2413752E0,3.8479276E0,1.0015035E0],"tree_param":{"num_deleted":"0","num_feature":"64","num_nodes":"35","size_leaf_vector":"1"}},{"base_weights":[-3.155731E-4,1.1500061E-1,-8.310902E-2,3.4821835E-1,-1.2494256E-2,-4.476189E-1,-0E0,5.0976294E-1,-0E0,7.3195934E-2,-3.4540343E-1,-1.8918616E-1,-0E0,-1.7889814E-1,1.1610854E-1,1.974909E-1,-0E0,1.6923951E-2,-2.9460212E-2,2.7892265E-1,-1.6639785E-1,-1.4640637E-1,-0E0,5.9160125E-2,-5.67325E-1,-1.5137382E-1,3.59395E-1,5.1571274E-1,-1.8460475E-2,2.0543944E-2,-1.3552374E-1,2.8308037E-1,-1.3490875E-1,-0E0,-2.0546737E-1,1.9529064E-1,-4.6685794E-1,-3.7090145E-2,5.5779165E-1,-0E0,1.8817648E-1,-0E0,1.3559486E-1,6.2604393E-3,-1.04401104E-1,-7.828102E-3,1.2548584E-1,-1.7224583E-1,-0E0,-9.48959E-2,3.8352475E-2,-0E0,1.9260024E-1],"categories":[],"categories_nodes":[],"categories_segments":[],"categories_sizes":[],"default_left":[0,0,1,0,0,1,0,0,0,1,0,0,0,0,0,0,0,0,0,0,0,0,0,0,0,0,0,0,0,0,0,0,0,0,0,1,0,0,0,0,0,0,0,0,0,0,0,0,0,0,0,0,0],"id":24,"left_children":[1,3,5,7,9,11,13,15,17,19,21,-1,-1,23,25,-1,-1,-1,-1,27,29,-1,-1,31,33,35,37,39,-1,-1,-1,41,43,-1,-1,45,47,49,51,-1,-1,-1,-1,-1,-1,-1,-1,-1,-1,-1,-1,-1,-1],"loss_changes":[4.3400332E-1,6.45674E-1,8.5413665E-1,4.4806826E-1,4.4554552E-1,5.259721E-1,5.334126E-1,2.4292588E-1,2.6251035E-2,5.369944E-1,1.5437359E-1,0E0,0E0,1.1475737E0,1.1236306E0,0E0,0E0,0E0,0E0,6.739354E-1,4.356035E-1,0E0,0E0,3.788389E-1,1.8703711E-1,9.873602E-1,9.0352964E-1,1.273272E-1,0E0,0E0,0E0,3.0475467E-1,2.3208188E-1,0E0,0E0,3.2567394E-1,8.5549116E-2,2.5916174E-1,1.8337846E-1,0E0,0E0,0E0,0E0,0E0,0E0,0E0,0E0,0E0,0E0,0E0,0E0,0E0,0E0],"parents":[2147483647,0,0,1,1,2,2,3,3,4,4,5,5,6,6,7,7,8,8,9,9,10,10,13,13,14,14,19,19,20,20,23,23,24,24,25,25,26,26,27,27,31,31,32,32,35,35,36,36,37,37,38,38],"right_children":[2,4,6,8,10,12,14,16,18,20,22,-1,-1,24,26,-1,-1,-1,-1,28,30,-1,-1,32,34,36,38,40,-1,-1,-1,42,44,-1,-1,46,48,50,52,-1,-1,-1,-1,-1,-1,-1,-1,-1,-1,-1,-1,-1,-1],"split_conditions":[-2.08E1,8.585E1,5.1714607E1,1.15428246E2,2.8328E1,1.35E2,-9.01E-1,1.57E1,-3.625E1,6.31E1,6.31E1,-1.8918616E-1,-0E0,2.31211E2,7.029E1,1.974909E-1,-0E0,1.6923951E-2,-2.9460212E-2,6.51E1,-2.7227375E1,-1.4640637E-1,-0E0,6.259451E1,2.2123E2,2.03456E2,2E0,3.1939E1,-1.8460475E-2,2.0543944E-2,-1.3552374E-1,1.0333182E1,2E0,-0E0,-2.0546737E-1,9.1572E2,2.55963E2,2.45E2,1.4829E2,-0E0,1.8817648E-1,-0E0,1.3559486E-1,6.2604393E-3,-1.04401104E-1,-7.828102E-3,1.2548584E-1,-1.7224583E-1,-0E0,-9.48959E-2,3.8352475E-2,-0E0,1.9260024E-1],"split_indices":[4,60,59,59,42,55,4,35,4,56,56,0,0,40,56,0,0,0,0,37,27,0,0,59,51,38,45,37,0,0,0,26,45,0,0,54,36,9,60,0,0,0,0,0,0,0,0,0,0,0,0,0,0],"split_type":[0,0,0,0,0,0,0,0,0,0,0,0,0,0,0,0,0,0,0,0,0,0,0,0,0,0,0,0,0,0,0,0,0,0,0,0,0,0,0,0,0,0,0,0,0,0,0,0,0,0,0,0,0],"sum_hessian":[4.458032E1,1.6770174E1,2.7810146E1,6.2482038E0,1.052197E1,4.2561255E0,2.355402E1,4.106463E0,2.1417408E0,8.184807E0,2.3371625E0,2.9707675E0,1.2853582E0,9.19869E0,1.43553295E1,2.6225598E0,1.4839035E0,1.1187865E0,1.0229543E0,5.070771E0,3.1140358E0,1.3198602E0,1.0173024E0,5.691862E0,3.5068283E0,6.358947E0,7.996383E0,3.2699058E0,1.8008653E0,1.4782691E0,1.6357666E0,3.2345824E0,2.45728E0,1.0157214E0,2.4911067E0,2.703203E0,3.6557438E0,2.372478E0,5.623905E0,1.0599577E0,2.209948E0,1.0817336E0,2.1528487E0,1.0286562E0,1.4286237E0,1.0425438E0,1.6606591E0,2.3377628E0,1.3179811E0,1.2975633E0,1.0749147E0,1.1787933E0,4.4451118E0],"tree_param":{"num_deleted":"0","num_feature":"64","num_nodes":"53","size_leaf_vector":"1"}},{"base_weights":[-5.4487656E-3,2.0026621E-1,-5.5575076E-2,-0E0,1.2441817E-1,2.0581916E-1,-1.04494765E-1,-8.620575E-2,2.0599632E-1,3.782162E-1,-2.1387195E-2,-1.496706E-1,-4.6476062E-2,1.1111619E-1,-0E0,1.4339662E-1,-0E0,-4.097499E-1,-0E0,-1.4477123E-1,-0E0,1.10971116E-1,-1.9539368E-1,-1.0138674E-2,6.805818E-2,-1.0702481E-1,6.734504E-2],"categories":[],"categories_nodes":[],"categories_segments":[],"categories_sizes":[],"default_left":[0,0,0,0,0,0,1,0,1,0,0,0,0,0,0,0,0,0,0,0,0,0,0,0,0,0,0],"id":25,"left_children":[1,3,5,7,-1,9,11,-1,13,15,-1,-1,17,-1,-1,-1,-1,19,21,-1,-1,23,25,-1,-1,-1,-1],"loss_changes":[4.0856576E-1,2.6198676E-1,4.5906755E-1,3.523718E-1,0E0,3.7229496E-1,5.4428434E-1,0E0,1.666914E-1,9.830892E-2,0E0,0E0,6.110806E-1,0E0,0E0,0E0,0E0,2.7674794E-2,5.963385E-1,0E0,0E0,3.8969636E-1,7.697971E-1,0E0,0E0,0E0,0E0],"parents":[2147483647,0,0,1,1,2,2,3,3,5,5,6,6,8,8,9,9,12,12,17,17,18,18,21,21,22,22],"right_children":[2,4,6,8,-1,10,12,-1,14,16,-1,-1,18,-1,-1,-1,-1,20,22,-1,-1,24,26,-1,-1,-1,-1],"split_conditions":[-8.778197E1,1.3445326E2,1.893E3,-1.25537384E2,1.2441817E-1,-2.3565977E0,-5.643E1,-8.620575E-2,8.470346E1,7.3552574E1,-2.1387195E-2,-1.496706E-1,2.291E3,1.1111619E-1,-0E0,1.4339662E-1,-0E0,2.0394E1,2.2055E2,-1.4477123E-1,-0E0,4E-3,2.165E3,-1.0138674E-2,6.805818E-2,-1.0702481E-1,6.734504E-2],"split_indices":[2,59,19,2,0,2,57,0,53,59,0,0,19,0,0,0,0,42,48,0,0,3,13,0,0,0,0],"split_type":[0,0,0,0,0,0,0,0,0,0,0,0,0,0,0,0,0,0,0,0,0,0,0,0,0,0,0],"sum_hessian":[4.2262627E1,6.378608E0,3.588402E1,4.134877E0,2.2437308E0,4.0672274E0,3.1816793E1,1.293184E0,2.8416934E0,3.0308337E0,1.0363939E0,2.3620827E0,2.945471E1,1.4033785E0,1.4383149E0,1.9539992E0,1.0768344E0,3.0314698E0,2.642324E1,2.0253983E0,1.0060714E0,1.7899693E1,8.523546E0,6.9826145E0,1.0917079E1,6.8447413E0,1.678805E0],"tree_param":{"num_deleted":"0","num_feature":"64","num_nodes":"27","size_leaf_vector":"1"}},{"base_weights":[-6.035439E-3,1.3577928E-1,-7.058792E-2,3.4615567E-1,-0E0,-1.596087E-1,8.1896156E-2,1.3825364E-1,-0E0,1.5599193E-1,-2.404999E-1,1.537617E-1,-2.6176757E-1,3.5818416E-1,-1.5344238E-1,1.1871328E-1,-0E0,-1.09879E-1,-0E0,-5.231914E-2,1.4685024E-1,1.19409695E-1,-3.6664614E-1,-0E0,4.62809E-1,4.4036366E-2,-3.7036747E-1,-9.595958E-2,8.4738836E-2,-4.9974483E-2,-0E0,1.3071713E-1,-1.8882511E-2,-6.358613E-1,-3.420066E-2,1.7821012E-1,-0E0,-1.5124321E-1,-0E0,-2.2201689E-1,-5.5889785E-3,-9.2579655E-2,5.2936103E-2],"categories":[],"categories_nodes":[],"categories_segments":[],"categories_sizes":[],"default_left":[0,1,0,0,0,0,0,0,0,0,0,0,0,0,0,0,0,0,0,0,0,0,1,0,0,0,1,0,0,0,0,0,0,0,0,0,0,0,0,0,0,0,0],"id":26,"left_children":[1,3,5,7,9,11,13,-1,-1,15,17,19,21,23,25,-1,27,-1,-1,29,-1,31,33,-1,35,-1,37,-1,-1,-1,-1,-1,-1,39,41,-1,-1,-1,-1,-1,-1,-1,-1],"loss_changes":[3.753693E-1,3.4596753E-1,4.6534747E-1,1.4173895E-1,3.4742415E-1,7.665791E-1,8.2863694E-1,0E0,0E0,3.1589642E-1,1.285352E-1,5.2688384E-1,8.2391787E-1,2.875108E-1,5.135783E-1,0E0,4.3354005E-1,0E0,0E0,5.7294287E-2,0E0,3.7340504E-1,1.0604123E0,0E0,1.6579092E-1,0E0,2.18562E-1,0E0,0E0,0E0,0E0,0E0,0E0,2.1053386E-1,5.701938E-1,0E0,0E0,0E0,0E0,0E0,0E0,0E0,0E0],"parents":[2147483647,0,0,1,1,2,2,3,3,4,4,5,5,6,6,9,9,10,10,11,11,12,12,13,13,14,14,16,16,19,19,21,21,22,22,24,24,26,26,33,33,34,34],"right_children":[2,4,6,8,10,12,14,-1,-1,16,18,20,22,24,26,-1,28,-1,-1,30,-1,32,34,-1,36,-1,38,-1,-1,-1,-1,-1,-1,40,42,-1,-1,-1,-1,-1,-1,-1,-1],"split_conditions":[-3.093E1,-4.789583E0,-2.28E-1,-1.1753626E1,1.082E2,1E0,-1.8E-2,1.3825364E-1,-0E0,2.083E3,3E1,2.4308073E1,-7.47E0,8.347436E1,1.8636667E1,1.1871328E-1,1.525E1,-1.09879E-1,-0E0,1.16041E2,1.4685024E-1,-2.3975294E1,6.009012E1,-0E0,1.9278876E2,4.4036366E-2,1.58E2,-9.595958E-2,8.4738836E-2,-4.9974483E-2,-0E0,1.3071713E-1,-1.8882511E-2,1.3594283E1,-1.116E0,1.7821012E-1,-0E0,-1.5124321E-1,-0E0,-2.2201689E-1,-5.5889785E-3,-9.2579655E-2,5.2936103E-2],"split_indices":[4,58,4,27,37,45,4,0,0,11,5,1,57,62,58,0,5,0,0,39,0,27,61,0,49,0,60,0,0,0,0,0,0,30,4,0,0,0,0,0,0,0,0],"split_type":[0,0,0,0,0,0,0,0,0,0,0,0,0,0,0,0,0,0,0,0,0,0,0,0,0,0,0,0,0,0,0,0,0,0,0,0,0,0,0,0,0,0,0],"sum_hessian":[4.13526E1,1.0959919E1,3.0392681E1,3.7274501E0,7.2324686E0,2.0553183E1,9.8394985E0,2.33461E0,1.3928401E0,4.5685463E0,2.663922E0,4.1192484E0,1.6433933E1,4.9434223E0,4.896076E0,1.8827308E0,2.6858156E0,1.5379065E0,1.1260157E0,2.4546795E0,1.6645688E0,2.8239927E0,1.36099415E1,1.0411538E0,3.9022684E0,1.5388037E0,3.3572726E0,1.649135E0,1.0366807E0,1.4054822E0,1.0491972E0,1.1992108E0,1.6247818E0,6.456679E0,7.1532626E0,2.4454544E0,1.4568142E0,2.211577E0,1.1456957E0,4.887569E0,1.5691097E0,3.5982485E0,3.555014E0],"tree_param":{"num_deleted":"0","num_feature":"64","num_nodes":"43","size_leaf_vector":"1"}},{"base_weights":[-0E0,-3.1300534E-2,2.5712013E-1,-8.210915E-2,1.3099676E-1,1.0276007E-1,-0E0,-2.3240882E-3,-4.8272043E-1,3.4136897E-1,-6.060938E-2,-1.4155595E-1,1.0545008E-1,-1.6832352E-1,-0E0,1.4497395E-1,-0E0,-1.1196498E-1,3.5199154E-2,1.7565289E-1,-2.4968119E-1,-9.048809E-2,2.73897E-1,7.9114035E-2,-0E0,1.5741877E-2,-1.1888537E-1,-7.317526E-2,5.9284907E-2,-4.8613057E-2,1.1745055E-1],"categories":[],"categories_nodes":[],"categories_segments":[],"categories_sizes":[],"default_left":[0,0,0,0,0,0,0,0,0,0,0,0,0,0,0,0,0,0,0,0,0,0,0,0,0,0,0,0,0,0,0],"id":27,"left_children":[1,3,5,7,9,-1,-1,11,13,15,17,19,21,-1,-1,-1,-1,-1,-1,23,25,27,29,-1,-1,-1,-1,-1,-1,-1,-1],"loss_changes":[2.827419E-1,3.052225E-1,6.7081645E-2,8.23612E-1,4.2939228E-1,0E0,0E0,4.3942797E-1,4.4562817E-3,2.0429444E-1,3.5751188E-1,5.413588E-1,5.7169527E-1,0E0,0E0,0E0,0E0,0E0,0E0,5.6394264E-2,6.449933E-1,3.5659942E-1,6.0598165E-1,0E0,0E0,0E0,0E0,0E0,0E0,0E0,0E0],"parents":[2147483647,0,0,1,1,2,2,3,3,4,4,7,7,8,8,9,9,10,10,11,11,12,12,19,19,20,20,21,21,22,22],"right_children":[2,4,6,8,10,-1,-1,12,14,16,18,20,22,-1,-1,-1,-1,-1,-1,24,26,28,30,-1,-1,-1,-1,-1,-1,-1,-1],"split_conditions":[2.2404781E1,2.99717E2,1.18E1,1.6895E2,4.30234E2,1.0276007E-1,-0E0,5.743E1,2.29922E2,-2.1008793E1,1.15183205E2,2.4E1,1E1,-1.6832352E-1,-0E0,1.4497395E-1,-0E0,-1.1196498E-1,3.5199154E-2,6.0196E1,4.5E2,6.27E1,1.66472E2,7.9114035E-2,-0E0,1.5741877E-2,-1.1888537E-1,-7.317526E-2,5.9284907E-2,-4.8613057E-2,1.1745055E-1],"split_indices":[30,39,35,8,39,0,0,57,39,2,50,8,44,0,0,0,0,0,0,42,24,0,38,0,0,0,0,0,0,0,0],"split_type":[0,0,0,0,0,0,0,0,0,0,0,0,0,0,0,0,0,0,0,0,0,0,0,0,0,0,0,0,0,0,0],"sum_hessian":[3.9422295E1,3.670426E1,2.718035E0,2.9908175E1,6.7960863E0,1.6667161E0,1.0513189E0,2.6480022E1,3.4281523E0,3.7037501E0,3.0923362E0,1.2779036E1,1.3700987E1,2.2918377E0,1.1363145E0,2.2220476E0,1.4817026E0,1.4094297E0,1.6829065E0,2.2988756E0,1.0480161E1,5.62435E0,8.076636E0,1.2744708E0,1.0244048E0,2.8838267E0,7.5963335E0,4.5319414E0,1.0924089E0,1.027909E0,7.0487275E0],"tree_param":{"num_deleted":"0","num_feature":"64","num_nodes":"31","size_leaf_vector":"1"}},{"base_weights":[-0E0,9.325204E-2,-1.9891525E-2,4.474661E-2,-1.1129646E-1,-1.5382996E-1,1.25888E-1,-2.2209059E-1,6.8559624E-2,2.763995E-2,-1.0823405E-1,-1.1526946E-1,2.2556281E-1,-0E0,-3.9330822E-1,1.1469075E-1,-6.3038684E-2,1.1158541E-2,-9.2046194E-2,3.0909827E-1,-1.9167947E-2,-1.0516706E-1,1.4896059E-1,-0E0,-4.8529655E-1,-7.9698056E-2,-0E0,-0E0,1.2819806E-1,-0E0,-4.0598374E-2,1.0867706E-1,-0E0,-1.8727662E-1,-3.8587393E-3,5.282952E-2,-2.2914967E-2],"categories":[],"categories_nodes":[],"categories_segments":[],"categories_sizes":[],"default_left":[0,0,0,0,1,0,0,0,0,0,0,0,0,1,0,0,0,0,0,0,0,0,0,0,0,0,0,0,0,0,0,0,0,0,0,0,0],"id":28,"left_children":[1,-1,3,5,7,9,11,13,15,-1,-1,17,19,21,23,-1,25,-1,-1,27,29,-1,31,-1,33,-1,35,-1,-1,-1,-1,-1,-1,-1,-1,-1,-1],"loss_changes":[2.4004975E-1,0E0,2.5107265E-1,3.4408334E-1,4.2808953E-1,3.914936E-1,4.5908773E-1,4.2327732E-1,4.005583E-1,0E0,0E0,2.3331854E-1,3.6884767E-1,4.3891284E-1,2.7231717E-1,0E0,1.2503685E-1,0E0,0E0,5.106319E-1,3.851768E-2,0E0,2.8201768E-1,0E0,1.4490855E-1,0E0,8.708174E-2,0E0,0E0,0E0,0E0,0E0,0E0,0E0,0E0,0E0,0E0],"parents":[2147483647,0,0,2,2,3,3,4,4,5,5,6,6,7,7,8,8,11,11,12,12,13,13,14,14,16,16,19,19,20,20,22,22,24,24,26,26],"right_children":[2,-1,4,6,8,10,12,14,16,-1,-1,18,20,22,24,-1,26,-1,-1,28,30,-1,32,-1,34,-1,36,-1,-1,-1,-1,-1,-1,-1,-1,-1,-1],"split_conditions":[-5.5101E1,9.325204E-2,4.344E1,-2.525E1,1.4317E2,8.25E1,7E0,1.3087E2,1.74E2,2.763995E-2,-1.0823405E-1,1E0,4.8809E1,2.6611666E1,7.056E1,1.1469075E-1,3.38E2,1.1158541E-2,-9.2046194E-2,4E-1,1.538E3,-1.0516706E-1,5.09E1,-0E0,1.618E3,-7.9698056E-2,3.54324E2,-0E0,1.2819806E-1,-0E0,-4.0598374E-2,1.0867706E-1,-0E0,-1.8727662E-1,-3.8587393E-3,5.282952E-2,-2.2914967E-2],"split_indices":[4,0,55,6,55,36,44,7,9,0,0,44,42,58,55,0,14,0,0,42,11,0,37,0,22,0,38,0,0,0,0,0,0,0,0,0,0],"split_type":[0,0,0,0,0,0,0,0,0,0,0,0,0,0,0,0,0,0,0,0,0,0,0,0,0,0,0,0,0,0,0,0,0,0,0,0,0],"sum_hessian":[3.8192387E1,1.3293803E0,3.6863007E1,1.9736223E1,1.7126785E1,4.262571E0,1.5473653E1,1.1610314E1,5.5164704E0,1.4584213E0,2.8041492E0,3.4923937E0,1.1981259E1,5.853173E0,5.757142E0,1.8225855E0,3.6938848E0,1.4153706E0,2.0770233E0,9.761082E0,2.2201772E0,1.6281484E0,4.225024E0,1.1625893E0,4.5945525E0,1.0359772E0,2.6579075E0,2.3344917E0,7.42659E0,1.0523504E0,1.1678268E0,2.0325153E0,2.1925087E0,2.7517226E0,1.8428301E0,1.3794515E0,1.2784561E0],"tree_param":{"num_deleted":"0","num_feature":"64","num_nodes":"37","size_leaf_vector":"1"}},{"base_weights":[-5.9120083E-4,1.2272477E-1,-6.0189933E-2,3.1869307E-1,-0E0,-1.457764E-1,4.8254695E-2,-0E0,1.2523001E-1,1.1204402E-1,-1.8325025E-1,8.0769725E-2,-2.754855E-1,2.1123691E-1,-1.7462683E-1,8.498067E-2,-1.90067E-2,-0E0,-9.281276E-2,-1.586835E-1,3.284053E-1,-5.1875925E-1,-0E0,3.4347075E-1,-0E0,7.094986E-4,-3.386692E-1,-0E0,-1.10792704E-1,1.405498E-1,-0E0,-0E0,-1.865546E-1,1.091373E-1,-7.6438844E-2,-0E0,1.553173E-1,-6.1472956E-2,3.34889E-2,-0E0,-1.334897E-1,1.1208329E-1,-1.3508162E-3],"categories":[],"categories_nodes":[],"categories_segments":[],"categories_sizes":[],"default_left":[0,0,0,0,0,0,0,0,0,0,0,0,1,0,0,0,0,0,0,0,0,0,0,0,1,0,0,0,0,0,0,0,0,0,0,0,0,0,0,0,0,0,0],"id":29,"left_children":[1,3,5,7,9,11,13,-1,-1,15,17,19,21,23,25,-1,-1,-1,-1,27,29,31,33,35,37,-1,39,-1,-1,-1,-1,-1,-1,41,-1,-1,-1,-1,-1,-1,-1,-1,-1],"loss_changes":[2.6619515E-1,2.7414954E-1,3.013979E-1,1.0248855E-1,1.7889342E-1,6.0883605E-1,4.650552E-1,0E0,0E0,2.4800488E-1,9.872048E-2,4.8190996E-1,7.983769E-1,2.928362E-1,2.4491163E-1,0E0,0E0,0E0,0E0,1.975973E-1,1.802732E-1,3.5658538E-1,2.3170143E-1,3.7876922E-1,1.2116949E-1,0E0,7.908246E-2,0E0,0E0,0E0,0E0,0E0,0E0,2.878657E-1,0E0,0E0,0E0,0E0,0E0,0E0,0E0,0E0,0E0],"parents":[2147483647,0,0,1,1,2,2,3,3,4,4,5,5,6,6,9,9,10,10,11,11,12,12,13,13,14,14,19,19,20,20,21,21,22,22,23,23,24,24,26,26,33,33],"right_children":[2,4,6,8,10,12,14,-1,-1,16,18,20,22,24,26,-1,-1,-1,-1,28,30,32,34,36,38,-1,40,-1,-1,-1,-1,-1,-1,42,-1,-1,-1,-1,-1,-1,-1,-1,-1],"split_conditions":[-3.093E1,-4.789583E0,-3.43E-1,8.727498E1,1.082E2,8.01E1,-6E-3,-0E0,1.2523001E-1,9.04E1,4.61731E2,0E0,6.408655E1,3.8575E2,1.8636667E1,8.498067E-2,-1.90067E-2,-0E0,-9.281276E-2,8.111451E1,2.196E3,5.2521404E1,3.5014072E1,1.5E2,5.6587E2,7.094986E-4,7.1657E1,-0E0,-1.10792704E-1,1.405498E-1,-0E0,-0E0,-1.865546E-1,-4.75E0,-7.6438844E-2,-0E0,1.553173E-1,-6.1472956E-2,3.34889E-2,-0E0,-1.334897E-1,1.1208329E-1,-1.3508162E-3],"split_indices":[4,58,4,34,37,47,4,0,0,57,41,6,61,51,58,0,0,0,0,53,11,62,34,60,51,0,40,0,0,0,0,0,0,6,0,0,0,0,0,0,0,0,0],"split_type":[0,0,0,0,0,0,0,0,0,0,0,0,0,0,0,0,0,0,0,0,0,0,0,0,0,0,0,0,0,0,0,0,0,0,0,0,0,0,0,0,0,0,0],"sum_hessian":[3.7077038E1,9.896416E0,2.718062E1,3.3151016E0,6.581314E0,1.6732775E1,1.0447845E1,1.2117957E0,2.103306E0,4.196833E0,2.384481E0,5.2852945E0,1.144748E1,6.936891E0,3.5109549E0,2.7830472E0,1.4137858E0,1.1656324E0,1.2188486E0,2.178988E0,3.1063066E0,5.4770417E0,5.970439E0,4.4842463E0,2.4526446E0,1.1764346E0,2.3345203E0,1.1433007E0,1.0356873E0,1.8390085E0,1.267298E0,1.0473734E0,4.4296684E0,4.3904424E0,1.5799965E0,1.6573421E0,2.8269043E0,1.22456E0,1.2280846E0,1.0034376E0,1.3310826E0,1.5217047E0,2.8687377E0],"tree_param":{"num_deleted":"0","num_feature":"64","num_nodes":"43","size_leaf_vector":"1"}},{"base_weights":[-5.422364E-4,-3.718119E-2,2.0633744E-1,1.14372745E-1,-9.815131E-2,9.9713326E-2,-0E0,2.7479115E-1,-7.492723E-2,-2.5844365E-1,3.9441376E-3,4.2236412E-1,-0E0,2.4957578E-3,-3.4482202E-1,2.8110817E-1,-5.9074108E-2,-0E0,1.594529E-1,-0E0,-4.4394007E-1,-0E0,1.1585777E-1,-4.569873E-1,6.453425E-2,-0E0,-1.523725E-1,-1.6218215E-1,-0E0,-4.3467138E-2,5.932874E-2],"categories":[],"categories_nodes":[],"categories_segments":[],"categories_sizes":[],"default_left":[0,0,0,0,1,0,0,0,0,0,0,1,0,0,0,0,0,0,0,0,0,0,0,0,0,0,0,0,0,0,0],"id":30,"left_children":[1,3,5,7,9,-1,-1,11,-1,13,15,17,-1,-1,19,21,23,-1,-1,-1,25,-1,-1,27,29,-1,-1,-1,-1,-1,-1],"loss_changes":[2.2813877E-1,3.1362328E-1,1.752973E-1,5.6988174E-1,5.1016223E-1,0E0,0E0,4.0041184E-1,0E0,3.7799907E-1,3.6225358E-1,2.4816751E-1,0E0,0E0,4.362868E-1,6.1098576E-2,7.7517706E-1,0E0,0E0,0E0,2.2668183E-1,0E0,0E0,1.4895856E-2,3.184926E-1,0E0,0E0,0E0,0E0,0E0,0E0],"parents":[2147483647,0,0,1,1,2,2,3,3,4,4,7,7,9,9,10,10,11,11,14,14,15,15,16,16,20,20,23,23,24,24],"right_children":[2,4,6,8,10,-1,-1,12,-1,14,16,18,-1,-1,20,22,24,-1,-1,-1,26,-1,-1,28,30,-1,-1,-1,-1,-1,-1],"split_conditions":[2.1077486E1,-2.599E1,-7.9979277E0,2E0,1.2906E2,9.9713326E-2,-0E0,6.86E2,-7.492723E-2,1.719E2,1.0346974E2,1.9771E2,-0E0,2.4957578E-3,-4.3959E1,1.5054991E1,-1.255E0,-0E0,1.594529E-1,-0E0,2.95E-1,-0E0,1.1585777E-1,5.5E1,7.523E1,-0E0,-1.523725E-1,-1.6218215E-1,-0E0,-4.3467138E-2,5.932874E-2],"split_indices":[30,55,27,5,60,0,0,14,0,51,53,51,0,0,4,26,4,0,0,0,42,0,0,5,56,0,0,0,0,0,0],"split_type":[0,0,0,0,0,0,0,0,0,0,0,0,0,0,0,0,0,0,0,0,0,0,0,0,0,0,0,0,0,0,0],"sum_hessian":[3.5593597E1,3.2316658E1,3.2769377E0,7.436944E0,2.4879715E1,2.2350185E0,1.041919E0,5.9742284E0,1.4627156E0,1.0367006E1,1.4512709E1,4.1966457E0,1.7775825E0,1.8041681E0,8.562839E0,3.0362954E0,1.1476414E1,1.0366662E0,3.1599796E0,1.5797484E0,6.98309E0,1.4880725E0,1.5482228E0,2.7259085E0,8.750505E0,1.0055127E0,5.977577E0,1.7133905E0,1.0125182E0,2.3864775E0,6.3640275E0],"tree_param":{"num_deleted":"0","num_feature":"64","num_nodes":"31","size_leaf_vector":"1"}},{"base_weights":[-0E0,7.561889E-2,-8.129323E-2,2.396797E-1,-1.3099661E-1,-1.61086E-1,2.0465613E-3,6.0138717E-2,1.6730586E-1,5.4158E-2,-2.8071097E-1,-8.856318E-2,7.146121E-2,2.56916E-1,-6.3290186E-2,-4.517486E-1,-0E0,-8.8063374E-2,2.9658827E-1,-0E0,1.23928644E-1,3.3821438E-2,-2.800423E-1,-0E0,-1.7135505E-1,-2.2685206E-1,3.6539745E-2,-0E0,1.4119655E-1,-0E0,-1.2021468E-1,-1.0655186E-1,-0E0,-1.0455199E-2,5.4493733E-2,4.2936496E-2,-7.2526276E-2],"categories":[],"categories_nodes":[],"categories_segments":[],"categories_sizes":[],"default_left":[0,0,0,0,0,0,0,0,0,0,0,0,0,0,0,0,0,1,0,0,0,0,0,0,0,1,0,0,0,0,0,0,0,0,0,0,0],"id":31,"left_children":[1,3,5,7,9,-1,11,13,-1,-1,15,-1,17,19,21,23,-1,25,27,-1,-1,-1,29,-1,-1,31,33,35,-1,-1,-1,-1,-1,-1,-1,-1,-1],"loss_changes":[2.2527486E-1,6.4600265E-1,9.1521573E-1,3.7330943E-1,4.2421854E-1,0E0,2.9073697E-1,2.921754E-1,0E0,0E0,4.0212464E-1,0E0,6.448081E-1,1.9331026E-1,2.8186172E-1,1.621067E-1,0E0,2.251176E-1,4.9057978E-1,0E0,0E0,0E0,1.088033E-1,0E0,0E0,2.3484555E-1,9.9637076E-2,1.7006966E-1,0E0,0E0,0E0,0E0,0E0,0E0,0E0,0E0,0E0],"parents":[2147483647,0,0,1,1,2,2,3,3,4,4,6,6,7,7,10,10,12,12,13,13,14,14,15,15,17,17,18,18,22,22,25,25,26,26,27,27],"right_children":[2,4,6,8,10,-1,12,14,-1,-1,16,-1,18,20,22,24,-1,26,28,-1,-1,-1,30,-1,-1,32,34,36,-1,-1,-1,-1,-1,-1,-1,-1,-1],"split_conditions":[-1.1819E1,9.127781E1,9.2548546E1,4E-3,-5.0018E1,-1.61086E-1,-4.0751095E1,-3.5101E1,1.6730586E-1,5.4158E-2,5.98E1,-8.856318E-2,-3.6203197E1,8.01E1,0E0,-4.8748913E1,-0E0,1.3217818E2,7.892E1,-0E0,1.23928644E-1,3.3821438E-2,7.576E1,-0E0,-1.7135505E-1,5.6587E2,5E1,2.55864E2,1.4119655E-1,-0E0,-1.2021468E-1,-1.0655186E-1,-0E0,-1.0455199E-2,5.4493733E-2,4.2936496E-2,-7.2526276E-2],"split_indices":[4,53,53,3,4,0,27,4,0,0,0,0,34,47,57,27,0,53,57,0,0,0,60,0,0,51,28,38,0,0,0,0,0,0,0,0,0],"split_type":[0,0,0,0,0,0,0,0,0,0,0,0,0,0,0,0,0,0,0,0,0,0,0,0,0,0,0,0,0,0,0,0,0,0,0,0,0],"sum_hessian":[3.438569E1,1.6052654E1,1.8333033E1,9.766153E0,6.286502E0,2.6172106E0,1.5715822E1,7.678189E0,2.0879638E0,1.2443672E0,5.042135E0,1.4418724E0,1.427395E1,3.5934403E0,4.0847487E0,3.3034616E0,1.7386731E0,7.8359156E0,6.4380345E0,1.6839163E0,1.909524E0,1.6624392E0,2.4223094E0,1.1146754E0,2.1887863E0,4.5960007E0,3.2399147E0,2.2697303E0,4.168304E0,1.0732627E0,1.3490468E0,3.1445532E0,1.4514476E0,1.1268922E0,2.1130226E0,1.0935843E0,1.176146E0],"tree_param":{"num_deleted":"0","num_feature":"64","num_nodes":"37","size_leaf_vector":"1"}},{"base_weights":[-0E0,-1.1112099E-1,4.7058348E-2,6.381158E-2,-2.8725433E-1,-2.8130512E-3,2.2886597E-1,-3.2516655E-2,2.1288711E-1,-4.627358E-1,-0E0,-9.712594E-2,1.5713324E-1,-2.370072E-2,4.385339E-1,-0E0,1.01657085E-1,-0E0,-1.7860928E-1,2.981011E-2,-0E0,6.583208E-2,-2.9042754E-1,-0E0,3.130195E-1,-0E0,1.5112239E-1,2.3799358E-1,-3.0448886E-2,-1.4626387E-1,-0E0,1.20037846E-1,-0E0,9.678567E-2,-0E0,2.4539605E-2,-8.741582E-2,-5.6087278E-2,4.805402E-2],"categories":[],"categories_nodes":[],"categories_segments":[],"categories_sizes":[],"default_left":[1,0,0,0,1,0,0,0,0,1,0,0,1,0,0,0,0,0,0,0,0,0,0,0,0,0,0,0,0,0,0,0,0,0,0,0,0,0,0],"id":32,"left_children":[1,3,5,7,9,11,13,-1,15,17,19,21,23,-1,25,-1,-1,-1,-1,-1,-1,27,29,-1,31,-1,-1,33,35,-1,37,-1,-1,-1,-1,-1,-1,-1,-1],"loss_changes":[1.9968866E-1,4.6550655E-1,2.8388923E-1,2.101351E-1,4.7368646E-1,2.5858575E-1,5.6764245E-1,0E0,1.7833206E-1,2.9861355E-1,2.0878974E-2,5.0197244E-1,2.2717266E-1,0E0,2.292478E-2,0E0,0E0,0E0,0E0,0E0,0E0,1.9121887E-1,4.2577636E-1,0E0,6.217268E-2,0E0,0E0,7.1293846E-2,2.1296456E-1,0E0,1.410948E-1,0E0,0E0,0E0,0E0,0E0,0E0,0E0,0E0],"parents":[2147483647,0,0,1,1,2,2,3,3,4,4,5,5,6,6,8,8,9,9,10,10,11,11,12,12,14,14,21,21,22,22,24,24,27,27,28,28,30,30],"right_children":[2,4,6,8,10,12,14,-1,16,18,20,22,24,-1,26,-1,-1,-1,-1,-1,-1,28,30,-1,32,-1,-1,34,36,-1,38,-1,-1,-1,-1,-1,-1,-1,-1],"split_conditions":[5.7414135E1,4.52E1,2.9084E1,3.91E2,1.35E2,1.157E3,1.0225E2,-3.2516655E-2,2.881E1,1.4146721E2,1.231E2,1.23856E2,5.5E1,-2.370072E-2,3.091E0,-0E0,1.01657085E-1,-0E0,-1.7860928E-1,2.981011E-2,-0E0,1.1920476E2,1.525E1,-0E0,1.0765256E2,-0E0,1.5112239E-1,3.15E-1,8.75E0,-1.4626387E-1,2.10927E2,1.20037846E-1,-0E0,9.678567E-2,-0E0,2.4539605E-2,-8.741582E-2,-5.6087278E-2,4.805402E-2],"split_indices":[59,0,35,14,55,14,7,0,55,52,56,36,57,0,39,0,0,0,0,0,0,59,5,0,50,0,0,3,5,0,36,0,0,0,0,0,0,0,0],"split_type":[0,0,0,0,0,0,0,0,0,0,0,0,0,0,0,0,0,0,0,0,0,0,0,0,0,0,0,0,0,0,0,0,0,0,0,0,0,0,0],"sum_hessian":[3.2925407E1,1.1073632E1,2.1851774E1,4.917422E0,6.15621E0,1.6468454E1,5.38332E0,1.3612461E0,3.556176E0,3.9699209E0,2.186289E0,1.192998E1,4.538474E0,1.7833663E0,3.5999537E0,1.204768E0,2.351408E0,1.1251985E0,2.8447223E0,1.114582E0,1.071707E0,5.886537E0,6.043443E0,1.8242694E0,2.7142048E0,1.0234718E0,2.5764818E0,2.8366122E0,3.0499246E0,3.2905855E0,2.7528574E0,1.6614152E0,1.0527896E0,1.7728192E0,1.0637931E0,1.7111067E0,1.338818E0,1.0598862E0,1.6929711E0],"tree_param":{"num_deleted":"0","num_feature":"64","num_nodes":"39","size_leaf_vector":"1"}},{"base_weights":[-0E0,8.3650686E-2,-6.2921E-2,2.5217193E-1,-0E0,-1.10838704E-1,-0E0,3.5244662E-1,-0E0,7.2559446E-2,-1.8889755E-1,-1.22423165E-1,7.2320245E-2,1.22439414E-1,-0E0,7.86617E-2,-4.432057E-2,7.508205E-3,-1.2785518E-1,9.9169984E-2,-2.8576362E-1,-5.8791228E-2,2.1821429E-1,-6.8281725E-2,3.056003E-3,-0E0,7.178157E-2,-4.2284676E-1,-0E0,9.3407825E-2,-2.680813E-1,3.5295564E-1,-2.9231883E-3,-1.4854975E-1,-0E0,-0E0,4.9112175E-2,-0E0,-1.0645215E-1,1.4906858E-1,-0E0],"categories":[],"categories_nodes":[],"categories_segments":[],"categories_sizes":[],"default_left":[0,0,1,0,0,0,0,0,0,0,0,0,0,0,0,0,0,0,0,0,0,0,0,0,0,0,0,0,0,0,0,0,0,0,0,0,0,0,0,0,0],"id":33,"left_children":[1,3,5,7,9,-1,11,13,-1,15,17,19,21,-1,-1,-1,23,-1,-1,25,27,29,31,-1,-1,-1,-1,33,-1,35,37,39,-1,-1,-1,-1,-1,-1,-1,-1,-1],"loss_changes":[1.7364377E-1,2.6358786E-1,3.5017514E-1,1.887412E-1,1.6686058E-1,0E0,1.7947441E-1,1.2907505E-2,0E0,2.1093595E-1,3.4041792E-1,3.7810653E-1,2.8823206E-1,0E0,0E0,0E0,1.0818287E-1,0E0,0E0,9.423944E-2,2.5056413E-1,2.647183E-1,3.3127597E-1,0E0,0E0,0E0,0E0,1.3649046E-2,0E0,2.7037486E-2,5.1386863E-2,2.832405E-1,0E0,0E0,0E0,0E0,0E0,0E0,0E0,0E0,0E0],"parents":[2147483647,0,0,1,1,2,2,3,3,4,4,6,6,7,7,9,9,10,10,11,11,12,12,16,16,19,19,20,20,21,21,22,22,27,27,29,29,30,30,31,31],"right_children":[2,4,6,8,10,-1,12,14,-1,16,18,20,22,-1,-1,-1,24,-1,-1,26,28,30,32,-1,-1,-1,-1,34,-1,36,38,40,-1,-1,-1,-1,-1,-1,-1,-1,-1],"split_conditions":[-2.08E1,8.585E1,5.105495E1,-4.7156935E0,7.31E1,-1.10838704E-1,-8.23E-1,1.15428246E2,-0E0,7.514356E1,-4.6979E1,6.1751453E1,7.029E1,1.22439414E-1,-0E0,7.86617E-2,1.38E3,7.508205E-3,-1.2785518E-1,1.85311E2,2.4218E2,2.03456E2,1.91E3,-6.8281725E-2,3.056003E-3,-0E0,7.178157E-2,2.7728E1,-0E0,5.7332E2,2.555E3,-3.4E-2,-2.9231883E-3,-1.4854975E-1,-0E0,-0E0,4.9112175E-2,-0E0,-1.0645215E-1,1.4906858E-1,-0E0],"split_indices":[4,60,59,27,37,0,4,59,0,34,4,50,56,0,0,0,9,0,0,39,46,38,18,0,0,0,0,42,0,51,19,4,0,0,0,0,0,0,0,0,0],"split_type":[0,0,0,0,0,0,0,0,0,0,0,0,0,0,0,0,0,0,0,0,0,0,0,0,0,0,0,0,0,0,0,0,0,0,0,0,0,0,0,0,0],"sum_hessian":[3.1798449E1,1.211023E1,1.968822E1,4.5877037E0,7.5225267E0,2.1653717E0,1.7522846E1,3.379916E0,1.2077878E0,4.685064E0,2.8374627E0,6.9290733E0,1.0593773E1,2.3437624E0,1.0361536E0,2.4098525E0,2.2752113E0,1.2170172E0,1.6204455E0,2.2329829E0,4.6960907E0,4.67952E0,5.914253E0,1.2083453E0,1.066866E0,1.0315415E0,1.2014415E0,3.0028758E0,1.6932149E0,2.0992084E0,2.5803118E0,4.3000426E0,1.6142102E0,1.9746855E0,1.0281901E0,1.0813719E0,1.0178365E0,1.1286327E0,1.4516791E0,2.82134E0,1.4787027E0],"tree_param":{"num_deleted":"0","num_feature":"64","num_nodes":"41","size_leaf_vector":"1"}},{"base_weights":[-0E0,1.3307126E-1,-3.893541E-2,-0E0,2.23886E-1,2.4963101E-2,-1.3721485E-1,9.3601435E-2,-0E0,-1.12682775E-1,1.111045E-1,-2.1467996E-1,4.8527047E-2,1.584293E-2,-1.0383416E-1,1.0505794E-1,-0E0,-0E0,-2.9730296E-1,1.0166205E-1,-2.7351024E-2,1.5274605E-1,-2.1731435E-1,3.2547E-2,-0E0,-0E0,-4.2461255E-1,9.634842E-2,-1.5272591E-2,-0E0,-1.1055785E-1,-3.4214545E-2,2.7191214E-2,-1.516737E-1,-0E0],"categories":[],"categories_nodes":[],"categories_segments":[],"categories_sizes":[],"default_left":[0,0,0,0,0,0,0,0,0,1,0,0,0,0,0,0,0,0,0,0,0,0,0,0,0,1,0,0,0,0,0,0,0,0,0],"id":34,"left_children":[1,3,5,-1,7,9,11,-1,-1,13,15,17,19,-1,-1,-1,21,23,25,-1,-1,27,29,-1,-1,31,33,-1,-1,-1,-1,-1,-1,-1,-1],"loss_changes":[1.4276035E-1,1.19883634E-1,2.1089561E-1,0E0,1.0709858E-1,1.9159886E-1,2.5157726E-1,0E0,0E0,3.0330896E-1,3.2555905E-1,2.5901812E-1,2.4917078E-1,0E0,0E0,0E0,3.2088295E-1,2.4057344E-2,2.802599E-1,0E0,0E0,2.926545E-1,2.222494E-1,0E0,0E0,5.117175E-2,9.2278E-2,0E0,0E0,0E0,0E0,0E0,0E0,0E0,0E0],"parents":[2147483647,0,0,1,1,2,2,4,4,5,5,6,6,9,9,10,10,11,11,12,12,16,16,17,17,18,18,21,21,22,22,25,25,26,26],"right_children":[2,4,6,-1,8,10,12,-1,-1,14,16,18,20,-1,-1,-1,22,24,26,-1,-1,28,30,-1,-1,32,34,-1,-1,-1,-1,-1,-1,-1,-1],"split_conditions":[-8.778197E1,2.403E0,4.344E1,-0E0,1.3E1,9E0,3.32E3,9.3601435E-2,-0E0,2.4009405E1,2.59E2,3.08976E2,3.544E3,1.584293E-2,-1.0383416E-1,1.0505794E-1,1.2845166E2,4.2636E1,4.6267E1,1.0166205E-1,-2.7351024E-2,-1.3056E1,-5.045578E-1,3.2547E-2,-0E0,1.25098564E2,1.4921E2,9.634842E-2,-1.5272591E-2,-0E0,-1.1055785E-1,-3.4214545E-2,2.7191214E-2,-1.516737E-1,-0E0],"split_indices":[2,42,55,0,44,44,11,0,0,61,9,41,11,0,0,0,49,42,37,0,0,4,31,0,0,62,55,0,0,0,0,0,0,0,0],"split_type":[0,0,0,0,0,0,0,0,0,0,0,0,0,0,0,0,0,0,0,0,0,0,0,0,0,0,0,0,0,0,0,0,0,0,0],"sum_hessian":[3.0772198E1,4.7484465E0,2.6023752E1,1.3259592E0,3.4224873E0,1.4148025E1,1.1875727E1,2.3773563E0,1.0451308E0,3.8240373E0,1.0323987E1,9.548759E0,2.3269675E0,1.8471009E0,1.9769365E0,2.7945442E0,7.529443E0,2.1180327E0,7.430727E0,1.0750369E0,1.2519307E0,4.4050837E0,3.1243591E0,1.0439405E0,1.0740921E0,2.743164E0,4.687563E0,2.9995096E0,1.4055742E0,1.0537468E0,2.0706124E0,1.5472076E0,1.1959565E0,3.3727603E0,1.3148025E0],"tree_param":{"num_deleted":"0","num_feature":"64","num_nodes":"35","size_leaf_vector":"1"}},{"base_weights":[-0E0,-2.843253E-2,6.262137E-2,9.607589E-2,-6.6019766E-2,-0E0,6.742013E-2,-1.2591499E-1,7.9010084E-2,-2.049745E-1,3.32373E-2,2.0644411E-1,-3.7913997E-2,-4.1157395E-1,-0E0,9.654278E-2,-1.5848559E-1,-2.2213126E-3,1.2655467E-1,8.597904E-4,-1.7071521E-1,1.2776757E-2,-6.033082E-2,-0E0,-9.947232E-2],"categories":[],"categories_nodes":[],"categories_segments":[],"categories_sizes":[],"default_left":[0,0,0,0,0,0,0,0,0,0,0,0,0,0,0,0,0,0,0,0,0,0,0,0,0],"id":35,"left_children":[1,3,-1,5,7,-1,-1,9,11,13,15,17,-1,19,21,-1,23,-1,-1,-1,-1,-1,-1,-1,-1],"loss_changes":[1.4080797E-1,1.3283825E-1,0E0,1.1084613E-1,2.436699E-1,0E0,0E0,3.1351477E-1,2.180736E-1,5.3953016E-1,4.386833E-1,3.8585842E-1,0E0,6.390599E-1,1.1806333E-1,0E0,1.932545E-1,0E0,0E0,0E0,0E0,0E0,0E0,0E0,0E0],"parents":[2147483647,0,0,1,1,3,3,4,4,7,7,8,8,9,9,10,10,11,11,13,13,14,14,16,16],"right_children":[2,4,-1,6,8,-1,-1,10,12,14,16,18,-1,20,22,-1,24,-1,-1,-1,-1,-1,-1,-1,-1],"split_conditions":[2.3320568E1,4.5E2,6.262137E-2,2.81489E2,2.90136E2,-0E0,6.742013E-2,2.044E3,1.3921E1,1.1446605E2,9.69E2,-1.433E0,-3.7913997E-2,1.893E3,4.62348E2,9.654278E-2,5.359E2,-2.2213126E-3,1.2655467E-1,8.597904E-4,-1.7071521E-1,1.2776757E-2,-6.033082E-2,-0E0,-9.947232E-2],"split_indices":[30,24,0,40,39,0,0,16,3,62,14,4,0,19,40,0,54,0,0,0,0,0,0,0,0],"split_type":[0,0,0,0,0,0,0,0,0,0,0,0,0,0,0,0,0,0,0,0,0,0,0,0,0],"sum_hessian":[2.9880005E1,2.8189932E1,1.690074E0,4.1005087E0,2.4089422E1,1.9735717E0,2.126937E0,1.878354E1,5.3058815E0,1.3769426E1,5.0141153E0,4.2819605E0,1.023921E0,5.8483357E0,7.9210906E0,2.4311163E0,2.5829992E0,1.8495762E0,2.4323843E0,1.2924421E0,4.5558934E0,6.3305635E0,1.5905267E0,1.0066203E0,1.5763788E0],"tree_param":{"num_deleted":"0","num_feature":"64","num_nodes":"25","size_leaf_vector":"1"}},{"base_weights":[-0E0,9.9254854E-2,-4.4229675E-2,2.7211732E-1,-0E0,7.3945105E-2,-9.671406E-2,-0E0,1.1182015E-1,1.0038718E-1,-8.091843E-2,7.1164496E-2,-0E0,-2.1825597E-1,-0E0,-1.0306941E-2,8.343742E-2,2.1949306E-2,-3.665816E-2,-0E0,-3.3167523E-1,-1.771842E-1,7.454054E-2,-4.794482E-1,-0E0,-8.1936814E-2,-0E0,