{"learner":{"attributes":{"best_iteration":"13","best_score":"0.05686059952715543","scikit_learn":"{\"_estimator_type\": \"classifier\"}"},"feature_names":["Price_gas","Imbalance netting import","Imbalance netting export","Energy_positive_secondary","Energy_negative_secondary","Energy_positive_tertiary","Energy_negative_tertiary","CH_dayahead_price","CH_intraday_price","renewable_energy","Cross_border_physical_flows_IT_CH","Cross_border_physical_flows_CH_IT","Cross_border_physical_flows_FR_CH","Cross_border_physical_flows_CH_FR","Cross_border_physical_flows_AT_CH","Cross_border_physical_flows_CH_AT","Cross_border_physical_flows_DE_CH","Cross_border_physical_flows_CH_DE","Forecast_transfer_capacities_dayahead_IT_CH","Forecast_transfer_capacities_dayahead_CH_IT","Forecast_transfer_capacities_dayahead_FR_CH","Forecast_transfer_capacities_dayahead_CH_FR","Forecast_transfer_capacities_dayahead_DE_CH","Forecast_transfer_capacities_dayahead_CH_DE","Forecast_transfer_capacities_dayahead_AT_CH","Forecast_transfer_capacities_dayahead_CH_AT","aFRR p","aFRR n","mFRR p","mFRR n","FRCE p","FRCE n","RR p","RR n","Total System Imbalance","Exchange_CH_AT","Exchange_AT_CH","Exchange_CH_DE","Exchange_DE_CH","Exchange_CH_FR","Exchange_FR_CH","Exchange_CH_IT","Exchange_IT_CH","day_type","hour","weekday","Price_positive_secondary_lag_1","Price_positive_secondary_lag_24","Price_positive_secondary_lag_168","Price_positive_secondary_mean_24","Price_positive_secondary_std_24","Price_positive_secondary_max_24","Price_positive_secondary_mean_168","Price_positive_secondary_std_168","Price_positive_secondary_max_168"],"feature_types":["float","float","float","float","float","float","float","float","float","float","int","int","int","int","float","float","int","int","int","int","int","int","int","int","int","int","float","float","int","int","float","float","float","float","float","float","float","float","float","float","float","float","float","int","int","int","float","float","float","float","float","float","float","float","float"],"gradient_booster":{"model":{"gbtree_model_param":{"num_parallel_tree":"1","num_trees":"44"},"iteration_indptr":[0,1,2,3,4,5,6,7,8,9,10,11,12,13,14,15,16,17,18,19,20,21,22,23,24,25,26,27,28,29,30,31,32,33,34,35,36,37,38,39,40,41,42,43,44],"tree_info":[0,0,0,0,0,0,0,0,0,0,0,0,0,0,0,0,0,0,0,0,0,0,0,0,0,0,0,0,0,0,0,0,0,0,0,0,0,0,0,0,0,0,0,0],"trees":[{"base_weights":[-0E0,-6.2834936E-1,9.824321E0,-7.508495E-1,1.2314401E0,-0E0,4.112022E0,-8.5544825E-1,6.449269E-1,1.2190862E0,-1.5280458E-1,-9.263951E-1,2.3900875E-1,7.723214E-1,-3.0741408E-1,-9.562698E-1,-0E0,4.7447821E-1,-1.3416703E-1,-0E0,-1.20848164E-1,-2.963691E-1,-0E0],"categories":[],"categories_nodes":[],"categories_segments":[],"categories_sizes":[],"default_left":[0,1,0,0,0,0,0,1,1,0,0,0,0,0,0,0,0,0,0,0,0,0,0],"id":0,"left_children":[1,3,5,7,9,-1,-1,11,13,-1,-1,15,17,-1,19,21,-1,-1,-1,-1,-1,-1,-1],"loss_changes":[4.852738E2,1.738216E1,1.7211432E2,1.0984737E1,2.7281727E1,0E0,0E0,5.912712E0,1.1663208E1,0E0,0E0,1.9080505E0,5.4314384E0,0E0,1.02277905E-1,1.9156113E0,0E0,0E0,0E0,0E0,0E0,0E0,0E0],"parents":[2147483647,0,0,1,1,2,2,3,3,4,4,7,7,8,8,11,11,12,12,14,14,15,15],"right_children":[2,4,6,8,10,-1,-1,12,14,-1,-1,16,18,-1,20,22,-1,-1,-1,-1,-1,-1,-1],"split_conditions":[3.3076E1,2.8375E2,3.1172E2,1.9356E1,1.5387E2,-0E0,4.112022E0,7E2,1.6812E2,1.2190862E0,-1.5280458E-1,1.94E2,1.1507E2,7.723214E-1,4.17E1,1.7894E2,-0E0,4.7447821E-1,-1.3416703E-1,-0E0,-1.20848164E-1,-2.963691E-1,-0E0],"split_indices":[3,46,51,3,7,0,0,51,48,0,0,28,7,0,0,7,0,0,0,0,0,0,0],"split_type":[0,0,0,0,0,0,0,0,0,0,0,0,0,0,0,0,0,0,0,0,0,0,0],"sum_hessian":[7.6610954E1,7.288535E1,3.7256012E0,6.933466E1,3.5506904E0,1.3817958E0,2.3438056E0,6.5381676E1,3.9529853E0,1.014483E0,2.5362074E0,6.221579E1,3.1658864E0,1.014483E0,2.9385023E0,6.0414207E1,1.8015819E0,1.014483E0,2.1514034E0,1.014483E0,1.9240195E0,5.850768E1,1.9065284E0],"tree_param":{"num_deleted":"0","num_feature":"55","num_nodes":"23","size_leaf_vector":"1"}},{"base_weights":[-5.707623E-1,-6.778266E-1,1.836438E0,-8.399603E-1,7.5621605E-1,-1.2064649E-1,1.3117644E0,-2.9678702E-1,-1.1237342E0,-0E0,4.5315513E-1,-7.122455E-1,1.5722883E0,-0E0,-1.1783912E0,-2.7296573E-1,2.545671E-1,-2.7888346E-1,-0E0,7.8241855E-1,-0E0,-9.1603816E-2,1.5964648E-1,-1.2190498E0,-0E0,2.723874E-1,-1.8753107E-1,-8.519389E-2,1.8640414E-1,-0E0,-3.7556285E-1],"categories":[],"categories_nodes":[],"categories_segments":[],"categories_sizes":[],"default_left":[0,0,0,0,0,0,0,0,0,0,0,0,0,0,0,0,0,0,0,0,0,0,0,0,0,0,0,0,0,0,0],"id":1,"left_children":[1,3,5,7,9,-1,-1,11,13,15,-1,17,19,21,23,-1,-1,-1,25,-1,27,-1,-1,29,-1,-1,-1,-1,-1,-1,-1],"loss_changes":[2.5357555E1,2.2551247E1,2.809391E1,1.1719784E1,5.4952407E0,0E0,0E0,2.4992195E1,3.866867E0,5.2302904E0,0E0,4.565877E0,7.724642E0,7.75772E-1,3.463646E0,0E0,0E0,0E0,4.5616827E0,0E0,1.0000863E0,0E0,0E0,2.6084442E0,0E0,0E0,0E0,0E0,0E0,0E0,0E0],"parents":[2147483647,0,0,1,1,2,2,3,3,4,4,7,7,8,8,9,9,11,11,12,12,13,13,14,14,18,18,20,20,23,23],"right_children":[2,4,6,8,10,-1,-1,12,14,16,-1,18,20,22,24,-1,-1,-1,26,-1,28,-1,-1,30,-1,-1,-1,-1,-1,-1,-1],"split_conditions":[4.904225E2,5.3895E1,5.174E0,4.12E1,6.03E-1,-1.2064649E-1,1.3117644E0,1.9456E2,-8.85E1,5.2706E2,4.5315513E-1,2.9194E2,1.5391E2,3.4032E1,5.7332E2,-2.7296573E-1,2.545671E-1,-2.7888346E-1,1.4675851E2,7.8241855E-1,2.1697E1,-9.1603816E-2,1.5964648E-1,7.7857285E1,-0E0,2.723874E-1,-1.8753107E-1,-8.519389E-2,1.8640414E-1,-0E0,-3.7556285E-1],"split_indices":[52,3,3,0,42,0,0,46,6,51,0,51,48,3,47,0,0,0,52,0,3,0,0,53,0,0,0,0,0,0,0],"split_type":[0,0,0,0,0,0,0,0,0,0,0,0,0,0,0,0,0,0,0,0,0,0,0,0,0,0,0,0,0,0,0],"sum_hessian":[9.6071144E1,9.297863E1,3.0925095E0,8.439571E1,8.582921E0,1.9259562E0,1.1665534E0,3.0607632E1,5.378808E1,4.772674E0,3.8102474E0,2.5889671E1,4.7179613E0,2.1798563E0,5.1608223E1,2.279152E0,2.493522E0,2.0068401E1,5.821269E0,2.213761E0,2.5042E0,1.1474653E0,1.032391E0,5.0488205E1,1.1200188E0,2.4717994E0,3.3494697E0,1.4190999E0,1.0851002E0,1.0004011E0,4.9487804E1],"tree_param":{"num_deleted":"0","num_feature":"55","num_nodes":"31","size_leaf_vector":"1"}},{"base_weights":[-4.7171274E-1,-5.7352084E-1,1.0890832E0,-7.7882135E-1,3.5820863E-1,-1.7150463E-1,7.392282E-1,-8.6295587E-1,3.3353475E-1,-1.203729E-1,1.1853656E0,-0E0,-7.079015E-2,-9.534448E-1,1.1567158E-1,2.702128E-1,-6.0396874E-1,-0E0,6.2837684E-1,-4.1523838E-1,-1.1491618E0,-5.6043357E-1,3.2386702E-1,-7.380823E-1,-0E0,-1.3234055E-1,2.0394556E-1,-2.3033853E-1,1.2362834E-1,-0E0,-3.5647202E-1,-2.3771796E-1,-0E0,-2.7793273E-1,-0E0],"categories":[],"categories_nodes":[],"categories_segments":[],"categories_sizes":[],"default_left":[0,0,0,0,0,0,0,0,0,0,0,0,0,0,0,0,0,0,0,0,0,0,0,0,0,0,0,0,0,0,0,0,0,0,0],"id":2,"left_children":[1,3,5,7,9,11,-1,13,-1,15,17,-1,-1,19,21,-1,23,25,-1,27,29,31,-1,33,-1,-1,-1,-1,-1,-1,-1,-1,-1,-1,-1],"loss_changes":[1.3725981E1,1.6083275E1,1.1016878E1,1.1469906E1,6.756462E0,3.0476145E-2,0E0,6.555191E0,0E0,5.0340075E0,5.3114853E0,0E0,0E0,4.694248E0,4.7223425E0,0E0,7.795677E-1,1.6057312E0,0E0,6.082309E0,2.5003128E0,4.796052E-1,0E0,1.0762551E0,0E0,0E0,0E0,0E0,0E0,0E0,0E0,0E0,0E0,0E0,0E0],"parents":[2147483647,0,0,1,1,2,2,3,3,4,4,5,5,7,7,9,9,10,10,13,13,14,14,16,16,17,17,19,19,20,20,21,21,23,23],"right_children":[2,4,6,8,10,12,-1,14,-1,16,18,-1,-1,20,22,-1,24,26,-1,28,30,32,-1,34,-1,-1,-1,-1,-1,-1,-1,-1,-1,-1,-1],"split_conditions":[4.904225E2,5.7332E2,-9E-2,2.526E3,6.1E1,1.8771E2,7.392282E-1,5.3895E1,3.3353475E-1,-9.823416E0,3.1607E1,-0E0,-7.079015E-2,7.5E2,8.05E-1,2.702128E-1,4.559E3,3.9489E1,6.2837684E-1,3.403E2,-1.513067E2,1.329E3,3.2386702E-1,1E0,-0E0,-1.3234055E-1,2.0394556E-1,-2.3033853E-1,1.2362834E-1,-0E0,-3.5647202E-1,-2.3771796E-1,-0E0,-2.7793273E-1,-0E0],"split_indices":[52,51,4,17,28,47,0,3,0,31,42,0,0,24,42,0,19,3,0,51,2,13,0,43,0,0,0,0,0,0,0,0,0,0,0],"split_type":[0,0,0,0,0,0,0,0,0,0,0,0,0,0,0,0,0,0,0,0,0,0,0,0,0,0,0,0,0,0,0,0,0,0,0],"sum_hessian":[8.3983604E1,7.990452E1,4.079088E0,6.6298454E1,1.3606062E1,2.2883859E0,1.7907021E0,6.438969E1,1.9087641E0,8.5622835E0,5.0437784E0,1.0039198E0,1.2844659E0,5.9693905E1,4.695784E0,1.9555955E0,6.606688E0,2.8975308E0,2.1462479E0,1.7815344E1,4.187856E1,2.5296602E0,2.1661236E0,5.524499E0,1.0821888E0,1.4581234E0,1.4394073E0,1.3204445E1,4.610899E0,1.0030891E0,4.0875473E1,1.5294704E0,1.0001898E0,4.395084E0,1.1294152E0],"tree_param":{"num_deleted":"0","num_feature":"55","num_nodes":"35","size_leaf_vector":"1"}},{"base_weights":[-3.807983E-1,2.6982427E-1,-5.6782293E-1,-2.453841E-1,1.542225E0,-8.379896E-1,2.9377463E-1,-9.165897E-2,2.2145739E0,-9.373356E-1,7.71268E-2,4.3096042E-1,8.09941E-3,2.6333187E0,1.04142256E-1,-1.0309739E0,-0E0,-1.06594525E-1,2.1476297E-1,-4.058301E-1,7.307071E-1,5.037158E-2,9.569412E-1,-0E0,-1.0682062E0,3.6506566E-1,-1.6371049E-1,9.0484574E-2,-6.564246E-1,-0E0,3.0270848E-1,-3.2738006E-1,-0E0,-0E0,1.7076501E-1,-0E0,-2.6851398E-1],"categories":[],"categories_nodes":[],"categories_segments":[],"categories_sizes":[],"default_left":[1,0,0,0,1,0,0,0,0,0,0,0,0,0,0,0,0,0,0,0,0,0,0,0,0,0,0,0,0,0,0,0,0,0,0,0,0],"id":3,"left_children":[1,3,5,-1,7,9,11,-1,13,15,17,-1,19,21,-1,23,25,-1,-1,27,29,-1,-1,-1,31,33,-1,-1,35,-1,-1,-1,-1,-1,-1,-1,-1],"loss_changes":[9.501352E0,2.4624617E1,1.4507402E1,0E0,1.2440308E1,4.9443893E0,3.5086489E0,0E0,1.8361378E0,3.6289635E0,1.8282746E0,0E0,4.42198E0,3.4424706E0,0E0,1.4401016E0,1.2052594E0,0E0,0E0,1.9262564E0,1.3252981E0,0E0,0E0,0E0,1.8391037E-1,3.3328423E-1,0E0,0E0,1.250634E0,0E0,0E0,0E0,0E0,0E0,0E0,0E0,0E0],"parents":[2147483647,0,0,1,1,2,2,4,4,5,5,6,6,8,8,9,9,10,10,12,12,13,13,15,15,16,16,19,19,20,20,24,24,25,25,28,28],"right_children":[2,4,6,-1,8,10,12,-1,14,16,18,-1,20,22,-1,24,26,-1,-1,28,30,-1,-1,-1,32,34,-1,-1,36,-1,-1,-1,-1,-1,-1,-1,-1],"split_conditions":[7.479668E1,5.174E0,5.7332E2,-2.453841E-1,2.2864E2,2.9E1,8.75E1,-9.165897E-2,1.9559222E-1,1.24296326E2,1.507272E2,4.3096042E-1,3.9489E1,1.84E1,1.04142256E-1,-1.5722885E2,4.38E1,-1.06594525E-1,2.1476297E-1,-1.9E1,8E0,5.037158E-2,9.569412E-1,-0E0,1.5E2,2.1723E2,-1.6371049E-1,9.0484574E-2,1.4355327E2,-0E0,3.0270848E-1,-3.2738006E-1,-0E0,-0E0,1.7076501E-1,-0E0,-2.6851398E-1],"split_indices":[53,3,51,0,51,15,8,0,30,26,52,0,3,37,0,2,0,0,0,6,44,0,0,0,32,47,0,0,52,0,0,0,0,0,0,0,0],"split_type":[0,0,0,0,0,0,0,0,0,0,0,0,0,0,0,0,0,0,0,0,0,0,0,0,0,0,0,0,0,0,0,0,0,0,0,0,0],"sum_hessian":[7.391132E1,1.5471201E1,5.8440125E1,8.202365E0,7.268836E0,4.5200672E1,1.323945E1,1.7749199E0,5.493916E0,4.152218E1,3.6784954E0,1.2953296E0,1.194412E1,3.8109915E0,1.6829244E0,3.756298E1,3.9591978E0,1.728956E0,1.9495393E0,7.185565E0,4.758556E0,1.1999674E0,2.6110241E0,1.3793068E0,3.6183674E1,2.460618E0,1.4985797E0,1.0110359E0,6.174529E0,1.43696E0,3.3215957E0,3.4783176E1,1.4004956E0,1.0085429E0,1.452075E0,1.754425E0,4.420104E0],"tree_param":{"num_deleted":"0","num_feature":"55","num_nodes":"37","size_leaf_vector":"1"}},{"base_weights":[-3.072482E-1,-4.2612034E-1,4.9266678E-1,-0E0,-7.3001087E-1,8.1089056E-1,-5.523385E-2,-4.6536136E-1,9.4493204E-1,-0E0,-8.803191E-1,3.1899124E-1,-0E0,-6.575952E-1,2.0684662E-1,-0E0,1.3682108E0,-4.109322E-1,6.0135674E-1,-0E0,-1.0072666E0,-2.6481816E-1,1.0601962E-1,9.672866E-3,-8.925703E-2,5.3622216E-1,4.814429E-2,-1.8839625E-1,-0E0,-0E0,2.764144E-1,-6.778479E-2,1.3101573E-1,-1.1087093E0,-0E0,7.094936E-2,-0E0,-0E0,-3.499501E-1],"categories":[],"categories_nodes":[],"categories_segments":[],"categories_sizes":[],"default_left":[0,1,0,1,0,0,0,1,0,0,0,0,0,0,0,0,0,0,0,0,0,0,0,0,0,0,0,0,0,0,0,0,0,0,0,0,0,0,0],"id":4,"left_children":[1,3,5,7,9,11,-1,13,15,17,19,-1,-1,21,-1,23,25,27,29,31,33,-1,-1,-1,-1,-1,35,-1,-1,-1,-1,-1,-1,37,-1,-1,-1,-1,-1],"loss_changes":[6.489241E0,8.011785E0,2.4109292E0,1.1689925E1,3.9591885E0,1.8118453E0,0E0,4.2402E0,4.4173756E0,1.972604E0,3.5052452E0,0E0,0E0,4.324115E0,0E0,2.0547354E-1,2.142538E0,6.382448E-1,5.9237623E-1,5.875858E-1,3.442873E0,0E0,0E0,0E0,0E0,0E0,1.05284944E-1,0E0,0E0,0E0,0E0,0E0,0E0,7.4469376E-1,0E0,0E0,0E0,0E0,0E0],"parents":[2147483647,0,0,1,1,2,2,3,3,4,4,5,5,7,7,8,8,9,9,10,10,13,13,15,15,16,16,17,17,18,18,19,19,20,20,26,26,33,33],"right_children":[2,4,6,8,10,12,-1,14,16,18,20,-1,-1,22,-1,24,26,28,30,32,34,-1,-1,-1,-1,-1,36,-1,-1,-1,-1,-1,-1,38,-1,-1,-1,-1,-1],"split_conditions":[5.3895E1,1.5562E2,1.8243E2,2.09E2,-3.725E1,-3.8821327E1,-5.523385E-2,8.93E2,7.727E1,2.2144E2,7.664704E1,3.1899124E-1,-0E0,2.9606E1,2.0684662E-1,1.88934E2,5.093E0,3.5037E1,1.12457E2,4.053703E1,4.47E2,-2.6481816E-1,1.0601962E-1,9.672866E-3,-8.925703E-2,5.3622216E-1,1.4582E2,-1.8839625E-1,-0E0,-0E0,2.764144E-1,-6.778479E-2,1.3101573E-1,1.01979E2,-0E0,7.094936E-2,-0E0,-0E0,-3.499501E-1],"split_indices":[3,48,7,46,6,34,0,51,48,46,53,0,0,3,0,40,39,42,37,1,47,0,0,0,0,0,48,0,0,0,0,0,0,38,0,0,0,0,0],"split_type":[0,0,0,0,0,0,0,0,0,0,0,0,0,0,0,0,0,0,0,0,0,0,0,0,0,0,0,0,0,0,0,0,0,0,0,0,0,0,0],"sum_hessian":[6.5583664E1,5.835539E1,7.228275E0,2.4097572E1,3.4257816E1,5.566682E0,1.6615927E0,1.6169748E1,7.927825E0,5.9032836E0,2.8354534E1,4.4215813E0,1.1451006E0,1.48111925E1,1.3585553E0,2.3097727E0,5.618052E0,3.5934768E0,2.309807E0,3.4780824E0,2.4876451E1,1.2849275E1,1.9619175E0,1.0121994E0,1.2975733E0,3.546234E0,2.0718184E0,2.5852873E0,1.0081893E0,1.2021266E0,1.1076804E0,2.2735162E0,1.2045662E0,2.3158707E1,1.717745E0,1.0097004E0,1.0621178E0,1.78718E0,2.1371527E1],"tree_param":{"num_deleted":"0","num_feature":"55","num_nodes":"39","size_leaf_vector":"1"}},{"base_weights":[-2.442623E-1,-5.158515E-1,4.5527637E-2,-0E0,-7.5770676E-1,-1.9795813E-1,6.7154044E-1,-5.980131E-1,7.2821754E-1,-9.3573856E-1,-0E0,-6.3289344E-1,2.6475504E-1,-4.4273697E-2,1.3015292E0,-0E0,-2.0120552E-1,-0E0,3.6086756E-1,-1.2886141E-1,-3.186767E-1,1.5418084E-1,-2.845792E-1,-0E0,-7.393048E-1,8.845041E-1,-2.028803E-1,-1.6778064E-1,7.857194E-2,-0E0,1.9114974E0,-1.2934582E-1,2.0199168E-2,-1.6040125E-1,-0E0,-2.4575074E-1,-0E0,-8.2712546E-2,1.3525041E0,7.020442E-1,2.0880748E-2,4.8686343E-1,-0E0],"categories":[],"categories_nodes":[],"categories_segments":[],"categories_sizes":[],"default_left":[0,1,0,0,0,0,0,0,0,0,0,0,0,0,0,0,0,0,0,0,0,0,0,0,0,0,0,0,0,0,0,0,0,0,0,0,0,0,1,0,0,0,0],"id":5,"left_children":[1,3,5,7,9,11,13,15,17,19,21,23,25,27,29,-1,-1,-1,-1,31,-1,-1,33,-1,35,37,-1,-1,-1,-1,39,-1,-1,-1,-1,-1,-1,-1,41,-1,-1,-1,-1],"loss_changes":[5.073328E0,4.4950266E0,4.8181005E0,5.0633235E0,3.229557E0,4.5318184E0,5.1224318E0,7.061648E-2,2.4184215E0,8.318863E-1,9.3804896E-1,8.075762E-1,6.3886905E0,1.1079953E0,3.8997545E0,0E0,0E0,0E0,0E0,5.7985264E-1,0E0,0E0,4.2836103E-1,0E0,5.6326437E-1,4.8800626E0,0E0,0E0,0E0,0E0,7.84873E-1,0E0,0E0,0E0,0E0,0E0,0E0,0E0,1.3194256E0,0E0,0E0,0E0,0E0],"parents":[2147483647,0,0,1,1,2,2,3,3,4,4,5,5,6,6,7,7,8,8,9,9,10,10,11,11,12,12,13,13,14,14,19,19,22,22,24,24,25,25,30,30,38,38],"right_children":[2,4,6,8,10,12,14,16,18,20,22,24,26,28,30,-1,-1,-1,-1,32,-1,-1,34,-1,36,38,-1,-1,-1,-1,40,-1,-1,-1,-1,-1,-1,-1,42,-1,-1,-1,-1],"split_conditions":[1.082E2,7.969972E1,6.4E1,1.5524E1,1.627701E2,2.1697E1,1.78298E2,3.08E-1,8.243934E1,2.029E3,-1.0651311E1,-2.4603968E0,1.8243E2,4.6742E2,1.0860568E2,-0E0,-2.0120552E-1,-0E0,3.6086756E-1,2.1652E2,-3.186767E-1,1.5418084E-1,1.98237E2,-0E0,1.9E1,1.4574177E0,-2.028803E-1,-1.6778064E-1,7.857194E-2,-0E0,3.62933E2,-1.2934582E-1,2.0199168E-2,-1.6040125E-1,-0E0,-2.4575074E-1,-0E0,-8.2712546E-2,6.6518E2,7.020442E-1,2.0880748E-2,4.8686343E-1,-0E0],"split_indices":[37,53,28,3,50,3,40,42,50,11,31,31,7,51,53,0,0,0,0,47,0,0,36,0,28,26,0,0,0,0,38,0,0,0,0,0,0,0,54,0,0,0,0],"split_type":[0,0,0,0,0,0,0,0,0,0,0,0,0,0,0,0,0,0,0,0,0,0,0,0,0,0,0,0,0,0,0,0,0,0,0,0,0,0,0,0,0,0,0],"sum_hessian":[5.8495285E1,3.1184471E1,2.7310814E1,9.437631E0,2.1746841E1,1.9257011E1,8.053802E0,4.8029556E0,4.634675E0,1.7603058E1,4.1437836E0,1.060696E1,8.650051E0,3.624966E0,4.4288354E0,1.0324374E0,3.7705183E0,1.8981965E0,2.7364788E0,3.4963741E0,1.4106684E1,1.4051586E0,2.7386246E0,1.6232867E0,8.983673E0,5.7519255E0,2.8981261E0,1.9944993E0,1.6304666E0,1.8446207E0,2.584215E0,2.4715557E0,1.0248184E0,1.5575515E0,1.1810732E0,7.9712596E0,1.0124136E0,1.2917006E0,4.4602246E0,1.532923E0,1.051292E0,3.2933872E0,1.1668376E0],"tree_param":{"num_deleted":"0","num_feature":"55","num_nodes":"43","size_leaf_vector":"1"}},{"base_weights":[-2.0061949E-1,-3.429956E-1,2.3714621E-1,1.7553335E-1,-6.0991836E-1,-3.06774E-1,5.112876E-1,-2.076203E-1,7.5037587E-1,-6.4256E-3,-8.008995E-1,-1.7261475E-1,-0E0,-0E0,8.839504E-1,-5.906282E-2,1.0976481E0,-1.7887616E-1,3.951366E-1,-0E0,-8.845177E-1,-1.201607E-1,9.508148E-2,4.2522582E-1,-0E0,-0E0,1.2453661E0,-1.1619926E-2,8.042413E-1,-8.257413E-2,-0E0,-9.4310313E-1,-0E0,4.198611E-1,-0E0,2.888686E-1,-0E0,-0E0,-2.940258E-1],"categories":[],"categories_nodes":[],"categories_segments":[],"categories_sizes":[],"default_left":[1,1,0,0,0,0,0,0,0,0,0,0,0,0,0,0,0,0,0,0,0,0,0,0,0,0,0,0,0,0,0,0,0,0,0,0,0,0,0],"id":6,"left_children":[1,3,5,7,9,11,13,-1,15,17,19,-1,-1,21,23,-1,25,-1,27,29,31,-1,-1,-1,-1,-1,33,-1,35,-1,-1,37,-1,-1,-1,-1,-1,-1,-1],"loss_changes":[3.5277762E0,6.3257823E0,2.178961E0,7.6558847E0,2.736845E0,5.723204E-1,2.3718913E0,0E0,4.068754E0,2.5303254E0,8.586893E-1,0E0,0E0,7.3308784E-1,3.7692327E0,0E0,9.367037E-1,0E0,1.5490385E0,1.5495566E-1,5.172882E-1,0E0,0E0,0E0,0E0,0E0,4.0576553E-1,0E0,2.9884338E-2,0E0,0E0,2.3622131E-1,0E0,0E0,0E0,0E0,0E0,0E0,0E0],"parents":[2147483647,0,0,1,1,2,2,3,3,4,4,5,5,6,6,8,8,9,9,10,10,13,13,14,14,16,16,18,18,19,19,20,20,26,26,28,28,31,31],"right_children":[2,4,6,8,10,12,14,-1,16,18,20,-1,-1,22,24,-1,26,-1,28,30,32,-1,-1,-1,-1,-1,34,-1,36,-1,-1,38,-1,-1,-1,-1,-1,-1,-1],"split_conditions":[5.7332E2,7.479668E1,2.28E2,5.174E0,2.089E3,9.2E1,3.05E2,-2.076203E-1,1.1213E2,1.9532E2,7.930159E1,-1.7261475E-1,-0E0,5.3895E1,1.45275955E1,-5.906282E-2,-4.9E1,-1.7887616E-1,1.2E1,1.8179407E1,2.62812E2,-1.201607E-1,9.508148E-2,4.2522582E-1,-0E0,-0E0,2.57328E2,-1.1619926E-2,4E0,-8.257413E-2,-0E0,-1.0766795E2,-0E0,4.198611E-1,-0E0,2.888686E-1,-0E0,-0E0,-2.940258E-1],"split_indices":[51,53,14,3,11,28,9,0,7,46,53,0,0,3,26,0,33,0,44,1,37,0,0,0,0,0,36,0,45,0,0,2,0,0,0,0,0,0,0],"split_type":[0,0,0,0,0,0,0,0,0,0,0,0,0,0,0,0,0,0,0,0,0,0,0,0,0,0,0,0,0,0,0,0,0,0,0,0,0,0,0],"sum_hessian":[5.2969284E1,4.14794E1,1.1489882E1,1.3218069E1,2.8261332E1,2.855764E0,8.634118E0,4.644933E0,8.573136E0,8.0252075E0,2.0236124E1,1.8247846E0,1.0309793E0,3.3753607E0,5.2587576E0,1.8126962E0,6.76044E0,3.8420358E0,4.1831717E0,2.7277977E0,1.7508327E1,2.2200239E0,1.1553367E0,3.3102508E0,1.9485068E0,1.1278509E0,5.632589E0,1.5429857E0,2.6401858E0,1.0453234E0,1.6824744E0,1.5861866E1,1.646461E0,4.458963E0,1.173626E0,1.5716733E0,1.0685127E0,1.0026137E0,1.4859252E1],"tree_param":{"num_deleted":"0","num_feature":"55","num_nodes":"39","size_leaf_vector":"1"}},{"base_weights":[-1.725237E-1,-2.7872026E-1,4.110241E-1,-0E0,-5.308052E-1,6.7924523E-1,-2.8106796E-2,-4.891956E-1,3.6124712E-1,4.1065477E-2,-7.0158535E-1,2.573259E-1,-0E0,-2.2670342E-1,8.410489E-2,-0E0,7.663442E-1,-1.9054772E-1,1.579134E-1,-0E0,-8.2526076E-1,2.9673055E-1,-1.8124254E-1,1.0362377E0,-0E0,-0E0,-9.6360296E-2,-7.16031E-2,7.4321814E-2,-9.3566394E-1,-0E0,-5.823655E-2,2.2062601E-1,-0E0,3.828191E-1,-0E0,-3.0017242E-1],"categories":[],"categories_nodes":[],"categories_segments":[],"categories_sizes":[],"default_left":[0,1,0,1,0,0,0,0,0,0,0,0,0,0,0,0,0,0,0,0,0,0,0,0,0,0,0,0,0,0,0,0,0,0,0,0,0],"id":7,"left_children":[1,3,5,7,9,11,-1,13,15,17,19,-1,-1,-1,-1,21,23,25,-1,27,29,31,-1,33,-1,-1,-1,-1,-1,35,-1,-1,-1,-1,-1,-1,-1],"loss_changes":[3.128621E0,3.4815996E0,1.4708785E0,3.749142E0,2.944086E0,8.037555E-1,0E0,2.3070285E0,2.5219364E0,9.856121E-1,1.5721483E0,0E0,0E0,0E0,0E0,1.6751314E0,1.8044271E0,1.23915315E-1,0E0,3.082525E-1,2.0193586E0,1.5505879E0,0E0,9.0873766E-1,0E0,0E0,0E0,0E0,0E0,3.182869E-1,0E0,0E0,0E0,0E0,0E0,0E0,0E0],"parents":[2147483647,0,0,1,1,2,2,3,3,4,4,5,5,7,7,8,8,9,9,10,10,15,15,16,16,17,17,19,19,20,20,21,21,23,23,29,29],"right_children":[2,4,6,8,10,12,-1,14,16,18,20,-1,-1,-1,-1,22,24,26,-1,28,30,32,-1,34,-1,-1,-1,-1,-1,36,-1,-1,-1,-1,-1,-1,-1],"split_conditions":[5.3895E1,1.5562E2,-3.8821327E1,3.0545E2,-3.725E1,1.8243E2,-2.8106796E-2,1.5983E2,4.45E2,2.2144E2,7.664704E1,2.573259E-1,-0E0,-2.2670342E-1,8.410489E-2,5.093E0,3.68248E2,3.63E2,1.579134E-1,2.0403E2,4.47E2,5.97E2,-1.8124254E-1,2.467E3,-0E0,-0E0,-9.6360296E-2,-7.16031E-2,7.4321814E-2,1.01979E2,-0E0,-5.823655E-2,2.2062601E-1,-0E0,3.828191E-1,-0E0,-3.0017242E-1],"split_indices":[3,48,34,51,6,7,0,8,9,46,53,0,0,0,0,39,38,14,0,47,47,14,0,19,0,0,0,0,0,38,0,0,0,0,0,0,0],"split_type":[0,0,0,0,0,0,0,0,0,0,0,0,0,0,0,0,0,0,0,0,0,0,0,0,0,0,0,0,0,0,0,0,0,0,0,0,0],"sum_hessian":[4.9304256E1,4.328741E1,6.016846E0,1.9719654E1,2.3567757E1,4.713569E0,1.3032769E0,7.406528E0,1.2313127E1,4.5426354E0,1.9025122E1,3.675358E0,1.0382113E0,6.2687078E0,1.1378202E0,6.060592E0,6.252534E0,2.396808E0,2.1458275E0,3.2438788E0,1.5781242E1,3.574602E0,2.4859905E0,4.647033E0,1.6055007E0,1.0002981E0,1.3965096E0,2.0828454E0,1.1610336E0,1.4361302E1,1.4199405E0,1.1098783E0,2.4647236E0,1.3650867E0,3.2819464E0,1.610514E0,1.2750788E1],"tree_param":{"num_deleted":"0","num_feature":"55","num_nodes":"37","size_leaf_vector":"1"}},{"base_weights":[-1.415178E-1,-3.7045124E-1,6.297661E-2,-7.51878E-1,-6.438364E-2,-1.7145526E-1,2.2327651E-1,-0E0,-2.4008876E-1,6.9262326E-1,-3.675752E-1,-2.0114358E-1,4.226405E-1,-0E0,2.6176324E-1,-5.579439E-1,1.822229E-2,-1.6975737E-1,3.0840237E-2,7.120412E-1,-2.3777762E-1,-0E0,-2.5327566E-1,1.0966334E-1,-1.2004202E-2,-0E0,9.539802E-1,-1.6150153E-1,-0E0,-6.157694E-2,4.4553585E-2,-3.885644E-2,5.1819973E-2,3.6524403E-1,4.5032244E-2],"categories":[],"categories_nodes":[],"categories_segments":[],"categories_sizes":[],"default_left":[0,0,0,0,1,0,0,0,0,0,0,0,0,0,0,0,0,0,0,0,0,0,0,0,0,0,0,0,0,0,0,0,0,0,0],"id":8,"left_children":[1,3,5,7,9,-1,11,-1,-1,13,15,17,19,-1,-1,21,23,-1,-1,25,27,29,-1,-1,-1,31,33,-1,-1,-1,-1,-1,-1,-1,-1],"loss_changes":[2.4200118E0,2.0786223E0,2.2339528E0,5.373907E-2,3.5279508E0,0E0,1.9815282E0,0E0,0E0,3.3135188E-1,1.3396972E0,1.0778035E0,3.4894865E0,0E0,0E0,1.4594152E0,3.4366715E-1,0E0,0E0,2.0494204E0,7.509646E-1,1.7018574E-1,0E0,0E0,0E0,1.1060313E-1,6.190262E-1,0E0,0E0,0E0,0E0,0E0,0E0,0E0,0E0],"parents":[2147483647,0,0,1,1,2,2,3,3,4,4,6,6,9,9,10,10,11,11,12,12,15,15,16,16,19,19,20,20,21,21,25,25,26,26],"right_children":[2,4,6,8,10,-1,12,-1,-1,14,16,18,20,-1,-1,22,24,-1,-1,26,28,30,-1,-1,-1,32,34,-1,-1,-1,-1,-1,-1,-1,-1],"split_conditions":[1.14238E2,1.5524E1,2.2864E2,6.1E0,1.6607E2,-1.7145526E-1,-1.5478811E0,-0E0,-2.4008876E-1,2.108E2,1.5472395E2,5.7E1,1.8282E2,-0E0,2.6176324E-1,3.59E2,2.9657E2,-1.6975737E-1,3.0840237E-2,2.506E3,1.3227322E2,-2.946531E0,-2.5327566E-1,1.0966334E-1,-1.2004202E-2,2.82332E2,-2.2433889E-1,-1.6150153E-1,-0E0,-6.157694E-2,4.4553585E-2,-3.885644E-2,5.1819973E-2,3.6524403E-1,4.5032244E-2],"split_indices":[37,3,51,37,48,0,27,0,0,46,50,28,8,0,0,14,48,0,0,19,50,31,0,0,0,38,31,0,0,0,0,0,0,0,0],"split_type":[0,0,0,0,0,0,0,0,0,0,0,0,0,0,0,0,0,0,0,0,0,0,0,0,0,0,0,0,0,0,0,0,0,0,0],"sum_hessian":[4.506444E1,2.268082E1,2.2383621E1,8.312831E0,1.436799E1,3.014423E0,1.9369198E1,1.008857E0,7.303974E0,3.0049016E0,1.1363088E1,4.93554E0,1.4433658E1,1.0461297E0,1.9587718E0,8.665441E0,2.6976476E0,3.019845E0,1.9156954E0,1.08038025E1,3.6298552E0,3.3964725E0,5.268968E0,1.5554411E0,1.1422063E0,2.9760122E0,7.8277907E0,2.4944766E0,1.1353785E0,1.5486286E0,1.847844E0,1.8990976E0,1.0769145E0,4.77613E0,3.0516608E0],"tree_param":{"num_deleted":"0","num_feature":"55","num_nodes":"35","size_leaf_vector":"1"}},{"base_weights":[-1.17081106E-1,-3.876429E-1,1.4456247E-2,-5.5559707E-1,2.2445877E-1,2.8597376E-1,-3.3739722E-1,2.57773E-2,-6.754083E-1,-0E0,1.6826716E-1,4.2528284E-1,-7.63653E-2,-6.954433E-1,5.9079677E-2,-0E0,-7.905266E-1,-1.7023465E-2,5.484798E-1,-0E0,-2.4723989E-1,3.2499486E-1,-3.7656873E-2,-2.5571942E-1,-0E0,-0E0,6.882791E-1,-0E0,1.6199282E-1,2.42547E-1,-0E0],"categories":[],"categories_nodes":[],"categories_segments":[],"categories_sizes":[],"default_left":[1,0,1,0,0,0,0,0,0,0,0,0,0,0,0,0,0,0,0,0,0,0,0,0,0,0,0,0,0,0,0],"id":9,"left_children":[1,3,5,7,9,11,13,-1,15,-1,-1,17,-1,19,21,-1,23,-1,25,-1,-1,27,-1,-1,-1,-1,29,-1,-1,-1,-1],"loss_changes":[1.8095767E0,2.0159788E0,2.6948152E0,1.5753312E0,4.7200912E-1,1.5505358E0,2.1330392E0,0E0,1.2208266E0,0E0,0E0,1.326385E0,0E0,6.792159E-1,4.5273742E-1,0E0,1.1956167E-1,0E0,1.5617275E0,0E0,0E0,4.58717E-1,0E0,0E0,0E0,0E0,1.355494E0,0E0,0E0,0E0,0E0],"parents":[2147483647,0,0,1,1,2,2,3,3,4,4,5,5,6,6,8,8,11,11,13,13,14,14,16,16,18,18,21,21,26,26],"right_children":[2,4,6,8,10,12,14,-1,16,-1,-1,18,-1,20,22,-1,24,-1,26,-1,-1,28,-1,-1,-1,-1,30,-1,-1,-1,-1],"split_conditions":[1.9456E2,8.112846E1,2.28E2,5.406E1,1.5884E2,2.8567E2,5.1403E2,2.57773E-2,-8.840884E0,-0E0,1.6826716E-1,2.475E3,-7.63653E-2,5.1079E1,6.07025E2,-0E0,3.6399E1,-1.7023465E-2,7.156248E1,-0E0,-2.4723989E-1,2.3132959E2,-3.7656873E-2,-2.5571942E-1,-0E0,-0E0,8.031332E1,-0E0,1.6199282E-1,2.42547E-1,-0E0],"split_indices":[46,1,48,7,47,36,51,0,31,0,0,19,0,36,38,0,3,0,50,0,0,49,0,0,0,0,1,0,0,0,0],"split_type":[0,0,0,0,0,0,0,0,0,0,0,0,0,0,0,0,0,0,0,0,0,0,0,0,0,0,0,0,0,0,0],"sum_hessian":[4.1499195E1,1.4880952E1,2.6618242E1,1.2750612E1,2.1303399E0,1.6382908E1,1.0235334E1,1.0252074E0,1.1725405E1,1.1286716E0,1.0016683E0,1.4344151E1,2.038758E0,6.017228E0,4.218106E0,1.4828181E0,1.0242587E1,1.7391524E0,1.2604999E1,1.0203688E0,4.996859E0,3.1503983E0,1.0677078E0,8.834284E0,1.4083031E0,1.6687863E0,1.0936212E1,1.0736885E0,2.0767097E0,9.724316E0,1.2118963E0],"tree_param":{"num_deleted":"0","num_feature":"55","num_nodes":"31","size_leaf_vector":"1"}},{"base_weights":[-1.1391908E-1,-2.731916E-1,9.369578E-2,-4.1710895E-1,-0E0,-1.5994637E-1,3.2158798E-1,-5.5026996E-1,-0E0,-9.595506E-2,2.84428E-1,-3.1022865E-2,5.1635313E-1,-6.7582846E-1,-0E0,-2.9006042E-2,9.132731E-2,1.8397877E-1,-7.570698E-2,5.3932283E-2,-1.2301608E-1,-0E0,7.967162E-1,-0E0,-2.500864E-1,3.4471154E-2,-5.4458704E-2,-9.463894E-2,6.0564097E-2,2.8664032E-1,-0E0,-9.339652E-2,3.7963673E-2],"categories":[],"categories_nodes":[],"categories_segments":[],"categories_sizes":[],"default_left":[0,0,1,0,0,0,0,0,0,0,1,0,0,0,0,0,0,0,0,0,0,0,0,0,0,0,0,0,0,0,0,0,0],"id":10,"left_children":[1,3,5,7,9,-1,11,13,15,-1,17,19,21,23,25,-1,-1,-1,-1,-1,-1,27,29,31,-1,-1,-1,-1,-1,-1,-1,-1,-1],"loss_changes":[1.4873953E0,1.2331895E0,2.2870688E0,1.3472033E0,8.1461287E-1,0E0,1.3048213E0,8.770199E-1,2.8604794E-1,0E0,1.4703054E0,5.915357E-1,1.6479774E0,8.400183E-1,1.1845723E-1,0E0,0E0,0E0,0E0,0E0,0E0,3.6021686E-1,6.00338E-1,2.778439E-1,0E0,0E0,0E0,0E0,0E0,0E0,0E0,0E0,0E0],"parents":[2147483647,0,0,1,1,2,2,3,3,4,4,6,6,7,7,8,8,10,10,11,11,12,12,13,13,14,14,21,21,22,22,23,23],"right_children":[2,4,6,8,10,-1,12,14,16,-1,18,20,22,24,26,-1,-1,-1,-1,-1,-1,28,30,32,-1,-1,-1,-1,-1,-1,-1,-1,-1],"split_conditions":[2.0912E1,6.25E1,2.4295E2,5.102E1,-7.2E-2,-1.5994637E-1,1E1,1.738E3,4.5791E2,-9.595506E-2,2.176503E2,1.3115375E2,7.1334E0,7.664704E1,2.1959E2,-2.9006042E-2,9.132731E-2,1.8397877E-1,-7.570698E-2,5.3932283E-2,-1.2301608E-1,7.9E1,6.15E2,3.5113E1,-2.500864E-1,3.4471154E-2,-5.4458704E-2,-9.463894E-2,6.0564097E-2,2.8664032E-1,-0E0,-9.339652E-2,3.7963673E-2],"split_indices":[42,0,51,3,4,0,44,22,51,0,52,52,1,53,48,0,0,0,0,0,0,16,14,3,0,0,0,0,0,0,0,0,0],"split_type":[0,0,0,0,0,0,0,0,0,0,0,0,0,0,0,0,0,0,0,0,0,0,0,0,0,0,0,0,0,0,0,0,0],"sum_hessian":[3.896713E1,2.4000845E1,1.4966284E1,1.6812944E1,7.1879015E0,2.7194242E0,1.224686E1,1.3684086E1,3.1288588E0,2.3318748E0,4.8560266E0,3.2299085E0,9.016952E0,1.0654923E1,3.0291624E0,1.2713826E0,1.8574761E0,3.8252294E0,1.0307971E0,1.0892357E0,2.140673E0,3.2132385E0,5.8037124E0,2.7858493E0,7.869074E0,1.3933126E0,1.63585E0,1.5143728E0,1.6988658E0,4.3882575E0,1.415455E0,1.4868457E0,1.2990036E0],"tree_param":{"num_deleted":"0","num_feature":"55","num_nodes":"33","size_leaf_vector":"1"}},{"base_weights":[-1.02278575E-1,-3.0768955E-1,3.9846536E-2,1.9677235E-1,-5.8845717E-1,4.988728E-1,-1.2703009E-1,-8.0080785E-2,6.941743E-1,-7.399679E-1,-0E0,2.2862914E-1,-0E0,-4.1354805E-1,6.346959E-2,2.7872643E-1,-0E0,-2.5167885E-1,-0E0,6.643863E-2,-5.8038654E-3,-3.8899453E-3,3.315862E-2,2.5244389E-2,-2.1543096E-1,-7.389614E-2,3.4446168E-1,-4.822081E-3,1.8348014E-1],"categories":[],"categories_nodes":[],"categories_segments":[],"categories_sizes":[],"default_left":[0,0,1,0,0,0,0,0,0,0,0,0,0,0,0,0,0,0,0,0,0,0,0,0,0,0,0,0,0],"id":11,"left_children":[1,3,5,7,9,11,13,-1,15,17,19,-1,21,23,25,-1,-1,-1,-1,-1,-1,-1,-1,-1,-1,-1,27,-1,-1],"loss_changes":[1.3139422E0,2.923801E0,1.9437194E0,1.9193232E0,1.4232435E0,7.4213004E-1,1.1059108E0,0E0,6.4341795E-1,8.32397E-1,9.930956E-2,0E0,2.9168176E-2,1.7180572E0,8.667607E-1,0E0,0E0,0E0,0E0,0E0,0E0,0E0,0E0,0E0,0E0,0E0,1.0516188E0,0E0,0E0],"parents":[2147483647,0,0,1,1,2,2,3,3,4,4,5,5,6,6,8,8,9,9,10,10,12,12,13,13,14,14,26,26],"right_children":[2,4,6,8,10,12,14,-1,16,18,20,-1,22,24,26,-1,-1,-1,-1,-1,-1,-1,-1,-1,-1,-1,28,-1,-1],"split_conditions":[1.9818E1,3.25E1,7.969972E1,4.7E1,2.498E3,2.275E1,4.6742E2,-8.0080785E-2,3.69E-1,6.83E1,2.78641E2,2.2862914E-1,2.108E2,6.5E2,3.9489E1,2.7872643E-1,-0E0,-2.5167885E-1,-0E0,6.643863E-2,-5.8038654E-3,-3.8899453E-3,3.315862E-2,2.5244389E-2,-2.1543096E-1,-7.389614E-2,2.4467E2,-4.822081E-3,1.8348014E-1],"split_indices":[3,0,53,28,16,5,51,0,3,0,36,0,46,24,3,0,0,0,0,0,0,0,0,0,0,0,46,0,0],"split_type":[0,0,0,0,0,0,0,0,0,0,0,0,0,0,0,0,0,0,0,0,0,0,0,0,0,0,0,0,0],"sum_hessian":[3.6421608E1,1.6665579E1,1.975603E1,5.0712824E0,1.1594296E1,5.984719E0,1.3771311E1,2.051692E0,3.0195904E0,9.564137E0,2.0301592E0,3.2707977E0,2.7139208E0,6.6693783E0,7.1019325E0,1.989291E0,1.0302994E0,8.401523E0,1.1626151E0,1.009427E0,1.0207323E0,1.3587979E0,1.355123E0,1.8330556E0,4.836323E0,2.1145341E0,4.987398E0,1.278312E0,3.7090862E0],"tree_param":{"num_deleted":"0","num_feature":"55","num_nodes":"29","size_leaf_vector":"1"}},{"base_weights":[-8.051529E-2,8.539761E-2,-2.329987E-1,-1.0324428E-1,2.3312314E-1,-4.2694324E-1,-0E0,-2.38464E-2,3.9667922E-1,-6.522855E-1,5.854321E-2,-3.01872E-1,1.8419628E-1,-1.331277E-1,5.0852086E-2,-0E0,5.593918E-1,-0E0,-7.5519353E-1,-1.3039628E-1,-0E0,3.9363214E-1,-1.8764641E-2,6.7670864E-1,-0E0,-2.5026312E-1,-0E0,6.107325E-1,-0E0,2.3153211E-1,-0E0,-0E0,2.2528943E-1],"categories":[],"categories_nodes":[],"categories_segments":[],"categories_sizes":[],"default_left":[0,1,0,0,0,0,0,0,0,0,0,0,0,0,0,0,0,0,0,0,0,0,0,0,0,0,0,0,0,0,0,0,0],"id":12,"left_children":[1,3,5,-1,7,9,11,13,15,17,-1,19,21,-1,-1,-1,23,-1,25,-1,-1,27,-1,29,-1,-1,-1,31,-1,-1,-1,-1,-1],"loss_changes":[1.0093843E0,9.343941E-1,8.9470124E-1,0E0,8.46283E-1,2.037779E0,6.591145E-1,6.251659E-1,1.0127213E0,7.5915146E-1,0E0,2.4047923E-1,6.465242E-1,0E0,0E0,0E0,7.095847E-1,0E0,3.470087E-2,0E0,0E0,6.966202E-1,0E0,3.8797355E-1,0E0,0E0,0E0,2.2231412E-1,0E0,0E0,0E0,0E0,0E0],"parents":[2147483647,0,0,1,1,2,2,4,4,5,5,6,6,7,7,8,8,9,9,11,11,12,12,16,16,18,18,21,21,23,23,27,27],"right_children":[2,4,6,-1,8,10,12,14,16,18,-1,20,22,-1,-1,-1,24,-1,26,-1,-1,28,-1,30,-1,-1,-1,32,-1,-1,-1,-1,-1],"split_conditions":[2.137E3,2.4295E2,1.7196085E1,-1.0324428E-1,3.15E2,3.3801E2,5.86E2,3.9489E1,2.224E3,-5.0930836E1,5.854321E-2,4.34E3,2.143E3,-1.331277E-1,5.0852086E-2,-0E0,3.215E3,-0E0,2.9265E2,-1.3039628E-1,-0E0,6.44E2,-1.8764641E-2,3.875E1,-0E0,-2.5026312E-1,-0E0,3.0545E2,-0E0,2.3153211E-1,-0E0,-0E0,2.2528943E-1],"split_indices":[11,51,1,0,9,46,12,3,19,27,0,19,12,0,0,0,19,0,46,0,0,14,0,5,0,0,0,51,0,0,0,0,0],"split_type":[0,0,0,0,0,0,0,0,0,0,0,0,0,0,0,0,0,0,0,0,0,0,0,0,0,0,0,0,0,0,0,0,0],"sum_hessian":[3.3555008E1,1.3827542E1,1.9727465E1,1.845286E0,1.1982256E1,1.0081612E1,9.645853E0,3.135245E0,8.847011E0,8.286794E0,1.7948184E0,3.6153517E0,6.0305014E0,1.8537374E0,1.2815078E0,1.6589804E0,7.1880307E0,1.0274221E0,7.2593713E0,2.499079E0,1.1162727E0,4.6519675E0,1.3785337E0,6.144638E0,1.0433927E0,5.818676E0,1.440695E0,3.215539E0,1.4364287E0,5.1442866E0,1.0003513E0,1.0331793E0,2.1823597E0],"tree_param":{"num_deleted":"0","num_feature":"55","num_nodes":"33","size_leaf_vector":"1"}},{"base_weights":[-7.822162E-2,-2.081206E-1,9.4456956E-2,-5.297281E-1,-0E0,-6.55755E-2,3.8863918E-1,-0E0,-2.172731E-1,3.6295265E-1,-2.838268E-1,-3.363213E-1,1.0722251E-1,-3.529187E-3,6.208647E-1,-9.483235E-2,3.2893073E-2,5.238898E-1,-0E0,-4.909566E-1,-0E0,-0E0,-1.4905852E-1,1.17046244E-1,-0E0,-0E0,2.2396462E-1,-0E0,2.3122199E-1,-1.789256E-1,-0E0,5.624269E-2,-0E0],"categories":[],"categories_nodes":[],"categories_segments":[],"categories_sizes":[],"default_left":[0,0,0,0,1,0,0,1,0,0,0,0,0,0,0,0,0,0,0,0,0,0,0,0,0,0,0,0,0,0,0,0,0],"id":13,"left_children":[1,3,5,7,9,11,13,15,-1,17,19,21,23,-1,25,-1,-1,27,-1,29,31,-1,-1,-1,-1,-1,-1,-1,-1,-1,-1,-1,-1],"loss_changes":[8.458641E-1,1.5487621E0,8.5313034E-1,5.2464867E-1,1.5387988E0,5.4486835E-1,1.0566924E0,2.8822735E-1,0E0,6.44112E-1,7.231131E-1,3.8629872E-1,3.0106708E-1,0E0,3.2757366E-1,0E0,0E0,1.0417999E0,0E0,2.8258753E-1,7.237905E-2,0E0,0E0,0E0,0E0,0E0,0E0,0E0,0E0,0E0,0E0,0E0,0E0],"parents":[2147483647,0,0,1,1,2,2,3,3,4,4,5,5,6,6,7,7,9,9,10,10,11,11,12,12,14,14,17,17,19,19,20,20],"right_children":[2,4,6,8,10,12,14,16,-1,18,20,22,24,-1,26,-1,-1,28,-1,30,32,-1,-1,-1,-1,-1,-1,-1,-1,-1,-1,-1,-1],"split_conditions":[6.3E1,1.5524E1,-1.6810394E2,9E0,9.4034225E1,5.9754074E1,8.306644E1,1.9456E2,-2.172731E-1,1.5267E2,3.1834E2,1.06E2,-4.134923E2,-3.529187E-3,1.12457E2,-9.483235E-2,3.2893073E-2,1.1735792E2,-0E0,1.15471245E2,1.982759E2,-0E0,-1.4905852E-1,1.17046244E-1,-0E0,-0E0,2.2396462E-1,-0E0,2.3122199E-1,-1.789256E-1,-0E0,5.624269E-2,-0E0],"split_indices":[28,3,34,44,53,1,50,46,0,7,46,14,34,0,37,0,0,49,0,34,52,0,0,0,0,0,0,0,0,0,0,0,0],"split_type":[0,0,0,0,0,0,0,0,0,0,0,0,0,0,0,0,0,0,0,0,0,0,0,0,0,0,0,0,0,0,0,0,0],"sum_hessian":[3.187587E1,2.0655422E1,1.1220447E1,7.8618803E0,1.2793541E1,6.0509567E0,5.1694903E0,3.120733E0,4.7411475E0,5.78168E0,7.0118613E0,3.7495723E0,2.3013844E0,1.0115249E0,4.157965E0,1.5786244E0,1.5421085E0,4.601877E0,1.1798029E0,4.6776423E0,2.3342192E0,1.0086298E0,2.7409425E0,1.227181E0,1.0742035E0,1.00278E0,3.1551855E0,1.2599236E0,3.3419535E0,3.6416824E0,1.03596E0,1.0593172E0,1.2749019E0],"tree_param":{"num_deleted":"0","num_feature":"55","num_nodes":"33","size_leaf_vector":"1"}},{"base_weights":[-7.0967615E-2,-1.5148872E-1,2.178146E-1,-2.8719124E-1,1.0030287E-1,-0E0,1.348944E-1,-0E0,-5.4507494E-1,1.6772832E-1,-0E0,-4.8590023E-3,-0E0,-9.601939E-2,2.0397481E-1,-6.1714566E-1,-0E0,1.4977612E-1,-2.985268E-1,4.6670797E-1,-0E0,-0E0,-6.9340336E-1,9.517313E-2,-0E0,-0E0,-1.445877E-1,-0E0,1.7142132E-1,-5.5013344E-2,-0E0,-0E0,-2.302261E-1],"categories":[],"categories_nodes":[],"categories_segments":[],"categories_sizes":[],"default_left":[0,0,0,1,0,0,0,0,0,0,0,0,0,0,0,0,0,0,0,0,0,0,0,0,0,0,0,0,0,0,0,0,0],"id":14,"left_children":[1,3,5,7,9,11,-1,13,15,-1,17,-1,-1,-1,19,21,-1,23,25,27,29,-1,31,-1,-1,-1,-1,-1,-1,-1,-1,-1,-1],"loss_changes":[7.0221347E-1,1.0956689E0,3.2046056E-1,1.8432627E0,7.6631755E-1,5.833831E-4,0E0,5.7828206E-1,5.0376344E-1,0E0,4.3702415E-1,0E0,0E0,0E0,6.4781594E-1,5.580416E-1,0E0,1.6112061E-1,3.3996037E-1,1.436677E-1,7.030135E-2,0E0,4.1418123E-1,0E0,0E0,0E0,0E0,0E0,0E0,0E0,0E0,0E0,0E0],"parents":[2147483647,0,0,1,1,2,2,3,3,4,4,5,5,7,7,8,8,10,10,14,14,15,15,17,17,18,18,19,19,20,20,22,22],"right_children":[2,4,6,8,10,12,-1,14,16,-1,18,-1,-1,-1,20,22,-1,24,26,28,30,-1,32,-1,-1,-1,-1,-1,-1,-1,-1,-1,-1],"split_conditions":[5.3895E1,1.8E3,6.03E-1,7.664704E1,5.9E-2,5.2706E2,1.348944E-1,5.174E0,6.25E1,1.6772832E-1,-1.725E1,-4.8590023E-3,-0E0,-9.601939E-2,1.5E1,9.2E0,-0E0,4.4E2,1.429E3,2.9588E2,1.9356E1,-0E0,1.27E1,9.517313E-2,-0E0,-0E0,-1.445877E-1,-0E0,1.7142132E-1,-5.5013344E-2,-0E0,-0E0,-2.302261E-1],"split_indices":[3,22,42,53,39,51,0,3,0,0,6,0,0,0,44,36,0,14,11,51,3,0,37,0,0,0,0,0,0,0,0,0,0],"split_type":[0,0,0,0,0,0,0,0,0,0,0,0,0,0,0,0,0,0,0,0,0,0,0,0,0,0,0,0,0,0,0,0,0],"sum_hessian":[3.0007504E1,2.5951448E1,4.056055E0,1.8787346E1,7.1641016E0,2.2846298E0,1.7714255E0,8.090203E0,1.0697144E1,1.7143008E0,5.449801E0,1.223833E0,1.0607969E0,1.604919E0,6.485284E0,9.447334E0,1.2498096E0,2.402382E0,3.047419E0,3.4039247E0,3.0813591E0,1.0109215E0,8.436413E0,1.3592743E0,1.0431075E0,1.0310345E0,2.0163844E0,1.0259638E0,2.377961E0,1.0905961E0,1.9907631E0,1.0292121E0,7.407201E0],"tree_param":{"num_deleted":"0","num_feature":"55","num_nodes":"33","size_leaf_vector":"1"}},{"base_weights":[-4.159422E-2,-0E0,-1.2467312E-1,-1.865456E-1,1.2226219E-1,-3.5477567E-1,1.9901235E-2,3.0334854E-1,-1.5256213E-1,-1.6122645E-1,-0E0,-0E0,3.1175127E-2,4.4288E-1,-7.6210704E-3,-0E0,-3.2587352E-1,-0E0,7.196454E-1,-0E0,-2.4755316E-2,-0E0,-1.5114772E-1,-4.7563974E-2,6.108477E-2,-0E0,2.4881992E-1],"categories":[],"categories_nodes":[],"categories_segments":[],"categories_sizes":[],"default_left":[0,1,0,0,1,0,0,0,0,0,0,0,0,0,0,0,0,0,0,0,0,0,0,0,0,0,0],"id":15,"left_children":[1,3,-1,5,7,9,11,13,15,-1,-1,-1,-1,17,19,-1,21,23,25,-1,-1,-1,-1,-1,-1,-1,-1],"loss_changes":[6.366241E-1,5.9019375E-1,0E0,5.918075E-1,1.0508289E0,6.349578E-1,2.0490753E-2,8.982363E-1,3.7044144E-1,0E0,0E0,0E0,0E0,1.2107902E0,1.46095E-2,0E0,4.1959465E-1,2.0662972E-1,3.5248303E-1,0E0,0E0,0E0,0E0,0E0,0E0,0E0,0E0],"parents":[2147483647,0,0,1,1,3,3,4,4,5,5,6,6,7,7,8,8,13,13,14,14,16,16,17,17,18,18],"right_children":[2,4,-1,6,8,10,12,14,16,-1,-1,-1,-1,18,20,-1,22,24,26,-1,-1,-1,-1,-1,-1,-1,-1],"split_conditions":[2.8567E2,1.5557959E2,-1.2467312E-1,2.526E3,2.3572E2,2.4725E2,2.0588E2,5.2603955E0,-2.625E1,-1.6122645E-1,-0E0,-0E0,3.1175127E-2,3.32E2,1.1557E2,-0E0,-1.04039135E1,3.6399E1,7.19E2,-0E0,-2.4755316E-2,-0E0,-1.5114772E-1,-4.7563974E-2,6.108477E-2,-0E0,2.4881992E-1],"split_indices":[36,49,0,17,48,48,46,30,6,0,0,0,0,14,36,0,31,3,12,0,0,0,0,0,0,0,0],"split_type":[0,0,0,0,0,0,0,0,0,0,0,0,0,0,0,0,0,0,0,0,0,0,0,0,0,0,0],"sum_hessian":[2.8102348E1,2.5124605E1,2.9777443E0,8.30593E0,1.6818674E1,6.2652206E0,2.0407097E0,1.17889E1,5.0297737E0,4.364555E0,1.9006659E0,1.0316778E0,1.0090319E0,9.578465E0,2.2104354E0,1.2198238E0,3.8099496E0,4.234102E0,5.3443637E0,1.0374895E0,1.172946E0,1.1447315E0,2.665218E0,2.175545E0,2.0585568E0,1.0555986E0,4.288765E0],"tree_param":{"num_deleted":"0","num_feature":"55","num_nodes":"27","size_leaf_vector":"1"}},{"base_weights":[-3.2098867E-2,-2.23096E-1,7.502806E-2,-4.968449E-1,-0E0,3.2886246E-1,-5.449949E-2,-0E0,-1.902729E-1,-1.6222352E-1,3.571178E-1,-0E0,5.660536E-1,-2.765816E-1,3.8849514E-2,-1.1648336E-1,-0E0,-0E0,1.5205255E-1,2.1385993E-1,-0E0,-0E0,-1.3510127E-1,6.366863E-2,-0E0],"categories":[],"categories_nodes":[],"categories_segments":[],"categories_sizes":[],"default_left":[0,0,0,0,0,0,0,0,0,0,0,0,0,1,1,0,0,0,0,0,0,0,0,0,0],"id":16,"left_children":[1,3,5,7,9,11,13,-1,-1,15,17,-1,19,21,23,-1,-1,-1,-1,-1,-1,-1,-1,-1,-1],"loss_changes":[7.056215E-1,1.1547339E0,7.6081204E-1,4.867953E-1,5.863078E-1,6.1415803E-1,3.9265868E-1,0E0,0E0,3.2476366E-1,1.9141927E-1,0E0,2.385726E-1,3.6912274E-1,1.414493E-1,0E0,0E0,0E0,0E0,0E0,0E0,0E0,0E0,0E0,0E0],"parents":[2147483647,0,0,1,1,2,2,3,3,4,4,5,5,6,6,9,9,10,10,12,12,13,13,14,14],"right_children":[2,4,6,8,10,12,14,-1,-1,16,18,-1,20,22,24,-1,-1,-1,-1,-1,-1,-1,-1,-1,-1],"split_conditions":[1.9818E1,5E1,2.417E3,-2.33615E0,9.1572E2,-3.6558657E0,2.7975E2,-0E0,-1.902729E-1,5.1752365E1,1.735E3,-0E0,5.28E2,7.930159E1,1.982759E2,-1.1648336E-1,-0E0,-0E0,1.5205255E-1,2.1385993E-1,-0E0,-0E0,-1.3510127E-1,6.366863E-2,-0E0],"split_indices":[3,28,11,31,54,31,46,0,0,1,12,0,9,53,52,0,0,0,0,0,0,0,0,0,0],"split_type":[0,0,0,0,0,0,0,0,0,0,0,0,0,0,0,0,0,0,0,0,0,0,0,0,0],"sum_hessian":[2.7016197E1,1.1938729E1,1.5077467E1,6.286541E0,5.652189E0,6.6116157E0,8.465851E0,1.6049169E0,4.681624E0,2.8491657E0,2.803023E0,3.1257129E0,3.485903E0,4.4005666E0,4.0652847E0,1.826088E0,1.0230778E0,1.1698562E0,1.6331668E0,2.2979174E0,1.1879857E0,1.5433834E0,2.857183E0,2.3101866E0,1.7550981E0],"tree_param":{"num_deleted":"0","num_feature":"55","num_nodes":"25","size_leaf_vector":"1"}},{"base_weights":[-1.4295176E-2,-1.7601441E-1,6.0371846E-2,-0E0,-4.3545735E-1,2.3726487E-1,-1.0016605E-1,-7.4341826E-2,2.300401E-1,-1.7226437E-1,-0E0,-0E0,3.8351834E-1,-0E0,-2.5252056E-1,-0E0,1.4037621E-1,-0E0,-5.4276004E-3,1.9162759E-1,-0E0,-4.1764733E-1,-0E0,5.1843513E-2,-9.521021E-3,-1.4614367E-1,-0E0],"categories":[],"categories_nodes":[],"categories_segments":[],"categories_sizes":[],"default_left":[0,0,1,0,0,0,0,0,0,0,0,0,0,0,0,0,0,0,0,0,0,0,0,0,0,0,0],"id":17,"left_children":[1,3,5,7,9,11,13,-1,15,-1,-1,17,19,-1,21,-1,-1,-1,-1,-1,23,25,-1,-1,-1,-1,-1],"loss_changes":[4.234943E-1,8.285158E-1,5.7711804E-1,4.2563802E-1,4.1484058E-1,6.197356E-1,2.905479E-1,0E0,4.4867778E-1,0E0,0E0,6.5790507E-4,4.041916E-1,0E0,4.330539E-1,0E0,0E0,0E0,0E0,0E0,1.1915377E-1,1.6305327E-2,0E0,0E0,0E0,0E0,0E0],"parents":[2147483647,0,0,1,1,2,2,3,3,4,4,5,5,6,6,8,8,11,11,12,12,14,14,20,20,21,21],"right_children":[2,4,6,8,10,12,14,-1,16,-1,-1,18,20,-1,22,-1,-1,-1,-1,-1,24,26,-1,-1,-1,-1,-1],"split_conditions":[1.9818E1,5.093E0,2.3572E2,9.1572E2,5.751855E1,1.6102E2,-4.6E1,-7.4341826E-2,4.7E1,-1.7226437E-1,-0E0,9.53E1,2.403E3,-0E0,5.8215E1,-0E0,1.4037621E-1,-0E0,-5.4276004E-3,1.9162759E-1,3.65E2,3.12E2,-0E0,5.1843513E-2,-9.521021E-3,-1.4614367E-1,-0E0],"split_indices":[3,39,48,54,1,47,6,0,28,0,0,36,11,0,3,0,0,0,0,0,9,9,0,0,0,0,0],"split_type":[0,0,0,0,0,0,0,0,0,0,0,0,0,0,0,0,0,0,0,0,0,0,0,0,0,0,0],"sum_hessian":[2.5711819E1,1.0996861E1,1.4714957E1,5.667509E0,5.329353E0,9.088114E0,5.626843E0,1.342369E0,4.3251405E0,3.8981583E0,1.4311943E0,2.0136561E0,7.074458E0,1.0277301E0,4.599113E0,1.9888687E0,2.3362715E0,1.0036839E0,1.0099721E0,2.9014337E0,4.173024E0,3.5295749E0,1.0695382E0,2.9136944E0,1.25933E0,2.3980575E0,1.1315173E0],"tree_param":{"num_deleted":"0","num_feature":"55","num_nodes":"27","size_leaf_vector":"1"}},{"base_weights":[-1.2984331E-2,-9.895498E-2,1.841963E-1,-0E0,-2.907761E-1,1.1089355E-1,-0E0,1.70704E-1,-2.2181885E-1,-4.7800463E-1,3.9539157E-4,4.2889127E-1,-0E0,-1.3851787E-1,-0E0,-0E0,-1.8708566E-1,5.752223E-1,-0E0,-1.14482164E-1,4.8364982E-2,-0E0,2.2312711E-1],"categories":[],"categories_nodes":[],"categories_segments":[],"categories_sizes":[],"default_left":[0,1,0,0,0,0,0,0,0,0,0,0,0,0,0,0,0,1,0,0,0,0,0],"id":18,"left_children":[1,3,5,7,9,-1,-1,11,13,15,-1,17,19,-1,-1,-1,-1,21,-1,-1,-1,-1,-1],"loss_changes":[3.8631582E-1,5.5452526E-1,3.2946336E-1,5.12819E-1,8.662935E-1,0E0,0E0,7.235881E-1,4.596733E-1,4.6664584E-1,0E0,4.3839115E-1,5.2582526E-1,0E0,0E0,0E0,0E0,3.90903E-1,0E0,0E0,0E0,0E0,0E0],"parents":[2147483647,0,0,1,1,2,2,3,3,4,4,7,7,8,8,9,9,11,11,12,12,17,17],"right_children":[2,4,6,8,10,-1,-1,12,14,16,-1,18,20,-1,-1,-1,-1,22,-1,-1,-1,-1,-1],"split_conditions":[5.102E1,1.7426E2,-7.893653E1,1.87E2,4.365E3,1.1089355E-1,-0E0,1.2212656E0,2.526E3,7.664704E1,3.9539157E-4,2.5213E2,1.34181E2,-1.3851787E-1,-0E0,-0E0,-1.8708566E-1,1.5557959E2,-0E0,-1.14482164E-1,4.8364982E-2,-0E0,2.2312711E-1],"split_indices":[3,48,34,17,19,0,0,30,17,53,0,46,37,0,0,0,0,49,0,0,0,0,0],"split_type":[0,0,0,0,0,0,0,0,0,0,0,0,0,0,0,0,0,0,0,0,0,0,0],"sum_hessian":[2.464129E1,2.0264929E1,4.3763633E0,1.2243678E1,8.02125E0,2.7462184E0,1.6301447E0,8.371198E0,3.8724804E0,6.129647E0,1.8916029E0,4.4181895E0,3.9530087E0,2.2807043E0,1.5917761E0,1.7408966E0,4.38875E0,3.337076E0,1.0811135E0,2.1019952E0,1.8510135E0,1.036205E0,2.300871E0],"tree_param":{"num_deleted":"0","num_feature":"55","num_nodes":"23","size_leaf_vector":"1"}},{"base_weights":[-0E0,-1.7586331E-1,4.5047548E-2,-1.2838444E-1,-0E0,2.4589948E-1,-8.3699666E-2,-3.5673972E-2,2.3189563E-1,-0E0,3.607996E-1,-0E0,-2.3493733E-1,9.976429E-2,-0E0,-0E0,4.916333E-1,-0E0,2.6893744E-2,-0E0,-1.2676531E-1,5.759444E-1,-0E0,2.1091305E-1,-0E0],"categories":[],"categories_nodes":[],"categories_segments":[],"categories_sizes":[],"default_left":[1,0,0,0,0,1,0,0,0,0,0,0,0,0,0,0,0,0,0,0,0,0,0,0,0],"id":19,"left_children":[1,3,5,-1,7,9,11,-1,13,-1,15,17,19,-1,-1,-1,21,-1,-1,-1,-1,23,-1,-1,-1],"loss_changes":[2.9603097E-1,5.3229976E-1,5.8693486E-1,0E0,2.1036424E-1,4.6508205E-1,2.7144462E-1,0E0,6.423266E-2,0E0,6.297953E-1,2.0428894E-2,3.5643318E-1,0E0,0E0,0E0,1.6985595E-1,0E0,0E0,0E0,0E0,1.9014871E-1,0E0,0E0,0E0],"parents":[2147483647,0,0,1,1,2,2,4,4,5,5,6,6,8,8,10,10,11,11,12,12,16,16,21,21],"right_children":[2,4,6,-1,8,10,12,-1,14,-1,16,18,20,-1,-1,-1,22,-1,-1,-1,-1,24,-1,-1,-1],"split_conditions":[1.9456E2,6.43E2,2.736E3,-1.2838444E-1,1.1353111E1,1.4E2,3.46E1,-3.5673972E-2,7.36489E1,-0E0,7.156248E1,1.9356E1,2E0,9.976429E-2,-0E0,-0E0,5.28E2,-0E0,2.6893744E-2,-0E0,-1.2676531E-1,5.6E1,-0E0,2.1091305E-1,-0E0],"split_indices":[46,9,11,0,26,47,37,0,50,0,50,3,45,0,0,0,9,0,0,0,0,0,0,0,0],"split_type":[0,0,0,0,0,0,0,0,0,0,0,0,0,0,0,0,0,0,0,0,0,0,0,0,0],"sum_hessian":[2.3458576E1,7.4560566E0,1.6002522E1,3.3345509E0,4.1215053E0,8.265061E0,7.7374597E0,1.9979217E0,2.1235838E0,1.3887583E0,6.8763027E0,2.7105958E0,5.026864E0,1.0997342E0,1.0238495E0,1.0286356E0,5.847667E0,1.1685414E0,1.5420543E0,2.1674879E0,2.8593762E0,4.50164E0,1.3460275E0,3.076938E0,1.4247017E0],"tree_param":{"num_deleted":"0","num_feature":"55","num_nodes":"25","size_leaf_vector":"1"}},{"base_weights":[-0E0,-1.3302365E-1,5.2424278E-2,-3.4459278E-1,-0E0,-4.640665E-3,2.240457E-1,-0E0,-1.6050632E-1,2.1786372E-1,-4.411973E-2,4.4043995E-2,-2.3178282E-1,-4.113067E-6,4.3214756E-1,1.1579656E-1,-0E0,-0E0,8.615261E-2,-0E0,-9.818455E-2,-0E0,1.6533592E-1],"categories":[],"categories_nodes":[],"categories_segments":[],"categories_sizes":[],"default_left":[0,0,0,0,0,0,0,0,0,0,0,0,0,0,0,0,0,0,0,0,0,0,0],"id":20,"left_children":[1,3,5,7,9,11,13,-1,-1,15,-1,17,19,-1,21,-1,-1,-1,-1,-1,-1,-1,-1],"loss_changes":[2.2773685E-1,5.00117E-1,3.1033882E-1,3.7191552E-1,2.6138157E-1,2.4679062E-1,6.615802E-1,0E0,0E0,2.915002E-1,0E0,2.1844329E-1,1.2625329E-1,0E0,3.1278777E-1,0E0,0E0,0E0,0E0,0E0,0E0,0E0,0E0],"parents":[2147483647,0,0,1,1,2,2,3,3,4,4,5,5,6,6,9,9,11,11,12,12,14,14],"right_children":[2,4,6,8,10,12,14,-1,-1,16,-1,18,20,-1,22,-1,-1,-1,-1,-1,-1,-1,-1],"split_conditions":[1.9818E1,5E1,-3.6558657E0,-8.346822E-1,-7.82E-1,-9.743089E0,1.2E1,-0E0,-1.6050632E-1,2.4203E2,-4.411973E-2,4.6742E2,3.44E2,-4.113067E-6,2.0213E2,1.1579656E-1,-0E0,-0E0,8.615261E-2,-0E0,-9.818455E-2,-0E0,1.6533592E-1],"split_indices":[3,28,31,31,4,31,44,0,0,46,0,51,51,0,46,0,0,0,0,0,0,0,0],"split_type":[0,0,0,0,0,0,0,0,0,0,0,0,0,0,0,0,0,0,0,0,0,0,0],"sum_hessian":[2.2766895E1,9.682413E0,1.3084483E1,4.803613E0,4.8787994E0,7.1343513E0,5.9501314E0,2.0968184E0,2.706795E0,3.358392E0,1.5204078E0,3.707329E0,3.4270225E0,1.5394535E0,4.410678E0,2.345051E0,1.0133407E0,1.9478315E0,1.7594974E0,1.0279377E0,2.3990848E0,1.0540879E0,3.35659E0],"tree_param":{"num_deleted":"0","num_feature":"55","num_nodes":"23","size_leaf_vector":"1"}},{"base_weights":[-7.331415E-3,-1.3924286E-1,3.140231E-2,2.4669915E-2,-2.9721168E-1,-9.2468455E-2,1.5125546E-1,-3.9204204E-1,-0E0,-9.3077525E-2,-0E0,2.6296806E-1,-0E0,-0E0,-1.4576228E-1,4.55039E-1,-0E0,-0E0,1.7347333E-1,4.4424407E-2,-1.1499333E-1,-7.524105E-2,-0E0],"categories":[],"categories_nodes":[],"categories_segments":[],"categories_sizes":[],"default_left":[0,0,0,0,0,1,0,0,0,0,0,0,0,0,0,0,0,0,0,0,0,0,0],"id":21,"left_children":[1,3,5,-1,7,9,11,13,-1,-1,-1,15,-1,-1,-1,17,19,-1,-1,-1,21,-1,-1],"loss_changes":[2.0627847E-1,5.418162E-1,2.6838768E-1,0E0,3.2546717E-1,2.4383265E-1,3.80049E-1,2.2941852E-1,0E0,0E0,0E0,4.8139912E-1,0E0,0E0,0E0,3.191105E-1,9.52322E-2,0E0,0E0,0E0,1.0607506E-1,0E0,0E0],"parents":[2147483647,0,0,1,1,2,2,4,4,5,5,6,6,7,7,11,11,15,15,16,16,20,20],"right_children":[2,4,6,-1,8,10,12,14,-1,-1,-1,16,-1,-1,-1,18,20,-1,-1,-1,22,-1,-1],"split_conditions":[1.014E2,-2.2654236E1,-1.5478811E0,2.4669915E-2,5.3895E1,1.1773671E2,1.8282E2,3.03E-1,-0E0,-9.3077525E-2,-0E0,-2.2433889E-1,-0E0,-0E0,-1.4576228E-1,9.5E1,2.62E-1,-0E0,1.7347333E-1,4.4424407E-2,1.8672E1,-7.524105E-2,-0E0],"split_indices":[37,27,27,0,3,53,8,42,0,0,0,31,0,0,0,14,3,0,0,0,3,0,0],"split_type":[0,0,0,0,0,0,0,0,0,0,0,0,0,0,0,0,0,0,0,0,0,0,0],"sum_hessian":[2.2031818E1,8.988796E0,1.3043023E1,1.8834252E0,7.105371E0,3.3218021E0,9.721221E0,5.7760177E0,1.3293533E0,1.916944E0,1.4048581E0,8.042825E0,1.6783959E0,1.392651E0,4.3833666E0,4.3449616E0,3.697863E0,1.0806568E0,3.264305E0,1.2846154E0,2.4132478E0,1.4038836E0,1.0093641E0],"tree_param":{"num_deleted":"0","num_feature":"55","num_nodes":"23","size_leaf_vector":"1"}},{"base_weights":[-0E0,-1.8044828E-1,6.776384E-3,-1.1816742E-1,-0E0,1.9016963E-1,-6.745541E-2,1.4104618E-1,-0E0,-2.4959482E-1,-0E0,4.0512163E-2,-1.1891007E-1,-0E0,-1.1185651E-1,1.969868E-1,-3.9864827E-2,-7.816846E-2,-0E0,7.392506E-2,-0E0,-5.173234E-2,-0E0],"categories":[],"categories_nodes":[],"categories_segments":[],"categories_sizes":[],"default_left":[0,0,0,0,0,0,0,0,0,0,0,0,0,0,0,0,0,0,0,0,0,0,0],"id":22,"left_children":[1,3,5,-1,-1,7,9,-1,11,13,15,-1,17,-1,-1,19,21,-1,-1,-1,-1,-1,-1],"loss_changes":[1.5414868E-1,3.7805218E-1,3.6133072E-1,0E0,0E0,5.467804E-1,3.009175E-1,0E0,1.0547584E-1,2.1624842E-1,1.6223563E-1,0E0,1.435842E-1,0E0,0E0,2.2362024E-2,5.543524E-2,0E0,0E0,0E0,0E0,0E0,0E0],"parents":[2147483647,0,0,1,1,2,2,5,5,6,6,8,8,9,9,10,10,12,12,15,15,16,16],"right_children":[2,4,6,-1,-1,8,10,-1,12,14,16,-1,18,-1,-1,20,22,-1,-1,-1,-1,-1,-1],"split_conditions":[3.0545E2,1.4429E2,1.3301E2,-1.1816742E-1,-0E0,9.3175865E1,2.7975E2,1.4104618E-1,3.8E-2,-8.377838E0,1.375E1,4.0512163E-2,2.6713E1,-0E0,-1.1185651E-1,1.5710579E1,4.6742E2,-7.816846E-2,-0E0,7.392506E-2,-0E0,-5.173234E-2,-0E0],"split_indices":[51,7,8,0,0,50,46,0,3,31,5,0,3,0,0,1,51,0,0,0,0,0,0],"split_type":[0,0,0,0,0,0,0,0,0,0,0,0,0,0,0,0,0,0,0,0,0,0,0],"sum_hessian":[2.1267212E1,3.7078936E0,1.7559319E1,2.4247317E0,1.2831618E0,7.6411486E0,9.91817E0,2.887373E0,4.7537756E0,4.627791E0,5.2903795E0,1.4363494E0,3.3174262E0,1.5503733E0,3.0774174E0,3.0481358E0,2.2422438E0,2.0140512E0,1.3033751E0,1.955226E0,1.0929099E0,1.0375284E0,1.2047153E0],"tree_param":{"num_deleted":"0","num_feature":"55","num_nodes":"23","size_leaf_vector":"1"}},{"base_weights":[-0E0,5.9203724E-3,-6.365221E-2,-1.0059671E-1,1.113479E-1,-2.2618769E-1,-0E0,2.713383E-1,-0E0,-1.04467325E-1,-0E0,4.7214162E-1,-0E0,-1.8738668E-1,4.91058E-2,-0E0,5.606864E-1,-3.8437083E-2,8.737085E-3,-1.13121115E-1,-0E0,-0E0,5.8345057E-2,-0E0,1.984409E-1],"categories":[],"categories_nodes":[],"categories_segments":[],"categories_sizes":[],"default_left":[0,0,0,0,1,0,0,0,0,0,0,0,1,0,0,0,0,0,0,0,0,0,0,0,0],"id":23,"left_children":[1,3,-1,5,7,9,-1,11,13,-1,-1,15,17,19,21,-1,23,-1,-1,-1,-1,-1,-1,-1,-1],"loss_changes":[1.355491E-1,2.3977731E-1,0E0,2.0791934E-1,4.0897477E-1,1.7867932E-1,0E0,5.530506E-1,1.557216E-1,0E0,0E0,1.4321935E-1,4.352618E-2,2.2664936E-1,9.315131E-2,0E0,1.6819835E-2,0E0,0E0,0E0,0E0,0E0,0E0,0E0,0E0],"parents":[2147483647,0,0,1,1,3,3,4,4,5,5,7,7,8,8,11,11,12,12,13,13,14,14,16,16],"right_children":[2,4,-1,6,8,10,-1,12,14,-1,-1,16,18,20,22,-1,24,-1,-1,-1,-1,-1,-1,-1,-1],"split_conditions":[2.8567E2,1.7E2,-6.365221E-2,2.97602E2,1.7426E2,2.8899E2,-0E0,8.2220334E-1,5.1403E2,-1.04467325E-1,-0E0,1.1254E2,1.3462976E2,-2.1533456E0,4.5398E1,-0E0,1.5454E2,-3.8437083E-2,8.737085E-3,-1.13121115E-1,-0E0,-0E0,5.8345057E-2,-0E0,1.984409E-1],"split_indices":[36,14,0,39,48,38,0,30,51,0,0,8,50,31,3,0,48,0,0,0,0,0,0,0,0],"split_type":[0,0,0,0,0,0,0,0,0,0,0,0,0,0,0,0,0,0,0,0,0,0,0,0,0],"sum_hessian":[2.0602367E1,1.8606623E1,1.995745E0,5.5932136E0,1.3013408E1,4.3681784E0,1.2250354E0,6.914732E0,6.098676E0,2.738406E0,1.6297723E0,4.0950127E0,2.819719E0,3.1646075E0,2.9340687E0,1.0265874E0,3.0684252E0,1.5333692E0,1.28635E0,1.6225841E0,1.5420234E0,1.2204934E0,1.7135754E0,1.1068637E0,1.9615614E0],"tree_param":{"num_deleted":"0","num_feature":"55","num_nodes":"25","size_leaf_vector":"1"}},{"base_weights":[-0E0,-9.6285224E-2,4.1370846E-2,-0E0,-3.0341035E-1,1.8451427E-1,-0E0,1.3961136E-1,-1.1536874E-2,-0E0,-1.3273965E-1,-0E0,2.7928153E-1,-1.18676305E-1,-0E0,-0E0,7.744417E-2,-0E0,3.7719667E-1,-0E0,-7.29184E-2,3.0730188E-2,-0E0,-0E0,1.350273E-1],"categories":[],"categories_nodes":[],"categories_segments":[],"categories_sizes":[],"default_left":[0,0,0,0,0,0,0,1,0,0,0,0,0,1,1,0,0,0,0,0,0,0,0,0,0],"id":24,"left_children":[1,3,5,7,9,11,13,15,-1,-1,-1,-1,17,19,21,-1,-1,-1,23,-1,-1,-1,-1,-1,-1],"loss_changes":[1.0825318E-1,3.5366836E-1,1.902157E-1,9.1025144E-2,1.6199884E-1,1.9079237E-1,5.8290374E-2,1.2053764E-1,0E0,0E0,0E0,0E0,1.8413341E-1,1.2617664E-1,3.071681E-2,0E0,0E0,0E0,3.0019164E-2,0E0,0E0,0E0,0E0,0E0,0E0],"parents":[2147483647,0,0,1,1,2,2,3,3,4,4,5,5,6,6,7,7,12,12,13,13,14,14,18,18],"right_children":[2,4,6,8,10,12,14,16,-1,-1,-1,-1,18,20,22,-1,-1,-1,24,-1,-1,-1,-1,-1,-1],"split_conditions":[1.9818E1,5.093E0,2.417E3,1.45275955E1,1.1685E2,3.146E0,2.7975E2,1.7508E2,-1.1536874E-2,-0E0,-1.3273965E-1,-0E0,1.145E2,1.6749E2,1.982759E2,-0E0,7.744417E-2,-0E0,3.0804E1,-0E0,-7.29184E-2,3.0730188E-2,-0E0,-0E0,1.350273E-1],"split_indices":[3,39,11,26,7,42,46,49,0,0,0,0,8,48,52,0,0,0,36,0,0,0,0,0,0],"split_type":[0,0,0,0,0,0,0,0,0,0,0,0,0,0,0,0,0,0,0,0,0,0,0,0,0],"sum_hessian":[2.0016203E1,8.335712E0,1.16804905E1,4.5537376E0,3.781975E0,5.2245784E0,6.455912E0,3.5153728E0,1.0383648E0,1.705918E0,2.076057E0,1.0614918E0,4.1630864E0,3.1387465E0,3.3171654E0,1.385897E0,2.1294758E0,1.0384324E0,3.124654E0,1.0163573E0,2.1223893E0,1.9274415E0,1.3897239E0,1.0796444E0,2.0450096E0],"tree_param":{"num_deleted":"0","num_feature":"55","num_nodes":"25","size_leaf_vector":"1"}},{"base_weights":[-0E0,-1.1421194E-1,1.6336957E-2,-0E0,-1.3498251E-1,2.0798793E-1,-9.284979E-3,4.5879852E-2,-0E0,-0E0,9.750982E-2,-1.5932466E-1,4.9283333E-2,-0E0,-3.2674244E-1,-0E0,6.9425575E-2,-0E0,2.1494584E-2,-1.1243245E-1,-0E0],"categories":[],"categories_nodes":[],"categories_segments":[],"categories_sizes":[],"default_left":[0,0,1,0,0,0,0,0,0,0,0,0,0,0,0,0,0,0,0,0,0],"id":25,"left_children":[1,3,5,7,-1,9,11,-1,-1,-1,-1,13,15,17,19,-1,-1,-1,-1,-1,-1],"loss_changes":[8.363449E-2,5.6950486E-1,2.3296337E-1,5.3251427E-2,0E0,1.8689239E-1,1.9033529E-1,0E0,0E0,0E0,0E0,3.0092362E-1,1.63818E-1,1.2499322E-2,8.800954E-3,0E0,0E0,0E0,0E0,0E0,0E0],"parents":[2147483647,0,0,1,1,2,2,3,3,5,5,6,6,11,11,12,12,13,13,14,14],"right_children":[2,4,6,8,-1,10,12,-1,-1,-1,-1,14,16,18,20,-1,-1,-1,-1,-1,-1],"split_conditions":[5.174E0,3.25E1,7.2950455E1,3.8E-2,-1.3498251E-1,1.56E2,4.5398E1,4.5879852E-2,-0E0,-0E0,9.750982E-2,2E0,4.6742E2,1.6E1,9.03647E2,-0E0,6.9425575E-2,-0E0,2.1494584E-2,-1.1243245E-1,-0E0],"split_indices":[3,0,53,3,0,14,3,0,0,0,0,45,51,44,41,0,0,0,0,0,0],"split_type":[0,0,0,0,0,0,0,0,0,0,0,0,0,0,0,0,0,0,0,0,0],"sum_hessian":[1.9539963E1,5.095537E0,1.4444425E1,2.8896828E0,2.2058547E0,4.458713E0,9.985712E0,1.2768259E0,1.6128569E0,1.4544941E0,3.0042188E0,6.0645776E0,3.9211345E0,2.5661647E0,3.4984128E0,1.6390477E0,2.2820868E0,1.1313224E0,1.4348423E0,2.4818993E0,1.0165135E0],"tree_param":{"num_deleted":"0","num_feature":"55","num_nodes":"21","size_leaf_vector":"1"}},{"base_weights":[-0E0,-0E0,-4.598986E-2,-4.9191456E-2,8.438661E-2,-0E0,-2.2008371E-1,2.3697011E-1,-0E0,-0E0,-1.0868839E-1,3.269331E-1,-0E0,4.3695003E-2,-1.695574E-1,4.1518605E-1,-0E0,-0E0,3.0996867E-2,-7.928969E-2,-0E0,-0E0,1.4331318E-1],"categories":[],"categories_nodes":[],"categories_segments":[],"categories_sizes":[],"default_left":[0,1,0,0,0,0,0,0,0,0,0,0,0,0,0,0,0,0,0,0,0,0,0],"id":26,"left_children":[1,3,-1,5,7,-1,9,11,13,-1,-1,15,-1,17,19,21,-1,-1,-1,-1,-1,-1,-1],"loss_changes":[6.591518E-2,1.06827736E-1,0E0,2.006968E-1,3.0203822E-1,0E0,1.955875E-1,2.4678704E-1,1.306331E-1,0E0,0E0,1.9087505E-1,0E0,1.6099082E-2,9.724514E-2,3.052342E-2,0E0,0E0,0E0,0E0,0E0,0E0,0E0],"parents":[2147483647,0,0,1,1,3,3,4,4,6,6,7,7,8,8,11,11,13,13,14,14,15,15],"right_children":[2,4,-1,6,8,-1,10,12,14,-1,-1,16,-1,18,20,22,-1,-1,-1,-1,-1,-1,-1],"split_conditions":[2.8567E2,1.9456E2,-4.598986E-2,6E2,1.525E1,-0E0,-3.5693455E0,2.073E3,1.3301E2,-0E0,-1.0868839E-1,1.8282E2,-0E0,1.0860568E2,5.3895E1,-3.2351277E0,-0E0,-0E0,3.0996867E-2,-7.928969E-2,-0E0,-0E0,1.4331318E-1],"split_indices":[36,46,0,25,5,0,31,12,8,0,0,8,0,53,3,31,0,0,0,0,0,0,0],"split_type":[0,0,0,0,0,0,0,0,0,0,0,0,0,0,0,0,0,0,0,0,0,0,0],"sum_hessian":[1.894372E1,1.7138906E1,1.8048127E0,5.266844E0,1.1872063E1,1.8102915E0,3.4565525E0,6.0109987E0,5.861064E0,1.3218808E0,2.1346717E0,4.9923E0,1.0186987E0,2.5532265E0,3.3078377E0,3.8228698E0,1.1694303E0,1.4097356E0,1.1434908E0,2.1650934E0,1.1427442E0,1.0460991E0,2.7767706E0],"tree_param":{"num_deleted":"0","num_feature":"55","num_nodes":"23","size_leaf_vector":"1"}},{"base_weights":[-0E0,-4.5023043E-2,7.4938886E-2,-0E0,-1.2873885E-1,6.379883E-2,-0E0,-0E0,1.4016469E-1,-3.1046754E-1,6.825154E-3,2.4912405E-1,-0E0,-3.8601702E-1,-0E0,1.8111107E-1,-0E0,-0E0,1.0165783E-1,-0E0,-1.3279961E-1,8.459816E-2,-0E0],"categories":[],"categories_nodes":[],"categories_segments":[],"categories_sizes":[],"default_left":[0,1,0,0,0,0,0,0,0,0,0,0,0,0,0,0,0,0,0,0,0,0,0],"id":27,"left_children":[1,3,5,7,9,-1,-1,-1,11,13,15,17,-1,19,-1,21,-1,-1,-1,-1,-1,-1,-1],"loss_changes":[5.7559043E-2,1.5417646E-1,1.1551069E-1,9.153663E-2,5.168339E-1,0E0,0E0,0E0,1.0999774E-1,2.1102E-1,1.2143879E-1,5.4688856E-2,0E0,9.125018E-2,0E0,5.9453987E-2,0E0,0E0,0E0,0E0,0E0,0E0,0E0],"parents":[2147483647,0,0,1,1,2,2,3,3,4,4,8,8,9,9,10,10,11,11,13,13,15,15],"right_children":[2,4,6,8,10,-1,-1,-1,12,14,16,18,-1,20,-1,22,-1,-1,-1,-1,-1,-1,-1],"split_conditions":[5.102E1,7.2950455E1,-7.893653E1,1.1507E2,1.8E3,6.379883E-2,-0E0,-0E0,9.865831E1,2.441E3,1.773888E1,2.38E2,-0E0,-2.45E1,-0E0,1.4675851E2,-0E0,-0E0,1.0165783E-1,-0E0,-1.3279961E-1,8.459816E-2,-0E0],"split_indices":[3,53,34,7,22,0,0,0,50,12,1,12,0,6,0,52,0,0,0,0,0,0,0],"split_type":[0,0,0,0,0,0,0,0,0,0,0,0,0,0,0,0,0,0,0,0,0,0,0],"sum_hessian":[1.8511522E1,1.5058548E1,3.4529746E0,4.7919984E0,1.026655E1,2.107053E0,1.3459216E0,1.1327304E0,3.6592681E0,6.2967114E0,3.9698386E0,2.2472658E0,1.4120023E0,5.1362057E0,1.1605057E0,2.7093222E0,1.2605163E0,1.0158557E0,1.2314103E0,1.004348E0,4.1318574E0,1.2777045E0,1.4316177E0],"tree_param":{"num_deleted":"0","num_feature":"55","num_nodes":"23","size_leaf_vector":"1"}},{"base_weights":[-0E0,-5.557348E-2,5.6797065E-2,-2.1933256E-1,-0E0,-0E0,2.0862305E-1,-0E0,-1.2206658E-1,1.4742658E-1,-6.0634054E-2,-0E0,-1.3318299E-1,-0E0,8.982032E-2,7.946032E-2,-0E0,-6.1140064E-2,-0E0,-0E0,-5.1929366E-2],"categories":[],"categories_nodes":[],"categories_segments":[],"categories_sizes":[],"default_left":[0,0,0,0,1,0,0,0,0,0,0,0,0,0,0,0,0,0,0,0,0],"id":28,"left_children":[1,3,5,7,9,11,13,-1,-1,15,17,-1,19,-1,-1,-1,-1,-1,-1,-1,-1],"loss_changes":[6.2965594E-2,1.9213815E-1,1.6152798E-1,2.5028598E-1,1.1605561E-1,5.4865878E-2,9.782061E-2,0E0,0E0,1.4737976E-1,1.1952968E-1,0E0,7.841412E-3,0E0,0E0,0E0,0E0,0E0,0E0,0E0,0E0],"parents":[2147483647,0,0,1,1,2,2,3,3,4,4,5,5,6,6,9,9,10,10,12,12],"right_children":[2,4,6,8,10,12,14,-1,-1,16,18,-1,20,-1,-1,-1,-1,-1,-1,-1,-1],"split_conditions":[6.3E1,1.9356E1,-1.6810394E2,9E0,9.4034225E1,-3.635196E2,1.0860568E2,-0E0,-1.2206658E-1,7.94292E1,5.7908E2,-0E0,3.05E2,-0E0,8.982032E-2,7.946032E-2,-0E0,-6.1140064E-2,-0E0,-0E0,-5.1929366E-2],"split_indices":[28,3,34,44,53,34,53,0,0,1,51,0,14,0,0,0,0,0,0,0,0],"split_type":[0,0,0,0,0,0,0,0,0,0,0,0,0,0,0,0,0,0,0,0,0],"sum_hessian":[1.803629E1,1.1143012E1,6.8932776E0,3.7735648E0,7.3694468E0,3.5969636E0,3.2963138E0,1.874726E0,1.8988386E0,3.5192418E0,3.8502052E0,1.503786E0,2.0931778E0,1.1190666E0,2.1772473E0,2.500876E0,1.0183657E0,2.307162E0,1.5430429E0,1.0003451E0,1.0928327E0],"tree_param":{"num_deleted":"0","num_feature":"55","num_nodes":"21","size_leaf_vector":"1"}},{"base_weights":[-0E0,-6.594087E-2,2.8138848E-2,-2.3282725E-1,-0E0,1.1641852E-1,-1.338151E-2,-0E0,-9.7610824E-2,1.1087841E-1,-0E0,2.0751758E-1,-0E0,-0E0,5.5307586E-2,3.0604076E-1,-0E0,-0E0,-4.540034E-3,1.1089266E-1,-0E0],"categories":[],"categories_nodes":[],"categories_segments":[],"categories_sizes":[],"default_left":[0,0,1,0,0,0,0,0,0,0,0,0,0,0,0,0,0,0,0,0,0],"id":29,"left_children":[1,3,5,7,9,11,-1,-1,-1,13,-1,15,17,-1,-1,19,-1,-1,-1,-1,-1],"loss_changes":[4.4080503E-2,1.9217557E-1,1.3567491E-1,9.684312E-2,4.7173418E-2,1.802852E-1,0E0,0E0,0E0,4.3468073E-2,0E0,1.7381683E-1,5.9721293E-4,0E0,0E0,6.969026E-2,0E0,0E0,0E0,0E0,0E0],"parents":[2147483647,0,0,1,1,2,2,3,3,4,4,5,5,9,9,11,11,12,12,15,15],"right_children":[2,4,6,8,10,12,-1,-1,-1,14,-1,16,18,-1,-1,20,-1,-1,-1,-1,-1],"split_conditions":[1.9818E1,5E1,3.504E2,-2.33615E0,1.192E2,5.28E2,-1.338151E-2,-0E0,-9.7610824E-2,1.4E2,-0E0,4E0,1.7203E2,-0E0,5.5307586E-2,1.859E2,-0E0,-0E0,-4.540034E-3,1.1089266E-1,-0E0],"split_indices":[3,28,48,31,8,9,0,0,0,47,0,45,46,0,0,8,0,0,0,0,0],"split_type":[0,0,0,0,0,0,0,0,0,0,0,0,0,0,0,0,0,0,0,0,0],"sum_hessian":[1.7612667E1,7.028136E0,1.0584531E1,3.1890733E0,3.8390622E0,9.360833E0,1.2236979E0,1.1292715E0,2.059802E0,2.837103E0,1.0019593E0,6.44733E0,2.9135034E0,1.1702433E0,1.6668595E0,4.2799506E0,2.1673791E0,1.3058282E0,1.6076753E0,3.1293526E0,1.150598E0],"tree_param":{"num_deleted":"0","num_feature":"55","num_nodes":"21","size_leaf_vector":"1"}},{"base_weights":[-0E0,-1.03362344E-1,-0E0,-7.8119084E-2,-0E0,1.1206068E-1,-7.716297E-2,-0E0,2.1735075E-1,-0E0,-7.3182456E-2,1.8958644E-3,-4.2533416E-2,-0E0,3.392405E-1,1.202898E-1,-0E0],"categories":[],"categories_nodes":[],"categories_segments":[],"categories_sizes":[],"default_left":[0,0,0,0,0,0,0,0,0,0,0,0,0,0,0,0,0],"id":30,"left_children":[1,3,5,-1,-1,7,9,11,13,-1,-1,-1,-1,-1,15,-1,-1],"loss_changes":[4.008189E-2,1.4628366E-1,1.6953133E-1,0E0,0E0,2.1716677E-1,1.9448216E-1,6.1236512E-2,3.2392865E-1,0E0,0E0,0E0,0E0,0E0,6.1896026E-2,0E0,0E0],"parents":[2147483647,0,0,1,1,2,2,5,5,6,6,7,7,8,8,14,14],"right_children":[2,4,6,-1,-1,8,10,12,14,-1,-1,-1,-1,-1,16,-1,-1],"split_conditions":[3.0545E2,1.4429E2,3.282E3,-7.8119084E-2,-0E0,1.786E2,3.46E1,-1.725E1,5.79E1,-0E0,-7.3182456E-2,1.8958644E-3,-4.2533416E-2,-0E0,3.0093E2,1.202898E-1,-0E0],"split_indices":[51,7,20,0,0,38,37,6,37,0,0,0,0,0,46,0,0],"split_type":[0,0,0,0,0,0,0,0,0,0,0,0,0,0,0,0,0],"sum_hessian":[1.7334785E1,2.7516594E0,1.4583126E1,1.7484884E0,1.0031711E0,9.720626E0,4.8625007E0,3.273928E0,6.4466977E0,2.0077195E0,2.8547812E0,1.2319236E0,2.0420046E0,1.5751604E0,4.871537E0,3.5879185E0,1.283619E0],"tree_param":{"num_deleted":"0","num_feature":"55","num_nodes":"17","size_leaf_vector":"1"}},{"base_weights":[-0E0,-4.3936E-2,4.224697E-2,-0E0,-1.3813864E-1,-0E0,5.3597648E-2,-0E0,1.2125454E-1,-2.7007034E-1,-0E0,5.9353564E-2,-0E0,-3.505323E-1,-0E0,5.29477E-2,-0E0,-0E0,-1.2005366E-1,4.850896E-2,-0E0],"categories":[],"categories_nodes":[],"categories_segments":[],"categories_sizes":[],"default_left":[0,1,0,0,0,0,0,0,0,0,0,0,0,0,0,0,0,0,0,0,0],"id":31,"left_children":[1,3,5,7,9,-1,-1,-1,11,13,15,-1,-1,17,-1,19,-1,-1,-1,-1,-1],"loss_changes":[3.602519E-2,1.5400717E-1,8.900483E-2,6.932285E-2,2.5588256E-1,0E0,0E0,0E0,7.189032E-2,1.7255026E-1,9.3113175E-3,0E0,0E0,2.3963809E-2,0E0,4.7267944E-2,0E0,0E0,0E0,0E0,0E0],"parents":[2147483647,0,0,1,1,2,2,3,3,4,4,8,8,9,9,10,10,13,13,15,15],"right_children":[2,4,6,8,10,-1,-1,-1,12,14,16,-1,-1,18,-1,20,-1,-1,-1,-1,-1],"split_conditions":[4.5398E1,7.479668E1,4.6742E2,1.1507E2,1.8E3,-0E0,5.3597648E-2,-0E0,1.4762E2,2.441E3,1.773888E1,5.9353564E-2,-0E0,2.2517E1,-0E0,1.4675851E2,-0E0,-0E0,-1.2005366E-1,4.850896E-2,-0E0],"split_indices":[3,53,51,7,22,0,0,0,7,12,1,0,0,37,0,52,0,0,0,0,0],"split_type":[0,0,0,0,0,0,0,0,0,0,0,0,0,0,0,0,0,0,0,0,0],"sum_hessian":[1.7019913E1,1.3277613E1,3.742299E0,4.7625947E0,8.515018E0,1.6886631E0,2.0536358E0,1.047609E0,3.7149858E0,4.9975715E0,3.5174465E0,2.6076484E0,1.1073375E0,3.9644887E0,1.0330826E0,2.3213677E0,1.1960789E0,1.0057487E0,2.9587402E0,1.1639934E0,1.1573744E0],"tree_param":{"num_deleted":"0","num_feature":"55","num_nodes":"21","size_leaf_vector":"1"}},{"base_weights":[-0E0,-0E0,-3.4283817E-2,-2.9961046E-2,7.171058E-2,-1.1981481E-1,-0E0,1.6685088E-1,-0E0,-4.841118E-2,-0E0,2.939023E-1,-0E0,-6.505588E-2,-0E0,-0E0,1.19626634E-1,-0E0,-1.2815547E-2],"categories":[],"categories_nodes":[],"categories_segments":[],"categories_sizes":[],"default_left":[0,0,0,0,1,0,0,0,0,0,0,0,0,0,0,0,0,0,0],"id":32,"left_children":[1,3,-1,5,7,9,-1,11,13,-1,-1,15,17,-1,-1,-1,-1,-1,-1],"loss_changes":[3.3742778E-2,6.471221E-2,0E0,5.9218366E-2,1.7366946E-1,2.3950651E-2,0E0,2.7466482E-1,1.12154044E-1,0E0,0E0,2.4730372E-1,4.496359E-3,0E0,0E0,0E0,0E0,0E0,0E0],"parents":[2147483647,0,0,1,1,3,3,4,4,5,5,7,7,8,8,11,11,12,12],"right_children":[2,4,-1,6,8,10,-1,12,14,-1,-1,16,18,-1,-1,-1,-1,-1,-1],"split_conditions":[2.8567E2,1.7E2,-3.4283817E-2,4.8240025E1,2.2221E2,3.6399E1,-0E0,1.1933222E0,5.1403E2,-4.841118E-2,-0E0,1.1254E2,2.5E-2,-6.505588E-2,-0E0,-0E0,1.19626634E-1,-0E0,-1.2815547E-2],"split_indices":[36,14,0,26,48,3,0,30,51,0,0,8,3,0,0,0,0,0,0],"split_type":[0,0,0,0,0,0,0,0,0,0,0,0,0,0,0,0,0,0,0],"sum_hessian":[1.6680578E1,1.5096861E1,1.5837178E0,4.467189E0,1.0629672E1,3.4669755E0,1.0002131E0,7.386514E0,3.2431579E0,2.3823018E0,1.0846735E0,4.882695E0,2.5038188E0,1.3849784E0,1.8581793E0,1.1316607E0,3.7510347E0,1.0398841E0,1.4639348E0],"tree_param":{"num_deleted":"0","num_feature":"55","num_nodes":"19","size_leaf_vector":"1"}},{"base_weights":[-0E0,-5.9737615E-2,1.0911455E-2,-1.5063845E-1,-0E0,1.2090519E-1,-0E0,-0E0,-2.9880115E-1,1.0679397E-2,-0E0,-0E0,2.7131805E-1,-1.006615E-3,1.4914951E-2,-1.1201431E-1,-0E0,-0E0,9.655602E-2],"categories":[],"categories_nodes":[],"categories_segments":[],"categories_sizes":[],"default_left":[0,1,0,1,0,0,0,0,0,0,0,0,0,0,0,0,0,0,0],"id":33,"left_children":[1,3,5,7,9,11,-1,13,15,-1,-1,-1,17,-1,-1,-1,-1,-1,-1],"loss_changes":[4.002701E-2,1.3237403E-1,8.35117E-2,2.1063796E-1,4.127332E-3,1.9517928E-1,0E0,7.38779E-3,5.4199994E-2,0E0,0E0,0E0,8.239448E-3,0E0,0E0,0E0,0E0,0E0,0E0],"parents":[2147483647,0,0,1,1,2,2,3,3,4,4,5,5,7,7,8,8,12,12],"right_children":[2,4,6,8,10,12,-1,14,16,-1,-1,-1,18,-1,-1,-1,-1,-1,-1],"split_conditions":[6.3E1,2.7975E2,6.15E2,1.3210922E2,2.3461917E2,1.082E2,-0E0,1.5884E2,1.8E1,1.0679397E-2,-0E0,-0E0,1.606741E2,-1.006615E-3,1.4914951E-2,-1.1201431E-1,-0E0,-0E0,9.655602E-2],"split_indices":[28,46,14,52,52,37,0,47,44,0,0,0,52,0,0,0,0,0,0],"split_type":[0,0,0,0,0,0,0,0,0,0,0,0,0,0,0,0,0,0,0],"sum_hessian":[1.6395784E1,9.96871E0,6.427074E0,6.5584884E0,3.4102213E0,4.773402E0,1.6536719E0,3.278184E0,3.2803047E0,2.2570057E0,1.1532156E0,1.9755214E0,2.797881E0,1.2997451E0,1.9784387E0,2.1299338E0,1.1503707E0,1.0194677E0,1.778413E0],"tree_param":{"num_deleted":"0","num_feature":"55","num_nodes":"19","size_leaf_vector":"1"}},{"base_weights":[-0E0,-6.9377795E-2,3.8283647E-3,-0E0,-2.1659076E-1,9.63434E-2,-0E0,-0E0,2.497993E-2,-1.0494984E-1,-0E0,-0E0,1.5699954E-1,-0E0,-2.1794701E-2,-0E0,9.088632E-2],"categories":[],"categories_nodes":[],"categories_segments":[],"categories_sizes":[],"default_left":[0,0,1,0,0,0,0,0,0,0,0,0,0,0,0,0,0],"id":34,"left_children":[1,3,5,7,9,11,-1,13,-1,-1,-1,-1,15,-1,-1,-1,-1],"loss_changes":[4.1988138E-2,1.6613658E-1,7.741325E-2,1.7231567E-2,1.7511624E-1,9.4538E-2,0E0,1.4418323E-2,0E0,0E0,0E0,0E0,1.1595033E-1,0E0,0E0,0E0,0E0],"parents":[2147483647,0,0,1,1,2,2,3,3,4,4,5,5,7,7,12,12],"right_children":[2,4,6,8,10,12,-1,14,-1,-1,-1,-1,16,-1,-1,-1,-1],"split_conditions":[2.6713E1,5.093E0,3.504E2,8.51E2,5.751855E1,1.3025833E2,-0E0,3.69E-1,2.497993E-2,-1.0494984E-1,-0E0,-0E0,5.102E1,-0E0,-2.1794701E-2,-0E0,9.088632E-2],"split_indices":[3,39,48,14,1,49,0,3,0,0,0,0,3,0,0,0,0],"split_type":[0,0,0,0,0,0,0,0,0,0,0,0,0,0,0,0,0],"sum_hessian":[1.6149479E1,7.6946073E0,8.454872E0,4.2610273E0,3.43358E0,7.3550315E0,1.0998408E0,2.7756927E0,1.4853346E0,2.130357E0,1.3032229E0,1.3733757E0,5.9816556E0,1.0438519E0,1.731841E0,3.8433259E0,2.1383297E0],"tree_param":{"num_deleted":"0","num_feature":"55","num_nodes":"17","size_leaf_vector":"1"}},{"base_weights":[-0E0,1.06510725E-2,-5.203215E-2,-0E0,1.4862911E-1,-0E0,-1.1758033E-1,-0E0,7.937242E-2,-2.0015138E-1,-0E0,-0E0,-3.2768276E-1,-0E0,-1.2362748E-1],"categories":[],"categories_nodes":[],"categories_segments":[],"categories_sizes":[],"default_left":[0,0,0,0,0,0,1,0,0,1,0,0,0,0,0],"id":35,"left_children":[1,3,5,-1,7,-1,9,-1,-1,11,-1,-1,13,-1,-1],"loss_changes":[3.2304436E-2,1.071606E-1,1.01913646E-1,0E0,1.5889375E-1,0E0,1.6929018E-1,0E0,0E0,2.5674987E-1,0E0,0E0,8.048087E-2,0E0,0E0],"parents":[2147483647,0,0,1,1,2,2,4,4,6,6,9,9,12,12],"right_children":[2,4,6,-1,8,-1,10,-1,-1,12,-1,-1,14,-1,-1],"split_conditions":[8.22E1,3.0093E2,-1.8782028E1,-0E0,2.38E2,-0E0,1.627701E2,-0E0,7.937242E-2,1.3115375E2,-0E0,-0E0,9.329572E1,-0E0,-1.2362748E-1],"split_indices":[36,51,27,0,12,0,50,0,0,52,0,0,53,0,0],"split_type":[0,0,0,0,0,0,0,0,0,0,0,0,0,0,0],"sum_hessian":[1.5831726E1,5.1576004E0,1.0674126E1,1.2750214E0,3.8825788E0,2.0163884E0,8.657737E0,1.0718117E0,2.8107672E0,6.558796E0,2.098941E0,2.3475795E0,4.2112164E0,1.4422706E0,2.7689462E0],"tree_param":{"num_deleted":"0","num_feature":"55","num_nodes":"15","size_leaf_vector":"1"}},{"base_weights":[-0E0,-6.8485714E-2,-0E0,-0E0,-5.638429E-2,1.24259E-1,-1.9096289E-2,2.251631E-1,-0E0,-0E0,-1.5137069E-1,8.453875E-2,-0E0,-0E0,-6.9278166E-2],"categories":[],"categories_nodes":[],"categories_segments":[],"categories_sizes":[],"default_left":[1,0,0,0,0,0,0,0,0,0,0,0,0,0,0],"id":36,"left_children":[1,3,5,-1,-1,7,9,11,-1,-1,13,-1,-1,-1,-1],"loss_changes":[2.645824E-2,1.1268542E-1,1.0763386E-1,0E0,0E0,1.15133904E-1,9.603192E-2,3.2659188E-2,0E0,0E0,5.1847942E-2,0E0,0E0,0E0,0E0],"parents":[2147483647,0,0,1,1,2,2,5,5,6,6,7,7,10,10],"right_children":[2,4,6,-1,-1,8,10,12,-1,-1,14,-1,-1,-1,-1],"split_conditions":[1.9456E2,-1.549429E2,2.736E3,-0E0,-5.638429E-2,1.45275955E1,3.46E1,2.5332E2,-0E0,-0E0,2E0,8.453875E-2,-0E0,-0E0,-6.9278166E-2],"split_indices":[46,34,11,0,0,26,37,46,0,0,45,0,0,0,0],"split_type":[0,0,0,0,0,0,0,0,0,0,0,0,0,0,0],"sum_hessian":[1.5553374E1,4.6410637E0,1.0912311E1,1.7020295E0,2.939034E0,5.827253E0,5.085058E0,3.350209E0,2.4770439E0,1.797074E0,3.2879841E0,2.18866E0,1.1615492E0,1.4733158E0,1.8146683E0],"tree_param":{"num_deleted":"0","num_feature":"55","num_nodes":"15","size_leaf_vector":"1"}},{"base_weights":[-0E0,-4.7805306E-2,6.921801E-3,-0E0,-1.8320653E-1,9.4490685E-2,-0E0,-0E0,2.0926125E-2,-8.8665E-2,-0E0,-0E0,1.5383157E-1,-0E0,-1.464213E-2,-0E0,2.1492115E-1,8.425305E-2,-0E0],"categories":[],"categories_nodes":[],"categories_segments":[],"categories_sizes":[],"default_left":[0,0,1,0,0,0,0,0,0,0,0,0,0,0,0,0,1,0,0],"id":37,"left_children":[1,3,5,7,9,11,-1,13,-1,-1,-1,-1,15,-1,-1,-1,17,-1,-1],"loss_changes":[1.9334177E-2,1.210405E-1,7.1356595E-2,1.1836326E-2,1.14252195E-1,8.68416E-2,0E0,6.352957E-3,0E0,0E0,0E0,0E0,7.057829E-2,0E0,0E0,0E0,7.894561E-2,0E0,0E0],"parents":[2147483647,0,0,1,1,2,2,3,3,4,4,5,5,7,7,12,12,16,16],"right_children":[2,4,6,8,10,12,-1,14,-1,-1,-1,-1,16,-1,-1,-1,18,-1,-1],"split_conditions":[2.6713E1,5.093E0,3.504E2,8.51E2,5.751855E1,1.3025833E2,-0E0,3.75E-1,2.0926125E-2,-8.8665E-2,-0E0,-0E0,9.196437E0,-0E0,-1.464213E-2,-0E0,1.1741201E2,8.425305E-2,-0E0],"split_indices":[3,39,48,14,1,49,0,3,0,0,0,0,1,0,0,0,53,0,0],"split_type":[0,0,0,0,0,0,0,0,0,0,0,0,0,0,0,0,0,0,0],"sum_hessian":[1.534773E1,7.2697444E0,8.077985E0,4.100483E0,3.1692615E0,7.0407243E0,1.037261E0,2.667821E0,1.432662E0,1.9100459E0,1.2592156E0,1.3372045E0,5.70352E0,1.000901E0,1.66692E0,1.7412769E0,3.9622428E0,2.9069998E0,1.055243E0],"tree_param":{"num_deleted":"0","num_feature":"55","num_nodes":"19","size_leaf_vector":"1"}},{"base_weights":[-0E0,-5.1546965E-2,-0E0,-0E0,-1.5751067E-1,-0E0,8.675325E-2,-2.4154758E-1,-0E0,-0E0,-7.619402E-2,6.36428E-2,-0E0,-9.581739E-2,-0E0,-0E0,-6.4029485E-2],"categories":[],"categories_nodes":[],"categories_segments":[],"categories_sizes":[],"default_left":[0,0,0,0,0,0,0,0,0,0,0,0,0,0,0,0,0],"id":38,"left_children":[1,3,5,-1,7,9,11,13,-1,-1,15,-1,-1,-1,-1,-1,-1],"loss_changes":[1.9248037E-2,1.2581427E-1,3.5017613E-2,0E0,1.3466789E-1,2.3763938E-2,1.2684406E-1,8.9105666E-2,0E0,0E0,9.726316E-2,0E0,0E0,0E0,0E0,0E0,0E0],"parents":[2147483647,0,0,1,1,2,2,4,4,5,5,6,6,7,7,10,10],"right_children":[2,4,6,-1,8,10,12,14,-1,-1,16,-1,-1,-1,-1,-1,-1],"split_conditions":[1.082E2,-2.2654236E1,6.4E1,-0E0,8.75E1,-1.725E1,6.15E2,4.7258E1,-0E0,-0E0,1.3115375E2,6.36428E-2,-0E0,-9.581739E-2,-0E0,-0E0,-6.4029485E-2],"split_indices":[37,27,28,0,5,6,14,3,0,0,52,0,0,0,0,0,0],"split_type":[0,0,0,0,0,0,0,0,0,0,0,0,0,0,0,0,0],"sum_hessian":[1.5091109E1,6.2440305E0,8.847079E0,1.3970091E0,4.8470216E0,5.194272E0,3.652807E0,3.794397E0,1.0526242E0,2.1009433E0,3.093329E0,2.5965652E0,1.0562416E0,2.6156554E0,1.1787417E0,1.4364904E0,1.6568384E0],"tree_param":{"num_deleted":"0","num_feature":"55","num_nodes":"17","size_leaf_vector":"1"}},{"base_weights":[-0E0,1.1874691E-2,-2.0315684E-2,2.585494E-2,-0E0,-9.4505556E-2,4.280337E-3,-0E0,-1.9090293E-1,-0E0,5.523835E-2,-0E0,-1.1277325E-1,-0E0,4.2446997E-2,1.4332285E-2,-0E0],"categories":[],"categories_nodes":[],"categories_segments":[],"categories_sizes":[],"default_left":[0,0,0,0,0,0,0,0,1,0,0,0,0,0,0,0,0],"id":39,"left_children":[1,3,5,-1,-1,7,-1,9,11,-1,13,15,-1,-1,-1,-1,-1],"loss_changes":[6.0282284E-3,1.6719084E-2,9.8534614E-2,0E0,0E0,1.5961587E-1,0E0,1.230792E-2,3.2042983E-1,0E0,4.3496255E-2,6.0892827E-3,0E0,0E0,0E0,0E0,0E0],"parents":[2147483647,0,0,1,1,2,2,5,5,7,7,8,8,10,10,11,11],"right_children":[2,4,6,-1,-1,8,-1,10,12,-1,14,16,-1,-1,-1,-1,-1],"split_conditions":[-3.8E1,3.76E2,5.3895E1,2.585494E-2,-0E0,7.5E2,4.280337E-3,2.6097E2,1.3115375E2,-0E0,-1.6471765E2,1.3E1,-1.1277325E-1,-0E0,4.2446997E-2,1.4332285E-2,-0E0],"split_indices":[6,14,3,0,0,24,0,38,52,0,34,44,0,0,0,0,0],"split_type":[0,0,0,0,0,0,0,0,0,0,0,0,0,0,0,0,0],"sum_hessian":[1.4826428E1,2.372952E0,1.2453477E1,1.3149947E0,1.0579573E0,1.0588916E1,1.8645607E0,4.3690586E0,6.219857E0,1.3353617E0,3.033697E0,3.0902548E0,3.1296027E0,1.2461944E0,1.7875025E0,1.6679509E0,1.4223039E0],"tree_param":{"num_deleted":"0","num_feature":"55","num_nodes":"17","size_leaf_vector":"1"}},{"base_weights":[-0E0,-2.9846529E-2,1.0968867E-2,-4.5402624E-2,-0E0,1.1740577E-1,-0E0,5.9431665E-2,-0E0,-0E0,-9.361808E-2,-6.879427E-2,-0E0],"categories":[],"categories_nodes":[],"categories_segments":[],"categories_sizes":[],"default_left":[1,0,0,0,0,0,0,0,0,0,0,0,0],"id":40,"left_children":[1,3,5,-1,-1,7,9,-1,-1,-1,11,-1,-1],"loss_changes":[6.0741864E-3,6.900393E-2,8.457149E-2,0E0,0E0,8.4405266E-2,3.3562936E-2,0E0,0E0,0E0,1.0324349E-1,0E0,0E0],"parents":[2147483647,0,0,1,1,2,2,5,5,6,6,10,10],"right_children":[2,4,6,-1,-1,8,10,-1,-1,-1,12,-1,-1],"split_conditions":[1.9456E2,1.1475458E1,1.525E1,-4.5402624E-2,-0E0,2.9657E2,1.3301E2,5.9431665E-2,-0E0,-0E0,4.6742E2,-6.879427E-2,-0E0],"split_indices":[46,26,5,0,0,48,8,0,0,0,51,0,0],"split_type":[0,0,0,0,0,0,0,0,0,0,0,0,0],"sum_hessian":[1.4559465E1,4.297626E0,1.026184E1,2.2187293E0,2.0788968E0,5.233731E0,5.028109E0,3.3401258E0,1.8936052E0,2.198623E0,2.829486E0,1.6016239E0,1.2278619E0],"tree_param":{"num_deleted":"0","num_feature":"55","num_nodes":"13","size_leaf_vector":"1"}},{"base_weights":[-0E0,-1.6430818E-2,1.2048721E-2,-1.0829001E-1,-0E0,8.179453E-2,-0E0,-0E0,-7.68995E-2,1.8543701E-1,-0E0,-0E0,8.438054E-2],"categories":[],"categories_nodes":[],"categories_segments":[],"categories_sizes":[],"default_left":[0,0,1,0,0,0,0,0,0,0,0,0,0],"id":41,"left_children":[1,3,5,7,-1,9,-1,-1,-1,11,-1,-1,-1],"loss_changes":[3.354508E-3,6.7105934E-2,4.895982E-2,1.452178E-1,0E0,1.3785115E-1,0E0,0E0,0E0,1.6257507E-1,0E0,0E0,0E0],"parents":[2147483647,0,0,1,1,2,2,3,3,5,5,9,9],"right_children":[2,4,6,8,-1,10,-1,-1,-1,12,-1,-1,-1],"split_conditions":[2.6713E1,3.5795895E1,1.00693E3,-7.82E-1,-0E0,5.83E2,-0E0,-0E0,-7.68995E-2,7.263745E1,-0E0,-0E0,8.438054E-2],"split_indices":[3,34,54,4,0,14,0,0,0,50,0,0,0],"split_type":[0,0,0,0,0,0,0,0,0,0,0,0,0],"sum_hessian":[1.4387271E1,6.8168244E0,7.570447E0,4.9024363E0,1.914388E0,6.503949E0,1.0664979E0,2.6388934E0,2.263543E0,4.468804E0,2.035145E0,1.036727E0,3.4320772E0],"tree_param":{"num_deleted":"0","num_feature":"55","num_nodes":"13","size_leaf_vector":"1"}},{"base_weights":[-0E0,-2.8035924E-2,-0E0,-1.2632559E-1,-0E0,-0E0,1.1323192E-1,-6.2283248E-2,-0E0,-3.8786475E-2,-0E0,6.556692E-2,-0E0,6.2051495E-3,-0E0],"categories":[],"categories_nodes":[],"categories_segments":[],"categories_sizes":[],"default_left":[0,0,0,0,0,0,0,0,0,0,0,0,0,0,0],"id":42,"left_children":[1,3,5,7,-1,9,11,-1,-1,-1,13,-1,-1,-1,-1],"loss_changes":[3.9226944E-3,5.895874E-2,8.649856E-2,6.287486E-2,0E0,5.325268E-2,1.1084753E-1,0E0,0E0,0E0,9.339714E-4,0E0,0E0,0E0,0E0],"parents":[2147483647,0,0,1,1,2,2,3,3,5,5,6,6,10,10],"right_children":[2,4,6,8,-1,10,12,-1,-1,-1,14,-1,-1,-1,-1],"split_conditions":[1.5557959E2,2.526E3,1.2E1,2.374E2,-0E0,2.0877E2,2.4815E2,-6.2283248E-2,-0E0,-3.8786475E-2,1.0011E1,6.556692E-2,-0E0,6.2051495E-3,-0E0],"split_indices":[49,17,44,48,0,36,46,0,0,0,39,0,0,0,0],"split_type":[0,0,0,0,0,0,0,0,0,0,0,0,0,0,0],"sum_hessian":[1.4166997E1,3.990623E0,1.0176374E1,2.940395E0,1.0502279E0,4.42999E0,5.746384E0,1.9176269E0,1.0227683E0,2.185836E0,2.2441537E0,3.1314409E0,2.6149433E0,1.1830901E0,1.0610636E0],"tree_param":{"num_deleted":"0","num_feature":"55","num_nodes":"15","size_leaf_vector":"1"}},{"base_weights":[-0E0,-2.3339054E-2,-0E0,-9.776269E-2,-0E0,7.499653E-2,-7.468077E-4,-4.309749E-2,-0E0,-0E0,1.430351E-1,2.0996922E-1,-0E0,-0E0,8.930087E-2],"categories":[],"categories_nodes":[],"categories_segments":[],"categories_sizes":[],"default_left":[0,0,0,0,0,1,0,0,0,0,1,0,0,0,0],"id":43,"left_children":[1,3,5,7,-1,9,-1,-1,-1,-1,11,13,-1,-1,-1],"loss_changes":[2.6081495E-3,3.1205244E-2,5.605495E-2,1.8129416E-2,0E0,1.073228E-1,0E0,0E0,0E0,0E0,1.2459968E-1,1.2686247E-1,0E0,0E0,0E0],"parents":[2147483647,0,0,1,1,2,2,3,3,5,5,10,10,11,11],"right_children":[2,4,6,8,-1,10,-1,-1,-1,-1,12,14,-1,-1,-1],"split_conditions":[1.7E2,1.1933222E0,2.8567E2,4.597608E1,-0E0,1.565525E2,-7.468077E-4,-4.309749E-2,-0E0,-0E0,1.982759E2,2.6097E2,-0E0,-0E0,8.930087E-2],"split_indices":[14,30,36,1,0,49,0,0,0,0,52,38,0,0,0],"split_type":[0,0,0,0,0,0,0,0,0,0,0,0,0,0,0],"sum_hessian":[1.4017185E1,3.788131E0,1.0229054E1,2.537875E0,1.250256E0,8.96375E0,1.2653039E0,1.5168889E0,1.0209862E0,1.978835E0,6.9849153E0,5.531697E0,1.4532185E0,1.8500688E0,3.681628E0],"tree_param":{"num_deleted":"0","num_feature":"55","num_nodes":"15","size_leaf_vector":"1"}}]},"name":"gbtree"},"learner_model_param":{"base_score":"1.780822E-2","boost_from_average":"1","num_class":"0","num_feature":"55","num_target":"1"},"objective":{"name":"binary:logistic","reg_loss_param":{"scale_pos_weight":"1"}}},"version":[3,0,0]}